<?xml version="1.0"?>
<opencv_storage>
<my_boost_tree type_id="opencv-ml-boost-tree">
  <boosting_type>RealAdaboost</boosting_type>
  <splitting_criteria>Gini</splitting_criteria>
  <ntrees>29</ntrees>
  <weight_trimming_rate>9.4999999999999996e-001</weight_trimming_rate>
  <is_classifier>1</is_classifier>
  <var_all>65</var_all>
  <var_count>65</var_count>
  <ord_var_count>64</ord_var_count>
  <cat_var_count>1</cat_var_count>
  <training_params>
    <use_surrogates>1</use_surrogates>
    <max_categories>10</max_categories>
    <max_depth>5</max_depth>
    <min_sample_count>10</min_sample_count>
    <cross_validation_folds>0</cross_validation_folds>
    <priors type_id="opencv-matrix">
      <rows>1</rows>
      <cols>2</cols>
      <dt>d</dt>
      <data>
        1. 1.</data></priors></training_params>
  <var_type>
    0 0 0 0 0 0 0 0 0 0 0 0 0 0 0 0 0 0 0 0 0 0 0 0 0 0 0 0 0 0 0 0 0 0
    0 0 0 0 0 0 0 0 0 0 0 0 0 0 0 0 0 0 0 0 0 0 0 0 0 0 0 0 0 0 1</var_type>
  <cat_count type_id="opencv-matrix">
    <rows>1</rows>
    <cols>2</cols>
    <dt>i</dt>
    <data>
      3 2</data></cat_count>
  <cat_map type_id="opencv-matrix">
    <rows>1</rows>
    <cols>5</cols>
    <dt>i</dt>
    <data>
      0 1 2 0 1</data></cat_map>
  <trees>
    <_>
      <best_tree_idx>-1</best_tree_idx>
      <nodes>
        <_>
          <depth>0</depth>
          <sample_count>5949</sample_count>
          <value>-3.4657359027995654e-001</value>
          <norm_class_idx>0</norm_class_idx>
          <Tn>0</Tn>
          <complexity>0</complexity>
          <alpha>0.</alpha>
          <node_risk>0.</node_risk>
          <tree_risk>0.</tree_risk>
          <tree_error>0.</tree_error>
          <splits>
            <_><var>64</var>
              <quality>6.6903245449066162e-001</quality>
              <not_in>
                0</not_in></_></splits></_>
        <_>
          <depth>1</depth>
          <sample_count>3966</sample_count>
          <value>-8.1110008202398165e-001</value>
          <norm_class_idx>0</norm_class_idx>
          <Tn>0</Tn>
          <complexity>0</complexity>
          <alpha>0.</alpha>
          <node_risk>0.</node_risk>
          <tree_risk>0.</tree_risk>
          <tree_error>0.</tree_error>
          <splits>
            <_><var>62</var>
              <quality>5.1952570676803589e-001</quality>
              <le>2.8532405849546194e-003</le></_>
            <_><var>46</var>
              <quality>4.6188795566558838e-001</quality>
              <le>1.8842896446585655e-002</le></_>
            <_><var>14</var>
              <quality>4.4302469491958618e-001</quality>
              <le>1.6777509590610862e-003</le></_>
            <_><var>30</var>
              <quality>4.4197675585746765e-001</quality>
              <le>1.3037953525781631e-002</le></_>
            <_><var>63</var>
              <quality>4.3883284926414490e-001</quality>
              <le>2.5100419297814369e-003</le></_>
            <_><var>47</var>
              <quality>4.3411704897880554e-001</quality>
              <le>1.3160562142729759e-002</le></_>
            <_><var>11</var>
              <quality>4.3359303474426270e-001</quality>
              <le>2.0011968910694122e-002</le></_>
            <_><var>15</var>
              <quality>4.3044918775558472e-001</quality>
              <le>1.8338768277317286e-003</le></_>
            <_><var>31</var>
              <quality>4.2599534988403320e-001</quality>
              <le>1.3066479004919529e-002</le></_>
            <_><var>59</var>
              <quality>4.1446781158447266e-001</quality>
              <le>2.2641837596893311e-002</le></_>
            <_><var>58</var>
              <quality>4.1210991144180298e-001</quality>
              <le>2.6923585683107376e-002</le></_>
            <_><var>40</var>
              <quality>4.0110632777214050e-001</quality>
              <gt>1.6715177893638611e-001</gt></_>
            <_><var>7</var>
              <quality>4.0058237314224243e-001</quality>
              <le>2.5857597589492798e-002</le></_>
            <_><var>25</var>
              <quality>3.9953437447547913e-001</quality>
              <le>-3.1204950064420700e-002</le></_>
            <_><var>55</var>
              <quality>3.9796245098114014e-001</quality>
              <le>2.5959637016057968e-002</le></_>
            <_><var>42</var>
              <quality>3.9743846654891968e-001</quality>
              <le>2.3907288908958435e-001</le></_>
            <_><var>27</var>
              <quality>3.9455661177635193e-001</quality>
              <le>1.3794200122356415e-001</le></_>
            <_><var>24</var>
              <quality>3.9324665069580078e-001</quality>
              <gt>1.7574542760848999e-001</gt></_>
            <_><var>4</var>
              <quality>3.9272266626358032e-001</quality>
              <gt>2.2611461579799652e-002</gt></_>
            <_><var>10</var>
              <quality>3.9219865202903748e-001</quality>
              <le>2.3399684578180313e-002</le></_>
            <_><var>56</var>
              <quality>3.9167472720146179e-001</quality>
              <gt>2.0006434991955757e-002</gt></_>
            <_><var>43</var>
              <quality>3.9141270518302917e-001</quality>
              <le>1.4326846599578857e-001</le></_>
            <_><var>19</var>
              <quality>3.9010277390480042e-001</quality>
              <le>2.5537699460983276e-002</le></_>
            <_><var>41</var>
              <quality>3.8957878947257996e-001</quality>
              <gt>1.9791297614574432e-002</gt></_>
            <_><var>35</var>
              <quality>3.8826882839202881e-001</quality>
              <le>2.4204982444643974e-002</le></_>
            <_><var>3</var>
              <quality>3.8643488287925720e-001</quality>
              <le>2.9112030752003193e-003</le></_>
            <_><var>51</var>
              <quality>3.8224306702613831e-001</quality>
              <le>2.8371226508170366e-003</le></_>
            <_><var>52</var>
              <quality>3.7962317466735840e-001</quality>
              <gt>1.8799502402544022e-002</gt></_>
            <_><var>26</var>
              <quality>3.7962317466735840e-001</quality>
              <le>2.0772629976272583e-001</le></_>
            <_><var>34</var>
              <quality>3.7883719801902771e-001</quality>
              <le>3.1643833965063095e-002</le></_>
            <_><var>0</var>
              <quality>3.7857523560523987e-001</quality>
              <le>-2.3353970609605312e-003</le></_>
            <_><var>50</var>
              <quality>3.7595531344413757e-001</quality>
              <le>3.8893562741577625e-003</le></_>
            <_><var>39</var>
              <quality>3.7412139773368835e-001</quality>
              <le>1.7109003663063049e-001</le></_>
            <_><var>23</var>
              <quality>3.7228745222091675e-001</quality>
              <le>1.5550386905670166e-001</le></_>
            <_><var>18</var>
              <quality>3.7176346778869629e-001</quality>
              <le>2.6709085330367088e-002</le></_>
            <_><var>20</var>
              <quality>3.7123948335647583e-001</quality>
              <gt>1.8489694595336914e-001</gt></_>
            <_><var>32</var>
              <quality>3.7071552872657776e-001</quality>
              <gt>5.2007852355018258e-004</gt></_>
            <_><var>8</var>
              <quality>3.6861959099769592e-001</quality>
              <gt>2.4653356522321701e-002</gt></_>
            <_><var>44</var>
              <quality>3.6783364415168762e-001</quality>
              <gt>-4.5617776777362451e-005</gt></_>
            <_><var>36</var>
              <quality>3.6783364415168762e-001</quality>
              <gt>1.9930654764175415e-001</gt></_>
            <_><var>54</var>
              <quality>3.6757162213325500e-001</quality>
              <le>2.9068503528833389e-002</le></_>
            <_><var>37</var>
              <quality>3.6730965971946716e-001</quality>
              <le>-1.1448118835687637e-002</le></_>
            <_><var>16</var>
              <quality>3.6704766750335693e-001</quality>
              <gt>3.5118970554322004e-003</gt></_>
            <_><var>1</var>
              <quality>3.6233183741569519e-001</quality>
              <le>-2.8567630797624588e-003</le></_>
            <_><var>48</var>
              <quality>3.6180785298347473e-001</quality>
              <le>-4.1597336530685425e-003</le></_>
            <_><var>21</var>
              <quality>3.6154586076736450e-001</quality>
              <gt>4.0958426892757416e-002</gt></_>
            <_><var>33</var>
              <quality>3.6128389835357666e-001</quality>
              <gt>1.8623372539877892e-002</gt></_>
            <_><var>12</var>
              <quality>3.6128389835357666e-001</quality>
              <gt>1.6239696415141225e-003</gt></_>
            <_><var>5</var>
              <quality>3.6102190613746643e-001</quality>
              <le>-2.0848602056503296e-002</le></_>
            <_><var>6</var>
              <quality>3.6049792170524597e-001</quality>
              <le>2.7299512177705765e-002</le></_>
            <_><var>49</var>
              <quality>3.5892596840858459e-001</quality>
              <le>-1.4233264373615384e-003</le></_>
            <_><var>2</var>
              <quality>3.5892596840858459e-001</quality>
              <le>2.8649661689996719e-003</le></_>
            <_><var>45</var>
              <quality>3.5709205269813538e-001</quality>
              <gt>9.4064557924866676e-003</gt></_>
            <_><var>17</var>
              <quality>3.5709205269813538e-001</quality>
              <gt>1.6780003905296326e-002</gt></_>
            <_><var>57</var>
              <quality>3.5604411363601685e-001</quality>
              <gt>1.7387282103300095e-002</gt></_>
            <_><var>22</var>
              <quality>3.5578209161758423e-001</quality>
              <gt>4.1198450326919556e-001</gt></_>
            <_><var>53</var>
              <quality>3.5525813698768616e-001</quality>
              <le>-1.6658149659633636e-002</le></_>
            <_><var>38</var>
              <quality>3.5525813698768616e-001</quality>
              <le>2.4514237046241760e-001</le></_>
            <_><var>9</var>
              <quality>3.5499614477157593e-001</quality>
              <le>-1.8820002675056458e-002</le></_>
            <_><var>13</var>
              <quality>3.5447213053703308e-001</quality>
              <le>-1.7442128155380487e-003</le></_>
            <_><var>60</var>
              <quality>3.5421016812324524e-001</quality>
              <gt>8.7298540165647864e-004</gt></_>
            <_><var>29</var>
              <quality>3.5421016812324524e-001</quality>
              <le>-1.2416083365678787e-002</le></_>
            <_><var>28</var>
              <quality>3.5421016812324524e-001</quality>
              <gt>1.3874805532395840e-002</gt></_>
            <_><var>64</var>
              <quality>3.5342419147491455e-001</quality>
              <in></in></_></splits></_>
        <_>
          <depth>2</depth>
          <sample_count>1268</sample_count>
          <value>-1.8994916356808281e-001</value>
          <norm_class_idx>0</norm_class_idx>
          <Tn>0</Tn>
          <complexity>0</complexity>
          <alpha>0.</alpha>
          <node_risk>0.</node_risk>
          <tree_risk>0.</tree_risk>
          <tree_error>0.</tree_error>
          <splits>
            <_><var>64</var>
              <quality>1.8064749240875244e-001</quality>
              <not_in>
                1</not_in></_></splits></_>
        <_>
          <depth>3</depth>
          <sample_count>634</sample_count>
          <value>-5.7564577324601141e+000</value>
          <norm_class_idx>0</norm_class_idx>
          <Tn>0</Tn>
          <complexity>0</complexity>
          <alpha>0.</alpha>
          <node_risk>0.</node_risk>
          <tree_risk>0.</tree_risk>
          <tree_error>0.</tree_error></_>
        <_>
          <depth>3</depth>
          <sample_count>634</sample_count>
          <value>7.3252170377610870e-001</value>
          <norm_class_idx>1</norm_class_idx>
          <Tn>0</Tn>
          <complexity>0</complexity>
          <alpha>0.</alpha>
          <node_risk>0.</node_risk>
          <tree_risk>0.</tree_risk>
          <tree_error>0.</tree_error>
          <splits>
            <_><var>14</var>
              <quality>8.0791197717189789e-002</quality>
              <le>2.8254557400941849e-003</le></_>
            <_><var>44</var>
              <quality>7.3400199413299561e-002</quality>
              <gt>-8.5238404572010040e-003</gt></_>
            <_><var>30</var>
              <quality>7.3272772133350372e-002</quality>
              <le>2.5009952485561371e-002</le></_>
            <_><var>28</var>
              <quality>7.3272772133350372e-002</quality>
              <gt>-1.0195353999733925e-002</gt></_>
            <_><var>12</var>
              <quality>7.3272772133350372e-002</quality>
              <le>2.6243370957672596e-003</le></_>
            <_><var>46</var>
              <quality>7.2763055562973022e-002</quality>
              <le>2.9049096629023552e-002</le></_>
            <_><var>60</var>
              <quality>7.2508193552494049e-002</quality>
              <gt>-1.0621275287121534e-003</gt></_>
            <_><var>15</var>
              <quality>7.2380758821964264e-002</quality>
              <le>4.8529030755162239e-003</le></_>
            <_><var>10</var>
              <quality>7.2380758821964264e-002</quality>
              <le>4.7172833234071732e-002</le></_>
            <_><var>59</var>
              <quality>7.2253324091434479e-002</quality>
              <le>3.7920922040939331e-002</le></_>
            <_><var>39</var>
              <quality>7.2253324091434479e-002</quality>
              <gt>8.0049954354763031e-002</gt></_>
            <_><var>31</var>
              <quality>7.2253324091434479e-002</quality>
              <le>3.5106051713228226e-002</le></_>
            <_><var>24</var>
              <quality>7.2253324091434479e-002</quality>
              <gt>3.3189039677381516e-002</gt></_>
            <_><var>8</var>
              <quality>7.2253324091434479e-002</quality>
              <gt>-3.1544947996735573e-003</gt></_>
            <_><var>62</var>
              <quality>7.2125896811485291e-002</quality>
              <le>2.8326278552412987e-003</le></_>
            <_><var>61</var>
              <quality>7.2125896811485291e-002</quality>
              <gt>-3.3215042203664780e-003</gt></_>
            <_><var>47</var>
              <quality>7.2125896811485291e-002</quality>
              <le>3.6312628537416458e-002</le></_>
            <_><var>45</var>
              <quality>7.2125896811485291e-002</quality>
              <le>1.5222067013382912e-002</le></_>
            <_><var>40</var>
              <quality>7.2125896811485291e-002</quality>
              <gt>8.9824534952640533e-003</gt></_>
            <_><var>33</var>
              <quality>7.2125896811485291e-002</quality>
              <gt>-1.9265672191977501e-002</gt></_>
            <_><var>29</var>
              <quality>7.2125896811485291e-002</quality>
              <gt>-2.0552027970552444e-002</gt></_>
            <_><var>25</var>
              <quality>7.2125896811485291e-002</quality>
              <le>1.1914657056331635e-001</le></_>
            <_><var>13</var>
              <quality>7.2125896811485291e-002</quality>
              <gt>-3.8135279901325703e-003</gt></_>
            <_><var>11</var>
              <quality>7.2125896811485291e-002</quality>
              <le>4.1228927671909332e-002</le></_>
            <_><var>5</var>
              <quality>7.1998462080955505e-002</quality>
              <le>1.1507006362080574e-002</le></_></splits></_>
        <_>
          <depth>4</depth>
          <sample_count>565</sample_count>
          <value>9.6992782007330736e-001</value>
          <norm_class_idx>1</norm_class_idx>
          <Tn>0</Tn>
          <complexity>0</complexity>
          <alpha>0.</alpha>
          <node_risk>0.</node_risk>
          <tree_risk>0.</tree_risk>
          <tree_error>0.</tree_error>
          <splits>
            <_><var>36</var>
              <quality>7.6889313757419586e-002</quality>
              <le>2.5266486406326294e-001</le></_>
            <_><var>20</var>
              <quality>7.5528442859649658e-002</quality>
              <le>2.5873476266860962e-001</le></_>
            <_><var>59</var>
              <quality>7.4711918830871582e-002</quality>
              <gt>8.3655975759029388e-003</gt></_>
            <_><var>43</var>
              <quality>7.4711918830871582e-002</quality>
              <gt>7.1842521429061890e-002</gt></_>
            <_><var>27</var>
              <quality>7.4439741671085358e-002</quality>
              <gt>7.8600607812404633e-002</gt></_>
            <_><var>15</var>
              <quality>7.4303656816482544e-002</quality>
              <gt>2.0503884297795594e-004</gt></_>
            <_><var>47</var>
              <quality>7.4167564511299133e-002</quality>
              <gt>1.6574896872043610e-003</gt></_>
            <_><var>38</var>
              <quality>7.4167564511299133e-002</quality>
              <le>4.6233740448951721e-001</le></_>
            <_><var>31</var>
              <quality>7.4167564511299133e-002</quality>
              <gt>1.6678068786859512e-003</gt></_>
            <_><var>26</var>
              <quality>7.4167564511299133e-002</quality>
              <gt>1.4256563782691956e-001</gt></_>
            <_><var>62</var>
              <quality>7.4031479656696320e-002</quality>
              <gt>2.0778039470314980e-004</gt></_>
            <_><var>23</var>
              <quality>7.4031479656696320e-002</quality>
              <gt>7.9389810562133789e-002</gt></_>
            <_><var>22</var>
              <quality>7.4031479656696320e-002</quality>
              <le>4.5823061466217041e-001</le></_></splits></_>
        <_>
          <depth>5</depth>
          <sample_count>543</sample_count>
          <value>1.0914911103103413e+000</value>
          <norm_class_idx>1</norm_class_idx>
          <Tn>0</Tn>
          <complexity>0</complexity>
          <alpha>0.</alpha>
          <node_risk>0.</node_risk>
          <tree_risk>0.</tree_risk>
          <tree_error>0.</tree_error></_>
        <_>
          <depth>5</depth>
          <sample_count>22</sample_count>
          <value>-4.9041462650586320e-001</value>
          <norm_class_idx>0</norm_class_idx>
          <Tn>0</Tn>
          <complexity>0</complexity>
          <alpha>0.</alpha>
          <node_risk>0.</node_risk>
          <tree_risk>0.</tree_risk>
          <tree_error>0.</tree_error></_>
        <_>
          <depth>4</depth>
          <sample_count>69</sample_count>
          <value>-4.1333928659223401e-001</value>
          <norm_class_idx>0</norm_class_idx>
          <Tn>0</Tn>
          <complexity>0</complexity>
          <alpha>0.</alpha>
          <node_risk>0.</node_risk>
          <tree_risk>0.</tree_risk>
          <tree_error>0.</tree_error>
          <splits>
            <_><var>55</var>
              <quality>1.0076213628053665e-002</quality>
              <le>1.9142210483551025e-002</le></_>
            <_><var>45</var>
              <quality>9.0539893135428429e-003</quality>
              <gt>2.7411070186644793e-003</gt></_>
            <_><var>7</var>
              <quality>8.9079570025205612e-003</quality>
              <le>1.7687009647488594e-002</le></_>
            <_><var>51</var>
              <quality>8.7619246914982796e-003</quality>
              <le>2.2178587969392538e-003</le></_>
            <_><var>42</var>
              <quality>8.7619246914982796e-003</quality>
              <gt>2.9481580853462219e-001</gt></_>
            <_><var>32</var>
              <quality>8.7619246914982796e-003</quality>
              <gt>1.0227818042039871e-002</gt></_>
            <_><var>26</var>
              <quality>8.7619246914982796e-003</quality>
              <gt>3.3433085680007935e-001</gt></_>
            <_><var>6</var>
              <quality>8.7619246914982796e-003</quality>
              <gt>4.7679673880338669e-002</gt></_>
            <_><var>3</var>
              <quality>8.7619246914982796e-003</quality>
              <le>2.2078049369156361e-003</le></_>
            <_><var>48</var>
              <quality>8.6158933117985725e-003</quality>
              <gt>1.5075844712555408e-003</gt></_>
            <_><var>31</var>
              <quality>8.4698600694537163e-003</quality>
              <gt>3.1428739428520203e-002</gt></_>
            <_><var>15</var>
              <quality>8.4698600694537163e-003</quality>
              <le>1.6601405804976821e-003</le></_>
            <_><var>59</var>
              <quality>8.3238286897540092e-003</quality>
              <le>1.4066179282963276e-002</le></_>
            <_><var>39</var>
              <quality>8.3238286897540092e-003</quality>
              <le>9.9804192781448364e-002</le></_>
            <_><var>35</var>
              <quality>8.3238286897540092e-003</quality>
              <le>1.3386594131588936e-002</le></_>
            <_><var>30</var>
              <quality>8.3238286897540092e-003</quality>
              <gt>3.1932868063449860e-002</gt></_>
            <_><var>23</var>
              <quality>8.3238286897540092e-003</quality>
              <le>9.7202509641647339e-002</le></_>
            <_><var>4</var>
              <quality>8.3238286897540092e-003</quality>
              <gt>3.6220043897628784e-002</gt></_>
            <_><var>57</var>
              <quality>8.1777963787317276e-003</quality>
              <gt>9.7485296428203583e-003</gt></_>
            <_><var>37</var>
              <quality>8.1777963787317276e-003</quality>
              <gt>5.0457648932933807e-002</gt></_>
            <_><var>27</var>
              <quality>8.1777963787317276e-003</quality>
              <gt>2.4508246779441833e-001</gt></_>
            <_><var>25</var>
              <quality>8.1777963787317276e-003</quality>
              <le>-6.3257128000259399e-002</le></_>
            <_><var>21</var>
              <quality>8.1777963787317276e-003</quality>
              <le>-4.9656771123409271e-002</le></_>
            <_><var>16</var>
              <quality>8.1777963787317276e-003</quality>
              <gt>3.0936091206967831e-003</gt></_>
            <_><var>10</var>
              <quality>8.1777963787317276e-003</quality>
              <gt>4.2261496186256409e-002</gt></_>
            <_><var>8</var>
              <quality>8.1777963787317276e-003</quality>
              <le>-9.4077736139297485e-004</le></_>
            <_><var>54</var>
              <quality>8.0317640677094460e-003</quality>
              <le>3.2166868448257446e-002</le></_>
            <_><var>50</var>
              <quality>8.0317640677094460e-003</quality>
              <gt>6.2200399115681648e-003</gt></_>
            <_><var>47</var>
              <quality>8.0317640677094460e-003</quality>
              <gt>2.9391653835773468e-002</gt></_>
            <_><var>40</var>
              <quality>8.0317640677094460e-003</quality>
              <le>5.3028684109449387e-002</le></_>
            <_><var>34</var>
              <quality>8.0317640677094460e-003</quality>
              <gt>5.8295745402574539e-002</gt></_>
            <_><var>33</var>
              <quality>8.0317640677094460e-003</quality>
              <le>-2.4859108962118626e-003</le></_>
            <_><var>29</var>
              <quality>8.0317640677094460e-003</quality>
              <le>-2.4018450640141964e-003</le></_>
            <_><var>28</var>
              <quality>8.0317640677094460e-003</quality>
              <gt>1.7032768577337265e-002</gt></_>
            <_><var>24</var>
              <quality>8.0317640677094460e-003</quality>
              <le>3.4700319170951843e-002</le></_>
            <_><var>22</var>
              <quality>8.0317640677094460e-003</quality>
              <gt>3.9788144826889038e-001</gt></_>
            <_><var>9</var>
              <quality>8.0317640677094460e-003</quality>
              <le>-1.4862273819744587e-002</le></_>
            <_><var>1</var>
              <quality>8.0317640677094460e-003</quality>
              <le>-3.3467567991465330e-003</le></_>
            <_><var>62</var>
              <quality>7.8857326880097389e-003</quality>
              <gt>2.8465455397963524e-003</gt></_>
            <_><var>61</var>
              <quality>7.8857326880097389e-003</quality>
              <gt>2.1888341289013624e-003</gt></_>
            <_><var>60</var>
              <quality>7.8857326880097389e-003</quality>
              <le>-1.3416981091722846e-003</le></_>
            <_><var>58</var>
              <quality>7.8857326880097389e-003</quality>
              <le>1.7578437924385071e-002</le></_>
            <_><var>56</var>
              <quality>7.8857326880097389e-003</quality>
              <le>1.5681136865168810e-003</le></_>
            <_><var>52</var>
              <quality>7.8857326880097389e-003</quality>
              <gt>1.4480944722890854e-002</gt></_>
            <_><var>44</var>
              <quality>7.8857326880097389e-003</quality>
              <gt>1.6794059425592422e-002</gt></_>
            <_><var>43</var>
              <quality>7.8857326880097389e-003</quality>
              <gt>2.4951380491256714e-001</gt></_>
            <_><var>41</var>
              <quality>7.8857326880097389e-003</quality>
              <le>-6.2102459371089935e-002</le></_>
            <_><var>36</var>
              <quality>7.8857326880097389e-003</quality>
              <gt>2.8913089632987976e-001</gt></_>
            <_><var>20</var>
              <quality>7.8857326880097389e-003</quality>
              <gt>2.7387529611587524e-001</gt></_>
            <_><var>19</var>
              <quality>7.8857326880097389e-003</quality>
              <le>1.4668449759483337e-002</le></_>
            <_><var>18</var>
              <quality>7.8857326880097389e-003</quality>
              <gt>5.0774402916431427e-002</gt></_>
            <_><var>17</var>
              <quality>7.8857326880097389e-003</quality>
              <le>-1.8023403361439705e-002</le></_>
            <_><var>14</var>
              <quality>7.8857326880097389e-003</quality>
              <gt>5.5825710296630859e-003</gt></_>
            <_><var>13</var>
              <quality>7.8857326880097389e-003</quality>
              <le>-3.5267279017716646e-003</le></_>
            <_><var>11</var>
              <quality>7.8857326880097389e-003</quality>
              <le>1.1642606928944588e-002</le></_>
            <_><var>5</var>
              <quality>7.8857326880097389e-003</quality>
              <gt>1.0342678055167198e-002</gt></_>
            <_><var>2</var>
              <quality>7.8857326880097389e-003</quality>
              <le>1.9367050845175982e-003</le></_>
            <_><var>64</var>
              <quality>7.7397003769874573e-003</quality>
              <in></in></_></splits></_>
        <_>
          <depth>5</depth>
          <sample_count>16</sample_count>
          <value>5.7564577324623896e+000</value>
          <norm_class_idx>1</norm_class_idx>
          <Tn>0</Tn>
          <complexity>0</complexity>
          <alpha>0.</alpha>
          <node_risk>0.</node_risk>
          <tree_risk>0.</tree_risk>
          <tree_error>0.</tree_error></_>
        <_>
          <depth>5</depth>
          <sample_count>53</sample_count>
          <value>-1.1308815492368955e+000</value>
          <norm_class_idx>0</norm_class_idx>
          <Tn>0</Tn>
          <complexity>0</complexity>
          <alpha>0.</alpha>
          <node_risk>0.</node_risk>
          <tree_risk>0.</tree_risk>
          <tree_error>0.</tree_error></_>
        <_>
          <depth>2</depth>
          <sample_count>2698</sample_count>
          <value>-1.4564489515145707e+000</value>
          <norm_class_idx>0</norm_class_idx>
          <Tn>0</Tn>
          <complexity>0</complexity>
          <alpha>0.</alpha>
          <node_risk>0.</node_risk>
          <tree_risk>0.</tree_risk>
          <tree_error>0.</tree_error>
          <splits>
            <_><var>30</var>
              <quality>4.1278469562530518e-001</quality>
              <le>1.3066714629530907e-002</le></_>
            <_><var>46</var>
              <quality>4.0176895260810852e-001</quality>
              <le>1.4546720311045647e-002</le></_>
            <_><var>31</var>
              <quality>4.0054497122764587e-001</quality>
              <le>8.3524063229560852e-003</le></_>
            <_><var>60</var>
              <quality>3.9932098984718323e-001</quality>
              <gt>2.8109014965593815e-003</gt></_>
            <_><var>15</var>
              <quality>3.9901500940322876e-001</quality>
              <le>1.2098468141630292e-003</le></_>
            <_><var>14</var>
              <quality>3.9870902895927429e-001</quality>
              <le>1.2058352585881948e-003</le></_>
            <_><var>58</var>
              <quality>3.9809700846672058e-001</quality>
              <le>2.2630758583545685e-002</le></_>
            <_><var>24</var>
              <quality>3.9809700846672058e-001</quality>
              <gt>2.3346236348152161e-001</gt></_>
            <_><var>47</var>
              <quality>3.9779105782508850e-001</quality>
              <le>8.9314989745616913e-003</le></_>
            <_><var>6</var>
              <quality>3.9748504757881165e-001</quality>
              <le>2.1106641739606857e-002</le></_>
            <_><var>45</var>
              <quality>3.9687302708625793e-001</quality>
              <le>-1.8467226997017860e-002</le></_>
            <_><var>41</var>
              <quality>3.9687302708625793e-001</quality>
              <le>-8.9741200208663940e-002</le></_>
            <_><var>11</var>
              <quality>3.9656707644462585e-001</quality>
              <le>1.1407651938498020e-002</le></_>
            <_><var>48</var>
              <quality>3.9626106619834900e-001</quality>
              <le>-4.7127883881330490e-003</le></_>
            <_><var>5</var>
              <quality>3.9626106619834900e-001</quality>
              <le>-2.5649733841419220e-002</le></_>
            <_><var>59</var>
              <quality>3.9595505595207214e-001</quality>
              <le>1.0372221469879150e-002</le></_>
            <_><var>54</var>
              <quality>3.9595505595207214e-001</quality>
              <le>2.3404289036989212e-002</le></_>
            <_><var>52</var>
              <quality>3.9595505595207214e-001</quality>
              <le>-1.5991006046533585e-002</le></_>
            <_><var>40</var>
              <quality>3.9595505595207214e-001</quality>
              <gt>2.5603383779525757e-001</gt></_>
            <_><var>36</var>
              <quality>3.9595505595207214e-001</quality>
              <le>-4.1375715285539627e-002</le></_>
            <_><var>21</var>
              <quality>3.9595505595207214e-001</quality>
              <gt>6.2051359564065933e-002</gt></_>
            <_><var>20</var>
              <quality>3.9595505595207214e-001</quality>
              <le>-3.4913517534732819e-002</le></_>
            <_><var>18</var>
              <quality>3.9595505595207214e-001</quality>
              <gt>5.7480722665786743e-002</gt></_>
            <_><var>17</var>
              <quality>3.9595505595207214e-001</quality>
              <gt>2.0212851464748383e-002</gt></_>
            <_><var>16</var>
              <quality>3.9595505595207214e-001</quality>
              <gt>1.4743459410965443e-002</gt></_>
            <_><var>57</var>
              <quality>3.9564907550811768e-001</quality>
              <le>-2.1969126537442207e-002</le></_>
            <_><var>55</var>
              <quality>3.9564907550811768e-001</quality>
              <le>9.5182051882147789e-003</le></_>
            <_><var>49</var>
              <quality>3.9564907550811768e-001</quality>
              <le>-2.3905835114419460e-003</le></_>
            <_><var>43</var>
              <quality>3.9564907550811768e-001</quality>
              <gt>2.9206559062004089e-001</gt></_>
            <_><var>37</var>
              <quality>3.9564907550811768e-001</quality>
              <gt>1.1226011812686920e-001</gt></_>
            <_><var>35</var>
              <quality>3.9564907550811768e-001</quality>
              <le>8.1471009179949760e-003</le></_>
            <_><var>33</var>
              <quality>3.9564907550811768e-001</quality>
              <le>-1.7117498442530632e-002</le></_>
            <_><var>32</var>
              <quality>3.9564907550811768e-001</quality>
              <le>-3.9669089019298553e-002</le></_>
            <_><var>25</var>
              <quality>3.9564907550811768e-001</quality>
              <gt>1.2190628051757813e-001</gt></_>
            <_><var>22</var>
              <quality>3.9564907550811768e-001</quality>
              <le>2.2163504362106323e-001</le></_>
            <_><var>13</var>
              <quality>3.9564907550811768e-001</quality>
              <gt>3.8454667665064335e-003</gt></_>
            <_><var>12</var>
              <quality>3.9564907550811768e-001</quality>
              <gt>1.9736955873668194e-003</gt></_>
            <_><var>7</var>
              <quality>3.9564907550811768e-001</quality>
              <le>9.2877261340618134e-003</le></_>
            <_><var>4</var>
              <quality>3.9564907550811768e-001</quality>
              <gt>3.3427923917770386e-002</gt></_>
            <_><var>2</var>
              <quality>3.9564907550811768e-001</quality>
              <le>9.0290326625108719e-004</le></_>
            <_><var>1</var>
              <quality>3.9564907550811768e-001</quality>
              <gt>2.7006559539586306e-003</gt></_>
            <_><var>0</var>
              <quality>3.9564907550811768e-001</quality>
              <gt>2.3830831050872803e-003</gt></_>
            <_><var>64</var>
              <quality>3.9534309506416321e-001</quality>
              <in></in></_>
            <_><var>29</var>
              <quality>3.9534309506416321e-001</quality>
              <gt>1.9946306943893433e-002</gt></_>
            <_><var>8</var>
              <quality>3.9534309506416321e-001</quality>
              <gt>3.9381057024002075e-002</gt></_></splits></_>
        <_>
          <depth>3</depth>
          <sample_count>114</sample_count>
          <value>-3.0759281954511575e-001</value>
          <norm_class_idx>0</norm_class_idx>
          <Tn>0</Tn>
          <complexity>0</complexity>
          <alpha>0.</alpha>
          <node_risk>0.</node_risk>
          <tree_risk>0.</tree_risk>
          <tree_error>0.</tree_error>
          <splits>
            <_><var>64</var>
              <quality>1.5152185223996639e-002</quality>
              <not_in>
                1</not_in></_>
            <_><var>63</var>
              <quality>7.5760926119983196e-003</quality>
              <gt>2.5159250944852829e-003</gt></_>
            <_><var>62</var>
              <quality>7.5760926119983196e-003</quality>
              <le>3.0204411596059799e-003</le></_>
            <_><var>61</var>
              <quality>7.5760926119983196e-003</quality>
              <gt>-3.3331576269119978e-003</gt></_>
            <_><var>60</var>
              <quality>7.5760926119983196e-003</quality>
              <le>-1.7437226779293269e-004</le></_>
            <_><var>59</var>
              <quality>7.5760926119983196e-003</quality>
              <le>1.7194084823131561e-002</le></_>
            <_><var>58</var>
              <quality>7.5760926119983196e-003</quality>
              <gt>1.8936775624752045e-002</gt></_>
            <_><var>57</var>
              <quality>7.5760926119983196e-003</quality>
              <le>-8.1754792481660843e-003</le></_>
            <_><var>56</var>
              <quality>7.5760926119983196e-003</quality>
              <gt>3.2820953056216240e-003</gt></_>
            <_><var>55</var>
              <quality>7.5760926119983196e-003</quality>
              <gt>2.1646108478307724e-002</gt></_>
            <_><var>54</var>
              <quality>7.5760926119983196e-003</quality>
              <gt>3.0038222670555115e-002</gt></_>
            <_><var>53</var>
              <quality>7.5760926119983196e-003</quality>
              <le>1.0963627137243748e-003</le></_>
            <_><var>52</var>
              <quality>7.5760926119983196e-003</quality>
              <gt>-2.5263847783207893e-003</gt></_>
            <_><var>51</var>
              <quality>7.5760926119983196e-003</quality>
              <le>2.3608887568116188e-003</le></_>
            <_><var>50</var>
              <quality>7.5760926119983196e-003</quality>
              <gt>2.8196731582283974e-003</gt></_>
            <_><var>49</var>
              <quality>7.5760926119983196e-003</quality>
              <le>-1.3232683995738626e-003</le></_>
            <_><var>48</var>
              <quality>7.5760926119983196e-003</quality>
              <le>-2.1080384030938148e-003</le></_>
            <_><var>47</var>
              <quality>7.5760926119983196e-003</quality>
              <gt>9.5755765214562416e-003</gt></_>
            <_><var>46</var>
              <quality>7.5760926119983196e-003</quality>
              <gt>1.0943187400698662e-002</gt></_>
            <_><var>45</var>
              <quality>7.5760926119983196e-003</quality>
              <gt>-1.4455636963248253e-002</gt></_>
            <_><var>44</var>
              <quality>7.5760926119983196e-003</quality>
              <le>1.0712104849517345e-003</le></_>
            <_><var>43</var>
              <quality>7.5760926119983196e-003</quality>
              <gt>1.4276437461376190e-001</gt></_>
            <_><var>42</var>
              <quality>7.5760926119983196e-003</quality>
              <le>2.1590197086334229e-001</le></_>
            <_><var>41</var>
              <quality>7.5760926119983196e-003</quality>
              <le>-4.8634000122547150e-002</le></_>
            <_><var>40</var>
              <quality>7.5760926119983196e-003</quality>
              <le>1.2515294551849365e-001</le></_>
            <_><var>39</var>
              <quality>7.5760926119983196e-003</quality>
              <le>1.9787371158599854e-001</le></_>
            <_><var>38</var>
              <quality>7.5760926119983196e-003</quality>
              <gt>2.8642207384109497e-001</gt></_>
            <_><var>37</var>
              <quality>7.5760926119983196e-003</quality>
              <le>-2.7444739826023579e-003</le></_>
            <_><var>36</var>
              <quality>7.5760926119983196e-003</quality>
              <le>3.7225075066089630e-002</le></_>
            <_><var>35</var>
              <quality>7.5760926119983196e-003</quality>
              <gt>2.0369604229927063e-002</gt></_>
            <_><var>34</var>
              <quality>7.5760926119983196e-003</quality>
              <gt>2.2489260882139206e-002</gt></_>
            <_><var>33</var>
              <quality>7.5760926119983196e-003</quality>
              <gt>2.6643797755241394e-003</gt></_>
            <_><var>32</var>
              <quality>7.5760926119983196e-003</quality>
              <gt>-2.4945978075265884e-002</gt></_>
            <_><var>31</var>
              <quality>7.5760926119983196e-003</quality>
              <gt>6.0244346968829632e-003</gt></_>
            <_><var>30</var>
              <quality>7.5760926119983196e-003</quality>
              <gt>5.2284365519881248e-003</gt></_>
            <_><var>29</var>
              <quality>7.5760926119983196e-003</quality>
              <gt>-6.2679518014192581e-003</gt></_>
            <_><var>28</var>
              <quality>7.5760926119983196e-003</quality>
              <le>-8.1594695802778006e-004</le></_>
            <_><var>27</var>
              <quality>7.5760926119983196e-003</quality>
              <gt>1.4541885256767273e-001</gt></_>
            <_><var>26</var>
              <quality>7.5760926119983196e-003</quality>
              <le>2.2563157975673676e-001</le></_>
            <_><var>25</var>
              <quality>7.5760926119983196e-003</quality>
              <le>-4.6176757663488388e-002</le></_>
            <_><var>24</var>
              <quality>7.5760926119983196e-003</quality>
              <le>1.4905883371829987e-001</le></_>
            <_><var>23</var>
              <quality>7.5760926119983196e-003</quality>
              <le>2.0497304201126099e-001</le></_>
            <_><var>22</var>
              <quality>7.5760926119983196e-003</quality>
              <gt>2.9231274127960205e-001</gt></_>
            <_><var>21</var>
              <quality>7.5760926119983196e-003</quality>
              <gt>-4.3497912585735321e-002</gt></_>
            <_><var>20</var>
              <quality>7.5760926119983196e-003</quality>
              <gt>4.6100988984107971e-002</gt></_>
            <_><var>19</var>
              <quality>7.5760926119983196e-003</quality>
              <gt>2.4182803928852081e-002</gt></_>
            <_><var>18</var>
              <quality>7.5760926119983196e-003</quality>
              <gt>2.5336043909192085e-002</gt></_>
            <_><var>17</var>
              <quality>7.5760926119983196e-003</quality>
              <le>-7.1851145476102829e-003</le></_>
            <_><var>16</var>
              <quality>7.5760926119983196e-003</quality>
              <le>-2.2826701402664185e-002</le></_>
            <_><var>15</var>
              <quality>7.5760926119983196e-003</quality>
              <gt>9.6895359456539154e-004</gt></_>
            <_><var>14</var>
              <quality>7.5760926119983196e-003</quality>
              <le>9.4313378212973475e-004</le></_>
            <_><var>13</var>
              <quality>7.5760926119983196e-003</quality>
              <gt>-3.9561704033985734e-004</gt></_>
            <_><var>12</var>
              <quality>7.5760926119983196e-003</quality>
              <gt>3.9443152491003275e-004</gt></_>
            <_><var>11</var>
              <quality>7.5760926119983196e-003</quality>
              <le>1.5549977310001850e-002</le></_>
            <_><var>10</var>
              <quality>7.5760926119983196e-003</quality>
              <gt>2.3072468116879463e-002</gt></_>
            <_><var>9</var>
              <quality>7.5760926119983196e-003</quality>
              <le>-6.6245449706912041e-003</le></_>
            <_><var>8</var>
              <quality>7.5760926119983196e-003</quality>
              <le>1.1511348187923431e-002</le></_>
            <_><var>7</var>
              <quality>7.5760926119983196e-003</quality>
              <gt>1.8051136285066605e-002</gt></_>
            <_><var>6</var>
              <quality>7.5760926119983196e-003</quality>
              <le>2.3155955597758293e-002</le></_>
            <_><var>5</var>
              <quality>7.5760926119983196e-003</quality>
              <le>-2.1461490541696548e-002</le></_>
            <_><var>4</var>
              <quality>7.5760926119983196e-003</quality>
              <le>2.8765108436346054e-003</le></_>
            <_><var>3</var>
              <quality>7.5760926119983196e-003</quality>
              <gt>2.9623121954500675e-003</gt></_>
            <_><var>2</var>
              <quality>7.5760926119983196e-003</quality>
              <le>2.2524010855704546e-003</le></_>
            <_><var>1</var>
              <quality>7.5760926119983196e-003</quality>
              <le>-2.0559374243021011e-003</le></_>
            <_><var>0</var>
              <quality>7.5760926119983196e-003</quality>
              <le>-1.1966298334300518e-003</le></_></splits></_>
        <_>
          <depth>4</depth>
          <sample_count>57</sample_count>
          <value>-5.7564577324601141e+000</value>
          <norm_class_idx>0</norm_class_idx>
          <Tn>0</Tn>
          <complexity>0</complexity>
          <alpha>0.</alpha>
          <node_risk>0.</node_risk>
          <tree_risk>0.</tree_risk>
          <tree_error>0.</tree_error></_>
        <_>
          <depth>4</depth>
          <sample_count>57</sample_count>
          <value>4.2783305502886032e-001</value>
          <norm_class_idx>1</norm_class_idx>
          <Tn>0</Tn>
          <complexity>0</complexity>
          <alpha>0.</alpha>
          <node_risk>0.</node_risk>
          <tree_risk>0.</tree_risk>
          <tree_error>0.</tree_error>
          <splits>
            <_><var>38</var>
              <quality>7.8274020925164223e-003</quality>
              <le>4.0985304117202759e-001</le></_>
            <_><var>58</var>
              <quality>7.6900790445506573e-003</quality>
              <le>4.2729623615741730e-002</le></_>
            <_><var>22</var>
              <quality>7.6900790445506573e-003</quality>
              <le>3.6193194985389709e-001</le></_>
            <_><var>60</var>
              <quality>7.4154338799417019e-003</quality>
              <gt>-9.0332054242026061e-005</gt></_>
            <_><var>19</var>
              <quality>7.4154338799417019e-003</quality>
              <le>3.8773022592067719e-002</le></_>
            <_><var>8</var>
              <quality>7.4154338799417019e-003</quality>
              <gt>1.1511348187923431e-002</gt></_>
            <_><var>55</var>
              <quality>7.2781108319759369e-003</quality>
              <le>3.4828141331672668e-002</le></_>
            <_><var>28</var>
              <quality>7.2781108319759369e-003</quality>
              <gt>5.7046185247600079e-004</gt></_>
            <_><var>63</var>
              <quality>7.1407882496714592e-003</quality>
              <le>4.4285347685217857e-003</le></_>
            <_><var>61</var>
              <quality>7.1407882496714592e-003</quality>
              <gt>-3.1644459813833237e-003</gt></_>
            <_><var>59</var>
              <quality>7.1407882496714592e-003</quality>
              <le>3.0815485864877701e-002</le></_>
            <_><var>51</var>
              <quality>7.1407882496714592e-003</quality>
              <le>4.2825136333703995e-003</le></_>
            <_><var>7</var>
              <quality>7.1407882496714592e-003</quality>
              <le>3.4396536648273468e-002</le></_>
            <_><var>9</var>
              <quality>7.0034647360444069e-003</quality>
              <le>5.0055906176567078e-003</le></_>
            <_><var>3</var>
              <quality>7.0034647360444069e-003</quality>
              <le>4.9456278793513775e-003</le></_>
            <_><var>54</var>
              <quality>6.8661421537399292e-003</quality>
              <le>4.7191075980663300e-002</le></_>
            <_><var>34</var>
              <quality>6.8661421537399292e-003</quality>
              <le>4.5767772942781448e-002</le></_>
            <_><var>24</var>
              <quality>6.7288191057741642e-003</quality>
              <gt>1.4819130301475525e-001</gt></_>
            <_><var>62</var>
              <quality>6.4541739411652088e-003</quality>
              <le>5.6241648271679878e-003</le></_>
            <_><var>53</var>
              <quality>6.4541739411652088e-003</quality>
              <gt>-3.7958878092467785e-003</gt></_>
            <_><var>46</var>
              <quality>6.4541739411652088e-003</quality>
              <le>2.5593617931008339e-002</le></_>
            <_><var>44</var>
              <quality>6.4541739411652088e-003</quality>
              <gt>-3.5304110497236252e-003</gt></_>
            <_><var>40</var>
              <quality>6.4541739411652088e-003</quality>
              <gt>7.9950869083404541e-002</gt></_>
            <_><var>14</var>
              <quality>6.4541739411652088e-003</quality>
              <le>3.1991871073842049e-003</le></_>
            <_><var>13</var>
              <quality>6.4541739411652088e-003</quality>
              <le>1.5709775034338236e-003</le></_></splits></_>
        <_>
          <depth>5</depth>
          <sample_count>46</sample_count>
          <value>9.4855999244294098e-001</value>
          <norm_class_idx>1</norm_class_idx>
          <Tn>0</Tn>
          <complexity>0</complexity>
          <alpha>0.</alpha>
          <node_risk>0.</node_risk>
          <tree_risk>0.</tree_risk>
          <tree_error>0.</tree_error></_>
        <_>
          <depth>5</depth>
          <sample_count>11</sample_count>
          <value>-5.7564577324601141e+000</value>
          <norm_class_idx>0</norm_class_idx>
          <Tn>0</Tn>
          <complexity>0</complexity>
          <alpha>0.</alpha>
          <node_risk>0.</node_risk>
          <tree_risk>0.</tree_risk>
          <tree_error>0.</tree_error></_>
        <_>
          <depth>3</depth>
          <sample_count>2584</sample_count>
          <value>-1.6114540441980902e+000</value>
          <norm_class_idx>0</norm_class_idx>
          <Tn>0</Tn>
          <complexity>0</complexity>
          <alpha>0.</alpha>
          <node_risk>0.</node_risk>
          <tree_risk>0.</tree_risk>
          <tree_error>0.</tree_error>
          <splits>
            <_><var>23</var>
              <quality>4.0573513507843018e-001</quality>
              <le>1.5679708123207092e-001</le></_>
            <_><var>39</var>
              <quality>4.0102460980415344e-001</quality>
              <le>1.4485663175582886e-001</le></_>
            <_><var>19</var>
              <quality>3.9882633090019226e-001</quality>
              <le>1.4483410865068436e-002</le></_>
            <_><var>55</var>
              <quality>3.9757019281387329e-001</quality>
              <le>1.5116319060325623e-002</le></_>
            <_><var>35</var>
              <quality>3.9757019281387329e-001</quality>
              <le>1.4449218288064003e-002</le></_>
            <_><var>7</var>
              <quality>3.9694210886955261e-001</quality>
              <le>1.6455892473459244e-002</le></_>
            <_><var>51</var>
              <quality>3.9537194371223450e-001</quality>
              <le>1.6833875561133027e-003</le></_>
            <_><var>59</var>
              <quality>3.9474385976791382e-001</quality>
              <le>1.5496475622057915e-002</le></_>
            <_><var>42</var>
              <quality>3.9474385976791382e-001</quality>
              <gt>3.7745308876037598e-001</gt></_>
            <_><var>27</var>
              <quality>3.9442983269691467e-001</quality>
              <le>1.1685078591108322e-001</le></_>
            <_><var>43</var>
              <quality>3.9411577582359314e-001</quality>
              <le>1.0815845429897308e-001</le></_>
            <_><var>26</var>
              <quality>3.9411577582359314e-001</quality>
              <gt>3.6881816387176514e-001</gt></_>
            <_><var>18</var>
              <quality>3.9411577582359314e-001</quality>
              <le>1.0976300574839115e-002</le></_>
            <_><var>8</var>
              <quality>3.9411577582359314e-001</quality>
              <gt>4.1636906564235687e-002</gt></_>
            <_><var>3</var>
              <quality>3.9411577582359314e-001</quality>
              <le>1.9227456068620086e-003</le></_>
            <_><var>58</var>
              <quality>3.9380174875259399e-001</quality>
              <gt>6.0504671186208725e-002</gt></_>
            <_><var>56</var>
              <quality>3.9380174875259399e-001</quality>
              <gt>2.7836997061967850e-002</gt></_>
            <_><var>34</var>
              <quality>3.9380174875259399e-001</quality>
              <le>1.2332716025412083e-002</le></_>
            <_><var>53</var>
              <quality>3.9348772168159485e-001</quality>
              <le>-1.6185000538825989e-002</le></_>
            <_><var>50</var>
              <quality>3.9348772168159485e-001</quality>
              <le>1.2270075967535377e-003</le></_>
            <_><var>47</var>
              <quality>3.9348772168159485e-001</quality>
              <le>7.2886077687144279e-003</le></_>
            <_><var>40</var>
              <quality>3.9348772168159485e-001</quality>
              <gt>2.5173485279083252e-001</gt></_>
            <_><var>31</var>
              <quality>3.9348772168159485e-001</quality>
              <le>8.6315562948584557e-003</le></_>
            <_><var>24</var>
              <quality>3.9348772168159485e-001</quality>
              <gt>2.6934739947319031e-001</gt></_>
            <_><var>20</var>
              <quality>3.9348772168159485e-001</quality>
              <le>-2.5505425408482552e-002</le></_>
            <_><var>15</var>
              <quality>3.9348772168159485e-001</quality>
              <le>1.3114595785737038e-003</le></_>
            <_><var>16</var>
              <quality>3.9317366480827332e-001</quality>
              <gt>1.1973382905125618e-002</gt></_></splits></_>
        <_>
          <depth>4</depth>
          <sample_count>80</sample_count>
          <value>-2.2891654681274023e-001</value>
          <norm_class_idx>0</norm_class_idx>
          <Tn>0</Tn>
          <complexity>0</complexity>
          <alpha>0.</alpha>
          <node_risk>0.</node_risk>
          <tree_risk>0.</tree_risk>
          <tree_error>0.</tree_error>
          <splits>
            <_><var>64</var>
              <quality>1.1102706193923950e-002</quality>
              <not_in>
                1</not_in></_></splits></_>
        <_>
          <depth>5</depth>
          <sample_count>40</sample_count>
          <value>-5.7564577324601141e+000</value>
          <norm_class_idx>0</norm_class_idx>
          <Tn>0</Tn>
          <complexity>0</complexity>
          <alpha>0.</alpha>
          <node_risk>0.</node_risk>
          <tree_risk>0.</tree_risk>
          <tree_error>0.</tree_error></_>
        <_>
          <depth>5</depth>
          <sample_count>40</sample_count>
          <value>6.1838131357446380e-001</value>
          <norm_class_idx>1</norm_class_idx>
          <Tn>0</Tn>
          <complexity>0</complexity>
          <alpha>0.</alpha>
          <node_risk>0.</node_risk>
          <tree_risk>0.</tree_risk>
          <tree_error>0.</tree_error></_>
        <_>
          <depth>4</depth>
          <sample_count>2504</sample_count>
          <value>-1.7893024618268598e+000</value>
          <norm_class_idx>0</norm_class_idx>
          <Tn>0</Tn>
          <complexity>0</complexity>
          <alpha>0.</alpha>
          <node_risk>0.</node_risk>
          <tree_risk>0.</tree_risk>
          <tree_error>0.</tree_error>
          <splits>
            <_><var>32</var>
              <quality>3.9988139271736145e-001</quality>
              <le>8.5520492866635323e-003</le></_>
            <_><var>4</var>
              <quality>3.9477109909057617e-001</quality>
              <le>3.1857937574386597e-002</le></_>
            <_><var>16</var>
              <quality>3.9381289482116699e-001</quality>
              <le>7.9028327018022537e-003</le></_>
            <_><var>52</var>
              <quality>3.9349350333213806e-001</quality>
              <le>3.0577423050999641e-002</le></_>
            <_><var>34</var>
              <quality>3.9349350333213806e-001</quality>
              <gt>1.5109688043594360e-002</gt></_>
            <_><var>59</var>
              <quality>3.9317411184310913e-001</quality>
              <gt>1.2016184628009796e-002</gt></_>
            <_><var>48</var>
              <quality>3.9317411184310913e-001</quality>
              <le>5.3172558546066284e-003</le></_>
            <_><var>36</var>
              <quality>3.9317411184310913e-001</quality>
              <le>2.2080263495445251e-001</le></_>
            <_><var>33</var>
              <quality>3.9317411184310913e-001</quality>
              <gt>-1.2597622349858284e-002</gt></_>
            <_><var>25</var>
              <quality>3.9317411184310913e-001</quality>
              <gt>-7.8017778694629669e-002</gt></_>
            <_><var>8</var>
              <quality>3.9317411184310913e-001</quality>
              <le>3.8605518639087677e-002</le></_>
            <_><var>7</var>
              <quality>3.9317411184310913e-001</quality>
              <gt>1.4619809575378895e-002</gt></_>
            <_><var>57</var>
              <quality>3.9285472035408020e-001</quality>
              <le>2.6879210025072098e-002</le></_>
            <_><var>56</var>
              <quality>3.9285472035408020e-001</quality>
              <le>2.6925534009933472e-002</le></_>
            <_><var>51</var>
              <quality>3.9285472035408020e-001</quality>
              <gt>1.0576921049505472e-003</gt></_>
            <_><var>50</var>
              <quality>3.9285472035408020e-001</quality>
              <gt>1.5430732164531946e-003</gt></_>
            <_><var>45</var>
              <quality>3.9285472035408020e-001</quality>
              <le>1.4561112970113754e-002</le></_>
            <_><var>35</var>
              <quality>3.9285472035408020e-001</quality>
              <gt>1.1328477412462234e-002</gt></_>
            <_><var>29</var>
              <quality>3.9285472035408020e-001</quality>
              <gt>-2.3208055645227432e-002</gt></_>
            <_><var>20</var>
              <quality>3.9285472035408020e-001</quality>
              <le>2.6655378937721252e-001</le></_>
            <_><var>15</var>
              <quality>3.9285472035408020e-001</quality>
              <gt>4.8828398576006293e-004</gt></_>
            <_><var>14</var>
              <quality>3.9285472035408020e-001</quality>
              <le>8.9160520583391190e-003</le></_>
            <_><var>11</var>
              <quality>3.9285472035408020e-001</quality>
              <gt>1.0498413816094398e-002</gt></_>
            <_><var>3</var>
              <quality>3.9285472035408020e-001</quality>
              <gt>1.2650105636566877e-003</gt></_>
            <_><var>44</var>
              <quality>3.9253532886505127e-001</quality>
              <le>2.3890934884548187e-002</le></_>
            <_><var>21</var>
              <quality>3.9253532886505127e-001</quality>
              <le>8.3501651883125305e-002</le></_>
            <_><var>12</var>
              <quality>3.9253532886505127e-001</quality>
              <le>3.7499554455280304e-003</le></_></splits></_>
        <_>
          <depth>5</depth>
          <sample_count>2458</sample_count>
          <value>-1.8979526245454301e+000</value>
          <norm_class_idx>0</norm_class_idx>
          <Tn>0</Tn>
          <complexity>0</complexity>
          <alpha>0.</alpha>
          <node_risk>0.</node_risk>
          <tree_risk>0.</tree_risk>
          <tree_error>0.</tree_error></_>
        <_>
          <depth>5</depth>
          <sample_count>46</sample_count>
          <value>-4.1333928659223418e-001</value>
          <norm_class_idx>0</norm_class_idx>
          <Tn>0</Tn>
          <complexity>0</complexity>
          <alpha>0.</alpha>
          <node_risk>0.</node_risk>
          <tree_risk>0.</tree_risk>
          <tree_error>0.</tree_error></_>
        <_>
          <depth>1</depth>
          <sample_count>1983</sample_count>
          <value>3.5453735362801103e-001</value>
          <norm_class_idx>1</norm_class_idx>
          <Tn>0</Tn>
          <complexity>0</complexity>
          <alpha>0.</alpha>
          <node_risk>0.</node_risk>
          <tree_risk>0.</tree_risk>
          <tree_error>0.</tree_error>
          <splits>
            <_><var>62</var>
              <quality>2.5892028212547302e-001</quality>
              <le>2.8532405849546194e-003</le></_>
            <_><var>46</var>
              <quality>2.3019488155841827e-001</quality>
              <le>1.9323620945215225e-002</le></_>
            <_><var>14</var>
              <quality>2.2079384326934814e-001</quality>
              <le>1.6777509590610862e-003</le></_>
            <_><var>30</var>
              <quality>2.2027157247066498e-001</quality>
              <le>1.3037953525781631e-002</le></_>
            <_><var>63</var>
              <quality>2.1870471537113190e-001</quality>
              <le>2.5100419297814369e-003</le></_>
            <_><var>47</var>
              <quality>2.1635445952415466e-001</quality>
              <le>1.3608905486762524e-002</le></_>
            <_><var>11</var>
              <quality>2.1609331667423248e-001</quality>
              <le>2.0300801843404770e-002</le></_>
            <_><var>15</var>
              <quality>2.1452647447586060e-001</quality>
              <le>1.8885907484218478e-003</le></_>
            <_><var>31</var>
              <quality>2.1230678260326385e-001</quality>
              <le>1.3066479004919529e-002</le></_>
            <_><var>59</var>
              <quality>2.0656171441078186e-001</quality>
              <le>2.2770337760448456e-002</le></_>
            <_><var>58</var>
              <quality>2.0538659393787384e-001</quality>
              <le>2.9867123812437057e-002</le></_>
            <_><var>40</var>
              <quality>1.9990263879299164e-001</quality>
              <gt>1.6715177893638611e-001</gt></_>
            <_><var>7</var>
              <quality>1.9964152574539185e-001</quality>
              <le>2.5857597589492798e-002</le></_>
            <_><var>25</var>
              <quality>1.9911922514438629e-001</quality>
              <le>-3.1204950064420700e-002</le></_>
            <_><var>55</var>
              <quality>1.9833581149578094e-001</quality>
              <le>2.6190133765339851e-002</le></_>
            <_><var>42</var>
              <quality>1.9807465374469757e-001</quality>
              <le>2.3925557732582092e-001</le></_>
            <_><var>27</var>
              <quality>1.9663840532302856e-001</quality>
              <le>1.3794200122356415e-001</le></_>
            <_><var>24</var>
              <quality>1.9598555564880371e-001</quality>
              <gt>1.6517174243927002e-001</gt></_>
            <_><var>4</var>
              <quality>1.9572441279888153e-001</quality>
              <gt>2.2611461579799652e-002</gt></_>
            <_><var>10</var>
              <quality>1.9546325504779816e-001</quality>
              <le>2.3685550317168236e-002</le></_>
            <_><var>56</var>
              <quality>1.9520214200019836e-001</quality>
              <gt>2.0006434991955757e-002</gt></_>
            <_><var>43</var>
              <quality>1.9507154822349548e-001</quality>
              <le>1.4395019412040710e-001</le></_>
            <_><var>19</var>
              <quality>1.9441871345043182e-001</quality>
              <le>2.5595884770154953e-002</le></_>
            <_><var>41</var>
              <quality>1.9415757060050964e-001</quality>
              <gt>1.9791297614574432e-002</gt></_>
            <_><var>35</var>
              <quality>1.9350472092628479e-001</quality>
              <le>2.4204982444643974e-002</le></_>
            <_><var>3</var>
              <quality>1.9259072840213776e-001</quality>
              <le>2.9112030752003193e-003</le></_>
            <_><var>51</var>
              <quality>1.9050160050392151e-001</quality>
              <le>2.8371226508170366e-003</le></_>
            <_><var>52</var>
              <quality>1.8919590115547180e-001</quality>
              <gt>1.5771357342600822e-002</gt></_>
            <_><var>26</var>
              <quality>1.8919590115547180e-001</quality>
              <le>2.1107870340347290e-001</le></_>
            <_><var>34</var>
              <quality>1.8880419433116913e-001</quality>
              <le>3.2895706593990326e-002</le></_>
            <_><var>0</var>
              <quality>1.8867363035678864e-001</quality>
              <le>-2.3353970609605312e-003</le></_>
            <_><var>50</var>
              <quality>1.8736793100833893e-001</quality>
              <le>3.8893562741577625e-003</le></_>
            <_><var>39</var>
              <quality>1.8645393848419189e-001</quality>
              <le>1.7109003663063049e-001</le></_>
            <_><var>23</var>
              <quality>1.8553994596004486e-001</quality>
              <le>1.5591616928577423e-001</le></_>
            <_><var>18</var>
              <quality>1.8527880311012268e-001</quality>
              <le>2.6709085330367088e-002</le></_>
            <_><var>20</var>
              <quality>1.8501767516136169e-001</quality>
              <gt>1.8489694595336914e-001</gt></_>
            <_><var>32</var>
              <quality>1.8475653231143951e-001</quality>
              <gt>1.1724969954229891e-004</gt></_>
            <_><var>8</var>
              <quality>1.8371197581291199e-001</quality>
              <gt>2.4653356522321701e-002</gt></_>
            <_><var>44</var>
              <quality>1.8332025408744812e-001</quality>
              <gt>-1.1950809857808053e-004</gt></_>
            <_><var>36</var>
              <quality>1.8332025408744812e-001</quality>
              <gt>1.9631955027580261e-001</gt></_>
            <_><var>54</var>
              <quality>1.8318969011306763e-001</quality>
              <le>2.9068503528833389e-002</le></_>
            <_><var>37</var>
              <quality>1.8305912613868713e-001</quality>
              <le>-1.1159179732203484e-002</le></_>
            <_><var>16</var>
              <quality>1.8292854726314545e-001</quality>
              <gt>3.4542260691523552e-003</gt></_>
            <_><var>1</var>
              <quality>1.8057829141616821e-001</quality>
              <le>-2.8252331539988518e-003</le></_>
            <_><var>48</var>
              <quality>1.8031714856624603e-001</quality>
              <le>-3.6041601561009884e-003</le></_>
            <_><var>21</var>
              <quality>1.8018658459186554e-001</quality>
              <gt>4.0592990815639496e-002</gt></_>
            <_><var>33</var>
              <quality>1.8005602061748505e-001</quality>
              <gt>1.8269754946231842e-002</gt></_>
            <_><var>12</var>
              <quality>1.8005602061748505e-001</quality>
              <gt>1.4370246790349483e-003</gt></_>
            <_><var>5</var>
              <quality>1.7992544174194336e-001</quality>
              <le>-2.0848602056503296e-002</le></_>
            <_><var>6</var>
              <quality>1.7966431379318237e-001</quality>
              <le>2.7407562360167503e-002</le></_>
            <_><var>49</var>
              <quality>1.7888087034225464e-001</quality>
              <le>-1.4233264373615384e-003</le></_>
            <_><var>2</var>
              <quality>1.7888087034225464e-001</quality>
              <le>2.8649661689996719e-003</le></_>
            <_><var>45</var>
              <quality>1.7796689271926880e-001</quality>
              <gt>9.4064557924866676e-003</gt></_>
            <_><var>17</var>
              <quality>1.7796689271926880e-001</quality>
              <gt>1.3733730651438236e-002</gt></_>
            <_><var>57</var>
              <quality>1.7744462192058563e-001</quality>
              <gt>1.7387282103300095e-002</gt></_>
            <_><var>22</var>
              <quality>1.7731404304504395e-001</quality>
              <gt>4.0925753116607666e-001</gt></_>
            <_><var>53</var>
              <quality>1.7705290019512177e-001</quality>
              <le>-9.8057547584176064e-003</le></_>
            <_><var>38</var>
              <quality>1.7705290019512177e-001</quality>
              <le>2.5060030817985535e-001</le></_>
            <_><var>9</var>
              <quality>1.7692233622074127e-001</quality>
              <le>-1.8820002675056458e-002</le></_>
            <_><var>13</var>
              <quality>1.7666117846965790e-001</quality>
              <le>-1.7442128155380487e-003</le></_>
            <_><var>60</var>
              <quality>1.7653062939643860e-001</quality>
              <gt>8.6672045290470123e-004</gt></_>
            <_><var>29</var>
              <quality>1.7653062939643860e-001</quality>
              <le>-1.2300387024879456e-002</le></_>
            <_><var>28</var>
              <quality>1.7653062939643860e-001</quality>
              <gt>1.3874805532395840e-002</gt></_>
            <_><var>64</var>
              <quality>1.7613890767097473e-001</quality>
              <in></in></_>
            <_><var>61</var>
              <quality>1.7613890767097473e-001</quality>
              <gt>2.0124427974224091e-003</gt></_></splits></_>
        <_>
          <depth>2</depth>
          <sample_count>634</sample_count>
          <value>-7.3252170377610837e-001</value>
          <norm_class_idx>0</norm_class_idx>
          <Tn>0</Tn>
          <complexity>0</complexity>
          <alpha>0.</alpha>
          <node_risk>0.</node_risk>
          <tree_risk>0.</tree_risk>
          <tree_error>0.</tree_error>
          <splits>
            <_><var>14</var>
              <quality>8.0791197717189789e-002</quality>
              <le>2.8254557400941849e-003</le></_>
            <_><var>44</var>
              <quality>7.3400199413299561e-002</quality>
              <gt>-8.5238404572010040e-003</gt></_>
            <_><var>30</var>
              <quality>7.3272772133350372e-002</quality>
              <le>2.5009952485561371e-002</le></_>
            <_><var>28</var>
              <quality>7.3272772133350372e-002</quality>
              <gt>-1.0195353999733925e-002</gt></_>
            <_><var>12</var>
              <quality>7.3272772133350372e-002</quality>
              <le>2.6243370957672596e-003</le></_>
            <_><var>46</var>
              <quality>7.2763055562973022e-002</quality>
              <le>2.9049096629023552e-002</le></_>
            <_><var>60</var>
              <quality>7.2508193552494049e-002</quality>
              <gt>-1.0621275287121534e-003</gt></_>
            <_><var>15</var>
              <quality>7.2380758821964264e-002</quality>
              <le>4.8529030755162239e-003</le></_>
            <_><var>10</var>
              <quality>7.2380758821964264e-002</quality>
              <le>4.7172833234071732e-002</le></_>
            <_><var>59</var>
              <quality>7.2253324091434479e-002</quality>
              <le>3.7920922040939331e-002</le></_>
            <_><var>39</var>
              <quality>7.2253324091434479e-002</quality>
              <gt>8.0049954354763031e-002</gt></_>
            <_><var>31</var>
              <quality>7.2253324091434479e-002</quality>
              <le>3.5106051713228226e-002</le></_>
            <_><var>24</var>
              <quality>7.2253324091434479e-002</quality>
              <gt>3.3189039677381516e-002</gt></_>
            <_><var>8</var>
              <quality>7.2253324091434479e-002</quality>
              <gt>-3.1544947996735573e-003</gt></_>
            <_><var>62</var>
              <quality>7.2125896811485291e-002</quality>
              <le>2.8326278552412987e-003</le></_>
            <_><var>61</var>
              <quality>7.2125896811485291e-002</quality>
              <gt>-3.3215042203664780e-003</gt></_>
            <_><var>47</var>
              <quality>7.2125896811485291e-002</quality>
              <le>3.6312628537416458e-002</le></_>
            <_><var>45</var>
              <quality>7.2125896811485291e-002</quality>
              <le>1.5222067013382912e-002</le></_>
            <_><var>40</var>
              <quality>7.2125896811485291e-002</quality>
              <gt>8.9824534952640533e-003</gt></_>
            <_><var>33</var>
              <quality>7.2125896811485291e-002</quality>
              <gt>-1.9265672191977501e-002</gt></_>
            <_><var>29</var>
              <quality>7.2125896811485291e-002</quality>
              <gt>-2.0552027970552444e-002</gt></_>
            <_><var>25</var>
              <quality>7.2125896811485291e-002</quality>
              <le>1.1914657056331635e-001</le></_>
            <_><var>13</var>
              <quality>7.2125896811485291e-002</quality>
              <gt>-3.8135279901325703e-003</gt></_>
            <_><var>11</var>
              <quality>7.2125896811485291e-002</quality>
              <le>4.1228927671909332e-002</le></_>
            <_><var>5</var>
              <quality>7.1998462080955505e-002</quality>
              <le>1.1507006362080574e-002</le></_></splits></_>
        <_>
          <depth>3</depth>
          <sample_count>565</sample_count>
          <value>-9.6992782007330736e-001</value>
          <norm_class_idx>0</norm_class_idx>
          <Tn>0</Tn>
          <complexity>0</complexity>
          <alpha>0.</alpha>
          <node_risk>0.</node_risk>
          <tree_risk>0.</tree_risk>
          <tree_error>0.</tree_error>
          <splits>
            <_><var>36</var>
              <quality>7.6889313757419586e-002</quality>
              <le>2.5266486406326294e-001</le></_>
            <_><var>20</var>
              <quality>7.5528442859649658e-002</quality>
              <le>2.5873476266860962e-001</le></_>
            <_><var>59</var>
              <quality>7.4711918830871582e-002</quality>
              <gt>8.3655975759029388e-003</gt></_>
            <_><var>43</var>
              <quality>7.4711918830871582e-002</quality>
              <gt>7.1842521429061890e-002</gt></_>
            <_><var>27</var>
              <quality>7.4439741671085358e-002</quality>
              <gt>7.8600607812404633e-002</gt></_>
            <_><var>15</var>
              <quality>7.4303656816482544e-002</quality>
              <gt>2.0503884297795594e-004</gt></_>
            <_><var>47</var>
              <quality>7.4167564511299133e-002</quality>
              <gt>1.6574896872043610e-003</gt></_>
            <_><var>38</var>
              <quality>7.4167564511299133e-002</quality>
              <le>4.6233740448951721e-001</le></_>
            <_><var>31</var>
              <quality>7.4167564511299133e-002</quality>
              <gt>1.6678068786859512e-003</gt></_>
            <_><var>26</var>
              <quality>7.4167564511299133e-002</quality>
              <gt>1.4256563782691956e-001</gt></_>
            <_><var>62</var>
              <quality>7.4031479656696320e-002</quality>
              <gt>2.0778039470314980e-004</gt></_>
            <_><var>23</var>
              <quality>7.4031479656696320e-002</quality>
              <gt>7.9389810562133789e-002</gt></_>
            <_><var>22</var>
              <quality>7.4031479656696320e-002</quality>
              <le>4.5823061466217041e-001</le></_></splits></_>
        <_>
          <depth>4</depth>
          <sample_count>543</sample_count>
          <value>-1.0914911103103413e+000</value>
          <norm_class_idx>0</norm_class_idx>
          <Tn>0</Tn>
          <complexity>0</complexity>
          <alpha>0.</alpha>
          <node_risk>0.</node_risk>
          <tree_risk>0.</tree_risk>
          <tree_error>0.</tree_error>
          <splits>
            <_><var>15</var>
              <quality>7.7215090394020081e-002</quality>
              <le>3.9585176855325699e-003</le></_>
            <_><var>11</var>
              <quality>7.4228867888450623e-002</quality>
              <le>3.6975353956222534e-002</le></_>
            <_><var>25</var>
              <quality>7.3944464325904846e-002</quality>
              <le>8.2177981734275818e-002</le></_>
            <_><var>24</var>
              <quality>7.3944464325904846e-002</quality>
              <gt>4.1639123111963272e-002</gt></_>
            <_><var>29</var>
              <quality>7.3802269995212555e-002</quality>
              <le>1.5651304274797440e-002</le></_>
            <_><var>22</var>
              <quality>7.3802269995212555e-002</quality>
              <gt>1.8802347779273987e-001</gt></_>
            <_><var>17</var>
              <quality>7.3802269995212555e-002</quality>
              <gt>-1.9533693790435791e-002</gt></_>
            <_><var>13</var>
              <quality>7.3802269995212555e-002</quality>
              <le>3.7262651603668928e-003</le></_>
            <_><var>9</var>
              <quality>7.3802269995212555e-002</quality>
              <le>2.4092610925436020e-002</le></_>
            <_><var>1</var>
              <quality>7.3802269995212555e-002</quality>
              <le>4.9153752624988556e-003</le></_>
            <_><var>64</var>
              <quality>7.3660068213939667e-002</quality>
              <in>
                0</in></_>
            <_><var>27</var>
              <quality>7.3660068213939667e-002</quality>
              <le>2.9233318567276001e-001</le></_></splits></_>
        <_>
          <depth>5</depth>
          <sample_count>518</sample_count>
          <value>-1.2540694756406370e+000</value>
          <norm_class_idx>0</norm_class_idx>
          <Tn>0</Tn>
          <complexity>0</complexity>
          <alpha>0.</alpha>
          <node_risk>0.</node_risk>
          <tree_risk>0.</tree_risk>
          <tree_error>0.</tree_error></_>
        <_>
          <depth>5</depth>
          <sample_count>25</sample_count>
          <value>2.8768207245178123e-001</value>
          <norm_class_idx>1</norm_class_idx>
          <Tn>0</Tn>
          <complexity>0</complexity>
          <alpha>0.</alpha>
          <node_risk>0.</node_risk>
          <tree_risk>0.</tree_risk>
          <tree_error>0.</tree_error></_>
        <_>
          <depth>4</depth>
          <sample_count>22</sample_count>
          <value>4.9041462650586343e-001</value>
          <norm_class_idx>1</norm_class_idx>
          <Tn>0</Tn>
          <complexity>0</complexity>
          <alpha>0.</alpha>
          <node_risk>0.</node_risk>
          <tree_risk>0.</tree_risk>
          <tree_error>0.</tree_error>
          <splits>
            <_><var>2</var>
              <quality>3.6981005687266588e-003</quality>
              <le>4.0477104485034943e-003</le></_>
            <_><var>54</var>
              <quality>3.6981005687266588e-003</quality>
              <le>5.0725243985652924e-002</le></_>
            <_><var>53</var>
              <quality>3.6981005687266588e-003</quality>
              <gt>5.3675146773457527e-003</gt></_>
            <_><var>50</var>
              <quality>3.6981005687266588e-003</quality>
              <le>4.3476289138197899e-003</le></_>
            <_><var>49</var>
              <quality>3.6981005687266588e-003</quality>
              <gt>-6.2730963691137731e-005</gt></_>
            <_><var>48</var>
              <quality>3.6981005687266588e-003</quality>
              <gt>-2.3307010997086763e-003</gt></_>
            <_><var>42</var>
              <quality>3.6981005687266588e-003</quality>
              <gt>1.9078925251960754e-001</gt></_>
            <_><var>41</var>
              <quality>3.6981005687266588e-003</quality>
              <gt>1.2933389283716679e-002</gt></_>
            <_><var>40</var>
              <quality>3.6981005687266588e-003</quality>
              <gt>1.4159634709358215e-001</gt></_>
            <_><var>38</var>
              <quality>3.6981005687266588e-003</quality>
              <le>3.9377456903457642e-001</le></_>
            <_><var>37</var>
              <quality>3.6981005687266588e-003</quality>
              <gt>-8.4717143326997757e-003</gt></_>
            <_><var>34</var>
              <quality>3.6981005687266588e-003</quality>
              <le>3.1971581280231476e-002</le></_>
            <_><var>33</var>
              <quality>3.6981005687266588e-003</quality>
              <gt>1.3670949265360832e-003</gt></_>
            <_><var>32</var>
              <quality>3.6981005687266588e-003</quality>
              <gt>-2.2996161133050919e-002</gt></_>
            <_><var>29</var>
              <quality>3.6981005687266588e-003</quality>
              <le>2.3203340824693441e-003</le></_>
            <_><var>26</var>
              <quality>3.6981005687266588e-003</quality>
              <gt>1.7570811510086060e-001</gt></_>
            <_><var>25</var>
              <quality>3.6981005687266588e-003</quality>
              <le>-5.8571654371917248e-003</le></_>
            <_><var>24</var>
              <quality>3.6981005687266588e-003</quality>
              <gt>1.4070710539817810e-001</gt></_>
            <_><var>22</var>
              <quality>3.6981005687266588e-003</quality>
              <le>3.7845921516418457e-001</le></_>
            <_><var>18</var>
              <quality>3.6981005687266588e-003</quality>
              <le>3.3487252891063690e-002</le></_>
            <_><var>17</var>
              <quality>3.6981005687266588e-003</quality>
              <le>1.7207765486091375e-003</le></_>
            <_><var>16</var>
              <quality>3.6981005687266588e-003</quality>
              <gt>-2.4400036782026291e-002</gt></_>
            <_><var>13</var>
              <quality>3.6981005687266588e-003</quality>
              <le>1.3735485845245421e-004</le></_>
            <_><var>10</var>
              <quality>3.6981005687266588e-003</quality>
              <gt>1.7502019181847572e-002</gt></_>
            <_><var>8</var>
              <quality>3.6981005687266588e-003</quality>
              <gt>1.2979459017515182e-002</gt></_>
            <_><var>58</var>
              <quality>3.5300049930810928e-003</quality>
              <le>2.8630781918764114e-002</le></_>
            <_><var>45</var>
              <quality>3.5300049930810928e-003</quality>
              <le>5.8440607972443104e-004</le></_>
            <_><var>35</var>
              <quality>3.5300049930810928e-003</quality>
              <le>1.5678659081459045e-002</le></_>
            <_><var>31</var>
              <quality>3.5300049930810928e-003</quality>
              <le>7.4181305244565010e-003</le></_>
            <_><var>5</var>
              <quality>3.5300049930810928e-003</quality>
              <le>-1.0351728647947311e-002</le></_>
            <_><var>0</var>
              <quality>3.5300049930810928e-003</quality>
              <gt>-2.1244990639388561e-003</gt></_>
            <_><var>60</var>
              <quality>3.3619096502661705e-003</quality>
              <gt>-5.5941171012818813e-005</gt></_>
            <_><var>56</var>
              <quality>3.3619096502661705e-003</quality>
              <le>2.5515381246805191e-002</le></_>
            <_><var>19</var>
              <quality>3.3619096502661705e-003</quality>
              <le>1.5675811097025871e-002</le></_>
            <_><var>9</var>
              <quality>3.3619096502661705e-003</quality>
              <le>-1.3208282180130482e-003</le></_>
            <_><var>1</var>
              <quality>3.3619096502661705e-003</quality>
              <le>-5.3299171850085258e-004</le></_>
            <_><var>51</var>
              <quality>3.1938140746206045e-003</quality>
              <gt>2.0095505751669407e-003</gt></_>
            <_><var>28</var>
              <quality>3.1938140746206045e-003</quality>
              <gt>-3.5271159140393138e-004</gt></_>
            <_><var>59</var>
              <quality>3.0257184989750385e-003</quality>
              <le>1.1927175335586071e-002</le></_>
            <_><var>57</var>
              <quality>3.0257184989750385e-003</quality>
              <gt>-7.8657112317159772e-004</gt></_>
            <_><var>52</var>
              <quality>3.0257184989750385e-003</quality>
              <gt>3.4967195242643356e-002</gt></_>
            <_><var>39</var>
              <quality>3.0257184989750385e-003</quality>
              <le>1.2470574676990509e-001</le></_>
            <_><var>20</var>
              <quality>3.0257184989750385e-003</quality>
              <le>3.0861681699752808e-001</le></_>
            <_><var>6</var>
              <quality>3.0257184989750385e-003</quality>
              <le>5.0606451928615570e-002</le></_>
            <_><var>55</var>
              <quality>2.8576231561601162e-003</quality>
              <gt>1.9739486277103424e-002</gt></_>
            <_><var>43</var>
              <quality>2.8576231561601162e-003</quality>
              <le>9.3313626945018768e-002</le></_>
            <_><var>23</var>
              <quality>2.8576231561601162e-003</quality>
              <le>1.2273383140563965e-001</le></_>
            <_><var>36</var>
              <quality>2.6895275805145502e-003</quality>
              <le>3.1225594878196716e-001</le></_>
            <_><var>21</var>
              <quality>2.6895275805145502e-003</quality>
              <le>1.0487740859389305e-002</le></_></splits></_>
        <_>
          <depth>5</depth>
          <sample_count>16</sample_count>
          <value>5.7564577324623896e+000</value>
          <norm_class_idx>1</norm_class_idx>
          <Tn>0</Tn>
          <complexity>0</complexity>
          <alpha>0.</alpha>
          <node_risk>0.</node_risk>
          <tree_risk>0.</tree_risk>
          <tree_error>0.</tree_error></_>
        <_>
          <depth>5</depth>
          <sample_count>6</sample_count>
          <value>-5.7564577324601141e+000</value>
          <norm_class_idx>0</norm_class_idx>
          <Tn>0</Tn>
          <complexity>0</complexity>
          <alpha>0.</alpha>
          <node_risk>0.</node_risk>
          <tree_risk>0.</tree_risk>
          <tree_error>0.</tree_error></_>
        <_>
          <depth>3</depth>
          <sample_count>69</sample_count>
          <value>4.1333928659223423e-001</value>
          <norm_class_idx>1</norm_class_idx>
          <Tn>0</Tn>
          <complexity>0</complexity>
          <alpha>0.</alpha>
          <node_risk>0.</node_risk>
          <tree_risk>0.</tree_risk>
          <tree_error>0.</tree_error>
          <splits>
            <_><var>55</var>
              <quality>1.0076213628053665e-002</quality>
              <le>1.9142210483551025e-002</le></_>
            <_><var>45</var>
              <quality>9.0539893135428429e-003</quality>
              <gt>2.7411070186644793e-003</gt></_>
            <_><var>7</var>
              <quality>8.9079570025205612e-003</quality>
              <le>1.7687009647488594e-002</le></_>
            <_><var>51</var>
              <quality>8.7619246914982796e-003</quality>
              <le>2.2178587969392538e-003</le></_>
            <_><var>42</var>
              <quality>8.7619246914982796e-003</quality>
              <gt>2.9481580853462219e-001</gt></_>
            <_><var>32</var>
              <quality>8.7619246914982796e-003</quality>
              <gt>1.0227818042039871e-002</gt></_>
            <_><var>26</var>
              <quality>8.7619246914982796e-003</quality>
              <gt>3.3433085680007935e-001</gt></_>
            <_><var>6</var>
              <quality>8.7619246914982796e-003</quality>
              <gt>4.7679673880338669e-002</gt></_>
            <_><var>3</var>
              <quality>8.7619246914982796e-003</quality>
              <le>2.2078049369156361e-003</le></_>
            <_><var>48</var>
              <quality>8.6158933117985725e-003</quality>
              <gt>1.5075844712555408e-003</gt></_>
            <_><var>31</var>
              <quality>8.4698600694537163e-003</quality>
              <gt>3.1428739428520203e-002</gt></_>
            <_><var>15</var>
              <quality>8.4698600694537163e-003</quality>
              <le>1.6601405804976821e-003</le></_>
            <_><var>59</var>
              <quality>8.3238286897540092e-003</quality>
              <le>1.4066179282963276e-002</le></_>
            <_><var>39</var>
              <quality>8.3238286897540092e-003</quality>
              <le>9.9804192781448364e-002</le></_>
            <_><var>35</var>
              <quality>8.3238286897540092e-003</quality>
              <le>1.3386594131588936e-002</le></_>
            <_><var>30</var>
              <quality>8.3238286897540092e-003</quality>
              <gt>3.1932868063449860e-002</gt></_>
            <_><var>23</var>
              <quality>8.3238286897540092e-003</quality>
              <le>9.7202509641647339e-002</le></_>
            <_><var>4</var>
              <quality>8.3238286897540092e-003</quality>
              <gt>3.6220043897628784e-002</gt></_>
            <_><var>57</var>
              <quality>8.1777963787317276e-003</quality>
              <gt>9.7485296428203583e-003</gt></_>
            <_><var>37</var>
              <quality>8.1777963787317276e-003</quality>
              <gt>5.0457648932933807e-002</gt></_>
            <_><var>27</var>
              <quality>8.1777963787317276e-003</quality>
              <gt>2.4508246779441833e-001</gt></_>
            <_><var>25</var>
              <quality>8.1777963787317276e-003</quality>
              <le>-6.3257128000259399e-002</le></_>
            <_><var>21</var>
              <quality>8.1777963787317276e-003</quality>
              <le>-4.9656771123409271e-002</le></_>
            <_><var>16</var>
              <quality>8.1777963787317276e-003</quality>
              <gt>3.0936091206967831e-003</gt></_>
            <_><var>10</var>
              <quality>8.1777963787317276e-003</quality>
              <gt>4.2261496186256409e-002</gt></_>
            <_><var>8</var>
              <quality>8.1777963787317276e-003</quality>
              <le>-9.4077736139297485e-004</le></_>
            <_><var>54</var>
              <quality>8.0317640677094460e-003</quality>
              <le>3.2166868448257446e-002</le></_>
            <_><var>50</var>
              <quality>8.0317640677094460e-003</quality>
              <gt>6.2200399115681648e-003</gt></_>
            <_><var>47</var>
              <quality>8.0317640677094460e-003</quality>
              <gt>2.9391653835773468e-002</gt></_>
            <_><var>40</var>
              <quality>8.0317640677094460e-003</quality>
              <le>5.3028684109449387e-002</le></_>
            <_><var>34</var>
              <quality>8.0317640677094460e-003</quality>
              <gt>5.8295745402574539e-002</gt></_>
            <_><var>33</var>
              <quality>8.0317640677094460e-003</quality>
              <le>-2.4859108962118626e-003</le></_>
            <_><var>29</var>
              <quality>8.0317640677094460e-003</quality>
              <le>-2.4018450640141964e-003</le></_>
            <_><var>28</var>
              <quality>8.0317640677094460e-003</quality>
              <gt>1.7032768577337265e-002</gt></_>
            <_><var>24</var>
              <quality>8.0317640677094460e-003</quality>
              <le>3.4700319170951843e-002</le></_>
            <_><var>22</var>
              <quality>8.0317640677094460e-003</quality>
              <gt>3.9788144826889038e-001</gt></_>
            <_><var>9</var>
              <quality>8.0317640677094460e-003</quality>
              <le>-1.4862273819744587e-002</le></_>
            <_><var>1</var>
              <quality>8.0317640677094460e-003</quality>
              <le>-3.3467567991465330e-003</le></_>
            <_><var>62</var>
              <quality>7.8857326880097389e-003</quality>
              <gt>2.8465455397963524e-003</gt></_>
            <_><var>61</var>
              <quality>7.8857326880097389e-003</quality>
              <gt>2.1888341289013624e-003</gt></_>
            <_><var>60</var>
              <quality>7.8857326880097389e-003</quality>
              <le>-1.3416981091722846e-003</le></_>
            <_><var>58</var>
              <quality>7.8857326880097389e-003</quality>
              <le>1.7578437924385071e-002</le></_>
            <_><var>56</var>
              <quality>7.8857326880097389e-003</quality>
              <le>1.5681136865168810e-003</le></_>
            <_><var>52</var>
              <quality>7.8857326880097389e-003</quality>
              <gt>1.4480944722890854e-002</gt></_>
            <_><var>44</var>
              <quality>7.8857326880097389e-003</quality>
              <gt>1.6794059425592422e-002</gt></_>
            <_><var>43</var>
              <quality>7.8857326880097389e-003</quality>
              <gt>2.4951380491256714e-001</gt></_>
            <_><var>41</var>
              <quality>7.8857326880097389e-003</quality>
              <le>-6.2102459371089935e-002</le></_>
            <_><var>36</var>
              <quality>7.8857326880097389e-003</quality>
              <gt>2.8913089632987976e-001</gt></_>
            <_><var>20</var>
              <quality>7.8857326880097389e-003</quality>
              <gt>2.7387529611587524e-001</gt></_>
            <_><var>19</var>
              <quality>7.8857326880097389e-003</quality>
              <le>1.4668449759483337e-002</le></_>
            <_><var>18</var>
              <quality>7.8857326880097389e-003</quality>
              <gt>5.0774402916431427e-002</gt></_>
            <_><var>17</var>
              <quality>7.8857326880097389e-003</quality>
              <le>-1.8023403361439705e-002</le></_>
            <_><var>14</var>
              <quality>7.8857326880097389e-003</quality>
              <gt>5.5825710296630859e-003</gt></_>
            <_><var>13</var>
              <quality>7.8857326880097389e-003</quality>
              <le>-3.5267279017716646e-003</le></_>
            <_><var>11</var>
              <quality>7.8857326880097389e-003</quality>
              <le>1.1642606928944588e-002</le></_>
            <_><var>5</var>
              <quality>7.8857326880097389e-003</quality>
              <gt>1.0342678055167198e-002</gt></_>
            <_><var>2</var>
              <quality>7.8857326880097389e-003</quality>
              <le>1.9367050845175982e-003</le></_>
            <_><var>64</var>
              <quality>7.7397003769874573e-003</quality>
              <in></in></_></splits></_>
        <_>
          <depth>4</depth>
          <sample_count>16</sample_count>
          <value>-5.7564577324601141e+000</value>
          <norm_class_idx>0</norm_class_idx>
          <Tn>0</Tn>
          <complexity>0</complexity>
          <alpha>0.</alpha>
          <node_risk>0.</node_risk>
          <tree_risk>0.</tree_risk>
          <tree_error>0.</tree_error></_>
        <_>
          <depth>4</depth>
          <sample_count>53</sample_count>
          <value>1.1308815492368955e+000</value>
          <norm_class_idx>1</norm_class_idx>
          <Tn>0</Tn>
          <complexity>0</complexity>
          <alpha>0.</alpha>
          <node_risk>0.</node_risk>
          <tree_risk>0.</tree_risk>
          <tree_error>0.</tree_error>
          <splits>
            <_><var>0</var>
              <quality>8.0119790509343147e-003</quality>
              <le>4.9425312317907810e-004</le></_>
            <_><var>10</var>
              <quality>7.7096400782465935e-003</quality>
              <gt>2.0384497940540314e-002</gt></_>
            <_><var>63</var>
              <quality>7.5584705919027328e-003</quality>
              <gt>4.4623395660892129e-004</gt></_>
            <_><var>62</var>
              <quality>7.5584705919027328e-003</quality>
              <gt>3.7634489126503468e-004</gt></_>
            <_><var>61</var>
              <quality>7.5584705919027328e-003</quality>
              <gt>-2.9838576447218657e-003</gt></_>
            <_><var>58</var>
              <quality>7.5584705919027328e-003</quality>
              <gt>1.6669102013111115e-002</gt></_>
            <_><var>38</var>
              <quality>7.5584705919027328e-003</quality>
              <le>4.5075505971908569e-001</le></_>
            <_><var>32</var>
              <quality>7.5584705919027328e-003</quality>
              <le>7.0739816874265671e-003</le></_>
            <_><var>31</var>
              <quality>7.5584705919027328e-003</quality>
              <le>2.8293645009398460e-002</le></_>
            <_><var>29</var>
              <quality>7.5584705919027328e-003</quality>
              <le>9.3082915991544724e-003</le></_>
            <_><var>28</var>
              <quality>7.5584705919027328e-003</quality>
              <le>1.5748860314488411e-002</le></_>
            <_><var>27</var>
              <quality>7.5584705919027328e-003</quality>
              <le>2.3313441872596741e-001</le></_>
            <_><var>26</var>
              <quality>7.5584705919027328e-003</quality>
              <gt>1.9977627694606781e-001</gt></_>
            <_><var>9</var>
              <quality>7.5584705919027328e-003</quality>
              <le>1.2415476143360138e-002</le></_>
            <_><var>8</var>
              <quality>7.5584705919027328e-003</quality>
              <gt>7.2775298031046987e-004</gt></_>
            <_><var>7</var>
              <quality>7.5584705919027328e-003</quality>
              <le>4.3444409966468811e-002</le></_>
            <_><var>1</var>
              <quality>7.5584705919027328e-003</quality>
              <gt>-2.4339798837900162e-003</gt></_>
            <_><var>21</var>
              <quality>7.4073011055588722e-003</quality>
              <gt>-4.7701463103294373e-002</gt></_></splits></_>
        <_>
          <depth>5</depth>
          <sample_count>49</sample_count>
          <value>1.5785002105750561e+000</value>
          <norm_class_idx>1</norm_class_idx>
          <Tn>0</Tn>
          <complexity>0</complexity>
          <alpha>0.</alpha>
          <node_risk>0.</node_risk>
          <tree_risk>0.</tree_risk>
          <tree_error>0.</tree_error></_>
        <_>
          <depth>5</depth>
          <sample_count>4</sample_count>
          <value>-5.4930614433405489e-001</value>
          <norm_class_idx>0</norm_class_idx>
          <Tn>0</Tn>
          <complexity>0</complexity>
          <alpha>0.</alpha>
          <node_risk>0.</node_risk>
          <tree_risk>0.</tree_risk>
          <tree_error>0.</tree_error></_>
        <_>
          <depth>2</depth>
          <sample_count>1349</sample_count>
          <value>1.0819508527300450e+000</value>
          <norm_class_idx>1</norm_class_idx>
          <Tn>0</Tn>
          <complexity>0</complexity>
          <alpha>0.</alpha>
          <node_risk>0.</node_risk>
          <tree_risk>0.</tree_risk>
          <tree_error>0.</tree_error>
          <splits>
            <_><var>30</var>
              <quality>1.9201751053333282e-001</quality>
              <le>1.3066714629530907e-002</le></_>
            <_><var>46</var>
              <quality>1.8689325451850891e-001</quality>
              <le>1.5771787613630295e-002</le></_>
            <_><var>31</var>
              <quality>1.8632388114929199e-001</quality>
              <le>8.3524063229560852e-003</le></_>
            <_><var>60</var>
              <quality>1.8575452268123627e-001</quality>
              <gt>2.8109014965593815e-003</gt></_>
            <_><var>15</var>
              <quality>1.8561217188835144e-001</quality>
              <le>1.2098468141630292e-003</le></_>
            <_><var>14</var>
              <quality>1.8546985089778900e-001</quality>
              <le>1.2058352585881948e-003</le></_>
            <_><var>58</var>
              <quality>1.8518516421318054e-001</quality>
              <le>2.2630758583545685e-002</le></_>
            <_><var>24</var>
              <quality>1.8518516421318054e-001</quality>
              <gt>2.3346236348152161e-001</gt></_>
            <_><var>47</var>
              <quality>1.8504282832145691e-001</quality>
              <le>8.9314989745616913e-003</le></_>
            <_><var>6</var>
              <quality>1.8490047752857208e-001</quality>
              <le>2.1106641739606857e-002</le></_>
            <_><var>45</var>
              <quality>1.8461579084396362e-001</quality>
              <le>-1.7062198370695114e-002</le></_>
            <_><var>41</var>
              <quality>1.8461579084396362e-001</quality>
              <le>-8.9741200208663940e-002</le></_>
            <_><var>11</var>
              <quality>1.8447345495223999e-001</quality>
              <le>1.1407651938498020e-002</le></_>
            <_><var>48</var>
              <quality>1.8433111906051636e-001</quality>
              <le>-4.7127883881330490e-003</le></_>
            <_><var>5</var>
              <quality>1.8433111906051636e-001</quality>
              <le>-2.5649733841419220e-002</le></_>
            <_><var>59</var>
              <quality>1.8418876826763153e-001</quality>
              <le>1.0372221469879150e-002</le></_>
            <_><var>54</var>
              <quality>1.8418876826763153e-001</quality>
              <le>2.3404289036989212e-002</le></_>
            <_><var>52</var>
              <quality>1.8418876826763153e-001</quality>
