<?xml version="1.0"?>
<opencv_storage>
<my_nn type_id="opencv-ml-ann-mlp">
  <layer_sizes type_id="opencv-matrix">
    <rows>1</rows>
    <cols>4</cols>
    <dt>i</dt>
    <data>
      128 128 128 4</data></layer_sizes>
  <activation_function>SIGMOID_SYM</activation_function>
  <f_param1>6.6666666666666663e-001</f_param1>
  <f_param2>1.7159000000000000e+000</f_param2>
  <min_val>-9.4999999999999996e-001</min_val>
  <max_val>9.4999999999999996e-001</max_val>
  <min_val1>-9.7999999999999998e-001</min_val1>
  <max_val1>9.7999999999999998e-001</max_val1>
  <training_params>
    <train_method>RPROP</train_method>
    <dw0>1.0000000000000001e-001</dw0>
    <dw_plus>1.2000000000000000e+000</dw_plus>
    <dw_minus>5.0000000000000000e-001</dw_minus>
    <dw_min>1.1920928955078125e-007</dw_min>
    <dw_max>50.</dw_max>
    <term_criteria><epsilon>1.0000000000000000e-002</epsilon>
      <iterations>1000</iterations></term_criteria></training_params>
  <input_scale>
    2.9036415437866945e+003 1.8525711335170767e+000
    1.5959564381384457e+003 -4.0106079418680043e+000
    1.8738406992299085e+003 1.6277500507900122e+000
    1.1124152627070573e+003 -3.1200236247137920e+000
    3.3452699048130526e+003 1.3244119921417934e+000
    1.0071265128874915e+003 -1.6030964481756409e+000
    3.4646585729363105e+003 1.1947479386452025e+000
    7.4565902757207641e+002 -1.7350827845345622e+000
    2.2110369911543367e+002 -1.9950768228505618e+000
    2.4200293452768511e+002 -4.9075528864652815e+000
    4.7788676870322678e+002 -4.4897191601799182e+000
    1.9348213182022528e+002 -5.3631483629141492e+000
    2.5933400805742133e+002 1.1688369110668413e+000
    1.2135435000931419e+002 -2.1376408006000958e+000
    3.6230621082402024e+002 1.3269327748193933e+000
    1.4813803267935850e+002 -1.7388898965154560e+000
    2.2931888039618579e+002 -2.2675069248382851e+000
    2.4500506183928371e+002 -6.3471796956516835e+000
    4.5851596926218593e+002 -4.2222414904259891e+000
    3.6022400442921594e+002 -7.5254177877666883e+000
    1.4909966515780036e+003 -3.6676874749203527e+000
    1.7838632125522679e+002 -2.8529047591658654e+000
    8.2677002926633213e+002 2.0221444535026398e-001
    1.7794249341123776e+002 -2.1190944365476163e+000
    2.4581030766613781e+003 1.3554990594022729e+000
    8.0725444190845576e+002 -1.8186474017823455e+000
    3.3762856638888352e+003 -1.0814690624687131e+000
    1.2468239950707643e+003 -2.7407477757053607e+000
    2.4658217975938769e+003 -3.1834334793835140e-001
    1.3980327208061719e+003 -2.4187149859244701e+000
    2.0485220540619221e+003 -8.6589891716760670e-001
    1.2750676967229431e+003 -2.4380692137259175e+000
    2.8474427833622332e+002 1.9611450407058901e+000
    3.1687960959004693e+002 -6.5589530377129215e+000
    2.1065673026051891e+002 2.3019351103543331e+000
    3.3430250338013764e+002 -7.2042905857323145e+000
    6.3531231967946860e+002 -4.6660356811217846e-001
    1.5998049867778832e+002 -1.5751943545059648e+000
    1.0332875042414632e+003 1.4982876362649986e+000
    8.7697017646475643e+001 -1.6095836509535708e+000
    4.0371239034443470e+001 -5.5216318560159667e+000
    8.4793287770557569e+001 -2.0339157952683081e+001
    7.6382845592252480e+001 -3.0788951529358473e+000
    2.0231785784037111e+001 -3.4401907460271035e+000
    1.6279944050751345e+002 -2.5623753441791730e+000
    1.7372580986835878e+001 -2.0395847355182730e+000
    9.2162845204438540e+001 1.3904554639616675e+000
    2.0370250510541418e+001 -1.5459299890353968e+000
    7.1849468636707684e+001 -4.3662211021632196e+000
    3.7886122305645557e+001 -6.5276117293493732e+000
    1.8516943081358258e+002 -1.8977597018318885e+001
    4.1900843911603715e+001 -7.5104156639507913e+000
    1.3833911063499204e+002 -6.8661425678610988e-001
    2.5135085982840327e+001 -2.4853355889164379e+000
    8.0355750307860419e+001 -1.5671037208366732e+000
    4.1006579121562119e+001 -2.9177610442072321e+000
    6.5266722761183757e+002 3.1807885169730019e+000
    1.7996321249457242e+002 -3.1927760418405287e+000
    4.0218604155081016e+002 -3.6543309796450862e-001
    1.7255777436891637e+002 -2.4417854104655770e+000
    7.9653166278832828e+002 -8.2132369804930960e-001
    2.4389638766439165e+002 -2.5314766126682362e+000
    3.7834216212215142e+002 -1.1994447388918608e+000
    2.4534276284642814e+002 -3.2986875482619489e+000
    2.5410895015289177e+002 2.0501542435126945e+000
    2.5433601375255242e+002 -5.6171887562646470e+000
    3.1394159738954079e+002 2.5081325305069844e+000
    2.9176548331790258e+002 -5.3800427359620517e+000
    8.4582887116372217e+002 -1.3149824756448947e+000
    1.5882021312122444e+002 -1.4878142805893095e+000
    1.3141250685500972e+003 -5.2819821135590483e-001
    1.0287951269084517e+002 -1.6665442481076738e+000
    5.0321026144594136e+001 -1.9539114976459917e+000
    4.2112340979253396e+001 -7.8773681473902526e+000
    3.0208702877709126e+001 -4.1200699324929797e+000
    3.1021559611634533e+001 -7.3208771385088660e+000
    6.9591459220861651e+001 1.2979794740017441e+000
    1.8246300910354034e+001 -2.0098150451538630e+000
    1.1603322360639905e+002 -2.0492554727755468e+000
    2.0974398022382584e+001 -1.6360127761435077e+000
    6.8685000455207813e+001 -7.7857514028743884e+000
    4.5152226030052773e+001 -8.7966555229629524e+000
    8.7089042149640903e+001 -4.7301817610370076e+000
    3.9998561198947741e+001 -6.4132601980205228e+000
    1.0378504954987949e+002 -3.1274831254223140e-001
    2.1831898537508572e+001 -2.1646902028099007e+000
    6.6883354655954270e+002 1.3999017028604936e+001
    5.0319053462124280e+001 -3.4582249158787342e+000
    4.3273502367927529e+002 8.3844335883590237e-001
    1.9173678828284793e+002 -3.0885939876143573e+000
    4.0941473889035149e+002 8.0582401291465011e-001
    1.6323780864118115e+002 -2.2891182706229851e+000
    6.9853601085479602e+002 -7.8739983726879115e-001
    2.0600661494414550e+002 -1.9912999289899878e+000
    9.6392505785504989e+002 1.8198070758096188e+000
    2.3587765513777754e+002 -3.1575600782292170e+000
    2.5937322740549566e+003 1.8232653222437831e+000
    1.5315926828483834e+003 -4.5022544227266383e+000
    2.1818246731049808e+003 1.2608563034377163e+000
    1.2391869670150629e+003 -3.0428880832297134e+000
    2.7093368166799746e+003 -2.6600405177988251e-001
    9.9524890845205732e+002 -1.6528146268760864e+000
    4.8091864303543680e+003 -5.2378148215912046e-001
    8.4607691113743579e+002 -1.9197715408685319e+000
    4.9220684141584951e+002 -4.0996114781027249e+000
    2.2552140749446113e+002 -7.2292112572447653e+000
    1.9408844353295282e+002 -1.6069990235169496e+000
    3.5702719798410072e+002 -7.7071598372579180e+000
    3.2193855575764735e+002 -1.4770704828959460e+000
    1.4426492028265278e+002 -2.6628787141376744e+000
    5.1327710611237910e+002 -1.7241326060670572e+000
    1.1982699523296951e+002 -1.6382031427943180e+000
    3.6508449105202499e+002 -3.9243777666609465e+000
    2.9103563798239378e+002 -6.1301203863930303e+000
    3.2015998413717318e+002 -3.6882765280966545e+000
    2.8323649141302042e+002 -7.5390253104711569e+000
    2.9494255609597582e+002 2.9712668271669163e-001
    1.8904646414522119e+002 -3.3230601583718649e+000
    3.7860569229979848e+002 1.6206594288526450e+000
    1.9613666310796941e+002 -2.2763954652275338e+000
    2.6051845498960629e+003 -3.5966144995362426e-001
    1.2398592313407469e+003 -2.5037586958155726e+000
    2.4895939510226549e+003 4.6950884359424205e-001
    9.3034470222960306e+002 -1.9777578350697096e+000
    2.1697083174957388e+003 -8.3197511675469044e-002
    1.4263758964836236e+003 -2.6153002787981219e+000
    1.6081134348079170e+003 9.8132360404131203e-001
    1.1491240127491994e+003 -2.1096938424433849e+000</input_scale>
  <output_scale>
    1. 1. 1. 0. 1. 0. 1. 0.</output_scale>
  <inv_output_scale>
    1. -1. 1. 0. 1. 0. 1. 0.</inv_output_scale>
  <weights>
    <_>
      4.8735071088840128e-002 -8.7221511668120777e-001
      -1.6960761542923616e-001 5.3147220773547263e-002
      -1.0206214162783006e-002 -2.9669104350176406e-001
      3.1773748252361553e-002 -5.1749912162325697e-002
      1.8300399931260691e-001 6.4223457581509635e-001
      3.1220257361024906e-001 -3.4863462671237666e-001
      -2.7330732410346847e-001 -3.0864259290518625e-001
      -6.5977152275286735e-002 2.4742839639300605e-002
      -1.1897343821298027e-002 -1.1244203774804937e-001
      5.1559531241791301e-002 -1.4683675296705622e-002
      -1.5762552408891650e-001 1.2830431486225205e-001
      3.4504778049231566e-001 1.4415803903008526e-001
      -1.6242685307987123e-001 4.8642239988949343e-001
      -7.1490652369142904e-001 -4.0182282326388354e-002
      -5.6950445554667323e-003 -5.9090539956772756e-002
      8.0906114734734788e-002 6.0271506904400321e-002
      1.5728952080995792e-001 4.3204401174783452e-001
      -3.1077391022523415e-001 -5.2160029215111203e-002
      7.9003767123121946e-002 2.5264132211515405e-001
      6.1778613624775616e-002 -5.8255958888423054e-002
      1.7096489229497697e-001 -4.6213670482082753e-001
      -1.0592997827407775e-001 2.9511003172051364e-001
      -6.2048099402897683e-001 -2.0436447740292291e-001
      -1.1406695344087382e-001 -8.3804783439404396e-002
      3.3731876703258235e-001 1.6776144767720401e-002
      7.9073195235618510e-002 -3.3722266551933722e-002
      -4.3050643480711970e-001 -1.9121872272086522e-002
      8.8333057668184917e-002 8.1056618599367358e-002
      6.5006049787043246e-002 3.2742266884050686e-001
      -2.8968293803461143e-001 -3.0519032798688572e-001
      7.2445497280927695e-001 -4.1973580959176748e-001
      -1.3380642310139196e-001 -5.9697784505030868e-002
      -2.6238368741615614e-001 3.6065578051238767e-001
      -2.7243709443789021e-001 -2.3696780523776428e-001
      -7.1893093210167375e-002 1.6969145257988641e-001
      -5.6687148872482461e-002 6.2434429955264714e-001
      -4.3250046181487967e-001 -1.9214275405905817e-001
      -7.6988021835853168e-002 -2.4684441730194312e-001
      -3.3141235304262029e-001 6.9682454097564336e-002
      -2.4735477284145918e-001 -3.5465012161977658e-002
      1.2558940334995849e-001 2.0321726454256944e-001
      5.1466777792978174e-002 -8.2492497249147145e-002
      8.3330620822470187e-003 7.0020860583285289e-003
      -2.7067871818831751e-001 5.1174013663110394e-003
      1.4592134093621256e-001 1.8193393208079162e-001
      1.1134610156509524e-001 2.4984308529897220e-001
      3.2259214638762401e-001 9.9867487421819487e-002
      -2.8989374021519643e-001 2.3446130472117788e-002
      5.8482043696928765e-001 -6.1725255098988430e-001
      1.1377304131736909e+000 5.6649894144288553e-002
      -4.2320226230451924e-001 9.4134175616890414e-002
      -1.5710043140655935e-001 -8.5876397245653727e-002
      2.6110951507328817e-001 -1.9325091185107137e-002
      -1.0756170634951509e-001 3.6784235074756810e-001
      -1.4596417593925132e-001 -1.2520745861291568e-001
      -1.6203297803315066e-002 -1.5005112985199073e-001
      2.9878580876833799e-001 8.7608368263096525e-001
      -6.9364199341845997e-002 6.2313080573327718e-002
      1.7749977333208203e-001 -1.8876775171666108e-001
      1.2400146092526680e-001 3.2526641193944311e-001
      7.3165694496319711e-001 -4.0727863201549852e-001
      -3.3752546365765529e-001 -5.1353905948057832e-002
      -1.8520881636375754e-002 -1.7664692775588636e-001
      -2.2544564205946055e-002 5.8523914846139641e-002
      6.5167489008385482e-001 7.0905850032132733e-002
      -1.4376202263253618e-003 6.5519962014917818e-002
      3.7237437496825398e-001 5.5186842122976898e-001
      3.0086835728843175e-001 5.0442919652208495e-001
      -7.8815067507555306e-002 -5.2535263814651145e-001
      5.3816037281848328e-001 7.3925026888623790e-002
      1.1452656755364173e-002 4.4755227751315479e-001
      -1.8033746906686549e-001 2.8280685747603040e-001
      -4.7028812212381943e-001 4.1338137994886243e-001
      -4.4039975159540001e-001 -3.7849139229780876e-001
      1.3738309201952601e+000 4.8496006560030953e-002
      -3.7325004324481922e-002 -5.7311549146417995e-001
      6.2721149494677164e-001 -1.4490156693564701e-001
      8.8734205692854409e-002 4.2381929602124596e-001
      -1.1262313938512289e+000 -6.8247483227098726e-001
      -1.3342240616870282e-001 -3.7192326917448959e-001
      8.5005367774978136e-002 2.8144240943122617e-001
      -5.4023852406553767e-002 3.3728374454509236e-001
      -4.0902225205849979e-001 3.1192242944233430e-002
      5.5497148695238718e-001 -3.7880663705464701e-001
      -3.7909959200473553e-001 1.8269801460230060e+000
      5.4706326865983168e-001 -4.1795031235572550e-001
      -4.9819574682005811e-002 3.1238753287632533e-002
      8.1697986503443815e-002 -7.7771978063575398e-001
      -6.6157130245946105e-002 3.6214301474256883e-001
      -1.0718595075685508e-001 5.5913414501372816e-001
      -2.5311052410790222e-002 -3.1424066040063592e-001
      1.8899376273067736e-001 1.9895903842606322e-001
      6.3754040361183165e-002 4.4209808842540284e-002
      -1.7480765634836770e-001 2.0407576651151071e-001
      2.9721794302367077e-001 -2.2530443614621562e-001
      -2.5909097667155623e-001 -6.9512688872524833e-002
      -2.3810278540731568e-002 2.0302294103293375e-001
      -1.2060095600629814e-001 1.1332943490653181e-001
      1.3013704555097591e-001 1.4061732276135447e-001
      -1.4813798495696903e-001 5.3522426781222998e-001
      -2.1042273392204494e-001 -1.1982249858133580e-001
      8.6724513772550599e-003 -1.2849222504367104e-002
      9.3040449597962496e-002 2.8360487356863119e-002
      -5.3961371560427662e-001 -4.0956940490861687e-001
      1.1003447314819317e-001 2.1875108288644893e-003
      -1.4913773941943720e-001 -1.3822620296882596e-001
      3.6348368796193531e-001 4.2596591750331009e-001
      -3.1198612862981023e-001 -3.8859456578009244e-001
      4.5287674657028243e-001 5.2909316401960604e-001
      -1.4747018682468881e-002 1.7577416172219459e-002
      -2.0311862468815017e-001 -7.2508549407354498e-003
      -5.7211428738932882e-002 5.4434824143805127e-001
      -7.0433093188374696e-001 -4.1040036012502966e-002
      3.9181368259566751e-002 -6.5623021128277406e-002
      -1.5090518955588969e-001 -7.6599105484282920e-002
      1.8868437926819068e-002 5.5480946068212200e-001
      5.0459502518669395e-002 -1.6738442168976225e-001
      2.8415570940391547e-002 -3.3356850867893750e-001
      4.7785747010386806e-002 6.9106754337332515e-002
      -1.1680345601036239e-001 4.9151285185686755e-001
      -3.9085564764084035e-001 -8.8426534013966010e-002
      7.6389264982579463e-001 4.2405463864033638e-001
      2.2358373266311928e-002 -2.9000348336770221e-001
      1.3297620393246362e-001 -8.3962848210663757e-002
      2.0900060738437906e-002 -3.3711521264365343e-002
      2.4039197176883839e-002 -2.1516162463321298e-001
      4.2249381836680239e-001 3.8546486205332930e-001
      -4.3834241422951065e-001 -1.3521540460847870e-001
      6.5273777466649474e-001 1.2560524382319954e-001
      1.9146730915464052e-002 -1.3548933985948342e-001
      3.7525614033348331e-001 3.9178586609905830e-001
      8.2078526501618079e-002 1.9265320707201163e+000
      -5.7121057278175756e-002 -9.5933190085406628e-001
      1.3384705652847617e-001 7.4391887968273340e-002
      5.9212763515916540e-002 4.3091932097129021e-001
      -6.3281070535786788e-001 7.0404242610066184e-002
      -5.9093743577001367e-001 5.1400473767323585e-001
      -4.0725600706866838e-001 -2.5946270723974857e-001
      1.2383583822355082e+000 4.5430404501243769e-002
      1.7500986997050067e-002 -1.9993989476167313e+000
      7.4528181826786527e-002 -3.7103430733734633e-001
      1.0721799467078511e-001 4.5616616002263979e-002
      -3.4996228322014811e-001 -6.8767771212023532e-001
      -6.2753572748043285e-001 -2.2598671031957066e-001
      6.1595586365513239e-002 1.8971511383632338e-002
      1.6379013380022078e-002 9.3031267753447167e-001
      -2.4673345908082223e-001 -1.5043852322963926e-003
      4.8013845372124664e-001 -3.9813841668194250e-001
      -3.9830620792605198e-001 3.1977517770789445e+000
      5.4464840407691328e-001 -1.0203625029732275e+000
      -2.1015909191263527e-003 -3.9915671844718531e-002
      6.2884390427934325e-002 -6.9499801595767619e-001
      -1.6114392308510403e-001 3.8580372613235153e-001
      4.8684951451478853e-001 8.0411958847376264e-001
      2.0884277523993075e-001 -4.7794888968769611e-001
      1.9475476799031682e-001 2.1667578491576817e-001
      5.4330606278156710e-002 1.8197396108796787e-001
      1.2654674739836719e-001 4.7946786126062463e-001
      1.7315103354529120e-002 2.6582412452988745e-003
      -2.8987148528008566e-001 -4.7485641947403595e-002
      -2.1696474872055723e-002 -9.3480334140753435e-002
      -1.2624390086961765e-001 3.6934479213048382e-001
      1.4587289637658440e+000 1.0478591652376822e-001
      -2.4719594811515522e-001 1.3608872326530959e+000
      -2.4787008515843065e-001 -1.2637251243092312e-001
      -8.6873334628440144e-002 5.4910116307569975e-003
      1.5832769220936774e-001 9.9975391801474162e-002
      -6.3478260050498070e-001 -3.9132436420873296e-001
      1.3153367202897920e-001 7.4080119881937925e-002
      -1.5297179688262985e-001 -1.5525816569121761e-001
      2.5869767923823433e-001 1.2474688990311429e+000
      -1.9142630054536236e-001 -2.5220015553356684e-001
      4.4556741195544369e-002 2.6137192732816766e-001
      6.7281543775173846e-003 1.0154641610971854e-002
      -1.6322811556766828e-001 -2.5124979725236047e-002
      -2.6990327950404919e-002 5.5390855980754172e-001
      -9.0844897464948915e-001 -2.9725373478781712e-002
      2.3300360959331932e-002 1.4895743519240479e-001
      5.6074958996208325e-002 6.4050491648899824e-002
      1.4755942910193175e-002 5.3480258835240435e-001
      2.6552347184876901e-001 7.2536695548376579e-002
      -3.2195205116615677e-001 -5.6311235980317020e-001
      4.3088286908450360e-002 8.6185872388228113e-002
      -9.0242025405135506e-001 9.2836923338723720e-001
      -2.9448121089099955e-001 -4.7495797666727103e-002
      6.4244265567996273e-001 4.0101759152512201e-001
      2.6523244512187485e-002 -8.6011109079814865e-002
      1.9051029324209176e-001 -7.2528885362286383e-002
      -1.0692275918645501e-002 -2.3844314498925424e-002
      6.3982793141056954e-002 -1.6728137350993022e-001
      2.4417462949760474e-001 3.9965032792725508e-001
      -4.2201333858527207e-001 1.1766736521668594e-001
      1.7153067989123882e-001 -1.9426771703907542e-001
      3.6099692520404902e-002 -1.4731149863641446e-001
      7.0877856267358458e-002 -9.8595010497787142e-002
      -1.2871846139057824e-001 -5.6662600369236250e-003
      -1.9028823040859946e-001 -1.0165708185383432e-001
      1.5485306363183329e-001 -1.0875613881507587e-001
      9.6137875971029740e-002 2.2836761103693226e-001
      -1.9094115212906304e-001 -1.3665406699693544e-001
      -5.5591570383140179e-002 -5.2648599461919771e-002
      -3.1948545564427867e-002 2.6027386534188623e-001
      7.9670263142501405e-002 -1.5697187922378966e-002
      3.1781821229443556e-002 1.4447525673049629e-002
      1.3310740489258047e-001 1.3972283668256316e-001
      -1.3468283137157644e-001 1.5742322322365696e-001
      -2.1015251066117780e-002 -1.5158369542148137e-001
      -6.3069979162247408e-002 7.4287126190396763e-002
      -1.2778116221650546e-001 2.4760275165314993e-002
      5.7765204032196468e-002 -7.4593624234371325e-002
      1.6103098665311549e-001 -2.5743985914846355e-002
      -8.6711191147109037e-003 -4.2480533472041548e-001
      -4.3122749428397600e-001 9.2388092678890602e-002
      2.3974975586739272e-001 3.7038671376300056e-002
      6.7293416091407529e-002 -5.9066933684979206e-001
      -1.3965105633598318e-001 -2.4159414158714188e-001
      8.6567083535964318e-002 -1.1007231809945769e-001
      9.3191684101008018e-002 7.8454589389394119e-002
      -3.1432738810561037e-002 1.2765547965953118e-002
      -1.6694560450845100e-001 2.2788127939356451e-001
      6.1990481167879374e-001 8.5572079867008946e-002
      1.3220355233755965e-001 2.7280646125870382e-002
      2.4663094936618729e-001 -2.3779680798823896e-001
      1.2354886522988658e-001 -6.0548528507732335e-001
      1.1011461447193073e-001 -9.1789547435123797e-002
      1.4119822184194994e-001 -3.6693472848413938e-001
      -7.2528448105002669e-002 -4.5645367787890273e-001
      -3.1372929578412323e-001 -3.9926443233255657e-002
      8.4177866006627314e-002 4.4471230408500367e-001
      9.8511879444718328e-002 1.9016277793031430e-002
      -4.2825283464929649e-002 2.3841898521442073e-001
      1.2629151308789563e-001 -5.5592223251776998e-002
      -1.6718501906632485e-001 5.3572852038328855e-001
      2.8932547671939668e-001 7.1081980290794711e-002
      5.1462326713017051e-002 -6.8443831832962543e-002
      -1.8697802735725699e-001 -5.2470306589722682e-001
      2.2720924700016767e-002 -7.6705971241114473e-002
      -4.1435753871637959e-001 -2.8671619557420530e-001
      1.6258277346504829e-001 -4.2987694585848357e-001
      3.2523727564268509e-002 -1.7412159155284164e-002
      -1.6329375377263286e-001 2.5354354544129865e-001
      3.3777823678407835e-002 1.5141009599081376e-001
      -1.2278939044905664e-001 2.9889607287810610e-001
      1.1644061273103390e-001 -3.9147889557698779e-003
      8.2258650129866037e-002 2.7420626724347735e-001
      -6.0787382073464413e-001 -2.4338069715652132e-002
      5.7302309756676148e-002 -1.5627302185844372e-001
      2.2757566649244897e-002 -6.5393361409767994e-003
      -9.4605247367871431e-002 1.6506199273126934e-001
      9.1939543266835025e-002 -1.4189387494564071e-001
      -6.2328252067611285e-002 1.1178528253728164e-001
      -2.4058628636803767e-001 1.1492836085686375e-001
      1.1042415795494559e-002 2.4266058916491039e-002
      1.8692804607814922e-001 -1.3242431918989214e-001
      5.2971364307865865e-002 4.4070380794204844e-001
      -3.7034078186713293e-001 2.4377887657679614e-001
      -1.6914702473126603e-001 -9.7383430471101401e-002
      -3.9310127740168577e-001 6.0336187773504676e-002
      -6.5972264800365221e-002 3.7052040466092645e-002
      3.6626187786807318e-001 8.7254239833008757e-002
      3.4518833546151106e-001 2.6014507216157701e-001
      3.2214481039752457e-001 -1.6627758918324179e-001
      -1.1461759292703083e-001 -2.3142629733213593e-001
      1.7475857519175980e-001 2.1217883680745137e-001
      -3.3136900736603636e-001 -4.5466186751072973e-002
      -2.4016242043439703e-001 -5.1050733190048236e-001
      -2.1947272755852044e-002 1.0309617231815785e-001
      2.5322336293208814e-001 -9.6121031364553064e-002
      6.6319011189520272e-002 -2.8879090206506858e-001
      -1.2804887707470392e-001 9.9024511792892927e-002
      1.8207087740814423e-001 1.3448302348859700e-001
      -1.8016803129065662e-001 -2.6239357555398723e-001
      2.6244433665865863e-001 1.1868405728207364e-001
      -1.7492437741983333e-001 1.1690336869330900e-001
      -2.2010413246594765e-001 3.9306301810211319e-001
      2.4834190166873973e-001 1.4730547732283561e-001
      1.5366498447086580e-001 -1.3079608068073489e-001
      -2.3407626088322303e-001 5.2112917087205252e-002
      -5.1104147175372872e-001 6.5943654325586520e-002
      -1.0568663510117733e-001 -4.9457613400786325e-002
      2.1118404038858746e-001 2.6444814040637815e-001
      -7.2442617453689273e-001 9.4634310387446893e-002
      1.5277173567984015e-001 -2.5813035430694720e-001
      -1.9601123829732314e-001 4.6491991344717570e-002
      -6.3519670619469326e-001 -1.0222299896462102e-001
      -4.3959916039960156e-001 1.5341500662529315e-002
      1.3387892403193813e-001 -3.4291981617633471e-001
      -1.4388071845459155e-001 1.0418148261990276e-001
      -6.7884601510830234e-001 3.5680448221888200e-001
      -3.9100156916848772e-001 -7.6973677938489124e-002
      -1.4266269359800404e-001 4.4584637515928988e-001
      3.1651220490191267e-001 2.0203256516884288e-001
      7.4683453424330151e-002 -1.6622812694651672e+000
      -1.9940998767305859e-001 -3.8564969883766320e-001
      -2.3098735378780344e-001 -4.9886575417304735e-001
      -7.2577554342112063e-002 -1.0644663221832486e-001
      1.6448708555946664e-001 -7.3810002460199697e-002
      -2.6864741465800956e-001 -2.6869333654905131e-001
      -2.0515206428645982e-001 -1.8387104721269865e-001
      1.7688949887821920e-001 4.4776097243879862e-002
      1.8989204559661119e-001 -1.1310416735146775e-001
      4.3335630702304218e-001 3.7225177227330603e-001
      4.2163513497610695e-002 4.2340060551051362e-001
      -2.5230737798483749e-001 2.4155427169590815e-001
      1.4582706984587510e-001 -2.3008321402533152e-001
      2.3590517898972441e-001 -8.1215820188031335e-002
      9.9727958473053782e-002 -2.4917772551072828e-001
      -2.9212562727368963e-001 2.2956247267590607e-001
      1.4625882439906071e-001 -5.2089400340068881e-001
      6.3526537758653867e-001 1.5561108324815492e-001
      -5.1085172208828211e-001 -2.0642174420475887e-001
      -1.0215670283232450e-001 -1.7013878281508643e-001
      9.4203767792025300e-002 9.3110655002905329e-002
      1.8996283661066157e-001 2.2800208678164960e-001
      8.7429663084779419e-001 -3.8537906733875171e-001
      3.5022218679838346e-002 1.4951287409613712e-001
      2.7158385707926469e-001 -2.5107744870328630e-001
      -9.1551931644603701e-001 2.3947540782054660e-001
      1.7807440180691436e-001 -1.4424397921555360e-001
      1.3095735171738171e-001 -2.9864584407758366e-001
      1.9231315298044521e-001 -1.9115914183482999e-001
      3.5777604630108817e-002 -5.7594193187549181e-001
      4.8305244079467666e-002 -7.0218777049817674e-002
      -1.0557607393113266e-001 1.7448248455937962e-001
      -7.8460907001182231e-002 -8.0625786804350036e-002
      7.2303900965105847e-002 -9.1382097521167105e-002
      1.1095167811664625e-001 2.3461959867207099e-001
      -1.8882145115309584e-001 -1.3325621097001278e-001
      9.4703823194288564e-002 2.5363468193214493e-002
      -7.6091512207547415e-003 2.3883915316293319e-001
      4.6085171761485305e-001 1.4859475694941169e-002
      3.4368976987055842e-002 -5.4815104805039344e-002
      5.7549810510524213e-002 1.0269164047262641e-001
      -1.3955634023478442e-001 1.4680355340342319e-001
      -1.8422228716450725e-001 -1.5334657143941005e-001
      -5.4836380633328310e-002 6.5304579152656653e-002
      -1.0957951382354676e-001 2.3563333720677617e-002
      6.6370851558745794e-002 1.3630155564989754e-001
      1.8074102291907312e-001 -2.2064815482630055e-002
      -1.3209115481371513e-002 -4.3719170210573299e-001
      -4.2042400847920591e-001 1.8691992767930415e-001
      2.2735478922170799e-001 -4.5236283375140407e-002
      6.3330604798511783e-002 -5.7077037478001424e-001
      -1.5017872038826918e-001 -1.8769986286516813e-001
      1.6491262914024588e-001 -2.9543778637837137e-002
      3.1785767867649556e-001 1.0332323548468049e-001
      -3.8883361897060632e-002 2.9818365680610939e-002
      -1.6716388824737230e-001 2.3730404964407306e-001
      6.2752565504755919e-001 1.0014284749481049e-001
      1.3461743275492516e-001 -8.1545476933881349e-003
      -5.2096019567958833e-003 -1.2449222212376578e-002
      1.1535904163644785e-001 -6.2050706639135400e-001
      1.1413715893149283e-001 -8.5810067269098456e-002
      1.4049136473665888e-001 1.4351597741823557e-001
      -6.2614328250206158e-002 -4.4178151806833715e-001
      -3.2893431808162443e-001 -5.4252064040339373e-002
      7.5093959396439106e-002 9.3974860553783235e-002
      -3.3757309827040904e-001 3.1510210373414144e-004
      -5.2420080486628370e-002 2.4229581122690913e-001
      7.2562008736657732e-002 -1.5345215317720236e-002
      -1.5706072098481769e-001 8.7622013136769739e-001
      2.8717006560293834e-001 6.6610247757762225e-002
      1.1913437904487365e-001 4.4854702869043400e-001
      -1.2752630648179594e-001 -1.2956770219031849e-001
      1.5094151166246737e-002 7.3829616177698842e-003
      -4.3655258518286943e-001 1.8774339631621562e-002
      2.5442309932929508e-001 -4.1111121096167125e-001
      1.7226272757762968e-002 -3.1757481173059843e-003
      -1.4383274159300177e-001 -5.7319590287674756e-002
      7.6056466172831011e-003 5.7278421641115806e-001
      -1.4095545272599613e-001 3.0298282929912446e-001
      1.1014864478475715e-001 3.9044529235332262e-002
      7.6348451930090391e-002 2.5957318942646834e-001
      -6.1586569815013714e-001 1.4232438451903207e-001
      8.0227759133685225e-002 1.4224930092627215e-004
      6.6940671114817302e-002 2.5360681054961767e-002
      -1.0731495008973174e-001 1.8537233431487429e-001
      6.2265291544043810e-002 -1.4672987592661606e-002
      -7.4647902277547820e-002 1.3356947901512217e-001
      -3.6378514139191090e-002 1.9036209048484984e-001
      1.0977501405085820e-001 1.1560547532939062e-002
      1.9517946578613604e-001 -2.8935920128791703e-001
      3.7487400317218381e-002 4.3995426448558217e-001
      -3.7063397585073188e-001 2.1999386514493469e-001
      9.8313314561208356e-002 3.5613554154353938e-001
      -2.6321199840610848e-001 -1.5617733631586395e-001
      2.1136963357312336e-001 4.0573796150568342e-001
      3.0827755284582781e-001 1.9884446590035226e-001
      -2.6759481644142069e-001 -7.2125637018861349e-002
      1.8822833880207848e-001 -8.6140106168783211e-003
      6.1147334823082281e-002 -8.1789785121409150e-002
      2.8540528085635782e-003 -3.1823134710700723e-002
      -1.3443587169205004e-001 1.9864891635157894e-001
      -1.8747682300007475e+000 2.2520355936916630e-002
      8.0885323386189867e-002 2.9300606643025917e-001
      1.0949696143478382e-001 -1.9543851819861682e-001
      4.5505523879865450e-001 -2.4701118569397096e-001
      3.2866418297777567e-001 4.2665619365768037e-001
      -6.2996129238430831e-001 -9.7093694168663668e-003
      -5.2580269809533464e-001 -1.8529947005771821e-001
      8.0924094681857558e-002 1.8342697131232902e-001
      -1.7595527670221803e-001 2.4921545065833589e-001
      -5.4024772514522956e-001 1.3580252314376537e-001
      1.8665544226743596e+000 4.6407445502252045e-004
      -1.8388319379035686e-003 2.1477760718602038e-001
      4.3369098960294922e-002 -2.0363658843170190e-001
      -7.2733619663209334e-002 -4.9310304411784911e-002
      3.8430680139152108e-002 -3.1506360992205712e-001
      -2.9575255663322508e-001 2.7222667409750329e-001
      5.7025147973146844e-003 5.9573684562835039e-001
      -4.5552686896826344e-002 -3.5996797056582928e+000
      -1.0276980045677552e-002 -7.6847255009174081e-002
      4.1179223270814400e-002 -6.2287785679365515e-001
      -5.9723966349860304e-002 1.9321456540463947e-001
      1.7310512257083502e-001 -4.5636456119573221e-001
      1.7526656349498559e-001 -1.1278444231723185e-001
      5.1016384220548404e-002 1.3858655647893817e-001
      -2.8314116624615793e-001 6.8503631774233309e-001
      2.4270981047487053e-001 -3.5903589123228656e-002
      7.5292554410826537e-002 6.4779180957657945e-001
      -2.3541852378608644e-001 1.3681850876567686e-001
      -1.0866235789885446e-001 -1.8648824796150182e-001
      -2.8416354465036167e-002 4.1180636538168452e-001
      -6.3960967488564902e-001 -3.0118600434691417e-001
      3.4573360268641468e-002 6.5951523802129333e-002
      -3.1076312178740417e-001 1.8851822711481593e-002
      -9.6377985880484185e-002 2.7386316940607863e-003
      -7.5592641409043967e-002 8.6028191206848723e-002
      2.6713350598546354e-001 -1.3193568361185587e-001
      -1.8963484734787536e-002 1.8945049179309298e-001
      -9.3889398157548112e-002 3.4882947024218449e-003
      -1.0173922536991330e-001 1.6064311402399132e+000
      -4.3444386490690691e-002 -2.8237760072637841e-001
      -1.7296166266063651e-001 5.7115635008400778e-002
      -1.7956832891236679e-001 -1.2130556577600438e-001
      -6.9883237396729359e-002 9.6770606740959508e-001
      3.5816034102892297e-001 -2.4292079914224768e-001
      1.3159144781044451e-002 -1.3360582993959530e-001
      4.2409417043697872e-001 4.5174798362126109e-002
      -1.0138072693637969e-001 1.4557335039470609e-001
      1.1472277388781166e-001 -3.3403527447631565e-001
      3.9686299024449956e-001 2.7991802533595600e-001
      2.8975405510070617e-002 -3.0449590102176610e-001
      1.0945214886189883e-001 1.0313186868590497e-002
      -1.8573944841544549e-001 2.5004089832900273e-001
      -9.6485946793911559e-001 1.6648649595454493e-002
      3.5673092181730970e-001 -1.0134511358146695e-003
      -2.7713340897199429e-002 5.8602431025877599e-001
      1.8303116986683743e-001 -1.8658648639537792e-001
      1.9437642984223516e-001 -7.0728875507898400e-002
      1.5453847378419613e-001 -2.3546000969362317e-002
      -3.8229321552121842e-001 -8.5866384612038174e-002
      -8.6313525335393693e-001 -2.7371567760071691e-001
      -3.4284351374490524e-001 1.5508907629075178e-001
      1.1692741983740373e-001 2.2272172759719250e-001
      -1.6584150499317674e-001 -3.8204972130609016e-001
      3.0584133843787498e-001 4.3043465071043702e-002
      -2.3206517273501471e-002 5.0190699521435389e-001
      2.9707332068747684e-002 8.4760984992311231e-002
      -2.4087341214006464e-001 -1.5624670682875524e-001
      -8.0925260188217371e-002 2.2400837221825887e-002
      -1.5153876708860081e-001 -3.1333411129250976e-002
      -1.9251349524050468e-001 -1.3620306868252735e-001
      8.8083602168940220e-002 2.0369273478619740e-001
      -6.9741927138556059e-001 -3.3688177412066567e-001
      5.4415534527516696e-001 1.3035931527349764e-001
      1.7578979119390559e-001 -4.0168223072544151e-001
      -3.4531431350697406e-003 -4.2129156552876568e-001
      -4.4290492333916420e-001 9.8180963476720243e-002
      2.3704075995396617e-001 -5.0577367875136336e-002
      5.2026570265617500e-001 -5.7151882356465611e-001
      1.1727081220314330e-001 5.3141080732350153e-002
      -1.5863373403758632e-001 -2.5660630541104229e-001
      6.0338104589897679e-001 2.0149184915232163e-001
      -4.1953752500461433e-002 7.3124695556101207e-003
      1.4031158268390867e-001 -3.2452985055366465e-002
      6.1803793567216503e-001 9.3351042624275946e-002
      1.3799415040061269e-001 -1.8968995692248941e-002
      -3.4523739941930892e-001 3.1735036296120522e-001
      1.4643154245248863e-001 -8.5468848365056888e-002
      1.0738501543427290e-001 -3.3625336399219863e-001
      1.3800719825639404e-001 7.5763893126266094e-002
      1.5107816356818346e-001 -4.5262411102664007e-001
      -3.1842968693450224e-001 -5.2474219549657197e-002
      7.4376788372669159e-002 4.6138014638651165e-001
      5.1092532831768407e-002 3.9758068522796225e-001
      -5.3939572125862825e-002 2.2781119668758559e-001
      1.3989827030455079e-001 2.2135084455005002e-001
      -1.7068681780670389e-001 8.7168954792239073e-001
      2.7050491453709669e-001 3.1223254016613988e-001
      2.0375164629100523e-001 4.5641525164912838e-001
      4.4832078516103858e-002 -2.0854060856886120e-001
      -2.2471050460583938e-001 -9.1010498129814127e-002
      -4.1516927622474520e-001 -3.1485765391297532e-001
      -2.6895214117824154e-002 -4.2772586373172627e-001
      4.3887268658729905e-001 3.2693170389019234e-002
      -1.4511356788305371e-001 2.9276206456226550e-001
      3.4485357553682976e-002 8.2463362869974563e-002
      -1.2182349752963485e-001 3.0992979009573929e-001
      2.8093680133475923e-001 5.1199766228117005e-002
      -2.6266017111800904e-001 5.3842486752809005e-001
      -6.2637904585014037e-001 -2.9093263291799138e-002
      5.2167888893658299e-001 8.4001954784832453e-002
      -1.3033483680145730e-001 1.3427239441774354e-002
      -1.3493992607639826e-001 1.6784264860407308e-001
      -1.2897199791857862e-002 -3.5141720227926282e-001
      -5.4302810211896180e-001 3.7748153225208858e-001
      -2.5373801115455286e-001 -1.7427874700773335e-001
      1.3007971306784327e-002 2.7135004820787539e-001
      9.5629928933780528e-001 -1.8691160758712017e-001
      -1.9218809736661091e-001 4.1235247843177836e-001
      -1.3389419211524617e-001 2.4288294535954780e-001
      -1.8099584929431778e-001 -9.1637326700907060e-002
      -1.7507908781120268e-001 6.6986754140487562e-002
      -1.4923514785176703e-001 4.0190200412514143e-002
      3.7469406217201118e-001 1.0102546332200378e-001
      8.7265754192676770e-001 2.4268217705600995e-001
      1.6454723817066447e-001 -1.6998416222089424e-001
      -1.0518887088543422e-001 -2.3373781035936142e-001
      1.8833400214503376e-001 3.8938576812024217e-001
      -3.2602198871041965e-001 -4.9938969863804472e-002
      2.5735372839715571e-002 -5.0995072279358922e-001
      -1.8774389882631227e-003 -7.4830767509580634e-002
      2.3907833953460081e-001 -9.2461679156580781e-002
      7.2649070862064152e-002 3.9127839452209587e-002
      -1.2397961697146985e-001 6.2170916866714776e-002
      1.9628290313581773e-001 1.3572010574316035e-001
      -1.1120648990687118e-001 -1.6655238405388534e-001
      7.0709377429900233e-001 3.2787314152588665e-001
      -1.7345549489514231e-001 1.3229693997563971e-001
      -4.4435466981577765e-001 3.8378258007388344e-001
      2.6644569655922856e-001 4.3198576842405501e-001
      4.3565201774392603e-001 -1.3433742706423740e-001
      -2.3288731519568556e-001 3.3912133617090862e-002
      -5.3103907048672805e-001 5.7237915646040904e-001
      -1.2531253250382157e-001 -5.6055515547045090e-002
      1.6379872032599266e-001 2.5616359747669082e-001
      -7.3713887300975900e-001 -2.2657434069792010e-001
      7.9809017227063461e-002 -2.5974349476353464e-001
      -8.6710863151520476e-002 4.4743106854786940e-002
      -6.1960393814545767e-001 -7.7925746787370895e-002
      -4.6022137830667426e-001 3.1919561305493990e-002
      3.3025443508083291e-001 -3.1689668942323401e-001
      -1.4350914639463080e-001 1.0746389607497367e-001
      -6.8109444654933371e-001 3.4188525350814408e-001
      -1.5536724046270481e-001 -5.7765961322906706e-002
      1.0823268853170673e-001 4.5139786645200480e-001
      -3.0957894517108803e-003 2.8323683637347177e-002
      -7.9137819814081231e-002 -1.6578832538303470e+000
      -4.3948969666990266e-002 -3.9526297378221731e-001
      -2.0974010677847715e-001 -4.7988788583134945e-001
      -1.1795626222484452e-001 -2.7313221641397772e-001
      1.4337158589714211e-001 -1.6869444495664535e-001
      -2.7843204314317888e-001 -3.2041275401884789e-001
      -2.1699727803657815e-001 -4.5850416853445186e-001
      -4.2609784135766916e-002 2.1034668143433666e-001
      1.5185064806200074e-001 3.2481126942938759e-001
      4.1937956957834366e-001 2.8535795902887223e-001
      2.3479261163138712e-002 4.1763295719636850e-001
      -1.4537610054551320e-001 2.3087126571668104e-001
      1.2913763247432633e-001 -2.4440030247734515e-001
      2.4602840207492943e-001 -8.2275548062662171e-002
      -1.2031833024037371e-001 -5.6261891745316178e-002
      -2.9127532544756884e-001 -4.6118078946128585e-002
      2.6663934938405010e-001 -5.2385804061877828e-001
      6.3589057964497675e-001 1.6054603995353534e-001
      -5.0808316926648500e-001 -8.3303004371061792e-002
      -1.1535961534966055e-001 -6.2745870216860747e-002
      1.3165352271556482e-001 7.3245729984790495e-002
      1.7862511057115191e-001 2.2101970955979167e-001
      5.4332607463523508e-001 -3.6373977823159209e-001
      2.5143934061937223e-001 1.6461724689834020e-001
      -1.1122699958077308e-001 -2.6834619432343265e-001
      -9.6060750835453734e-001 2.0326878830148226e-001
      1.7849384101645666e-001 -1.6240074782204739e-001
      1.4926120643078883e-001 -5.0426960373993202e-001
      8.6195186680807265e-002 -2.0095166699880160e-001
      -1.5909267646891032e-001 -1.5714939244756147e-002
      1.0750424868955762e-001 1.0748849457917134e-001
      1.7803764984940215e-001 1.1941330986242731e-001
      2.0584915179089919e-001 -1.4594756056911756e-001
      6.1489695623940555e-001 -1.5069717672839897e-001
      -4.8440896011952483e-001 3.8802198096840379e-002
      -8.5150474209136115e-002 1.7161215986004338e-001
      -4.8720529587724837e-001 8.9906513293701890e-002
      -9.8316827966639556e-002 -1.7186899531739197e-001
      5.6570153938353664e-002 1.1601205921062120e-001
      2.2772843283540459e-001 -8.2830324335566100e-002
      -1.2015033489977979e-001 -1.2187427520095448e-001
      -1.1625192070284111e-001 -1.9301127811442353e-001
      -2.0630118799955810e-001 -1.2997783744366395e-001
      8.6900903205480717e-002 -4.7777591086100668e-001
      1.4870113306878055e-001 6.2219793695171899e-001
      -1.1531372535476101e+000 9.6839264571527361e-002
      -2.1422762186921998e-001 4.4125698443543365e-001
      2.3601847933939532e-001 -1.0327017671512381e-001
      1.5247364959454973e-001 1.5075175262273707e-001
      4.6704388218063553e-002 -7.2046333898891771e-002
      -1.2151559065125601e+000 -2.4733627310988261e-002
      -2.0664109954569720e-001 -1.8011447670877365e-001
      2.1265419005215780e-001 2.0964102895165063e-001
      -2.4601623857959001e-001 9.4241591379907549e-002
      -1.8591882314398606e-001 -1.3015017134237103e-001
      -5.0924511741117395e-002 5.1998943260247080e-002
      5.2338792204976101e-002 2.0179081112839642e-001
      -2.9520501134853849e-001 1.5143709345479267e-001
      6.1546748915160010e-001 -6.1496014233423135e-001
      -7.2657908284008133e-001 1.0215644255440610e-001
      -1.6784168422756132e+000 3.4427047849702375e-001
      -2.8209502509974688e-001 1.6918164690883469e-001
      9.4974223308481431e-002 1.2676169923793630e+000
      3.7515729240889780e-003 2.5407731141160905e-001
      -3.8317599342472508e-001 -1.2459552206881597e+000
      -5.2556953926065263e-002 -6.5205843433963506e-001
      -2.5361189824344699e-001 -2.2006581638395173e-001
      -5.4650989115046178e-001 9.8959186354251383e-002
      8.9126347638291015e-001 -1.5977606820491283e-001
      -2.2276733487738098e-001 -3.6697047610091732e-001
      5.6494375104243134e-002 -2.3769534191354559e-002
      -6.0758272780668610e-001 -5.0079331297415049e-002
      2.2670529233290992e-001 3.8714176864145816e-001
      -5.3238716937779968e-003 6.5264595777308154e-001
      3.3482742168056440e-002 -1.6654829026618179e-002
      -6.5645491929809030e-001 6.3530754337195405e-002
      -1.2665251006614001e-001 -1.4614975742727243e+000
      2.3282725026556972e-001 2.7517376472203058e-002
      -5.2377381494258335e-001 -9.7809042976558902e-002
      -2.3744518625326561e-001 1.6873483116360549e-001
      2.5922974402110271e-001 -3.6715323932151622e-001
      2.5288518655150016e-001 -7.7800604921544045e-002
      -9.7554310317058288e-002 -2.7430049458581696e-001
      -1.4975915219816013e-001 1.1918715058035520e-001
      -1.9794831612129256e-002 1.6515671603703222e-001
      1.3202101912714811e-001 1.3610359440128486e-001
      2.0050599016920095e-001 -1.6916312133398989e-001
      5.0185665686812153e-001 2.2151158660308723e-001
      2.5935718079108400e-001 -6.1509630682102467e-001
      -1.5967399824001682e+000 -1.8372437463700725e-001
      1.6385021462251725e-001 -1.4022147581640110e-001
      -1.1926376848952323e-001 -2.1377525116448826e-001
      -1.7455412451407992e-001 1.9280932521261765e-001
      -1.5033865517798409e-002 7.4986697285033960e-002
      -5.4279330224174249e-001 4.7064703766122165e-002
      3.9166221110041122e-001 -1.6905789101018012e-001
      1.6982765502353400e-001 8.7724528234777582e-002
      -2.0492118168519233e-002 1.1368937299927812e-001
      -2.1885949778754112e-003 -2.3983013552371285e-001
      1.9553803350286675e-001 3.7618235821251833e-001
      -2.4917036981043070e-001 -4.4618973763140946e-002
      1.2727181179873330e-002 -2.5054498559123245e-001
      -4.4283967024630594e-001 -7.8618802204806590e-002
      -3.4183833755259399e-003 3.4292201385079449e-002
      -3.4990953278402806e-002 1.4732194021435503e-002
      1.3771258887748750e-001 -2.0488193044858333e-001
      1.9151553496951149e-001 1.3541751799165186e-001
      1.5638878331408543e-001 -1.8256374137003442e-001
      1.1706399038450437e-001 -5.8121993885731416e-004
      -7.7730492923525712e-002 -1.3417017945442938e-001
      -1.5803170475995010e-001 4.7827116764963773e-001
      -3.7497137728675155e-002 4.1482810826734018e-001
      4.1219934807765879e-001 -1.5936168106200158e-001
      -2.1907948854528320e-001 3.8925794143754050e-002
      1.0249272155014953e-002 5.7488768152804381e-001
      1.2843773624582500e-001 -2.2420089514790520e-002
      -8.9782623819899321e-002 2.6937608226168763e-001
      -3.6553357559923166e-001 -9.4094459653473989e-002
      2.3592857352138560e-002 5.8418601830385547e-003
      1.8332522838456436e-001 -2.3923917057916053e-001
      -6.2596933137115740e-001 -1.0163361179546536e-001
      -1.3579948256367499e-001 1.8545103993592385e-001
      -2.3415005360651452e-002 2.5337083340855656e-002
      -1.6313834895533394e-001 6.3085617516533121e-001
      -1.0745319499139697e-001 9.4183122432509425e-002
      -1.4923840853766071e-001 -1.6863920890915617e-002
      -1.6679844724081842e-002 4.5308474327437748e-001
      3.2722891400444643e-001 1.8240298453226264e-002
      -9.8412198989058772e-002 -4.6375583422994343e-001
      5.0645471496573935e-001 -3.8649224127345672e-001
      9.7096901169288236e-002 -3.4566373518213692e-002
      -1.1706843775181279e-001 2.7888543842259195e-002
      1.8018597825855634e-001 -8.6315219283480538e-001
      -2.8948534041615720e-001 -3.1512536891088355e-001
      -2.1066143743032861e-001 -4.5084793631952108e-001
      1.0134820780799512e-001 2.2262759391082909e-001
      -1.4403817998387689e-001 7.8443233282372821e-002
      4.1896558755040336e-001 2.9283018443153835e-001
      -2.8920455180384419e-001 4.0501439936864247e-001
      -5.9734186229365473e-003 -2.7910438775868223e-002
      1.5346911223073625e-001 -2.8832865603515162e-001
      -1.6382127308650896e-002 -5.5408976347892891e-001
      1.3658419608649985e-001 -3.1493201598239262e-001
      -1.1600542211489304e-001 -3.7535466501303891e-002
      2.5362610920640932e-001 -2.5851645452555061e-001
      6.1227806529976292e-001 -1.4075032139299601e-001
      -5.1944447489980594e-001 1.7533576274932380e-001
      -9.4750172581004016e-002 7.5973680382625764e-003
      1.2768293295806460e-001 -1.8489352647202970e-001
      -3.1916342814451315e-001 3.6512758920764593e-001
      5.5805167380267762e-001 -3.8174408454953546e-001
      2.5613135279731003e-001 -1.1021057749172236e-001
      -6.3407966892731149e-002 -3.9002521074560270e-003
      -1.9584581189060901e-001 1.8431599405295118e-001
      -2.5483299368169393e-003 -4.3552081712988011e-001
      3.7456653935102746e-001 -3.7349712553995898e-002
      1.6500162341015412e-001 7.1864549449560874e-002
      1.7952498897790609e-001 -7.6078631139152864e-002
      1.7472910630740598e-001 -2.8365836925707530e-002
      -3.7420353492192471e-001 -1.0156514736838473e-001
      -3.2792081705897858e-001 -2.4245417153222174e-001
      -1.7996408250618262e-001 1.7157531084501551e-001
      1.0150851100429850e-001 2.4105080035902421e-001
      -1.9144776111164807e-001 -2.2197916469338791e-001
      3.3409459280052833e-001 3.2312945181390877e-002
      -8.2152832799523429e-003 5.0183440172987537e-001
      2.3746150312891491e-002 4.7818411511985050e-002
      -2.2728771492343500e-001 7.1301978423814291e-002
      -7.6593476086042611e-002 1.7687567639327065e-002
      1.0379223165686578e-001 -9.2035680940157877e-002
      -1.8687011992293076e-001 -1.4001720675185209e-001
      1.8425376511050373e-001 2.6347906214505473e-001
      -6.8847900643826032e-001 -3.2338015009523569e-001
      1.9418816454603632e-001 -1.1607413956738639e-001
      4.3196731785137987e-001 -3.9475328479891358e-001
      -2.5626359308657354e-001 -4.2160555831672397e-001
      -4.1629663701430752e-001 1.1052861989319129e-001
      2.1493058654928504e-001 -4.5524681976925524e-002
      5.1946423375107742e-001 -5.9666223330614110e-001
      1.0715774051767275e-001 6.8012831831943926e-002
      -2.2404310547881973e-001 -2.5146581026110609e-001
      7.5319941280316316e-001 -4.0056365648168002e-002
      -5.3762603284489535e-002 2.5145913822636479e-001
      9.1486638795496275e-002 -5.2787687169601666e-002
      6.3641298220811549e-001 8.5228338191101691e-002
      4.6061995995548838e-001 -3.0898689055342529e-002
      -3.2416559740864487e-001 3.2423389782593526e-001
      1.4649755242711937e-001 -9.7922438073263063e-002
      6.7097430875452913e-001 -3.4441876830618129e-001
      1.4586957579510659e-001 6.0946296189993053e-002
      1.3028294911888119e-001 -4.5929512003283052e-001
      -3.1307993338037643e-001 -3.0845881722706289e-002
      7.7698360750580467e-002 4.4707264705376321e-001
      5.6665723756549054e-002 3.9162754301260638e-001
      2.0230919486154081e-001 4.9804580297540191e-001
      5.4369854094910852e-002 1.0115654143596943e-001
      -1.5271469452262101e-001 1.7662711845983456e-001
      2.8639994093056093e-001 2.3338995015073405e-001
      2.2332214727641625e-001 4.6382495381918137e-001
      5.0457627343761947e-002 -2.0838680075134930e-001
      -1.8377696669302881e-001 2.7274046519449591e-003
      -4.1145619825466528e-001 -2.8643669686096596e-001
      -3.2841835159966901e-002 -4.1616862961309975e-001
      1.3433163539276188e-001 -2.4381987205699007e-001
      -1.3906963614137077e-001 2.4823897696076724e-001
      -2.3920757216911878e-001 5.3132673306976921e-002
      1.8337260131787769e-001 6.6257393330546505e-002
      2.8672281286994039e-001 3.1516073760241271e-002
      -2.7642995976774259e-001 5.3856425073930758e-001
      -6.2376988630819796e-001 -1.4945119024169246e-001
      5.1385404309217264e-001 2.1257680519953506e-001
      1.2222541330048919e-001 1.4746666231870359e-001
      -1.1984965005462665e-001 -7.1780108859256328e-002
      -1.6333592449028808e-001 -2.4751329806740274e-001
      -8.8270893763377178e-001 3.7576176893034452e-001
      -4.0592118050889900e-002 -1.4484342244522250e-001
      1.2603041086079875e-002 2.3672656896873193e-001
      9.5051989902174072e-001 -1.9878840452399332e-001
      -1.7482869330756079e-001 1.5382496264236772e-001
      -1.4572976473037658e-001 4.8395227707797805e-001
      -1.7353139387162125e-001 -1.3592581990250691e-001
      -8.5855724278842749e-001 -2.7061224500274820e-002
      1.0876523832998911e-001 2.8885627856267221e-001
      1.6772546573315281e-001 1.0889780610208880e-001
      1.8103677582379313e-001 6.0418868184125155e-003
      1.6356211695319778e-001 -1.7351700573326584e-001
      -3.5541102524848311e-001 3.5737528866157331e-002
      1.8924748996802548e-001 1.6698154231905202e-001
      -1.2472666356218620e+000 2.3829462251865707e-001
      -2.2331570865013495e-001 -4.0022335600497105e-001
      -2.6249056905933078e-002 1.3011154105989095e-001
      2.3741327228158424e-001 -7.5500297631435523e-002
      2.0358578976828468e-001 -1.2050587544021352e-001
      -1.0597644073186240e-001 4.3721675616434766e-002
      6.0890600811468736e-002 1.4034805420057284e-001
      -1.0036397714041516e-001 -9.8318471407982200e-001
      2.1819900871652384e-001 6.0636173993229336e-001
      -1.0306758443621491e+000 1.1149680338029445e-001
      -4.7233120045010579e-001 6.9007536304798278e-001
      2.5360224214930838e-001 1.3850541859736659e-001
      1.3862279989033066e-001 1.5220889913622165e-001
      2.7079324596917143e-002 -2.2370417774591334e-001
      -5.1709590066192046e-001 8.7301509904512520e-002
      -2.2337176385006396e-001 -2.2522487375233510e-001
      1.6576597870732868e-001 2.2849935745679748e-001
      -1.3165139058540931e-001 3.1576342425955917e-002
      9.9521475846755234e-002 -2.2568141673395026e-001
      7.3070955899853490e-002 2.9088762353546498e-002
      -2.2789086859949381e-001 1.8216533693341980e-001
      -2.8402062767227598e-001 2.6938747935354612e-001
      6.6721133442549019e-001 -6.1093940838263949e-001
      -1.3245765189017428e-001 9.8598244190233303e-002
      -1.6770086116733673e+000 5.9054974618564227e-001
      -2.5233388474607515e-001 1.1227408584456509e-001
      1.2923342903269022e-001 1.2597835392608263e+000
      -2.5056960460202761e-002 2.6993752058459586e-001
      -3.7516355717113758e-001 -1.2642098109969284e+000
      -5.8081543095624251e-002 -1.1189242270597850e+000
      -2.0897416573430322e-001 -2.0621827521044822e-001
      -5.5344497569866979e-001 -1.2239701119215673e-001
      1.6419399665106524e-001 -1.8583140581606292e-001
      -5.4755461579972642e-001 -2.7644570724018169e-001
      6.7439259558549361e-002 -1.8608978619755751e-001
      -2.3670547668157510e-001 -5.1141668621750715e-002
      2.1740195903334608e-001 3.2691003708207939e-001
      -1.3368435515832272e-002 1.1263542430333677e+000
      1.5924267026254085e-002 -6.9053901021074319e-003
      -6.8773062129299822e-001 1.6766257094327255e-001
      -1.3556985752283252e-001 -8.6749143592262845e-001
      2.3030488974936769e-001 1.0845646232218422e-002
      -1.5938302817317992e-001 -4.1999002903505578e-001
      -2.3543597696337856e-001 2.3580649286910665e-001
      2.6414230708011210e-001 -3.6788049861117833e-001
      2.3477083864667120e-001 -1.0654026403027571e-001
      -1.1029078199035117e-001 -2.1693648027333690e-001
      -1.0347447583056410e-001 -1.4802492179147414e-001
      1.0774621528665604e-001 7.3276238620607795e-002
      1.6498749436047258e-001 2.2355883559328882e-001
      2.0626152091732342e-001 -1.6259966094097603e-001
      2.3273022222007436e-001 1.7269540809193715e-001
      2.6008944231537229e-001 -6.5780009707660425e-001
      -1.8580624984130607e+000 1.0584785776942668e-001
      1.9483691937372832e-001 -1.4016017890583843e-001
      1.4767867092648096e-001 -2.0862583552893099e-001
      1.7934122532072211e-001 -1.8947231060786149e-001
      2.6106687979436272e-002 -8.6888453841148433e-002
      5.3291813056846993e-001 -1.9781115698742954e-002
      -3.6434358982171533e-001 1.6695687656390859e-001
      -8.7486596941968786e-001 -2.6616288854550518e-001
      8.3709391375223249e-002 -9.7897922076344401e-002
      1.0961971770897883e-001 2.4299162783199463e-001
      -1.8694139026494183e-001 -3.7960266398442155e-001
      3.2968342474927137e-001 3.5081565376912482e-002
      -9.0555160682684200e-003 2.5301639214611793e-001
      2.7247264289629580e-001 2.6393985453425563e-002
      1.0345848652071832e-002 -1.8283149835884693e-001
      3.2647410863953327e-002 3.8216402205846600e-002
      -1.4536820080909840e-001 -9.1160137398224178e-002
      -1.8162960201720760e-001 -1.4741470711659344e-001
      -7.4236431722300614e-002 1.9864390834509990e-001
      -6.9690385601783034e-001 -3.2890452046813434e-001
      6.1008157919064387e-002 1.4765549336396164e-001
      1.6573717496949508e-001 -4.7327054123730583e-001
      -6.6651722335515241e-003 -4.2880324758608090e-001
      -4.4368971497053256e-001 1.0576845416541639e-001
      2.3394596259338768e-001 -3.5127655775728350e-002
      4.3102784099472533e-002 -5.8739935761083728e-001
      -1.5676206635390916e-001 6.4198931081716773e-002
      9.2948483163577761e-002 -2.5476547004143085e-001
      3.5693625528008160e-001 2.2684024661205615e-001
      -1.1126539538036339e-002 7.1413758279058794e-003
      -1.7538129003871186e-001 2.4232118973751968e-001
      6.3403621181219627e-001 9.3093647219406536e-002
      1.3714105952726949e-001 -2.7577731517552925e-002
      -3.3994730266158985e-001 3.1597716687531130e-001
      1.2407127280289716e-001 -6.2828392384222531e-001
      1.1857899088791136e-001 -1.0830766879467627e-001
      1.3787294906709116e-001 3.2496159147195856e-002
      1.4470708361806631e-001 -4.4604635920688523e-001
      -3.3030816523350559e-001 -4.9334228242515668e-002
      9.8722751345552959e-002 4.5165310054700819e-001
      2.0955318282880384e-001 4.0018834932717595e-001
      -4.1382037045078458e-002 2.3260346407921445e-001
      5.2508740440531693e-002 -2.1019964139481845e-002
      -1.6608876692443783e-001 8.7890221315638772e-001
      2.6513212939915226e-001 3.2003992486305033e-001
      2.0712706042934947e-001 4.4065122795629480e-001
      -1.0542568667219938e-001 -2.1244908584839134e-001
      -2.3812718690013321e-001 2.1802465101581875e-002
      -4.4092563960346076e-001 -3.1346518070942503e-001
      -2.6311020188833533e-002 -4.1140637289860205e-001
      4.2601080581337575e-002 4.3858318128854386e-002
      -1.4724817096106921e-001 2.5253227132920320e-001
      2.4131402458737145e-002 7.9889712477222138e-002
      -1.3598813285806161e-001 2.9222518224212285e-001
      7.2076712336506221e-001 3.8666770852696972e-002
      -2.6242129005699155e-001 2.6018526027581423e-001
      -6.2553387202554611e-001 -1.2222301706597891e-002
      5.2299191512331966e-001 -1.6943959721892851e-001
      -2.6492968779706260e-002 1.6909326807489508e-002
      -9.5942590185703600e-002 1.6600306390643907e-001
      8.2691763202989266e-002 -3.6504530142615815e-001
      -5.6070723681111778e-001 3.6718271843634054e-001
      -2.5397678556576631e-001 9.1963399129063622e-002
      -8.5225499374295879e-003 1.0950763622447969e-001
      2.1689067025001518e-001 -2.2615051358456867e-001
      -2.0682098540126811e-001 4.2618678707325175e-001
      -3.8850390359841880e-001 2.2786503911714812e-001
      -1.8274975511131070e-001 -1.5775272726234571e-001
      -8.5108327403197503e-001 -2.9713104695106150e-002
      1.0327333349777119e-001 2.8784887372585038e-001
      1.8265357159966358e-001 9.5662933379216331e-002
      1.9164963930552911e-001 -1.0911206983316612e-002
      1.0112520370784190e+000 -1.5242791251198493e-001
      -2.3400801109139210e-001 1.7968093783973231e-002
      1.7686671164471768e-001 1.6074194759994695e-001
      -1.2226197855298275e+000 2.2052692126318491e-001
      -2.5024850195261855e-001 -3.8502825226378512e-001
      -1.7495811680793331e-002 1.2706105439959847e-001
      2.4298465853961729e-001 -9.6014546327142972e-002
      2.3621014297035156e-001 -2.4905713131936894e-001
      -1.1431706196455270e-001 5.6604766746498843e-002
      4.3124082851926461e-002 1.4154821992489258e-001
      -9.5922727691142670e-002 -1.6366193131645144e+000
      2.1911084226152316e-001 6.2858670639476788e-001
      -1.0706602542956654e+000 1.2186631525982781e-001
      -4.8324559704404946e-001 6.8525567048790392e-001
      2.1816895430976802e-001 1.5499487034785070e-001
      1.5158445434893536e-001 1.7405597580246226e-001
      1.5593212964651765e-002 -2.3234043822042416e-001
      -5.2149601131674783e-001 8.3204464986360707e-002
      -2.1803498876106459e-001 -1.3319129550670541e-001
      1.4957237193903183e-001 9.7167523441218873e-002
      -1.4673357182741778e-001 5.7536550316284248e-002
      7.3336605580691591e-002 -2.4869799274403823e-001
      8.9924200667806514e-002 4.2327920947288170e-002
      -2.0523304776985501e-001 1.3128025126378168e-001
      -2.8804640970101292e-001 2.4172102020176991e-001
      6.2994210410833462e-001 -6.2058983481131202e-001
      -1.1739445671678007e-001 6.8124938333631119e-002
      -1.6523283710732697e+000 5.8603748649023124e-001
      -2.7094344045066815e-001 1.2374830701902999e-001
      -1.5453971711173040e-001 1.2614779461941157e+000
      -3.6073671499710159e-003 2.6346328947020026e-001
      -3.7617839534949427e-001 -1.2660705695926047e+000
      -1.9134944903864379e-001 -1.1369810307605079e+000
      -2.6505613944199058e-001 -2.2957478025279338e-001
      -1.0228094752816472e+000 1.7666435109113974e-003
      1.8460813291635000e-001 -6.7773045458246153e-002
      -5.2739506130193692e-001 -2.4825520587725619e-001
      6.5195110630072467e-002 -1.7732125468738363e-001
      9.3645122377790824e-002 -1.0948675736546072e-001
      2.2257715874225434e-001 6.1057567390656964e-001
      4.9697397358441286e-003 1.1485108858705244e+000
      -5.1893070398928945e-002 -9.2114832791136414e-003
      -2.4486959528974422e-001 2.2473074469728654e-001
      -9.5949998246656301e-002 -9.2298004028142189e-001
      2.4556222101111658e-001 1.4666465284503235e-002
      -1.4043860957864934e-001 -4.4066845692910339e-001
      -2.4074675946331581e-001 1.9895892400518878e-001
      2.3548753939244685e-001 -3.8643903017251613e-001
      2.1151780137047976e-001 7.3086442659020655e-003
      -1.2243006178802447e-001 -2.0295493373331785e-001
      -2.6210019502694898e-001 5.1767760951334299e-003
      1.0744591362636893e-001 1.6093343012672143e-001
      -4.9365900557096082e-002 1.9509238903583234e-001
      2.0235051970260351e-001 -1.7989131598253114e-001
      2.3589884143901127e-001 1.5925357671423090e-001
      1.8098841943316230e-001 -6.1211952340504650e-001
      -1.6715572199975453e+000 1.3169127210821763e-001
      1.7715778339415159e-001 -1.5749143385324116e-001
      1.2355507056692176e-001 -2.3132432215272131e-001
      1.8601558808029423e-001 -1.6260307402203930e-001
      3.6647436362171770e-002 -6.9404904559118907e-002
      5.2232014168244423e-001 -1.9641197786589557e-002
      -3.6766242599791454e-001 1.7326450130557355e-001
      -8.7562044168822672e-001 -2.6946639247782489e-001
      -3.3280697213239901e-001 -9.6001252927724823e-002
      1.1155250568789737e-001 2.3186789907582001e-001
      -1.7716264402590937e-001 -3.8459406446911093e-001
      3.2067357184120326e-001 3.0822617949956797e-002
      -2.0947530457989350e-002 5.1449194100772933e-001
      2.6894799864679109e-001 4.7608904148188434e-002
      4.3930724402166657e-003 -1.7907916422458853e-001
      5.5831747203783477e-002 3.5746473904009923e-002
      -1.4340607119742771e-001 -1.0239554125834974e-001
      -1.7065816172719547e-001 -1.4804874043778299e-001
      -6.9816556401157817e-002 1.8160215114592695e-001
      -7.1104383750168110e-001 -3.3592784824531330e-001
      5.6923675753496161e-001 1.2119946687652026e-001
      1.7753674569320477e-001 -4.6861276332664936e-001
      -4.9045635396035171e-003 -4.1553436129974874e-001
      -4.1707606666707775e-001 8.3602708983204002e-002
      2.3986168714655048e-001 -2.5980447297563013e-002
      5.8002595694864198e-002 -5.9230930723244568e-001
      1.2772455545578854e-001 6.8037366766716595e-002
      1.0150564234432660e-001 -2.5060032651331587e-001
      3.5767794635062850e-001 1.9984901359396109e-001
      -3.7790307789250382e-002 1.0138623682312017e-002
      -1.8661790773741041e-001 2.4423218357582352e-001
      6.2711428126034097e-001 8.5309716427773449e-002
      1.2493928339701939e-001 -2.0273182149360511e-002
      -3.2961025745500466e-001 3.1751241892416943e-001
      1.4091982856736751e-001 -6.4332474741435119e-001
      9.8046357499965028e-002 -8.5163068114562368e-002
      1.5109178715532881e-001 5.3885372151146305e-002
      1.5261559934654270e-001 -4.3326506912752344e-001
      -3.2696476337130587e-001 -3.8872832958685613e-002
      9.0283391971437546e-002 4.3651188547737002e-001
      6.9118544924727063e-002 3.9950067880503803e-001
      -5.3322977052030276e-002 2.2691431103009657e-001
      1.2897542557899810e-001 -1.7288384663193324e-002
      -1.5639268016533997e-001 8.6752225328677968e-001
      2.8979650741099622e-001 3.1589064630274027e-001
      2.0694425164952385e-001 4.4223989222188775e-001
      -1.1843871078323366e-001 -2.2417469932870959e-001
      -2.1627352492817517e-001 5.2374775371303306e-003
      -4.2484110161612965e-001 -3.0585216687875677e-001
      -4.7629983522941476e-002 -4.2815665495020916e-001
      2.6760468473981811e-002 2.2883297008990111e-002
      -1.1708510646889389e-001 2.3770030070483736e-001
      2.6813879625280274e-002 6.0268413062248914e-002
      -1.4186023458958102e-001 3.0486183585313320e-001
      6.9226999166394310e-001 5.5343403700687799e-002
      -2.6561767044661910e-001 2.5814341565188037e-001
      -6.3166063245358317e-001 -1.8803422738349274e-002
      5.1632141585622271e-001 8.9614230131540254e-002
      -1.9503394202694386e-002 5.1694556113683152e-003
      -1.2763500902415872e-001 1.7324285651232710e-001
      7.8541806984850901e-002 -3.4527521598271732e-001
      -5.3980015719908447e-001 3.9232886791249832e-001
      -2.4416441134904335e-001 9.8209274946454594e-002
      3.3803491867626934e-003 7.8059669722127867e-001
      2.0413672161052299e-001 -2.0212178648903112e-001
      -2.5209350303135847e-001 4.2845118918816916e-001
      -3.9700573698583580e-001 2.3831441559207928e-001
      -1.7961065560656614e-001 1.8684233965247635e-001
      1.0896007253158466e-002 5.5244034188958860e-002
      -1.5720046019674480e-001 4.3385807629032797e-002
      3.6914897107116285e-001 9.5715803600742201e-003
      5.5071639789224702e-001 1.9227552728183758e-001
      1.5742604294158233e-001 -9.1504209471419420e-002
      -1.0371957388484043e-001 -2.3005447027188586e-001
      1.9049170015709910e-001 3.7446358141804337e-001
      -3.1132848945694513e-001 -3.6503994397344863e-002
      2.2534815096945871e-002 -5.2505123405759369e-001
      2.9670344322702151e-002 -5.6454661311770016e-002
      4.0107742104712962e-001 1.6860969722982855e-001
      -5.6422625436820861e-002 1.1427958840876769e-001
      1.4000869764450552e-001 4.1512148306535449e-002
      2.7662213018363313e-001 1.4145114612786341e-001
      -1.0468814879277870e-001 -5.2131829736580614e-002
      6.9285750641386723e-001 3.3983716981199641e-001
      -5.4962252285722302e-001 -1.4430331409602115e-001
      -1.6363994239680968e-001 4.6598134669874236e-001
      -1.0825473139228013e-002 4.1700929434475631e-001
      4.1592909904203601e-001 -2.5054837398848362e-001
      -1.0913069217367449e-001 2.7541508314368079e-002
      -6.9841119621502606e-002 5.5245294077445872e-001
      -3.8333155320036555e-001 7.3148366160362327e-002
      -1.3800562645946121e-001 2.4594148767206761e-001
      -8.9386886905298613e-002 -2.2647508105601410e-001
      7.4801677191749849e-002 -8.0285419125075610e-003
      -4.7192035343735200e-002 3.6839384602069453e-002
      -4.9054358581693391e-001 -7.8277984350161936e-002
      -1.2774492049055647e-001 9.0302920867043317e-003
      3.3740229351701106e-001 -3.3794339669509121e-001
      -1.2738764846403500e-001 1.9291971853274584e-001
      -1.0333318235926027e-001 3.3514820860477862e-001
      -1.4308488218163964e-001 -5.6351163067324406e-002
      1.2274935288013257e-001 4.3904102321985189e-001
      5.1450072862937735e-001 4.9590072567784985e-002
      -1.0094693466314926e-001 -1.1689099541822362e-001
      6.1697166024388517e-002 -3.8703456495880961e-001
      1.4656888893820383e-001 -2.2168296406993843e-001
      -5.1190179728224455e-002 -2.7450771073542091e-001
      1.6764940653226401e-001 -8.2565492147519082e-001
      -2.7884387288383605e-001 -3.1623133874468001e-001
      -2.1407277761242299e-001 -4.6341417961027603e-001
      1.3981828862074502e-001 2.2834521491076576e-001
      2.2523449147349170e-001 -1.8238895932665318e-004
      4.2611331325177926e-001 2.9763350298266794e-001
      3.1465660367281587e-002 4.1461094727180925e-001
      -4.1185124592680650e-001 -2.6022127213972235e-002
      1.4885548884484634e-001 -2.4802204429407770e-001
      -9.5352468607355370e-002 -1.4795564145422341e-001
      -1.5667409804981028e-001 -3.1180233105129951e-001
      -7.0736464886108352e-001 -2.4160314979501496e-002
      2.7785382988797136e-001 -5.4133035709867228e-001
      6.1124332960467620e-001 6.0312255849580367e-002
      -6.0853530551160462e-001 -3.1535167441725870e-001
      1.3543685519599730e-001 -1.7807287130016877e-001
      1.0874366376597043e-001 8.4671982183472536e-002
      1.6835805577473520e-001 3.5562275454537945e-001
      5.6034079579113927e-001 -3.6972707778915448e-001
      3.3685760398155948e-002 3.2344470768910938e-001
      -1.1608275677133724e-001 -4.3069810886926424e-001
      -9.5234411246860406e-001 3.8136179663195113e-001
      1.7650457692480270e-001 -4.2656303986839239e-001
      3.8030814605822189e-001 -2.2681731289749801e-001
      7.6192141666068539e-002 -2.1342120181111246e-001
      -8.5131516261616380e-001 -2.6526616511267174e-002
      1.2136496357895250e-001 2.9377101292466534e-001
      1.8171294438923083e-001 1.0365182375767004e-001
      1.9802395536013817e-001 -1.6134763563057358e-002
      6.0894939724990937e-001 -1.6139733954826305e-001
      -3.6508839384957958e-001 3.6544510068672154e-002
      1.6261904074257111e-001 1.7271873939772461e-001
      -4.7741419223675929e-001 2.4479521361748749e-001
      -2.2517866572040351e-001 -4.0029701149236296e-001
      -1.1382297866252323e-002 1.0279566104712086e-001
      2.3324733670401457e-001 -7.5772875314054175e-002
      1.5619460569588453e-001 -1.0598741563312472e-001
      -1.0127304927509838e-001 5.1635547982626769e-002
      7.0652604328579519e-002 -1.0300543357060891e-001
      -1.0348784965137379e-001 -1.2245969834733883e+000
      2.4389600084770574e-001 6.3603227353591230e-001
      -1.0475702681045251e+000 1.2549367748425827e-001
      -4.8296252568448395e-001 6.8209159495550287e-001
      2.7423765495882962e-001 1.4484254269083863e-001
      1.6572138654620810e-001 1.2243556277743566e-001
      2.0759954696086880e-002 -1.0108881593134689e-001
      -5.2860001276599500e-001 8.3101047554124341e-002
      -2.3375223908942344e-001 -1.8452225222244401e-001
      2.0292398006456994e-001 7.4297847946296430e-002
      -1.2005828126762677e-001 1.1117956249376042e-001
      8.4375652433461512e-002 -2.3743428578633413e-001
      6.7289476457878583e-002 3.3555698191234440e-002
      -2.0486415516714351e-001 1.8475045908304027e-001
      -2.9701230688044150e-001 2.6547015889141695e-001
      6.3476876723894238e-001 -6.1302014101242730e-001
      -7.3125517402539719e-001 9.1024160001955873e-002
      -1.6710829836443990e+000 3.4150644793034968e-001
      -2.5410084995104976e-001 1.6513954306842382e-001
      1.2301674170144609e-001 1.2565044488010613e+000
      -9.1695981788885231e-003 2.5608287759802850e-001
      -3.7480423172713639e-001 -1.2442954234779520e+000
      -2.0115581450099126e-001 -9.2039117320910124e-001
      -2.6446950129866614e-001 -2.1563873890297913e-001
      -5.3196109017399018e-001 -1.2162517531713979e-001
      8.6927356569395342e-001 -1.8350570666896845e-001
      -5.5359131791087779e-001 -2.6954817646421503e-001
      7.8010950276901928e-002 -4.3860954760662103e-003
      -6.0970621448232321e-001 -5.3542354644839259e-002
      2.3687256522141542e-001 3.9527744039566831e-001
      -1.5040730318681549e-002 1.1142369845216527e+000
      1.3361178253985499e-002 -2.7523157259626849e-003
      -6.3673805596215793e-001 1.6786326882859728e-001
      -1.2104384778818675e-001 -8.6760542883309177e-001
      2.3744053729226733e-001 2.8727016747341454e-002
      -1.6039513550856097e-001 -9.2753026379310627e-002
      -2.2711254399109809e-001 2.1894658964854902e-001
      2.3556179600979291e-001 -3.6835525890555454e-001
      2.0926751952197253e-001 -1.0851815586849703e-001
      -9.8333505193840362e-002 -2.1789244461461454e-001
      -1.2798032159807565e-001 1.0948883752442311e-001
      9.6594336155148647e-002 1.6393601399916632e-001
      1.6679199146117699e-001 1.8976126575884922e-001
      1.8054569532494794e-001 -1.7185678129016332e-001
      5.6797591540602946e-002 1.7910728629054107e-001
      2.7425693082903135e-001 -6.4662777819263695e-001
      -1.6751188937913790e+000 1.3583441140487618e-001
      1.5448103034002378e-001 -1.4054087689441042e-001
      -1.1512410271703534e-001 -2.1352277575707651e-001
      -6.3707482601394883e-001 -5.0719152893956322e-002
      -1.1833982477948660e-002 -9.9215183202705476e-002
      -1.4540271508775826e+000 -4.2877601853346958e-001
      9.4263716829800712e-002 -2.9773703397716096e+000
      5.3795786630469644e-001 1.1910668831000431e+000
      -1.4312980458185343e-001 -5.9181195247784361e-002
      -5.4563802218938931e-002 -5.6172227314467527e-001
      6.3763145443088776e-001 9.3350007395976722e-002
      4.3483779226759489e-001 -5.1736521554452197e-001
      4.5572238942517351e-001 -5.2803231606284487e-002
      -6.3317449039905793e-001 -7.3669658318404066e-002
      -3.2955340742403340e-002 2.0217479165258347e+000
      -6.4781364491559856e-002 9.3473871398383634e-001
      -1.3220819405816508e-001 -3.9432308553146511e-001
      3.4258715658326022e-001 6.8616161014220023e-001
      3.3921115736277996e-001 3.7904454543818100e-001
      4.1713527564486097e-001 3.2798174862406404e-001
      -5.9761949308518260e-003 -4.2473170844873664e-001
      3.3172120290747072e-002 3.8580423394261953e-001
      -4.8449885108449786e-001 3.9295360225783738e-001
      3.9631945151008208e-001 -3.2125679754647307e+000
      -6.7404048602516387e-001 1.0137320535404351e+000
      -1.9376240205579362e-002 5.3110636338909820e-002
      -2.0429606940687622e-001 4.3891717494602633e-002
      1.3195054916170068e-001 6.0548213864534212e-002
      -4.7197689319915453e-001 -7.9836888432796971e-001
      -1.1786448175458090e-001 1.8168097948860348e-001
      -1.8000395685775114e-001 -2.0418683117054579e-001
      -1.2250372236190647e-001 -6.3192277317897269e-002
      -1.1881293044845327e-001 -4.7409734976227669e-001
      3.2378714450264046e-001 -2.7683261107751996e-005
      1.2431386268335055e-001 9.1132394956846552e-002
      2.0434621601312816e-002 9.3113390117186418e-002
      -1.5513019949494225e-001 -6.7956704253087896e-001
      -2.9689573886055842e-001 -3.5602185111875226e-002
      2.4632044793064695e-001 -8.3907600678314695e-002
      -8.1082979161130594e-002 1.1152258220523327e-002
      9.8840132916510101e-002 -3.8947613554163385e-001
      -1.3684171726302430e-001 -9.5601992614983339e-002
      9.6703802201265149e-002 1.7078273018697684e-001
      -1.3820118126607578e-001 -3.1521688471351103e-002
      1.4257668780042709e-001 1.0400027606462903e-002
      -3.7047021424065024e-001 -1.4798204627281453e+000
      1.8433429984872018e-001 3.4810629211559418e-001
      -2.1517255407933714e-001 -2.6210918715476272e-001
      4.4602833757935201e-001 3.1532945898423009e-001
      2.3756688917827476e-001 8.4295282674271510e-001
      -1.1832991032614479e-003 -2.0404163526300084e-001
      9.2290781248603582e-001 -2.3197298182024181e-001
      -1.1545871222811303e-002 1.0806645494791034e-001
      -1.6130353655319438e-001 -6.3715733689819157e-002
      -1.0941515543320884e-002 -5.4557565421158316e-001
      6.2772482831867815e-002 -7.7618098280743814e-002
      3.0796737157468224e-001 8.9381902790841727e-001
      -9.9630159767881921e-001 -7.6789387705727019e-002
      8.5450715126334553e-001 -9.9281746556093053e-001
      6.4978653804235920e-001 5.8799663905379385e-002
      -2.7775300331096631e-001 9.5492462217105542e-002
      5.5114134608373655e-001 -1.0428902612865433e-001
      -1.7924643213296429e-001 7.2450478454149897e-002
      5.7481099639947264e-003 2.1389211691035432e-002
      -6.2048582749244727e-002 1.2144134900347961e-001
      -2.0508809010727358e-001 -3.7320180971119821e-001
      4.7270684166912413e-001 -2.2430631163223153e-001
      1.8177420502041769e-001 -1.0139373877132915e-001
      -1.1951345882222084e-001 1.3580938599086234e-001
      3.6469073891631110e-001 1.0479241435362222e-001
      8.7321161428234595e-002 2.9138497280576281e-001
      9.7053038221248875e-002 -1.5048268248801036e-001
      3.6170249970376411e-001 -8.6483199879570150e-002
      -2.0436445628460503e-001 1.2642411450182398e-001
      -1.9644581387053928e-001 3.0930633814292585e-001
      -3.3444718501110465e-001 1.1296480973907674e-001
      -1.4227339806057865e-001 -4.7534939783072522e-002
      1.2272815536366294e-001 -1.8193758294621470e-002
      2.0119410851751593e-001 -1.8163769270832852e-001
      6.6515600586514942e-002 -1.3152593948471916e-001
      1.3388931918301549e-002 4.4096672637449957e-002
      -1.1344664149670345e+000 -2.1981300668633380e-001
      -1.3342707069875781e-001 -9.2422364275114785e-002
      -1.2150368322003194e-001 2.3098894767317144e-001
      -2.1552873756205046e-001 9.4389830565494728e-002
      -5.4037433753183123e-002 1.9090511786372580e-001
      1.4819186756903827e-001 -4.0122927493327865e-001
      -4.0009521023472105e-001 6.1808179409924602e-001
      1.5708592891008119e-001 -1.3470277434442948e-001
      -5.4957280599186364e-001 7.5510579223308977e-002
      1.1414144846767528e-001 -6.6055996031942765e-001
      7.0668371435383112e-002 3.4489070381153258e-001
      4.4676711621268704e-002 1.9783854404744233e-001
      -1.0006265237420249e-001 -5.6833205323829031e-002
      -1.2805530744658539e-001 9.1025268078762170e-003
      4.6650062467639686e-001 3.1215107700216432e-001
      1.3933111710655499e-001 3.8852702117998794e-002
      2.1776256511699221e-001 -2.4452250158374830e-001
      -3.9277223288411306e-001 1.9390088353735349e-001
      -1.4148599304544490e-001 -8.1907355673356219e-002
      -1.0449967843269700e-001 1.0164908034977689e-001
      1.4833898392105552e-001 1.5023682574113886e-001
      -4.7947474378003752e-003 6.6927522486530600e-001
      -2.4093879231557838e-001 -1.3235202916160052e-001
      -3.9559258615925907e-002 -1.9027983308556118e-001
      -7.4799389900682398e-002 -1.2916701000689873e-001
      -3.6204290224994162e-001 -1.2543352762308510e-001
      4.6093249379866652e-001 -1.9889196587003855e-001
      -4.8590387474356206e-002 -1.6572643639228812e-001
      3.6378135631237296e-001 4.5291711025262243e-001
      -9.1983003284582421e-001 -3.8511698409473938e-001
      1.1222972857199376e-001 5.8157413199062646e-001
      -1.2717443051031280e-002 9.3737193259179809e-003
      -1.3077759506762833e-002 -1.3016843224045843e-001
      -2.5015257636853055e-001 5.1513760484497753e-002
      -2.5764522383986549e-001 -1.2294865072932796e-002
      1.8399009937315361e-001 -7.2517952762944482e-002
      -7.1136987982030109e-002 -8.0373200157418029e-002
      2.3396854914994367e-002 1.1524974437551506e-001
      6.8624880188804749e-002 -2.9586764772893473e-002
      -2.9632027639338598e-001 -1.3384814840863321e-001
      2.1006476597953461e-001 8.0540332253551061e-002
      -1.1510637938992367e-001 1.3425506718981875e-001
      -9.6681852744421315e-001 1.0096396428189292e-001
      1.9676207163932194e-001 3.8713783813863112e-001
      -6.9216110372352493e-002 -8.2857466739930524e-002
      3.9900147074475295e-001 9.3137702324545879e-002
      2.8704122397818865e-001 -2.4458483038766893e-001
      9.8491504648272332e-002 -2.5379649457569908e-001
      6.7075893002160603e-002 3.8802964160844766e-001
      -1.1859227160175896e-001 -1.1288677399226485e-001
      1.0792317247775447e-001 4.5254774439649936e-001
      1.5946286992399708e-001 2.0992197289045478e-001
      -6.1313749562904016e-002 4.2690484027842174e-001
      6.1393299124356371e-002 2.1892934910432552e-001
      2.9704433676366757e-002 -5.8646455988174029e-002
      -2.3263199678980850e-001 3.2323585212770223e-001
      5.0320014333593843e-002 -5.3493107503956971e-002
      2.5108562517518536e-002 5.4377898559829635e-002
      1.1918037592630791e-001 2.0910923913950491e-001
      -7.9450374839924964e-001 1.0317583880183227e-002
      7.3974519964727814e-002 7.7663332517400501e-003
      -2.2128965050904836e-002 -1.8165942517427328e-001
      -9.6500825985441196e-003 -1.4906048928434729e-001
      3.3390216049722787e-001 4.1112875146684075e-002
      -1.0034100221921896e-002 -2.8945568758548491e-003
      -1.2993793629602940e-001 2.1196267488473813e-001
      -5.2112584426614511e-002 -2.4556322942528383e-001
      2.2277693081179137e-001 2.5055042427397961e-001
      -2.8836280134496198e-002 -1.8960584751201492e-001
      5.2221827190448966e-001 1.2754180850209323e-001
      1.2297611999014078e-001 2.3440466318761191e-001
      8.4944366179087183e-002 -2.0101414674882800e-001
      2.2051500548741698e-001 2.0291911780046734e-001
      4.9051727312966670e-001 6.4604098563377111e-003
      -3.3483268682296641e-001 8.4358373272047038e-002
      -1.1130554246536510e-001 2.2818471764923087e-001
      3.7043871518183680e-001 -1.6260231043942703e+000
      1.9475595201542065e-001 -1.2661556782564368e-002
      -5.5568577293707976e-002 -5.0361092330698198e-001
      -1.3591823154217489e-001 2.0856644208314193e-001
      -2.6376242010909223e-001 2.3570412877441113e-001
      1.5426184788693784e-001 1.3435381385079062e-001
      1.0218503505815811e-001 9.8200316617846589e-002
      1.1580968391599547e-001 2.2146647456096499e-001
      1.6816718546245865e-001 5.2621957574727945e-003
      7.5149727288173970e-002 -1.7187912235209959e-001
      2.2592862857502069e-001 9.1409846359644872e-002
      1.5520644901928113e-001 2.4748966625224234e-001
      2.7413311464206036e-001 1.4671654407662467e-002
      2.2449087646046739e-001 6.3401255326828894e-003
      4.9717597979478376e-002 -2.0646954912033430e-001
      -7.9446351523603173e-003 -5.7222272693883580e-002
      -9.0155609252604130e-002 1.7086522264105217e-002
      4.3181343794981375e-001 1.0543580827787061e-001
      1.6337293617958562e-002 -1.0857921149391002e-001
      1.6507647884206063e-002 -3.4481940959121732e-001
      -3.4504405093317708e-001 2.3201286913949772e-002
      1.6726365992116426e-001 1.6241164133804398e+000
      -4.2040724477052767e-002 2.3930812275050270e-001
      -1.6965780964186739e-001 -2.1470058955791504e-001
      1.4917269155211793e-001 -7.9453816511204423e-002
      4.4556745156714900e-002 2.0087125294407437e-001
      1.4581143042373807e-002 2.6747846891442984e-002
      1.9879456233419163e-001 -1.5067951390589368e-001
      9.5199373624607939e-002 5.8396746633101071e-001
      -1.0289459673522004e-001 1.5067111841201569e-001
      1.1117796792991139e-001 -4.5745787215745215e-001
      9.8952427684491820e-002 1.9110729695722611e-002
      -9.3090995050551642e-002 -6.1289083302412506e-002
      1.0240144156737283e-001 -3.4535620972066416e-001
      -1.8649710476438291e-001 1.8707146251506651e-001
      -8.5776398651525344e-003 2.4533206337803706e-001
      6.6950588828857752e-002 -1.3273666886143554e-001
      1.0755810738547132e-001 -6.7006931827079666e-003
      1.7659239161547469e-001 -1.9270491483455740e-001
      3.2876492480271413e-002 -5.8273899432946108e-001
      6.5277228493924241e-002 -8.0339104134899100e-002
      -1.0848670273716898e-001 1.6703327928822373e-001
      -5.5369400182384058e-002 -9.5632102152979931e-002
      6.3872938312447891e-002 -8.5562358757867107e-002
      1.1676161055569287e-001 2.2989333823246588e-001
      -1.8493109168444416e-001 -1.3669506395020437e-001
      9.2161551050078575e-002 4.3270581683869075e-002
      -2.8048449754848732e-002 2.5808717383269253e-001
      4.4072692087987980e-001 9.2277439036588631e-003
      3.1162645709144062e-002 -4.9394154609710139e-002
      5.2400670737747471e-002 1.4140429457082468e-001
      -1.5102864712475744e-001 1.4961310583046036e-001
      -1.9722499651059386e-001 -1.3781667967077749e-001
      -6.4834473433044465e-002 6.3581062641707112e-002
      -1.1035771907756281e-001 1.0739179026605325e-002
      7.3545048838324537e-002 1.4843749455066321e-001
      1.5632817582398906e-001 -3.1640851583139798e-002
      -1.0802468165616938e-002 -4.2010222011634291e-001
      -4.3736172657228067e-001 9.4568824647181401e-002
      2.1267332094886732e-001 -4.8109727599171703e-002
      5.7680075093173591e-002 -5.6566958464920258e-001
      -1.4384572946153801e-001 -1.8220927168557913e-001
      1.0487851393862982e-001 -1.1391308555387385e-002
      3.1098499686491282e-001 7.8128797627170746e-002
      -2.9491950177906380e-002 3.3024240014726064e-002
      -1.8837496732814460e-001 2.1861748228044359e-001
      6.3029076325676781e-001 9.9920364325674457e-002
      1.4104316020890706e-001 -7.1819054243630592e-003
      1.5379865332415442e-002 1.7855424835610024e-003
      1.3731374064869484e-001 -6.4598489813181392e-001
      9.5740429758234200e-002 -9.5047969758531442e-002
      1.3411493142031786e-001 1.5744633324094748e-001
      -7.5357740627374742e-002 -4.5795654848853234e-001
      -3.1284580075546942e-001 -4.6622210916021409e-002
      9.1888298290623824e-002 9.8449473470701682e-002
      -3.4295050069900879e-001 8.6036246093689015e-003
      -3.4171430003773720e-002 2.1550499673506629e-001
      4.9405014234066028e-002 7.8886134568036444e-003
      -1.4760984149347769e-001 5.4111112996970845e-001
      2.6284190209185382e-001 7.0207232602990721e-002
      1.2836285132207786e-001 4.4911802832450365e-001
      -9.8465413052766834e-002 -1.1074106101264955e-001
      1.6202245384669797e-002 6.3148440513998982e-003
      -4.4180829137961031e-001 2.6482592434264200e-002
      2.5317315737873058e-001 -4.1638800508601748e-001
      2.1037773513125663e-002 -3.3310358476901836e-002
      -1.1906825015869524e-001 -3.2813712202235286e-002
      1.5433773137337148e-002 5.7557107233216809e-001
      -1.4363641577598246e-001 3.1015337428499568e-001
      1.3278605454009737e-001 4.7351975119306722e-002
      8.1238561279291424e-002 2.8059646932604765e-001
      -6.1184855324855203e-001 1.4519149726972763e-001
      8.1729383501297839e-002 -8.8804852793128945e-003
      7.0042271181878696e-002 -4.2632593804614273e-003
      -8.3655037576308419e-002 1.8390290824468022e-001
      4.3799258163961748e-002 -3.0598591098011437e-002
      -5.1531522707176390e-002 1.1031329534764799e-001
      -2.5276672442677328e-001 1.7903795099527234e-001
      1.2995919271105458e-001 2.9356328516936526e-002
      1.9877066257122683e-001 -1.1220006558487793e-001
      5.7156415228870328e-002 4.3351628331886871e-001
      -3.8736512329227712e-001 2.4318436761745249e-001
      9.5275493632916999e-002 -1.4340235913461236e-001
      -1.7244649963936581e-001 -9.7793766415142716e-003
      1.0038235166162103e-001 2.0983575409985805e-001
      1.6672630987723305e-001 1.0443006453141834e-001
      1.9694852637927893e-001 -1.3709726745138855e-002
      6.5577552937900851e-001 -1.5144802244456712e-001
      -2.5419232548343768e-001 2.5156682337046127e-002
      -8.0385906062486731e-002 1.8579919415451304e-001
      -2.7838622497635146e-001 2.3613617577348905e-001
      -2.1141479958673129e-001 -1.1359864581471188e-001
      -3.9581555903527477e-001 4.8503374692858159e-001
      2.2423209059827576e-001 -8.3509967078732331e-002
      -1.5259048711787751e-001 -1.1603189276117544e-001
      -1.0407697301247817e-001 1.2608246745874113e-001
      -2.0960668278499789e-001 -1.2691485725391269e-001
      6.5761095828355876e-002 -2.5376478023324445e-001
      2.3072071694085725e-001 4.4906400547817116e-001
      -2.3966858310017164e-001 1.1752917381214814e-001
      -1.4641853777364458e-001 2.3662177511496779e-001
      4.1050100393699085e-001 -1.1126349925500129e-001
      1.4145027660276688e-001 1.1676070077036281e-001
      3.5962216286679449e-002 -9.2821008212722406e-002
      -6.6201133094441222e-001 -1.9606206492207786e-002
      -2.0522269932032328e-001 -3.2296367179297514e-001
      1.5501486812194393e-001 1.8392993807309260e-001
      1.2603351439047952e-001 1.9734626010344564e-001
      -1.2285484193439625e-001 -1.9355834645723974e-001
      5.3860647163266384e-002 4.1658189867529338e-002
      3.4135887969661743e-002 2.0185860530027017e-001
      -2.9679756205443214e-001 1.9140487288166838e-001
      4.6200182205035634e-001 -7.8785168534127892e-001
      -6.6421741545546387e-001 1.0677355857338544e-001
      -6.3428937875372027e-001 3.3972258987173132e-001
      -2.5583850017079146e-001 1.1020728003085405e-001
      1.1441482081922515e-001 3.9491498846134004e-001
      -1.4158370678240335e-002 1.4438706018330980e+000
      -4.3652553725645404e-001 -4.1086548897580294e-001
      -1.3892206459372111e-001 -2.5690451725303159e-001
      -1.4961103485228103e-001 -1.6169136505416087e-001
      -6.2085086246247556e-001 -1.3013678861072686e-001
      5.1816177258121732e-001 -1.7322171831438751e-001
      -1.8611795751679056e-001 -2.1479938154879763e-001
      7.6771330728578571e-002 2.6615495223867539e-002
      -5.4070225788751292e-001 -7.5121299627179658e-002
      1.8687270238719217e-001 4.8149073811488063e-001
      8.2563565867439168e-003 2.4330570412101232e-001
      1.2836853709433747e-002 2.5454294713193778e-004
      -3.5139268816985264e-001 1.7330522704350504e-001
      -1.0602768714019815e-001 -9.9538324421467439e-001
      3.1235384379815534e-001 1.2465865062742106e-002
      -1.8145448182352106e-001 -8.0412438599369335e-002
      -2.1817929124442659e-001 2.1466610195824809e-001
      2.4675586805193067e-001 -1.1988413637422585e-001
      -4.2202654091019143e-002 -1.0331476294595239e-001
      -1.2603945267048208e-001 -2.5732404404613773e-001
      -1.2269775013553005e-001 2.5896239280556188e-001
      -4.4890301795928333e-001 1.2258975980843924e-001
      -1.5046736373524078e-001 7.1197422709067582e-001
      2.0265626368897374e-001 -1.8463108411749549e-001
      1.1103892624430480e+000 1.3805180108910831e-001
      1.2298757517355453e-001 -3.7642826436160509e-001
      -4.5461999693945589e+000 -1.7202481465622008e-001
      1.5744431396969069e-001 -1.4718203299964194e-001
      -1.1133402862619697e-001 -1.4415981885795098e-001
      6.4811679107458653e-001 6.6776820958690336e-002
      1.1447823889909350e-002 1.0163657552705480e-001
      1.4433108727842852e+000 4.3916618251388773e-001
      -1.0955392698654430e-001 1.1998857097713878e+000
      -5.4981820314176832e-001 -2.2146625483828455e+000
      1.3567447775187957e-001 1.9638457997200234e-001
      4.0525200287058671e-001 6.9243246975680184e-001
      -6.5553753382735513e-001 -1.1540068673740722e-001
      -1.5481473733123977e-001 5.3487592121573968e-001
      -4.5879577845341268e-001 7.0838367289870321e-002
      7.0664620507806775e-001 7.0635711114497027e-002
      4.1077861210456874e-002 -1.0866974169987991e+000
      6.4664191102084434e-002 -4.3273301199725955e-001
      2.8549924852118180e-001 4.1701894004062412e-001
      -3.5895116304305907e-001 -6.9697449962362479e-001
      -3.3620894623207798e-001 -3.7234291131977737e-001
      -7.0876676103503222e-001 -3.4224587687022651e-001
      7.0580719373499148e-002 4.4154836143837439e-001
      -1.3334065025954297e-002 -4.7048844908401599e-001
      5.0559362581690570e-001 -4.5073859672190997e-001
      -3.8202486379192147e-001 3.2258035477593667e+000
      6.9978859356317491e-001 -5.5245421659220939e-001
      -7.1394324222728012e-002 -1.6850688691381388e-001
      1.4629858768980833e-001 -9.7884672730116848e-003
      -1.7935007929281449e-001 -7.1996721200205810e-002
      2.4256975769156833e-001 9.6057897924091329e-001
      -4.2882410205908314e-002 -2.0060416014374521e-001
      2.8939055847478530e-002 2.2225981715896265e-001
      3.8066030667951583e-004 -9.0046840275046683e-002
      1.2751130339551323e-001 4.5873872005131022e-001
      -3.4887971841987203e-001 -2.0852698668093195e-002
      -1.4588811789074171e-001 -7.8502714342830210e-002
      -1.9107479988521772e-002 -1.0806282492759464e-001
      1.2458762723656888e-001 6.7396592203140138e-001
      3.1232506970629448e-001 1.5564681459292056e-002
      -2.6226971883771905e-001 7.4514859120164520e-002
      8.0108334325370414e-002 -2.1810685219769872e-002
      -9.5208235302619945e-002 4.0838104766172484e-001
      2.9670252189335322e-001 5.1394458704013757e-001
      1.2566125509571097e-001 -1.8371651235585110e-001
      1.3560627359070870e-001 4.6739973356803174e-002
      9.7405255182426126e-002 -2.5284852125337778e-002
      3.5646952184033032e-001 6.5785717289431500e-001
      -2.8176610922390088e-001 -3.6529367449153777e-001
      2.4877259915777597e-001 2.7418133386103410e-001
      -1.1173256408339267e+000 -2.8605698625440396e-001
      -1.1317804616284483e-001 -8.5853047134805793e-001
      3.1397832240663476e-002 2.1724229062169992e-001
      -9.7067329455986417e-001 2.3525261036337264e-001
      -1.1930065266868183e-001 -1.0252479501471218e-001
      9.2723372066952831e-002 7.4949512935277976e-002
      2.6417418541599555e-002 5.8197975601702412e-001
      -6.7028957529133404e-002 7.3701275052204557e-002
      -2.9610691490617025e-001 -8.7524568605168451e-001
      7.8703482128446711e-001 5.0542661527332264e-002
      -8.3461722144759920e-001 4.7511771275508913e-001
      -1.0017640487674966e+000 -1.8195811262094391e-001
      2.8433304694351469e-001 -9.6984456271498889e-002
      -5.4906261426013381e-001 1.1048894738234602e-001
      1.0033598745014645e-001 -7.2329783345760901e-002
      -1.1168391265803705e-002 -8.8563260611111937e-003
      8.3488594082070544e-002 -8.9228319819311272e-002
      2.0931006153211573e-001 4.0026976201177544e-001
      -4.9530801530127377e-001 2.1497465745906458e-001
      9.5098998890625244e-002 -2.0967486641231334e-001
      -1.7583898585728575e-001 -2.0605218226729751e-002
      1.2713823199912069e-001 2.8209380634724002e-001
      1.8777943839642772e-001 9.5355906736696194e-002
      1.8716569529682928e-001 1.4437881897038833e-003
      6.3008045996494300e-001 -1.5454227090552400e-001
      -3.5387588740979259e-001 4.6256313853426906e-002
      -7.1302213009250895e-002 1.6704737520092097e-001
      -4.6644679818506374e-001 2.3368092752607342e-001
      -2.3692983684550897e-001 -3.9722788891435290e-001
      -2.3315743522562250e-002 1.2239778694180259e-001
      2.3719563097256355e-001 -7.7475648042330855e-002
      1.6717839652566938e-001 -1.1650070099401250e-001
      -1.1070488752861406e-001 6.1381579448376307e-002
      5.1017139566295222e-002 -1.0182165332982217e-001
      1.0293306452950496e-001 -1.2491860805432062e+000
      2.3471320426221029e-001 6.1896893676607079e-001
      -1.4675273121478836e+000 1.3435920907782128e-001
      -4.9213455194366462e-001 6.7816431462558358e-001
      2.7491984753768339e-001 1.3721851968404269e-001
      1.5131485933083971e-001 1.2964399861864462e-001
      3.2196295225552507e-002 -8.7212950535638822e-002
      -5.1044604461653931e-001 8.7489260629634080e-002
      -2.3518182471863017e-001 -1.8279074647142723e-001
      2.1650611506926629e-001 8.4683293532969384e-002
      -1.0987457909210482e-001 1.0650632459327082e-001
      9.0037195202039899e-002 -2.1908346700724524e-001
      7.6080200861862804e-002 4.5328178492766102e-002
      3.1741058712308340e-002 1.6571941384050271e-001
      -2.9449676076138065e-001 2.1766834644919097e-001
      6.3400200306356780e-001 -6.1839982750173006e-001
      -7.5554396908865695e-001 8.3876309175061503e-002
      -1.6525713446068195e+000 3.4309317811568285e-001
      -2.6254809043194277e-001 1.6831364385671205e-001
      1.1664021501113610e-001 1.2386791959335612e+000
      -2.8805934088991869e-003 2.7345101946189609e-001
      -3.6868959460796769e-001 -1.2431188779304141e+000
      -4.1197283823495738e-002 -9.0405553475280942e-001
      -2.7354519904177677e-001 -2.1713431451728699e-001
      -5.2804087269731803e-001 -1.2608385415790452e-001
      8.7722121127604669e-001 -1.7302007438637360e-001
      -2.2757894635684078e-001 -3.2768938297286870e-001
      7.0040425503848425e-002 -2.2797391405383095e-002
      -5.9929723196645501e-001 -5.7777043405018748e-002
      2.3182369142291243e-001 3.9842128551562689e-001
      -1.3586683826603311e-002 1.1131010909353947e+000
      3.9458875020602205e-002 3.0487657171246870e-003
      -6.3747951874122111e-001 1.4874796312328889e-001
      -1.3072078705890700e-001 -8.5384681964012910e-001
      2.4172186069132665e-001 1.6389484934202187e-002
      -1.6632257790329205e-001 -7.6726378757104197e-002
      -2.4043317154632604e-001 2.1569402856476011e-001
      2.2926626833369526e-001 -3.9188820477301600e-001
      2.2441818722324819e-001 -6.0697929276250527e-002
      -1.0163878610918502e-001 -2.2949494118670263e-001
      -1.1934755617778821e-001 9.0050633301462998e-002
      1.1443242625128656e-001 1.5438724176595225e-001
      1.2534549050750257e-001 1.2087522500792337e-001
      1.7896008556398843e-001 -1.9027492512048369e-001
      5.0773256967151847e-001 1.5541874009738157e-001
      2.6397077019360865e-001 -6.4475830191450612e-001
      -4.5258201447034310e+000 9.1178064599704331e-002
      1.8592487763402818e-001 -1.4839150401796608e-001
      -1.1021839203815818e-001 -2.1114765369058813e-001
      1.8291306695196324e-001 -1.8117888626889869e-001
      4.0860755780315311e-002 -5.1831127544883426e-001
      7.1466342060234597e-002 -5.9528979812124419e-002
      -1.1113850224332937e-001 1.5528890376531032e-001
      -5.9725463082816309e-002 -9.0029708663572905e-002
      6.3016133544837150e-002 -9.7127783184520422e-002
      1.0621032952892973e-001 2.3569988064278208e-001
      -1.7431860935391896e-001 -1.3210373028893063e-001
      8.7866315123336772e-002 3.4617242908233481e-002
      -3.2078368655767110e-002 2.4225351174342041e-001
      4.5772044796299083e-001 1.9761708093359441e-002
      2.0319215989059277e-002 -3.8786132426701578e-002
      6.3414861982852219e-002 1.2026401994256264e-001
      -1.3158773709868399e-001 1.5137589163332874e-001
      -1.8965602342399782e-001 -1.3259295990267647e-001
      -4.6293926170930172e-002 6.2466429497863643e-002
      -1.0310261358248453e-001 2.2949927786674564e-002
      7.3426849696814248e-002 1.4111706499624138e-001
      1.7062213088831207e-001 -1.8987205816546025e-002
      -8.0510709344674605e-003 -4.3268625753576684e-001
      -4.4141165439544672e-001 9.8750784110142723e-002
      2.3052384413045207e-001 -5.0363625587777933e-002
      5.7625411006588564e-002 -5.5967694666768519e-001
      -1.2912779639896926e-001 -1.9896205786673329e-001
      8.9035435712755101e-002 -2.7483302609741911e-002
      2.9531765268722537e-001 8.5006606303740004e-002
      -4.0707835720118525e-002 3.0794924850474355e-002
      -1.8033251354198679e-001 2.5306421264650686e-001
      6.1109669278109968e-001 7.7617063901055425e-002
      1.2145352636440622e-001 -3.6569510285556200e-003
      1.0156748507232406e-002 -1.7005319464852467e-002
      1.2107829860379644e-001 -6.3976196129338225e-001
      1.2536467099114643e-001 -9.8993095433435624e-002
      1.2307103953478012e-001 1.5389932887497565e-001
      -6.0493913321194318e-002 -4.3553144292014273e-001
      -3.1879855965834536e-001 -2.5988657579035894e-002
      8.8972262080645945e-002 1.2238180718422588e-001
      -3.3244786736391163e-001 3.3809667831955874e-003
      -2.3358926571910230e-002 2.2081809801112529e-001
      7.6495193967197436e-002 9.6276867415732489e-003
      -1.4948502599638974e-001 5.4908003863008348e-001
      2.8980322515992224e-001 7.0473876141688430e-002
      1.0428319028101990e-001 4.5069526916286207e-001
      -2.0380937209590294e-001 -1.0616787327004942e-001
      1.8233011585823324e-002 1.1333057851463740e-002
      -4.4179027867752818e-001 3.3394984987670955e-002
      2.5528924190336288e-001 -4.1547671142192188e-001
      9.4951641420018586e-003 -2.6904539111445323e-002
      -1.3417265960789135e-001 2.5359658275212227e-001
      7.6030577866052712e-003 5.9186776445359823e-001
      -1.4205708922559213e-001 3.1650042311592597e-001
      1.0945704847140846e-001 6.0910009992458464e-002
      1.0042779218738755e-001 2.8169420713421678e-001
      -6.1639941669586573e-001 1.4995030429692824e-001
      4.8743075702154456e-002 -1.8235923711903232e-001
      7.4838944738190055e-002 4.8552963453843776e-003
      -1.0542998283691613e-001 1.6988160860765331e-001
      4.6440475193290913e-002 -3.4827912756539514e-001
      -5.0766078098911475e-002 1.3298720930971647e-001
      -5.7018414013725441e-002 1.7234289146494455e-001
      1.3095144100364745e-001 1.0260312362258415e-002
      1.7778501578895034e-001 -1.3180720201547694e-001
      4.9097997370345425e-002 4.3006168573349901e-001
      -3.8124909658090528e-001 2.2775951446077769e-001
      1.0831982602058420e-001 3.9376463329876943e-001
      -5.1377203208193431e-002 2.2895152856217210e-001
      -7.0210620540974808e-002 1.6961634708910911e-001
      4.6600093762578731e-002 1.5310061706310063e-001
      2.5143132131118587e-002 -6.1608439191236791e-002
      -2.7455969059082075e-001 3.5985850437319122e-001
      -2.0033899379944214e-001 -5.7416629088290594e-002
      3.4270425276355140e-002 6.1608236388856291e-002
      5.8014792555094410e-002 2.2083179595485883e-001
      -2.5878103989031415e-001 -9.9047261704285211e-002
      1.2727924354914552e-001 1.4242217267860938e-001
