<?xml version="1.0"?>
<opencv_storage>
<my_nn type_id="opencv-ml-ann-mlp">
  <layer_sizes type_id="opencv-matrix">
    <rows>1</rows>
    <cols>4</cols>
    <dt>i</dt>
    <data>
      128 128 128 3</data></layer_sizes>
  <activation_function>SIGMOID_SYM</activation_function>
  <f_param1>6.6666666666666663e-001</f_param1>
  <f_param2>1.7159000000000000e+000</f_param2>
  <min_val>-9.4999999999999996e-001</min_val>
  <max_val>9.4999999999999996e-001</max_val>
  <min_val1>-9.7999999999999998e-001</min_val1>
  <max_val1>9.7999999999999998e-001</max_val1>
  <training_params>
    <train_method>RPROP</train_method>
    <dw0>1.0000000000000001e-001</dw0>
    <dw_plus>1.2000000000000000e+000</dw_plus>
    <dw_minus>5.0000000000000000e-001</dw_minus>
    <dw_min>1.1920928955078125e-007</dw_min>
    <dw_max>50.</dw_max>
    <term_criteria><epsilon>1.0000000000000000e-002</epsilon>
      <iterations>1000</iterations></term_criteria></training_params>
  <input_scale>
    6.1117335804608025e+004 3.7646016581494251e+001
    2.9302526644096615e+003 -5.7573396309797955e+000
    4.8694104266832119e+003 5.8939959825640900e+000
    1.0202964633511531e+003 -2.7129265360166506e+000
    3.2575859078566891e+003 1.3995204030980390e+000
    1.5555881792507585e+003 -1.8901755437582679e+000
    2.7445191914222260e+003 1.3764806493249568e+000
    7.7787112682712529e+002 -1.4609780445561000e+000
    2.9526277321982690e+002 -3.1672900803189603e+000
    8.7866573050717909e+002 -1.7219599775452654e+001
    4.7331020314694723e+002 -5.0290159546976421e+000
    2.2808853322502543e+002 -6.1319582136501118e+000
    2.8566980841553084e+002 1.3066820106997628e+000
    1.3326545057112671e+002 -2.0145610446204363e+000
    2.7877776930277531e+002 1.2104637436162264e+000
    1.5828381506553137e+002 -1.4605144381090920e+000
    4.4898811170783836e+002 -5.2874925699480722e+000
    3.1889595789798818e+002 -7.8732359981705118e+000
    4.0650635612310184e+003 -4.2788406861538810e+001
    9.6607472774254848e+002 -1.8317922205987145e+001
    1.6613830978416072e+003 -4.1501601003336042e+000
    2.4521380100043424e+002 -3.3915886972191114e+000
    1.3323413738963798e+003 5.9247601398891536e-001
    3.4119788905335889e+002 -2.8285087425574402e+000
    4.3541648890192728e+003 2.7009180438803306e+000
    1.1136754411303309e+003 -2.0613552975830856e+000
    3.8057722659894193e+003 -1.0488619612590222e+000
    1.5480016330730634e+003 -2.8692907206146638e+000
    2.1517802488334246e+003 -5.1747153499800003e-001
    5.6323672724840699e+003 -7.0304779614740518e+000
    2.3157356466872880e+003 -8.5923851059962186e-001
    1.4101143879055587e+003 -2.3828356746225738e+000
    2.6913173343586527e+002 2.3344611678488709e+000
    4.4387215061880073e+002 -8.4276343366815016e+000
    4.5980170844131709e+002 5.7246851271053618e+000
    7.8954739673487040e+002 -1.5151292771918886e+001
    7.3214694228572330e+002 -8.6222728530642245e-001
    3.0210238809711745e+002 -2.0245520023104850e+000
    7.1447142888927747e+003 5.7695365028852512e+000
    8.9364121598717375e+001 -1.4320116331125243e+000
    5.8646010151148644e+001 -8.9318616381660814e+000
    2.3167350433251630e+002 -5.6717440535782096e+001
    5.5135186550393485e+001 -2.1161715313772822e+000
    2.1978731426474436e+001 -3.4873829351142378e+000
    9.1709627726540521e+002 -1.8066092930852761e+001
    1.9045310073311921e+001 -1.9367936730244342e+000
    7.7376349530602582e+001 1.1651428709325009e+000
    2.1336589038447844e+001 -1.3380752487562191e+000
    1.0177533786825892e+002 -7.3296410523560018e+000
    5.7991924546139188e+001 -9.2865304108457369e+000
    5.1851546455476146e+003 -5.1090001931620628e+002
    6.9967417839543472e+001 -1.1746832203072636e+001
    2.6580860248593276e+003 -2.4580287805759578e+001
    4.0873240410255882e+001 -3.3331003176089085e+000
    2.0456901082152111e+004 -2.1001781359548849e+002
    1.0791017222544377e+002 -6.0309692241362844e+000
    2.3410842960286841e+003 1.1566397362703491e+001
    4.6989131216315536e+002 -7.1754166310188392e+000
    4.1048806384566831e+002 -5.6706765379842095e-001
    6.7275180861185265e+002 -8.5258208652703615e+000
    6.8014403635336191e+002 -9.8043219763685241e-001
    1.5894876503825901e+003 -1.4237981605472468e+001
    4.9918799057288797e+003 -8.5827238960902363e+000
    6.2352371774528626e+002 -7.3962638813115387e+000
    2.7580317585119639e+002 2.5692711439420348e+000
    2.7935248112421402e+002 -5.6308869024250452e+000
    4.6502863775346686e+003 4.2924364871068605e+001
    3.8096282732451182e+003 -5.9466291407293603e+001
    7.6288528538055095e+002 -1.4344773132485451e+000
    3.2127664987662359e+002 -1.9655851367538124e+000
    1.9803708291634016e+003 -1.4053098664903763e+000
    1.1223763263185455e+002 -1.5038097976019953e+000
    4.0089085409816668e+001 -9.9936123962864387e-001
    6.0898026520264523e+001 -1.0735956170101748e+001
    3.6289705007993767e+001 -5.5281585245073215e+000
    2.8547160187969492e+001 -7.0615677935279244e+000
    7.0203031917957517e+001 2.2332500828549193e+000
    2.0617396088012519e+001 -1.9189501186745397e+000
    1.1075389852823322e+002 -1.7839313977650697e+000
    2.1668590515815264e+001 -1.4352535466379728e+000
    6.2251417053058383e+001 -7.7167058044329959e+000
    5.9809156454703441e+002 -1.1623785036317454e+002
    7.8923261969745568e+001 -4.6371685344762952e+000
    9.4104538997743759e+001 -1.4245452798994856e+001
    8.8871950931715176e+001 3.8226844371365415e-001
    2.3741028785600260e+001 -2.1567378846203082e+000
    5.3129654861196332e+002 1.1296418972144263e+001
    1.4270238362307731e+002 -7.9002847291405072e+000
    6.6550564554907169e+002 7.2657976573945426e-001
    4.9734181179238260e+002 -7.2467871705910456e+000
    3.9617209025699105e+002 5.9112132382995808e-001
    6.0599733048735823e+002 -6.8967700025792125e+000
    4.3422939578465694e+003 -9.9728733466046435e+000
    6.4632966916547593e+002 -5.8131298470391632e+000
    7.8755681850844132e+002 1.6657437176164647e+000
    5.3182416657132148e+002 -5.9484496866980789e+000
    3.2415153320314341e+004 2.8846575911093499e+001
    5.1595227206929067e+003 -1.2380147398896009e+001
    2.3654144561932026e+003 2.2176501466175726e+000
    1.2587976693747876e+003 -2.7640549713361238e+000
    3.3211418694643085e+003 2.5379444072767776e-001
    2.2816770618788091e+003 -2.1710816612860468e+000
    2.6890283223125505e+004 -3.0943503170843227e+000
    7.3951808252779017e+002 -1.5803668033314811e+000
    5.3417685778984412e+002 -4.7869124305207222e+000
    1.8621400995565341e+002 -6.1101262865773487e+000
    1.3922331955400708e+002 -1.0055116621296818e+000
    4.7302068751629980e+002 -9.8868107391822271e+000
    2.2036598404769012e+002 -1.2715911117281746e+000
    1.2721746758003283e+002 -2.0979186234461653e+000
    7.6833575615860684e+002 -2.3143426837555143e+000
    1.1084799935581208e+002 -1.4065814016674945e+000
    3.2492338679416571e+004 -4.1173355322883253e+002
    2.0331937603435674e+003 -4.1913574168822166e+001
    9.1734661100320250e+002 -1.2266148733881169e+001
    5.2583546599293913e+002 -1.3969987360263822e+001
    6.6773111320505268e+002 1.1044901042214550e+000
    1.7010961226040601e+002 -2.7286279903774657e+000
    3.3412626723894618e+002 1.8138098899638750e+000
    2.0136205689227015e+002 -2.0975966892168882e+000
    2.5447712712392072e+003 -3.4754308091345543e-001
    3.5836779921905263e+003 -6.2790444398228509e+000
    6.2561168060132013e+003 2.4383928940459560e-002
    1.6032362460320066e+003 -2.6651618403724462e+000
    4.6953203920198757e+003 -1.1975266022638080e-001
    1.7001339814739404e+003 -2.7815135048370565e+000
    1.6221201270699848e+003 9.7552489745530091e-001
    1.5345388592099450e+003 -2.2700714722721766e+000</input_scale>
  <output_scale>
    1. 1. 1. 0. 1. 0.</output_scale>
  <inv_output_scale>
    1. -1. 1. 0. 1. 0.</inv_output_scale>
  <weights>
    <_>
      -8.8241180721069234e-003 9.9443917949443017e-003
      1.3839553411617869e-001 -3.6062116339415540e-001
      -1.2023794229290516e-001 -3.6692453279789466e-001
      1.4104915163269305e-001 1.2322745542996985e-001
      3.3149829399146263e-003 2.8795511843085420e-001
      -3.6871129808899983e-001 1.2285575982482949e-002
      1.4615079763598174e-002 3.7559320261995599e-004
      1.0492552255382689e-002 -4.2809184965735547e-003
      -3.6824764586831815e-001 3.6988200704161611e-001
      -1.1782113802164276e-002 -1.2760977265946397e-002
      3.5944634237747453e-001 3.5041535261621737e-001
      -6.4746716972983620e-002 3.4890369706349611e-001
      -3.6041943606933313e-001 9.7400175375875198e-004
      3.8773123384360508e-003 -1.4247440689830912e-001
      4.9027637598025864e-003 3.5794859260302780e-001
      -1.3139678630467380e-001 -3.0519952447228199e-001
      2.9836869264150540e-001 -3.6935929769865428e-001
      -1.2136367611853860e-001 -5.0701585704648520e-002
      -1.4439397441464633e-001 -3.2609546974560755e-003
      -2.1750992594197771e-003 -6.1416674159556144e-002
      -5.2556191198124290e-002 1.3086426907502316e-001
      -3.7454899593887314e-001 -1.4643643581436411e-002
      2.8315320301653857e-001 1.0478039792512897e-002
      -1.1926248708138848e-001 1.3495972715487015e-001
      1.1947215794209939e-001 -1.1882293817782469e-001
      6.0344901809109695e-002 -1.3771972533538338e-001
      2.7868911230745802e-001 3.0335459358511990e-001
      -1.1976448280481664e-001 2.8499936239344670e-001
      -1.3595215617121090e-001 -2.8204097708757486e-001
      -3.0317485630973451e-001 3.9586321726627072e-004
      -1.3823285618445322e-001 1.1845979053972680e-001
      -5.8209609633482366e-002 6.2268941904940638e-002
      -1.4328404962552474e-001 -3.0059165558823187e-001
      -4.2404543220015682e-002 1.2102203757795738e-001
      -1.1834205614631979e-001 -3.0279791768292547e-001
      6.1325639407891118e-002 -2.9335965159672234e-001
      -2.9507492836049742e-001 -1.2489326392325842e-001
      5.1064998533215049e-002 -5.5394310684941099e-002
      1.3824799879198160e-001 1.2480223591045717e-001
      1.4784297157580201e-002 -1.1649053080282887e-001
      3.6295353652637405e-002 8.1381982840752348e-003
      3.0182246579702798e-001 2.9205689908271665e-001
      -4.7498957789500966e-002 -3.7577955790883588e-001
      4.3897253690229558e-002 -1.2828172356373699e-001
      -3.6643950393846925e-001 1.1887181608181419e-001
      -2.1762921470973723e-003 3.7960201850589137e-001
      -3.7693082841551229e-001 -3.9825860260120222e-003
      -5.7235577129200570e-002 -3.5033119312664762e-001
      -2.6078267783738590e-003 -1.4291999179125950e-002
      -3.4994070676621036e-001 -3.5233238672125478e-001
      -1.3643720526147290e-001 -1.3959848415412979e-001
      2.1090395528758088e-001 -1.5676971514982874e-002
      3.5979711695352834e-001 3.8378408230343573e-002
      -1.3019519847471603e-001 -4.8548083885475178e-002
      3.0151947778988708e-001 -5.8875608955707086e-002
      1.3512955988138073e-001 1.2892896998926465e-001
      -5.0594790806403521e-002 -1.3346155143044566e-001
      -6.5463096778096141e-003 -7.2059431955598663e-003
      -2.8217332437440124e-001 8.7519144207883620e-003
      -1.2140632315029359e-001 -3.7405154466944057e-001
      3.6418020723019473e-001 2.7998353047154695e-001
      1.4684282881627680e-002 1.2259470928909180e-002
      -3.7074024675943196e-001 2.9366624828907439e-001
      -1.2093814097895511e-001 -1.1953237265495514e-001
      -1.5061928215650083e-002 -1.2375997431714816e-002
      1.3435136475878026e-001 -3.7303588810445421e-001
      -1.2409749147966379e-001 -3.7226999721029047e-001
      1.3739375637222848e-001 1.2509875011643803e-001
      -6.5527138494385073e-003 3.0114462395733571e-001
      -3.6973774288234618e-001 7.1344544185462933e-003
      7.0377244081959583e-003 -3.5389446847705064e-003
      1.0850058961899486e-002 6.6567974613970793e-003
      -3.5297936957525333e-001 3.7919441549201360e-001
      -5.6083137797558885e-003 7.1671057229766716e-003
      3.7621854465491017e-001 3.7796236822402829e-001
      -3.6635737362141749e-002 3.6067295208411676e-001
      -3.5698086667208073e-001 -2.3412343330201507e-003
      8.4585583944466192e-003 -1.4540026320806340e-001
      -1.0910166080544959e-003 3.6550552991058594e-001
      -1.3674673674514551e-001 -2.9154483124086261e-001
      3.0859967647335801e-001 -3.7879415395197014e-001
      -1.4209446579311610e-001 -5.6923260328026686e-002
      -1.1737816109061347e-001 -1.0923465578448047e-002
      -9.9546383665459898e-003 -4.2819306019174240e-002
      -5.4502527280465306e-002 1.1923447732628759e-001
      -3.7521273947756306e-001 -2.4317132558194648e-003
      2.8547123462087748e-001 -4.1376093529807006e-003
      -1.1221126279457863e-001 1.2886962551671061e-001
      1.1715025547549798e-001 -1.3001197481867507e-001
      4.0209694220868140e-002 -1.3926187723237449e-001
      2.9452324268211455e-001 3.0594450899904052e-001
      -1.2810286435662829e-001 3.0284775239597816e-001
      -1.3227264197001992e-001 -2.8944618297908065e-001
      -3.0011247044422901e-001 9.4994174755025362e-003
      -1.2775898657264426e-001 1.4370291212394373e-001
      -5.2847473052747333e-002 5.1699781206276184e-002
      -1.2574346191331612e-001 -2.9994201091385642e-001
      -5.8920928284657885e-002 1.4542242633392630e-001
      -1.2431911696159331e-001 -2.9357680634028982e-001
      3.5378127755632927e-002 -2.9187975659903470e-001
      -2.9279113691347647e-001 -1.4542710949689014e-001
      3.9179842009226244e-002 -5.1544900716438490e-002
      1.3833267941407082e-001 1.2712526660755957e-001
      6.7542800380945567e-003 -1.3949405746174715e-001
      6.0915744797254139e-002 4.3649991248891074e-003
      2.8157037221227477e-001 2.7950809185862163e-001
      -4.7515959646336807e-002 -3.7724458139751638e-001
      4.2330102874749358e-002 -1.4551944825217689e-001
      -3.5839766436106085e-001 1.1383665051135206e-001
      1.8425937115232327e-004 3.5472777013519530e-001
      -3.6958679608155942e-001 9.4195685611931368e-003
      -4.0556028420855893e-002 -3.7295367079177333e-001
      -1.3097706648333346e-002 1.0727812055555341e-002
      -3.7659894070762523e-001 -3.5502902651703022e-001
      -1.3277738694839952e-001 -1.3430870043515133e-001
      2.2069320591959252e-001 -5.9830803774578029e-003
      3.7233873311094512e-001 3.9904910774511242e-002
      -1.3982844199452832e-001 -3.7312450740533798e-002
      2.8309510855549180e-001 -3.5041608884127370e-002
      1.3478126237768021e-001 1.3050629195304825e-001
      -4.2855387355085199e-002 -1.1620093872135503e-001
      -3.9197985854207001e-003 -4.4780126127433456e-003
      -2.8021083212862069e-001 -9.8475233515733368e-003
      -1.1410498680100131e-001 -3.6740491721436963e-001
      3.6063003531754734e-001 2.9085469582719431e-001
      9.9209920455014255e-003 -1.4356826579804041e-002
      -3.7705437843425693e-001 2.9401217591099527e-001
      -1.2840183091812959e-001 -1.4613866902175865e-001
      7.9256130279750231e-003 2.3252660854696100e-003
      1.3751203128110642e-001 -3.6385022289419267e-001
      -1.4335361249035869e-001 -3.5374998514181843e-001
      1.2903421662632755e-001 1.1682538835506673e-001
      -1.3076753221484966e-003 2.9054269777301706e-001
      -3.7299361036294643e-001 7.1218737961448869e-003
      9.9495567135089030e-003 1.0059463897808540e-002
      -3.2002530882902086e-003 1.4061396649285851e-002
      -3.6618652597800289e-001 3.5402107459411003e-001
      -8.7535212682173374e-003 -1.4912654419573679e-002
      3.6941964490441870e-001 3.5517438411911684e-001
      -3.5284902391423262e-002 3.7828694058366852e-001
      -3.5627175907582442e-001 -1.0130192160558743e-002
      1.2385480559622561e-002 -1.3684572884339222e-001
      8.2770299480340315e-003 3.6596581915675053e-001
      -1.3585835978205660e-001 -3.0420540064586205e-001
      2.9053077050245285e-001 -3.5022280249124271e-001
      -1.2180699006370813e-001 -5.0433603195293684e-002
      -1.3752823661233712e-001 1.0909458534679811e-002
      -2.3261176595947702e-003 -6.1160773131151168e-002
      -4.1375546616471519e-002 1.3283360291020721e-001
      -3.6820020088858474e-001 -5.3573906601724064e-003
      2.9289156483417861e-001 1.0292679322962017e-002
      -1.2922510240630550e-001 1.3838766027970203e-001
      1.3166340244896360e-001 -1.4246470084916577e-001
      3.5412745162098427e-002 -1.2358399397565592e-001
      3.0276723387010185e-001 3.0241394519516301e-001
      -1.4043070877761166e-001 2.8729191740193466e-001
      -1.3771103642028118e-001 -2.9089368458891579e-001
      -2.8005151357982433e-001 4.6203434854298203e-003
      -1.4607495445726468e-001 1.2537909343697420e-001
      -5.5366178875906551e-002 5.5064266571850838e-002
      -1.3487925609273779e-001 -2.9431129999386352e-001
      -5.8347305901199957e-002 1.1891084240016062e-001
      -1.1409578939389398e-001 -3.0328729828795015e-001
      5.5570816728057380e-002 -3.0312030792397032e-001
      -2.9100070569148578e-001 -1.2429600736105853e-001
      4.3844562433994365e-002 -4.4695519935640991e-002
      1.2981519955703733e-001 1.2109182105466579e-001
      -1.1702789710279687e-002 -1.4377232681948368e-001
      5.8500008938994812e-002 -1.0530260063529640e-002
      2.9962497948859929e-001 2.7982572878266426e-001
      -4.7588715987630086e-002 -3.5935814264743093e-001
      5.4423434982811845e-002 -1.2860543702816110e-001
      -3.7311291289229032e-001 1.2142855563843635e-001
      -3.1599761026453593e-003 3.6735720493994650e-001
      -3.6692796061496358e-001 -1.0803221129990812e-002
      -3.7705410237850366e-002 -3.7706363532830955e-001
      -1.5301505454327180e-002 -8.0723380423034646e-003
      -3.7106564960272759e-001 -3.7578475094773434e-001
      -1.3836274424546727e-001 -1.3515979030785111e-001
      2.0935316025123440e-001 -8.8997078959139053e-003
      3.5258774071170995e-001 5.2936866062546821e-002
      -1.4503051596657540e-001 -4.4825050282459970e-002
      2.9077686196898089e-001 -4.3537776162173213e-002
      1.2379042465304993e-001 1.2311078454167823e-001
      -5.1297845384717509e-002 -1.3385285609501471e-001
      1.2360479022224174e-002 1.0283811572740928e-002
      -2.8829033188307984e-001 -1.4863218231922284e-002
      -1.2183225281416862e-001 -3.6241521561135093e-001
      3.7002074877519187e-001 2.9549819759913726e-001
      6.3254326784479703e-003 -1.1255075371607443e-003
      -3.5064471365882693e-001 3.0245601386239324e-001
      -1.3614987740803056e-001 -1.2814895661091191e-001
      -4.3335330900873270e-003 -9.0352660994952455e-003
      -1.3843021913056763e-001 3.7622357417977992e-001
      1.2660104355919746e-001 3.6585444360168606e-001
      -1.2127368446930434e-001 -1.2883264511063883e-001
      4.9962574098678103e-003 -3.0715006493270403e-001
      3.6576076558691439e-001 -1.5141630742713949e-002
      -1.3922717803267204e-003 -9.4051259714428015e-003
      -1.1237271166321325e-002 2.5566471253818807e-003
      3.5770766554937350e-001 -3.7935122298045576e-001
      1.4162526218508886e-002 1.1461964622100557e-002
      -3.6758177257926367e-001 -3.6297405638014335e-001
      4.5612744484383121e-002 -3.7490123471106684e-001
      3.5672628830833353e-001 -1.1306356331775527e-002
      2.5054063972999585e-003 1.3403252649294720e-001
      8.6222942729319435e-003 -3.7012827692591105e-001
      1.3544471140374911e-001 2.8690270510952409e-001
      -2.8791582072800237e-001 3.5461978824127732e-001
      1.4338607870065503e-001 4.1600034896952597e-002
      1.4391470875321122e-001 1.0108959084645180e-002
      -5.5082911443214422e-003 3.9959521296512833e-002
      3.7168553749239941e-002 -1.2602565432694515e-001
      3.5369190928157979e-001 -1.3738677604377358e-002
      -2.7670212360288426e-001 -6.4735238560136021e-004
      1.2441587888915598e-001 -1.1590170343845543e-001
      -1.3712826394976554e-001 1.4378917211216127e-001
      -4.6219237849610288e-002 1.2083420580167215e-001
      -2.7772785710479053e-001 -2.9096709867195164e-001
      1.3514909250269638e-001 -2.9486451433790212e-001
      1.1660938503121551e-001 2.9048411429488907e-001
      3.0616071895613634e-001 -1.3626940279167360e-003
      1.4343533480060833e-001 -1.3469128737762662e-001
      5.8332981947624561e-002 -6.2755228783418410e-002
      1.1654020669073725e-001 2.8019932036729306e-001
      4.6156431177725381e-002 -1.2703517907715819e-001
      1.3567243476250956e-001 2.9200703210556894e-001
      -5.7771004709696060e-002 2.8521650222284811e-001
      2.9055406554895791e-001 1.2266726209651671e-001
      -6.1331279488284395e-002 6.3159514418205720e-002
      -1.4027163422257699e-001 -1.1454343527109070e-001
      6.3581538131139426e-003 1.4063194839084484e-001
      -5.4247206905318278e-002 -6.7183469142812341e-003
      -2.8140160489636573e-001 -2.8811545016580559e-001
      6.2087100945095806e-002 3.4947884222479531e-001
      -3.9851935816732152e-002 1.2933750255133117e-001
      3.7747377517302982e-001 -1.3660318737271041e-001
      -8.7881269159308106e-003 -3.7912401216510105e-001
      3.5777829202323641e-001 -1.3435503353073738e-002
      4.1902540543187337e-002 3.5268969067338563e-001
      -2.9677210546304456e-003 -8.2630836643516198e-003
      3.7427164801950030e-001 3.5845189922427034e-001
      1.4109706956034698e-001 1.2793758969708927e-001
      -2.2949734753342110e-001 1.1851810229938614e-002
      -3.7165965586208738e-001 -3.8739903044117417e-002
      1.3427646111459510e-001 4.0971131024341627e-002
      -2.9399934331417210e-001 5.6439097339523174e-002
      -1.2091651201900533e-001 -1.3514602244228677e-001
      3.8800610444656096e-002 1.3218131831014529e-001
      -1.0169262308292057e-002 3.7665031347609290e-003
      2.8994857672005819e-001 -7.8973274823856965e-003
      1.3598970442463829e-001 3.7801342642378688e-001
      -3.5651672162963866e-001 -2.9110564588502269e-001
      4.7461480843777881e-003 -1.2670303829101434e-002
      3.6135249865957064e-001 -3.0241973548979434e-001
      1.3990657212424898e-001 1.1984066922012362e-001
      1.1953183478830620e-002 -1.0810920604875845e-002
      1.2542318183005061e-001 -3.6224421939232143e-001
      -1.2280639468511351e-001 -3.6368365255328849e-001
      1.4592256524348265e-001 1.2798484285122705e-001
      -1.2477994147400279e-003 2.9555617549917096e-001
      -3.7305851330332085e-001 1.2438315547437656e-003
      2.8160804792835420e-003 1.3119614249345948e-002
      -7.3968910639598678e-003 -5.8504222049297755e-003
      -3.5630293370164534e-001 3.7417753466907622e-001
      -1.0936014427819718e-002 -6.4840205207704060e-003
      3.7697363862180111e-001 3.5236944650099583e-001
      -4.3269754072915299e-002 3.4935562778153140e-001
      -3.5291658397213765e-001 -5.8018690220187352e-003
      -1.2035362422067833e-002 -1.3558040597880319e-001
      9.0337722906134593e-003 3.6836560508973415e-001
      -1.3954915131701753e-001 -2.8996920093100759e-001
      2.9402781235567022e-001 -3.7394060216833902e-001
      -1.3483108660900853e-001 -5.5567530487972271e-002
      -1.1717125586364421e-001 -2.8144755573513980e-003
      -1.4506414468876960e-003 -4.3008574534624859e-002
      -6.6344865758644289e-002 1.2070114053208494e-001
      -3.7107681460681430e-001 -4.5369055969861904e-003
      2.9023832183450055e-001 -6.2865034239329848e-003
      -1.3325890879805316e-001 1.2247592026340823e-001
      1.4391236801124888e-001 -1.2424748893265827e-001
      3.7631512757026246e-002 -1.3444522793266564e-001
      3.0253074694986154e-001 2.8323696234606321e-001
      -1.1654454258200583e-001 3.0133090973271354e-001
      -1.1510265722760962e-001 -2.8223295178149560e-001
      -2.9394620924258458e-001 7.8851782690108341e-003
      -1.1541596512393276e-001 1.3407874641103426e-001
      -5.6097003867416860e-002 3.5416908410944012e-002
      -1.3608153327103908e-001 -3.0143175601366662e-001
      -4.0437807489515802e-002 1.1851240510100577e-001
      -1.2334360860032942e-001 -2.8243236959568008e-001
      4.8589066796557688e-002 -2.9077452177637325e-001
      -2.9984002390241099e-001 -1.4024055544324390e-001
      5.8235897395146084e-002 -5.5108137545453094e-002
      1.3803120480447986e-001 1.3566363155667119e-001
      -7.2210840685338201e-003 -1.2449245101008954e-001
      5.0279453829316721e-002 -1.1273971302230137e-002
      2.8616322194420207e-001 2.9542649351975669e-001
      -5.4426847064655080e-002 -3.7449556825354730e-001
      5.5046269565739513e-002 -1.4224581375410802e-001
      -3.7579375001531956e-001 1.2637418196793529e-001
      -3.2983695739668695e-003 3.4790709347168569e-001
      -3.6407120313439140e-001 -1.9411886379903931e-004
      -4.7647280204038182e-002 -3.7044280781514582e-001
      1.2687947186006479e-002 -9.2429410980821164e-003
      -3.6702115070444552e-001 -3.5280862971035221e-001
      -1.1705811902081742e-001 -1.3813816555481007e-001
      2.1914687107690373e-001 4.0519014791258190e-003
      3.5060524950360000e-001 5.1878578286030395e-002
      -1.3776172555654131e-001 -3.9594948873415269e-002
      2.8632256223973851e-001 -4.4116557518151238e-002
      1.2723957279515435e-001 1.3090967781444515e-001
      -4.9105877843157029e-002 -1.1781426435993933e-001
      5.1912700752805852e-003 -3.9221914016878134e-003
      -3.0528607285218007e-001 1.3643518044120298e-002
      -1.1407963041948685e-001 -3.7188291919404526e-001
      3.7855255246723463e-001 2.8070304491696335e-001
      1.0279696695551316e-002 3.2586254356030270e-003
      -3.7645898865343441e-001 3.0234751344982680e-001
      -1.1833234350512881e-001 -1.2201589247505198e-001
      1.0425346751427297e-002 4.7639158996902187e-003
      -1.1862538707366235e-001 3.7180814036454168e-001
      1.1866198893945792e-001 3.5761572244897433e-001
      -1.4535917916536625e-001 -1.3732814539536489e-001
      3.3030992318451580e-004 -2.9833334397135308e-001
      3.5364005447605162e-001 -1.3284449959127476e-002
      -1.0250225082445108e-002 -9.2657158392451117e-003
      -8.3031988804329881e-003 3.2166179641788806e-003
      3.5537311818634987e-001 -3.7907196368007834e-001
      7.7355258554715478e-003 -5.9684166661516797e-003
      -3.6924116293937648e-001 -3.6932832940076421e-001
      5.7484717821362850e-002 -3.6827082834769964e-001
      3.6748155043813968e-001 3.0823522801035619e-003
      -8.5096559309122410e-004 1.4308846673748096e-001
      -1.4026836833468032e-002 -3.7597967693558110e-001
      1.3033208462816606e-001 3.0684496857867033e-001
      -2.9065883185400904e-001 3.6043618092998753e-001
      1.3584795372425065e-001 4.3791437547814831e-002
      1.4284890722538077e-001 9.8739292937947004e-003
      -1.1388302685212889e-002 5.8766210440769039e-002
      5.0581243284506854e-002 -1.3517503044275239e-001
      3.7518709074888301e-001 1.2698259884005386e-002
      -3.0606201779791586e-001 -2.3390493916727734e-003
      1.4012498037009935e-001 -1.2291908401614651e-001
      -1.2894175114189127e-001 1.1967281920810943e-001
      -4.8557346249868537e-002 1.2657097246118351e-001
      -3.0167348440947023e-001 -3.0102085676204010e-001
      1.3407889255973207e-001 -2.9683638118476313e-001
      1.3546257835022127e-001 2.8501738868231996e-001
      3.0543551771163918e-001 -3.9133373355767637e-003
      1.4609872894187925e-001 -1.4107399580418892e-001
      4.4020405111202275e-002 -5.2861204055866022e-002
      1.3880814330943939e-001 2.8902719474195632e-001
      4.2313152971569311e-002 -1.2635704201766870e-001
      1.3822517286901018e-001 2.9626742154735802e-001
      -4.0072699239369645e-002 2.8902799481489855e-001
      3.0508302802271020e-001 1.3580120972539192e-001
      -4.9277468537547157e-002 5.6346111338142539e-002
      -1.3962154800055890e-001 -1.2449168275296382e-001
      -8.6102655920242549e-003 1.3148435302596859e-001
      -6.2343273517812818e-002 1.8391782616586638e-003
      -2.9961060767776437e-001 -2.8912575660139772e-001
      3.6622061189637095e-002 3.7309076648963319e-001
      -5.4883103036532564e-002 1.3955612075856613e-001
      3.5017763946937080e-001 -1.2738770920974199e-001
      2.2144248894523655e-003 -3.5466341977361421e-001
      3.4901034881954229e-001 8.7047970253935764e-003
      6.3722546264751795e-002 3.5950289720950790e-001
      -9.7716113540384092e-003 -1.2082437224558984e-002
      3.7722774312560237e-001 3.7314463193114727e-001
      1.4401199990015093e-001 1.3778097665843328e-001
      -2.0902899600170266e-001 -5.8237165751853781e-004
      -3.5283286711753281e-001 -3.7988014330089352e-002
      1.2886734454154991e-001 5.5920324272595905e-002
      -3.0810269235114579e-001 3.6430742836483912e-002
      -1.2052003626656677e-001 -1.2927047657655957e-001
      5.6654655073115366e-002 1.1639522973042227e-001
      7.8878502896493757e-003 -3.2460795612570814e-003
      2.8984616574595018e-001 2.0055843688875502e-003
      1.1363418998470071e-001 3.6926151491597664e-001
      -3.6064361483953156e-001 -2.9744130125130341e-001
      1.3771673011589242e-002 8.7871667663602659e-004
      3.5127446930638562e-001 -2.8183560191228196e-001
      1.2903785163470941e-001 1.3591358775749615e-001
      -4.7893449292393947e-003 -1.2810515746464343e-002
      1.2622102974251767e-001 -3.6776170581078882e-001
      -1.2010396808235338e-001 -3.6342546144564614e-001
      1.2968117373234397e-001 1.2781698950498308e-001
      -3.5251351837593536e-003 2.8948562746327128e-001
      -3.6498411416328724e-001 -6.4401488652614941e-003
      -6.0772689657230955e-003 -1.2158423615980338e-002
      -9.2104027893871732e-004 2.0113275809743730e-003
      -3.7779470342555038e-001 3.4938344620053996e-001
      -1.2240930250119339e-002 -2.9249062035106438e-003
      3.5503599911291611e-001 3.7023978098675658e-001
      -5.1439165806516828e-002 3.6501579839048209e-001
      -3.5316925667275689e-001 -3.6588054406775233e-003
      9.3688608184808453e-003 -1.3326155328154946e-001
      5.0013464748696335e-003 3.7037444738878744e-001
      -1.1575102779027377e-001 -3.0428729919047587e-001
      2.8546072858990440e-001 -3.6722184711453443e-001
      -1.4331602899958043e-001 -5.3246171219679027e-002
      -1.2776371066483624e-001 3.7063269276843003e-003
      -9.4786579887235212e-003 -5.5915917992776613e-002
      -4.5025822826385752e-002 1.3431504896992266e-001
      -3.4914547886310854e-001 7.6010364479316972e-003
      2.9106435772395756e-001 1.5634017577293532e-002
      -1.2828822295425715e-001 1.2514751767824558e-001
      1.2324621196230959e-001 -1.2569065889507988e-001
      3.7885710919334258e-002 -1.4107522703675426e-001
      3.0305656875929798e-001 2.7895229093349660e-001
      -1.2907964765868166e-001 2.9059463586324302e-001
      -1.3263801616533968e-001 -2.8675763022301792e-001
      -3.0076783144633668e-001 -5.8887300300663192e-003
      -1.3774733412534926e-001 1.2842412626664437e-001
      -4.3317904946411794e-002 4.7067018547309707e-002
      -1.3999680634012862e-001 -2.8832192431374454e-001
      -5.4464017275989755e-002 1.3600191366764749e-001
      -1.2035374584685618e-001 -2.8735986606535940e-001
      6.5252128472537835e-002 -3.0880837191026927e-001
      -2.7910020532587920e-001 -1.2467774315149430e-001
      3.4410548586586751e-002 -4.5633739282870171e-002
      1.1458277576023837e-001 1.4175136678914299e-001
      1.3188980433785913e-003 -1.4239490358472170e-001
      6.3238604170622909e-002 9.6725763173858281e-003
      2.8578453295701706e-001 2.9432079615673107e-001
      -4.9486732893319695e-002 -3.7204806365145499e-001
      5.9411962318612087e-002 -1.3122022126501892e-001
      -3.5558156995062740e-001 1.1830753707171901e-001
      1.3532903960358111e-002 3.6237030589549935e-001
      -3.6457182727300780e-001 -1.1716555855704830e-002
      -5.8353499418475112e-002 -3.6697662112295204e-001
      1.1455041308342809e-002 -1.4057103217534644e-002
      -3.6032115325070896e-001 -3.6542020165675126e-001
      -1.1508578120004875e-001 -1.4471049660892077e-001
      2.0794191960414565e-001 1.1516762897220034e-002
      3.5588144502228780e-001 3.9481724598683286e-002
      -1.2071109756800311e-001 -5.3686006552276087e-002
      2.9332568251548907e-001 -5.3251986300781172e-002
      1.2048260779626077e-001 1.2896382391316299e-001
      -4.0634600398832148e-002 -1.1563595777907107e-001
      -9.1223471363282987e-003 -1.5479597611726514e-002
      -2.8880152645190571e-001 -1.2044371676530469e-002
      -1.4295314428962741e-001 -3.6359484481081694e-001
      3.6694259501293253e-001 2.9653939796680917e-001
      3.6696967572054373e-004 -2.7138370836728709e-003
      -3.7697885106055906e-001 2.8507928501286200e-001
      -1.1952695927990128e-001 -1.4666518166138340e-001
      3.7866660509412869e-003 1.0973341255504795e-002
      -1.2608490236355008e-001 3.6860206840916698e-001
      1.1662334081261175e-001 3.6185419114140438e-001
      -1.2326312238939721e-001 -1.1939279936902150e-001
      -1.6474288429503992e-002 -3.0047304166994343e-001
      3.6344774686050063e-001 1.4195528333495869e-002
      3.0563099690413958e-003 8.7239643383761611e-003
      -9.3917147941503382e-003 -1.0841540026520935e-002
      3.7758787037754693e-001 -3.7577210171443121e-001
      -7.9381141155063922e-003 -1.3388101683686066e-002
      -3.5215871095996332e-001 -3.7386982914287314e-001
      5.9789903723491043e-002 -3.7168409160978910e-001
      3.5291497862909371e-001 -5.5963938254788570e-003
      1.4898538715501106e-002 1.4277338294015865e-001
      -1.0436537741179863e-002 -3.7690845006005047e-001
      1.2110683308578826e-001 2.9941237313193425e-001
      -3.0387731584510214e-001 3.7836431830253819e-001
      1.3578626291483026e-001 3.7522224134762104e-002
      1.4402488331733443e-001 -5.2205170269435525e-003
      5.8588805362085883e-003 6.1829529737471016e-002
      3.8407131132972359e-002 -1.3807508969346455e-001
      3.5379186086448844e-001 -9.9046346985012662e-003
      -3.0746848371925389e-001 2.4530993831173298e-003
      1.4447286011155921e-001 -1.2271807747320904e-001
      -1.1993762693700052e-001 1.3272303969064078e-001
      -5.1186082460846542e-002 1.2299449982495175e-001
      -3.0670864513273549e-001 -2.7930840495241466e-001
      1.3145657322172763e-001 -3.0402300739589527e-001
      1.2347399341778753e-001 2.9836094276073383e-001
      2.9252894813522917e-001 2.4300393410689597e-003
      1.3634762451427831e-001 -1.3870842192432600e-001
      6.6006496297524392e-002 -6.5206694498559092e-002
      1.3719130486724532e-001 2.9134599964966729e-001
      5.3779150802288060e-002 -1.1948963121052050e-001
      1.2887142231350338e-001 2.7694115522951035e-001
      -5.7499162866426527e-002 2.8248620840968830e-001
      2.8202696780091779e-001 1.2843579256600987e-001
      -3.8817391002261968e-002 4.4988811889208301e-002
      -1.3191421576201848e-001 -1.1568353962305108e-001
      6.2191574403094030e-003 1.2786417456741894e-001
      -4.0041978497153873e-002 -4.4336227364523556e-003
      -2.9433853799459353e-001 -3.0242815997723360e-001
      4.5952547309549167e-002 3.6743033638290346e-001
      -5.7143314426284113e-002 1.2534014360519211e-001
      3.5320687605750034e-001 -1.4331932616695595e-001
      9.9499562367368899e-003 -3.5182253703735877e-001
      3.6760290090362968e-001 1.1949283388606236e-002
      5.9026257277769466e-002 3.5022695183032038e-001
      -3.6790688907916147e-003 9.7664410727094642e-003
      3.5338149698579346e-001 3.7053868276964941e-001
      1.4247852011109494e-001 1.1779962731125965e-001
      -2.3125360929453964e-001 1.3051873511826656e-002
      -3.5680361864559651e-001 -6.0752576377405630e-002
      1.4187202890153319e-001 5.0426778162395013e-002
      -3.0640996900895107e-001 4.8360364092699247e-002
      -1.2204211483092500e-001 -1.3869768220547371e-001
      4.8056403434248239e-002 1.2758223747939476e-001
      -1.0795694908210099e-002 -8.2457189841895068e-003
      2.8211270111612496e-001 6.2294092836576581e-003
      1.1619663860042057e-001 3.7126748527443598e-001
      -3.7562265509527770e-001 -3.0092460282869610e-001
      5.1304854076890533e-003 -6.4859065809594052e-003
      3.8086089200131529e-001 -2.8055673852507018e-001
      1.1778401840928124e-001 1.3935501040386325e-001
      -9.8961064849941993e-003 -9.6540644645603524e-003
      1.2653118440149588e-001 -3.5492513583198371e-001
      -1.2409389345814395e-001 -3.5320149657279443e-001
      1.4050357796070162e-001 1.3705111510769727e-001
      -4.8447834267456719e-003 2.9901350760020473e-001
      -3.5381178616958919e-001 4.8468662649685385e-003
      -9.1442410193503243e-003 8.2085314558644484e-003
      1.2630436541941070e-002 1.1176686756960152e-002
      -3.5587293165313716e-001 3.6196360602130884e-001
      -1.2177499123390778e-002 7.7814620992894407e-003
      3.5897590538719004e-001 3.5831400198345442e-001
      -3.8191961611187229e-002 3.4822433805676789e-001
      -3.7195579541084256e-001 -6.0718868481196564e-003
      1.1021159779785045e-003 -1.2161136516191193e-001
      8.7713115604172581e-003 3.5670354803312598e-001
      -1.2775416613812665e-001 -2.9127547510154556e-001
      2.9738701859182776e-001 -3.6123697029024526e-001
      -1.2234820085766615e-001 -3.9905966555328291e-002
      -1.3630267645884217e-001 5.8602728822818445e-003
      -4.9984481670300868e-003 -5.3812055997148493e-002
      -3.7331568221526903e-002 1.4080838933961146e-001
      -3.5026647825038670e-001 -2.3273502852037553e-003
      2.7588435703573433e-001 -1.0043248922362247e-002
      -1.1590294786476155e-001 1.4438465020396182e-001
      1.3973630835697007e-001 -1.3529561898948378e-001
      5.1519353409362055e-002 -1.1566142890166892e-001
      2.9520150741491685e-001 2.8157466485788263e-001
      -1.2033352511461415e-001 2.9242846334791683e-001
      -1.4219152033256510e-001 -3.0785537418581005e-001
      -3.0680234848562721e-001 -8.9481548318667975e-003
      -1.4490840994576346e-001 1.4061466633780775e-001
      -4.4745780484779639e-002 6.0426957557651782e-002
      -1.2594304847305307e-001 -3.0420590853709167e-001
      -4.0088848380204926e-002 1.2396563872782743e-001
      -1.4249936827355300e-001 -2.9639905311268494e-001
      3.8381652845191593e-002 -2.9102470533195901e-001
      -2.8772086932659174e-001 -1.3627683760959056e-001
      3.8066683041859332e-002 -3.5212219230754960e-002
      1.3579753592063459e-001 1.1568665456301416e-001
      -3.4342312677085179e-003 -1.3146134405825108e-001
      3.9134699151424361e-002 -1.5574547875764594e-002
      2.9441732534958515e-001 3.0017715037169584e-001
      -4.4268077676965965e-002 -3.6879679649541025e-001
      4.2260818256909603e-002 -1.2082866010014229e-001
      -3.6519334890764665e-001 1.2700720827320344e-001
      8.6084818416877762e-003 3.6113902699321998e-001
      -3.6767450886054587e-001 9.2203882790041075e-003
      -6.4480409996743177e-002 -3.5477194131020517e-001
      -1.1077401947101481e-002 -3.0868497945309575e-003
      -3.7111046476199860e-001 -3.6975600686407961e-001
      -1.2034459921912619e-001 -1.2623377203045547e-001
      2.3335738954351376e-001 1.4042603904984019e-002
      3.5730798435589162e-001 5.2576209907389447e-002
      -1.2080859556996840e-001 -5.3716783812548873e-002
      2.9187763581398918e-001 -5.0971251441083908e-002
      1.4477918904464265e-001 1.4390606307236753e-001
      -5.4473359604362968e-002 -1.1674416685088926e-001
      1.5312495072413307e-003 1.1313974910538815e-002
      -3.0498306621991794e-001 -1.1545938075928019e-002
      -1.3989739135552218e-001 -3.5296791071823996e-001
      3.7711033419732731e-001 2.9211038374991544e-001
      -9.5688098895223006e-003 1.6713115196494155e-004
      -3.7850327230145131e-001 2.8642628742030796e-001
      -1.1737811859168953e-001 -1.4016259605912282e-001
      -5.6557661689648209e-003 -5.7335474383701512e-003
      1.3219792444273135e-001 -3.6995917370227582e-001
      -1.3482057216567558e-001 -3.5232854880049724e-001
      1.3123964747652925e-001 1.2947769355983504e-001
      -6.2215145991193627e-003 3.0487804244399608e-001
      -3.7677596904165500e-001 -1.0913809790979292e-002
      -7.5314938823482780e-003 -3.8466654861965960e-003
      -1.1433960989271047e-002 -8.4822676196140978e-003
      -3.6070588584613361e-001 3.6559763172559268e-001
      -3.9841061532198546e-003 -7.7870213890653961e-003
      3.7733139662708104e-001 3.7390769876105856e-001
      -6.5204494453458106e-002 3.5261461878095746e-001
      -3.6281770887986931e-001 1.4864415711268800e-002
      -1.2417890659094988e-002 -1.1717846438663623e-001
      4.8936923427420620e-003 3.5770247004905187e-001
      -1.1731920277843932e-001 -2.8715818004395821e-001
      2.9351337134123884e-001 -3.4951694063526295e-001
      -1.4164263624237183e-001 -6.3232180822428846e-002
      -1.3367206168382006e-001 -1.1602747158469318e-002
      5.2750395912646852e-003 -4.9349784186291983e-002
      -4.7297770164265472e-002 1.2650547285911326e-001
      -3.5883676996910296e-001 -6.7576197886129868e-003
      2.9857891357873512e-001 -9.7161423089324461e-003
      -1.3699245093957493e-001 1.2078521345504575e-001
      1.2778441214810057e-001 -1.2802616855519469e-001
      4.5322626126695791e-002 -1.2353385539823866e-001
      2.9499879865876655e-001 3.0028649144681024e-001
      -1.1972764160420588e-001 3.0201884665260492e-001
      -1.1591910492631449e-001 -3.0602233847590948e-001
      -2.8465693243574702e-001 -1.0038525299172790e-002
      -1.1820006657510485e-001 1.3646097625914738e-001
      -3.7174906545408101e-002 4.5622491613352793e-002
      -1.1984627773154818e-001 -3.0217312157589871e-001
      -4.2624799156469405e-002 1.2029842020213635e-001
      -1.2039605587787544e-001 -2.9069156676085606e-001
      4.9263287538665067e-002 -2.8051623812445514e-001
      -2.8706826121539186e-001 -1.1701741510206920e-001
      3.4528545454073176e-002 -6.1813341265068676e-002
      1.2248384072429977e-001 1.2115546190810997e-001
      1.4444767400076788e-002 -1.2684210255113124e-001
      5.7000616977754485e-002 3.4683648471440093e-003
      2.9710999752442940e-001 2.8393371824505464e-001
      -5.6612298306250745e-002 -3.7309522219666991e-001
      5.4426505639211080e-002 -1.3853561982347024e-001
      -3.6626980790802888e-001 1.2087002604730787e-001
      1.3072559714312981e-002 3.7094976481781089e-001
      -3.7999373190075436e-001 1.0464339574899215e-002
      -3.9898825538597214e-002 -3.7070301946624429e-001
      2.0659719896116285e-003 1.1733854307399705e-002
      -3.5133721291405762e-001 -3.6903224433411908e-001
      -1.3624040642709870e-001 -1.2737952565303637e-001
      2.3405970881223004e-001 9.6113236761336401e-003
      3.6252552911603486e-001 4.8099742615609002e-002
      -1.4200352492908577e-001 -6.1292786639113687e-002
      2.9382126773122486e-001 -4.9520799389174745e-002
      1.2757087207140319e-001 1.1483160300756931e-001
      -6.5496002739873049e-002 -1.3281627430097689e-001
      4.1578405423479958e-004 -1.4472095999609275e-002
      -2.9754066839875493e-001 -1.1773193556393002e-002
      -1.3814526220422038e-001 -3.5203005798706910e-001
      3.6797848380781317e-001 2.9510110134218775e-001
      1.4856421344008969e-002 -8.6838554707356908e-003
      -3.7257808952423488e-001 3.0472966864264084e-001
      -1.3803324173106993e-001 -1.2858651460596973e-001
      -1.5151594115422898e-002 9.2188246561685921e-003
      1.2540299028934102e-001 -3.6274398078647252e-001
      -1.1448665367598032e-001 -3.6353293741847048e-001
      1.4510775150102725e-001 1.3428787868192937e-001
      -1.2527307523030773e-002 2.9896885523885008e-001
      -3.6544026169430233e-001 -6.9013177878613080e-003
      -8.1552588235875301e-004 2.0598562457863345e-003
      6.6911241147607214e-003 4.4740150872099593e-003
      -3.5247722139242710e-001 3.7558172020680969e-001
      -7.5573080273805687e-003 1.5789547907143819e-002
      3.6822637723312057e-001 3.6903460687794798e-001
      -6.1522174421901214e-002 3.5790885264237615e-001
      -3.6223797979706018e-001 -3.8745815607880291e-003
      -4.2329540226579421e-003 -1.4422709550037838e-001
      2.0123660462956633e-003 3.6136039411947174e-001
      -1.4254922879977311e-001 -2.8335533511138111e-001
      2.7555661339148901e-001 -3.5678130251450535e-001
      -1.2321934479157828e-001 -5.7847005095645519e-002
      -1.1518945994833946e-001 1.4332985827012701e-002
      1.7294350560515453e-002 -3.8501823634262348e-002
      -5.7731299012508112e-002 1.1858262064501435e-001
      -3.4884917036447083e-001 -5.9994995761382675e-003
      2.7645504182350811e-001 1.2489785512287355e-002
      -1.3729916842906642e-001 1.4039683392533156e-001
      1.3635204898812195e-001 -1.3021283333350725e-001
      5.7759776180863608e-002 -1.3259378317993206e-001
      2.9320032268452184e-001 3.0552336146769354e-001
      -1.1770311589568969e-001 2.7806688738974694e-001
      -1.3320528328366568e-001 -2.8276165579806173e-001
      -2.8128333520989063e-001 -1.4285177628124146e-003
      -1.2692857820028233e-001 1.2553534269561109e-001
      -3.7802988245894197e-002 6.0678961533768914e-002
      -1.1775689350464816e-001 -3.0733816777624573e-001
      -6.1281489086525413e-002 1.3130337228535319e-001
      -1.3547483025368043e-001 -2.8059184173430685e-001
      5.6361606369743127e-002 -2.8794774988026328e-001
      -2.8602534563090765e-001 -1.2430721839391104e-001
      4.5533225155734373e-002 -4.4746875458339934e-002
      1.3815774181681501e-001 1.3660288596140127e-001
      -2.9560266937507518e-004 -1.2284268451442712e-001
      4.2710466990247074e-002 6.2851087149729673e-003
      2.9071890878244050e-001 2.8390633116695529e-001
      -3.6731124881496893e-002 -3.7111840928426287e-001
      5.9749049387465829e-002 -1.4686412258617451e-001
      -3.6516610986977321e-001 1.1407252010621186e-001
      -1.2058571417880845e-002 3.5172490365613629e-001
      -3.5962438368433253e-001 -7.1474478580299261e-003
      -3.5603336051410306e-002 -3.6786309916206283e-001
      -1.2697649289219501e-002 1.3700196848634369e-002
      -3.5010740107261251e-001 -3.6421089429410319e-001
      -1.1953904725145634e-001 -1.2857725116050103e-001
      2.2772753340972474e-001 -6.8467767132802948e-004
      3.5610327456686497e-001 3.6287381704693922e-002
      -1.3645928133197219e-001 -3.8529016214458610e-002
      3.0346719188979587e-001 -4.0722645815972312e-002
      1.1654117460418531e-001 1.3570906477931435e-001
      -4.4716437197092139e-002 -1.3719853341134272e-001
      -1.1130612362621750e-002 -4.8334025439350503e-003
      -3.0569576131692711e-001 -5.8921108508637604e-003
      -1.3386504610900307e-001 -3.6114348400654217e-001
      3.5223463597753568e-001 2.8707741227324962e-001
      1.4647666763494827e-003 5.6691033041865041e-003
      -3.7990330106707637e-001 2.9750557784205056e-001
      -1.4004156577826546e-001 -1.3746042323803817e-001
      1.2280951678398058e-002 1.4265676535795538e-002
      -1.3368038829254067e-001 3.6391494132093782e-001
      1.2684762265876978e-001 3.6794908787731428e-001
      -1.1672693663181019e-001 -1.3300707774725273e-001
      1.6152733244999218e-002 -2.7877352374307046e-001
      3.7160539200559206e-001 7.6339818723107356e-003
      -4.5661096000402385e-003 1.4283393308301695e-003
      1.2506067730171253e-002 8.0672715072201140e-003
      3.7678417333372516e-001 -3.6528728804936150e-001
      1.1467243556559259e-002 -4.3327247348942249e-003
      -3.7741358689070759e-001 -3.6681022520619622e-001
      4.8520297505553610e-002 -3.6501600999261108e-001
      3.6864511201033329e-001 -1.5025724859005912e-002
      -5.8956868108332727e-003 1.2319437783617621e-001
      7.8612113398292549e-003 -3.5878275577153673e-001
      1.2355954363059476e-001 2.8161410190586134e-001
      -3.0465231654017866e-001 3.5506751222408639e-001
      1.2692401828129909e-001 5.8594564986828433e-002
      1.3694147078616239e-001 -1.2133180409775013e-002
      1.3896881168232039e-003 3.4658576477052477e-002
      4.4731621049763741e-002 -1.3692295085707074e-001
      3.6638691688693148e-001 1.0211886835633385e-002
      -2.8466326546999232e-001 -1.4318853271514290e-002
      1.1310480924698929e-001 -1.3096868488196708e-001
      -1.1358318316668589e-001 1.4064697777689672e-001
      -6.2715132989186712e-002 1.1542624867192222e-001
      -2.8713129743236754e-001 -2.9947600368106281e-001
      1.2540112996858505e-001 -2.9126134267794745e-001
      1.2550198031971496e-001 2.9049363732610561e-001
      2.7720561122662957e-001 9.8764012231879611e-003
      1.2522116158120597e-001 -1.1865550304887332e-001
      4.4452917035398880e-002 -3.3519517887202685e-002
      1.4041034802071081e-001 2.8482496334106383e-001
      3.7935985155495504e-002 -1.1369412016256744e-001
      1.1764126158590391e-001 3.0238784708442040e-001
      -4.2731415598407478e-002 3.0618047321458008e-001
      2.8093177201019787e-001 1.3370459803923360e-001
      -5.3964995929188873e-002 3.9497441551051997e-002
      -1.3404707750280417e-001 -1.3541431990320058e-001
      -4.5187916115181775e-003 1.2669616130105418e-001
      -5.5320896658341577e-002 -7.2590399466830047e-003
      -2.9376744261093929e-001 -3.0425991708502065e-001
      4.9387807429271673e-002 3.5037004742913380e-001
      -4.8202019517851739e-002 1.1421068913662755e-001
      3.6309708762730147e-001 -1.3375283965092730e-001
      -1.1469852735910432e-002 -3.5582575093200730e-001
      3.6920771497394933e-001 1.0293690406882702e-002
      3.7224042637986704e-002 3.6967244879736638e-001
      1.3452572173343849e-002 -8.4385403039665824e-003
      3.6057053668762423e-001 3.5732485901798328e-001
      1.1936052154766733e-001 1.3126094518365702e-001
      -2.0747485607324601e-001 1.9366720169361334e-003
      -3.6796238541673354e-001 -4.3281842359645738e-002
      1.3993770858911034e-001 4.2167156920720615e-002
      -2.8914996445655017e-001 5.9900484467377245e-002
      -1.3825686428050740e-001 -1.2086369869461322e-001
      5.9429823093681659e-002 1.3327255676547436e-001
      1.3891804645861899e-002 -6.3928161716798049e-003
      2.7649707019598196e-001 -1.2867271683070391e-002
      1.4124543005142440e-001 3.4853121795885411e-001
      -3.6254094916088631e-001 -3.0350508386375535e-001
      -9.4857142320391441e-003 3.9667163415243178e-003
      3.7681346902393453e-001 -2.9928367128997319e-001
      1.3287045816532414e-001 1.2766601037544209e-001
      -2.5594835205121347e-003 1.2070376501673016e-002
      1.3264489499383084e-001 -3.6161916492830659e-001
      -1.2761401897835098e-001 -3.7226950935408221e-001
      1.3185086058759476e-001 1.2464296270791309e-001
      2.8718644717098951e-004 2.8422260875234534e-001
      -3.5742333142727456e-001 1.3469046514107685e-003
      -1.0872591798645748e-002 -6.6698780802995628e-004
      7.9797424674171863e-003 -1.4315088870152565e-002
      -3.5442818638514095e-001 3.6984363082040173e-001
      -2.2287439613885018e-003 7.0907382437981892e-003
      3.7169141456621946e-001 3.5751084966971713e-001
      -4.4392324310202423e-002 3.6252063415653013e-001
      -3.5953190580352046e-001 1.1158034805210229e-002
      -8.4087934994101082e-003 -1.3195731518654560e-001
      1.1005506361857709e-002 3.7274250825454902e-001
      -1.3349194934159506e-001 -2.8593611020879900e-001
      2.8820604573329878e-001 -3.6887070386905463e-001
      -1.1389167255563717e-001 -3.7023609633012045e-002
      -1.4124505970038451e-001 1.2894718716234960e-002
      1.3275895837274065e-002 -5.2055753637385120e-002
      -3.5428743914875646e-002 1.3028486436444936e-001
      -3.5163514668420648e-001 1.1864919983662361e-002
      2.9139479545128921e-001 -1.3238111981169601e-002
      -1.3264254193881791e-001 1.1763983407052300e-001
      1.3051487781089338e-001 -1.1824445145955079e-001
      4.7477946154976657e-002 -1.1436701012229519e-001
      2.8130151844260098e-001 2.8061085343990472e-001
      -1.1986159411475508e-001 2.9795248554823539e-001
      -1.4367523414697861e-001 -2.9203033392033073e-001
      -3.0379915046402484e-001 4.5194675190300126e-003
      -1.1955873046215529e-001 1.2677712505178226e-001
      -3.7116285732511883e-002 4.2702129899644801e-002
      -1.2166470914685201e-001 -2.8547136975757426e-001
      -4.4092194308642245e-002 1.3198120342795203e-001
      -1.2952555716381553e-001 -3.0585368830999865e-001
      5.9313437221838398e-002 -2.9428769927812493e-001
      -2.7938458086329149e-001 -1.3623647447297549e-001
      6.4305811501969928e-002 -4.3456112511787624e-002
      1.2178136604034850e-001 1.3589784592115972e-001
      -1.3749617234425013e-002 -1.2790008049179416e-001
      3.6215281871887176e-002 2.1235412180969915e-004
      2.8148258072665211e-001 2.9045813333847048e-001
      -4.8871702576903646e-002 -3.6447527779875066e-001
      4.7383726931495222e-002 -1.1950649799533514e-001
      -3.6550204486927640e-001 1.3601064638904417e-001
      1.0249991830997576e-002 3.6497042478908215e-001
      -3.6529627351972471e-001 -3.6729020162112325e-003
      -4.9960788276233258e-002 -3.5872006595460476e-001
      -4.4999328967987029e-003 -6.7254450023032791e-003
      -3.5917317184295711e-001 -3.5940332597918434e-001
      -1.4345653898175989e-001 -1.2489134213725048e-001
      2.2187915632716826e-001 7.9625852819473764e-003
      3.6913702746367749e-001 6.1080486307464342e-002
      -1.2143454188718900e-001 -3.5818911655028068e-002
      2.8628350379742135e-001 -3.9113767366573897e-002
      1.2859236832606910e-001 1.4051321798213021e-001
      -4.4568677182696297e-002 -1.1653466275467997e-001
      -1.6502236543500803e-003 5.5344053122447501e-003
      -3.0197838133813043e-001 3.8760639418228410e-003
      -1.2177486035176580e-001 -3.6939304579927373e-001
      3.6973864699132963e-001 3.0434534873150410e-001
      4.9738967385227900e-003 -7.9352597198795172e-003
      -3.4998971934683121e-001 2.8264921857518216e-001
      -1.3665932468695052e-001 -1.2237097974125186e-001
      -5.3897588242152877e-003 1.4378909449404911e-002
      -1.3534610766133034e-001 3.7230336388693586e-001
      1.1885579925365677e-001 3.7179273810666325e-001
      -1.3225462607640595e-001 -1.3058651036819599e-001
      -8.1070411452016933e-003 -3.0312502349827902e-001
      3.6469072323448659e-001 -1.4548092714881986e-002
      -1.4403065043489191e-002 -1.0606867362871003e-002
      1.4812691507073761e-002 -1.3214911751731964e-002
      3.7490806440771485e-001 -3.5995825919097157e-001
      -3.4004070768227507e-003 -5.4168658331862629e-003
      -3.6768531676249050e-001 -3.5223148691825357e-001
      3.5265819061690670e-002 -3.5006702361113218e-001
      3.7881754949126323e-001 -1.1400665032938753e-002
      -8.4402221033481190e-003 1.4294371418565088e-001
      1.0045291991201910e-002 -3.7328570081772650e-001
      1.2713163831123794e-001 2.9382733105983616e-001
      -2.9478026019287612e-001 3.6197898047220334e-001
      1.3209708558906030e-001 5.1051198818708197e-002
      1.1684127849323347e-001 -1.2095319889269263e-003
      -8.2503686581161667e-003 5.9823954118431270e-002
      6.2272396157473396e-002 -1.1619912257087034e-001
      3.5491245641213931e-001 -1.5013204948453679e-002
      -3.0089660630559761e-001 8.1708281545508077e-003
      1.3348705254971829e-001 -1.2305401043187067e-001
      -1.3260283180087487e-001 1.2843240290837038e-001
      -3.8417249966705473e-002 1.1435205057389600e-001
      -2.8467985699681425e-001 -2.9374831054144523e-001
      1.2258200915170420e-001 -2.7735694891851287e-001
      1.2006820098042920e-001 3.0338670475611978e-001
      2.9275871745675858e-001 9.5552008715711068e-003
      1.3610559224168431e-001 -1.3760499778554006e-001
      4.7295362320758642e-002 -6.5957875841256675e-002
      1.2858667971786167e-001 3.0662061043280192e-001
      5.0912113190860329e-002 -1.1876325852273281e-001
      1.4058006128194583e-001 2.8178213762009896e-001
      -4.1661392153354813e-002 2.7986286652607695e-001
      2.7819392332597714e-001 1.2040881766444778e-001
      -5.5785639465983632e-002 3.4450350862159682e-002
      -1.3940099518571161e-001 -1.1580713992220701e-001
      7.7846840123148020e-003 1.4100710593887464e-001
      -5.6037115044076179e-002 1.3312524304428947e-002
      -2.9748244227730702e-001 -2.8795139794728247e-001
      4.5603034909419742e-002 3.6313918431628844e-001
      -4.4387700406580487e-002 1.2426124840436786e-001
      3.7423198856848749e-001 -1.2818036577433542e-001
      3.5502868843583085e-003 -3.7296567569305644e-001
      3.8014205703695614e-001 4.1745902059189960e-003
      6.4494945752980121e-002 3.5547228509404449e-001
      1.0441309672179849e-002 9.7593456661273226e-003
      3.7451194990236447e-001 3.7593545806906414e-001
      1.4180181105625891e-001 1.2237520524407317e-001
      -2.1536679330200259e-001 -1.3367829830829875e-002
      -3.6203601744583830e-001 -4.4509695652484242e-002
      1.4544499397084890e-001 4.0419828436455744e-002
      -3.0002074408322438e-001 3.4423033696567712e-002
      -1.3326139714940446e-001 -1.2622102292893619e-001
      5.5365733278554589e-002 1.2609447753771166e-001
      -1.9688649445709361e-003 2.2894920252814893e-003
      2.9479699921545449e-001 9.9700457357563416e-003
      1.3273959012912143e-001 3.6907786436028278e-001
      -3.6884081969785110e-001 -3.0234928134236888e-001
      -8.5656347499790952e-003 -8.4925584044915348e-003
      3.6323605552369176e-001 -3.0121321145470215e-001
      1.2187992470901082e-001 1.2745604412801384e-001
      1.4689746355559904e-002 -1.0156826497173740e-002
      1.4100980095235241e-001 -3.4948213242754422e-001
      -1.3090647634864441e-001 -3.7818623529297757e-001
      1.4260442313358981e-001 1.3089934849782611e-001
      -1.2151754851632557e-003 2.7722614310715166e-001
      -3.5669227595651443e-001 5.7891721512354499e-003
      8.4650646761040144e-003 -1.4543302038122680e-002
      -1.5419618331786220e-002 -3.2438032918781501e-003
      -3.6033960783341701e-001 3.6097019415422682e-001
      -1.0256607757134398e-002 -5.6810956477407887e-003
      3.7069079744601341e-001 3.7113198686611204e-001
      -5.1281661886922285e-002 3.6824930720349902e-001
      -3.5408381800150768e-001 5.0640637781659281e-003
      1.3708497879897294e-002 -1.2940507535474000e-001
      -4.1320293536514230e-003 3.5181633852175792e-001
      -1.3775231831647325e-001 -2.9150860378155918e-001
      3.0704017933710198e-001 -3.6232746113750974e-001
      -1.2544900960708946e-001 -4.1237003654794872e-002
      -1.3482971066598823e-001 7.0777005781960944e-003
      1.3025334861176546e-003 -3.8344071695572350e-002
      -6.2761202147534306e-002 1.1849278711416247e-001
      -3.7011659909526529e-001 -3.8652100104211440e-003
      2.9586568733493052e-001 5.4052446156849232e-003
      -1.4288198050415599e-001 1.1676953036996149e-001
      1.2434808567825933e-001 -1.4315767649440311e-001
      6.0322142582316489e-002 -1.2975063263581529e-001
      2.9856954147411091e-001 2.9910297057615182e-001
      -1.3702109612286770e-001 2.9382473588595598e-001
      -1.3103575356162880e-001 -2.8696326791551302e-001
      -3.0186264437251698e-001 1.2835891251352413e-002
      -1.2569395058961888e-001 1.3190236385343712e-001
      -6.2193556927685766e-002 5.0989134549805547e-002
      -1.2962449246786148e-001 -2.7730628356660242e-001
      -5.3454219654459088e-002 1.2347697902090279e-001
      -1.1942625895923173e-001 -3.0724969237031702e-001
      6.5996244638333257e-002 -2.9450540290106514e-001
      -2.9325967130196828e-001 -1.1682482188106449e-001
      5.6711912436910726e-002 -4.9052149954225875e-002
      1.1929986726213401e-001 1.3584973259911995e-001
      -4.4027924569712690e-003 -1.2960550228680451e-001
      5.0174131559291339e-002 -3.5847365283467048e-003
      2.8754509122429744e-001 2.9496861349347575e-001
      -3.6348986048723428e-002 -3.6536327728754731e-001
      5.9193729494700219e-002 -1.1555095610156116e-001
      -3.6801266991854276e-001 1.2957333428360540e-001
      -1.0426801945072298e-002 3.5464231804388124e-001
      -3.5814780862787554e-001 7.2010200712352979e-003
      -4.0776450483041786e-002 -3.6979496947947488e-001
      1.4923102901514607e-002 1.3481471396791386e-002
      -3.5708727454030842e-001 -3.6209687955615766e-001
      -1.3589270500753789e-001 -1.4127199051169967e-001
      2.2423537555331585e-001 -2.8088038813944977e-003
      3.6924853381178074e-001 5.7310063288736827e-002
      -1.3781874975093186e-001 -5.4751858324000612e-002
      3.0346075415091495e-001 -4.8142492993860829e-002
      1.2534474151020764e-001 1.3795881403534171e-001
      -6.4034751409593776e-002 -1.3656002765616940e-001
      -1.6468902936842833e-003 -1.4991564774124055e-002
      -3.0618601089003833e-001 -1.1568956643913081e-002
      -1.3271859754373161e-001 -3.5160901047354898e-001
      3.7533814399743926e-001 2.8029478330677277e-001
      -7.7536426884294435e-003 2.4644735233737836e-004
      -3.6507515773579258e-001 3.0677777125374506e-001
      -1.4122075250461252e-001 -1.4372907295053858e-001
      2.1788216105129571e-003 -6.7335383266161897e-003
      -1.3957044277414429e-001 3.7808525638877188e-001
      1.3701984731086617e-001 3.5634099682479270e-001
      -1.2765165319918778e-001 -1.3685205515319904e-001
      -1.2767412529366834e-002 -2.8032682020576777e-001
      3.5057819934495893e-001 -1.5160375395404324e-002
      5.6432029353415680e-003 1.0866539195729233e-002
      1.3764955684318569e-002 -1.6035954328346147e-003
      3.5689162066496816e-001 -3.5625755146470650e-001
      -3.1397566252476111e-003 -1.3448100028901455e-002
      -3.5420638636551094e-001 -3.6202388625919468e-001
      4.3143337900312821e-002 -3.7226452335416693e-001
      3.5317659194482665e-001 1.0460489179879684e-002
      -5.9893007241087065e-003 1.2876269046253921e-001
      -1.0787957870822304e-002 -3.6876333142086626e-001
      1.3503613292346120e-001 3.0637017782053649e-001
      -2.9858883951410287e-001 3.6355417321296923e-001
      1.2429555287768063e-001 5.9090916592979652e-002
      1.4332049390687826e-001 -9.2700037787600276e-003
      9.2778876490803158e-003 4.6463127734580521e-002
      4.1785667608974723e-002 -1.1910532847664509e-001
      3.5044718086862992e-001 -3.2609742161249233e-004
      -3.0623461086427101e-001 -1.0714224916775192e-002
      1.2928721482689740e-001 -1.1883535916797039e-001
      -1.2302198442887888e-001 1.4017256161682148e-001
      -4.0226423857546149e-002 1.2853008541525354e-001
      -3.0573648406028586e-001 -2.7780291840328297e-001
      1.3171764835792535e-001 -2.9460116644536155e-001
      1.4002956048840182e-001 2.8747455829963764e-001
      2.9521047894518515e-001 6.7416437759891812e-003
      1.2862483778041170e-001 -1.2968470298623674e-001
      5.1475418045775538e-002 -4.1580749912339725e-002
      1.2192031723894622e-001 3.0508942176984860e-001
      5.8496080849078695e-002 -1.3245968015668530e-001
      1.2622252882892340e-001 3.0449709325260166e-001
      -5.0627645672277254e-002 3.0816483244330412e-001
      2.8187100928793274e-001 1.4284778433762002e-001
      -5.2145011224527436e-002 3.5333142296258127e-002
      -1.4095477220396482e-001 -1.1482957423980653e-001
      -3.5383930904871463e-003 1.3442128046631432e-001
      -4.0208404567511617e-002 5.9292104957456293e-004
      -2.9997572978769138e-001 -2.9941409392093138e-001
      3.6325408731619810e-002 3.5996354691294974e-001
      -3.7081472589838196e-002 1.3311253083757327e-001
      3.7207815474416867e-001 -1.2263212943917343e-001
      -6.5664577439223243e-003 -3.5657337087021090e-001
      3.5911560434902901e-001 2.0605896901637333e-003
      5.9398361132125231e-002 3.7120179836622769e-001
      1.0038406454272106e-002 -3.7961013388484732e-003
      3.7281139934977647e-001 3.7462211212276081e-001
      1.2359983136168126e-001 1.3324837296128111e-001
      -2.0859264539335831e-001 1.1439966377911157e-002
      -3.6046613012137418e-001 -3.9393976833044707e-002
      1.4446841337886876e-001 3.5611352030346238e-002
      -2.9083008067380928e-001 4.7716737872568436e-002
      -1.2017733930495686e-001 -1.4027129934082649e-001
      3.9204299759964388e-002 1.3477900277962876e-001
      1.1145110681152953e-002 2.7367730140346463e-003
      2.7566627832469132e-001 -4.5537178120416549e-003
      1.3343371676359542e-001 3.7689802374010734e-001
      -3.7489079033020500e-001 -2.7948488316842146e-001
      1.6109601247887601e-002 -1.5490752246495321e-003
      3.5640826771475986e-001 -2.9179584445576578e-001
      1.2244362471757961e-001 1.2843871356515610e-001
      -4.3177218288052016e-003 -9.3350817351771781e-003
      1.4253483197537856e-001 -3.6804176932846711e-001
      -1.2947912324982100e-001 -3.5426769444500300e-001
      1.4502226018014761e-001 1.3828283579015091e-001
      -6.9096175441765717e-003 3.0303667003258616e-001
      -3.6432337928676650e-001 -5.7414691542184981e-003
      1.0436127107846180e-002 -1.2903992401996273e-002
      -1.3222997647452009e-002 -5.4297941081190848e-003
      -3.6450940203913529e-001 3.6633205014986137e-001
      1.4120026676267605e-002 -9.0829665683716393e-003
      3.7189504830005560e-001 3.5884460273382268e-001
      -5.6003879377879977e-002 3.6718823873917150e-001
      -3.5442963745460743e-001 -8.4099377845160694e-004
      -5.2440336925584086e-003 -1.3906242891707402e-001
      -1.5223340936121418e-002 3.6816473511995118e-001
      -1.2003812229368774e-001 -2.9944846383922247e-001
      3.0124173396639681e-001 -3.7132707289752231e-001
      -1.3497291156491525e-001 -5.5507834114089653e-002
      -1.4484358883517795e-001 1.0920523860917519e-003
      8.2809767216758257e-003 -3.9274564642303077e-002
      -3.4026647812059052e-002 1.2963991949336612e-001
      -3.5305783541308156e-001 -2.6441736731035587e-003
      2.9730616961445749e-001 -7.1550380275400838e-004
      -1.4313981280087520e-001 1.2503326543122442e-001
      1.2041834026177506e-001 -1.1769333230910364e-001
      4.1130256151676113e-002 -1.1720479188124702e-001
      2.8914516662639433e-001 2.8159624834167984e-001
      -1.3878644739676019e-001 2.9920810832439176e-001
      -1.3154330305686909e-001 -3.0747147080882503e-001
      -3.0607683334104246e-001 1.5628664188346519e-002
      -1.3782182908346571e-001 1.4451816172694051e-001
      -3.4071260938835862e-002 4.5350357072029633e-002
      -1.3882119603116161e-001 -2.9399217983465759e-001
      -3.5917492684560334e-002 1.2767746345826103e-001
      -1.4138128177205858e-001 -2.8752470843376599e-001
      4.4320825503411702e-002 -2.8318853795799181e-001
      -3.0531710247040822e-001 -1.4183352639208099e-001
      5.2283683014273379e-002 -5.2125270171036291e-002
      1.4466036003440880e-001 1.1601197308647893e-001
      7.2716629464430610e-003 -1.4125189649652467e-001
      4.1957064467308534e-002 -5.4739597970820952e-003
      2.8491195453923734e-001 2.9032907861599155e-001
      -5.9106017954780175e-002 -3.7696818161515899e-001
      4.3400779395836107e-002 -1.1356573577630988e-001
      -3.7108121199142341e-001 1.2825475783519905e-001
      9.5944132977978935e-003 3.4918218418534253e-001
      -3.5882943289486041e-001 1.5734105572667162e-003
      -5.6765293417688954e-002 -3.6411226587620660e-001
      8.1845435986096643e-003 -1.2001785325756950e-002
      -3.6019034481505618e-001 -3.6831644961611987e-001
      -1.3551624185358210e-001 -1.3066900777441434e-001
      2.2119734755482706e-001 -5.9919868703123824e-003
      3.5688971023043570e-001 3.6811240392516112e-002
      -1.4374114626250153e-001 -4.8175765897135035e-002
      2.9311603348158177e-001 -3.9361247578703566e-002
      1.4209121506436437e-001 1.1846492429034558e-001
      -3.4427721401631819e-002 -1.1983012394084136e-001
      5.8763463914123099e-003 -4.3730549984365152e-004
      -2.7583219097576567e-001 7.6107191229856652e-003
      -1.1926511576902646e-001 -3.7894843581232929e-001
      3.6927719921505575e-001 3.0380602077405777e-001
      -1.4551995603987802e-002 -8.9726843410489060e-003
      -3.7762846947868539e-001 2.9532307556022436e-001
      -1.4019732317347330e-001 -1.1852533069176410e-001
      -1.0586163017633904e-002 9.3787466732371538e-003
      1.3839254429889183e-001 -3.6748051373060908e-001
      -1.1680804047825691e-001 -3.5416006374542053e-001
      1.4032975520676863e-001 1.1601128288576673e-001
      -1.8812300762534317e-004 2.8684955958093139e-001
      -3.6874523981103013e-001 1.3560064661100046e-003
      -1.2640243841945717e-002 -3.6442292193068909e-003
      5.0483595563294570e-003 -5.1448726328420513e-003
      -3.6547036315998660e-001 3.4915866188181155e-001
      1.1391203842952086e-002 -9.2772799459746452e-003
      3.7030749848059052e-001 3.6703793101502402e-001
      -5.8893487138716748e-002 3.8014321190535494e-001
      -3.7355833553494100e-001 -5.5680780011005127e-003
      -1.5977848932597349e-003 -1.1745287207094907e-001
      1.0791891998404135e-002 3.7606819619155263e-001
      -1.2397665532282834e-001 -3.0695568216620001e-001
      3.0040708511036412e-001 -3.7320886521896890e-001
      -1.1537645795463389e-001 -3.8220457770539722e-002
      -1.2529108110984602e-001 -5.7194556865362289e-003
      4.5259625141779170e-003 -5.3460763841301377e-002
      -4.5375666318788137e-002 1.2546603240550100e-001
      -3.6328194867388142e-001 -1.3629951116532452e-002
      2.9615392099563576e-001 1.2984155537064807e-003
      -1.3103709230965224e-001 1.4355127584688623e-001
      1.2174520203999004e-001 -1.3619730023670712e-001
      4.5054738575018786e-002 -1.2222150432715767e-001
      2.9503636907922393e-001 2.9864848219080586e-001
      -1.2817393216893183e-001 3.0624618251524788e-001
      -1.3050802981709267e-001 -3.0337917991691499e-001
      -2.9445183582507173e-001 1.5287680087971572e-003
      -1.2483984816886268e-001 1.2193660672642920e-001
      -6.6983654487972555e-002 3.9674492980725611e-002
      -1.3176657904199365e-001 -2.8812362462604363e-001
      -4.1568573022055487e-002 1.2118303529596916e-001
      -1.2766076769412218e-001 -2.8553618686761811e-001
      5.6439960446595515e-002 -2.9491408830634297e-001
      -2.9962935347934044e-001 -1.4031469895348073e-001
      4.5581340223907550e-002 -3.6589082894638983e-002
      1.3485568847233073e-001 1.3791746349187584e-001
      -7.5976679726806745e-003 -1.3634983591874866e-001
      6.1412506713148123e-002 1.2512246559378715e-002
      3.0041480360459738e-001 2.7860868440383785e-001
      -3.8812346745269642e-002 -3.5920954650310444e-001
      4.1083351042592940e-002 -1.3905034509794809e-001
      -3.7464588483393235e-001 1.3304978844308260e-001
      -8.1349246931835123e-003 3.8008823286907478e-001
      -3.6456639874181973e-001 -1.0820455652829436e-002
      -5.9322437063470006e-002 -3.6470444479499631e-001
      5.6157079903818574e-003 -5.4442018452297847e-003
      -3.6006048491050124e-001 -3.5428966194735040e-001
      -1.1558150939816073e-001 -1.3244995705781346e-001
      2.2798498696888314e-001 5.0801218156751871e-003
      3.7265851153554619e-001 4.4100836319724161e-002
      -1.2563871248312744e-001 -5.5937545522498487e-002
      2.9058188879733404e-001 -4.6779970564594174e-002
      1.4366545496381436e-001 1.2431990524784353e-001
      -5.3451785499750819e-002 -1.2306821157475431e-001
      -1.5915917592572160e-003 3.7117889103936569e-003
      -3.0729688877262562e-001 -1.0021645533358992e-002
      -1.4216071442014719e-001 -3.5340787203706725e-001
      3.7269695221473031e-001 2.8779739542806648e-001
      -4.9995574700617551e-004 8.1777397212146052e-004
      -3.7082063402423371e-001 2.9560923889666135e-001
      -1.2160566944981521e-001 -1.2569520007831106e-001
      -3.8207878402049533e-004 -1.1254620384514052e-002
      1.1503482738537210e-001 -3.7652591129828850e-001
      -1.1543251726262763e-001 -3.7005216771430471e-001
      1.3942605379492781e-001 1.4015706175501069e-001
      8.0883644582853687e-003 3.0784111421667720e-001
      -3.7405493884698171e-001 8.7888457560771488e-003
      -1.4114224588074861e-002 -1.1767261538283086e-002
      -7.2114347933854434e-003 6.0810619844221814e-003
      -3.6555833033659790e-001 3.7231284841942736e-001
      -8.8158314704803453e-003 1.0909409643281034e-002
      3.5227453803677100e-001 3.7162390499624104e-001
      -5.1150036813084991e-002 3.7178457142165422e-001
      -3.6607882253591295e-001 1.5511457103960610e-002
      2.6757801496448408e-003 -1.2299364315811867e-001
      6.9289113218281434e-003 3.7538841176197957e-001
      -1.3642240607489958e-001 -3.0324235720851994e-001
      2.8228577568123514e-001 -3.6142230639282769e-001
      -1.3460159834655924e-001 -4.1357584143887842e-002
      -1.1871514193932062e-001 -1.2772445772301744e-002
      -1.3169506054421909e-002 -3.6414776129563217e-002
      -5.7469327049364520e-002 1.4258493888726018e-001
      -3.5787378900685218e-001 1.1218051232313300e-002
      2.9286738962253422e-001 3.2625735157656433e-003
      -1.3527635532578011e-001 1.4255188593542065e-001
      1.3113015415499199e-001 -1.3826185433954100e-001
      4.7023621938259756e-002 -1.1891809661488831e-001
      2.8593426339940514e-001 2.9001672430220171e-001
      -1.4465368298454678e-001 2.9830079497205098e-001
      -1.3525801783502009e-001 -3.0476515313100555e-001
      -2.9099526515809476e-001 3.9478546160794104e-004
      -1.3557042846087977e-001 1.4116266859550383e-001
      -3.7568975238493500e-002 3.9577566799495499e-002
      -1.1572167023389451e-001 -2.9594852794852744e-001
      -4.7127204559336437e-002 1.3551887373332233e-001
      -1.2112146594898274e-001 -2.9777693953582696e-001
      6.4702682844630266e-002 -2.9677410061427145e-001
      -2.8029094369949392e-001 -1.4437516881838472e-001
      4.2392080633951799e-002 -4.6348282409957801e-002
      1.4465455338947769e-001 1.2525511729269209e-001
      -1.3347413003904865e-002 -1.1993046159718360e-001
      3.9056307146594131e-002 5.0817718527228078e-003
      2.9615289393140892e-001 3.0221837835769388e-001
      -4.7468559961633509e-002 -3.5200194295230247e-001
      4.4941007770118606e-002 -1.1990720815372904e-001
      -3.5988768197265830e-001 1.1363534448349921e-001
      1.2602087846855431e-002 3.5447625533265609e-001
      -3.5062585559546022e-001 -8.6673555643958511e-003
      -6.2532882667243911e-002 -3.7347134160150397e-001
      6.2078445832144946e-003 1.2687465580129384e-002
      -3.7848710902440652e-001 -3.6569247850131958e-001
      -1.4381314817093649e-001 -1.4331304908106443e-001
      2.1895388896807144e-001 3.6227837189600764e-004
      3.6075216765642859e-001 5.1953130312744948e-002
      -1.3729387647182859e-001 -4.6905821145499398e-002
      2.8738676314655487e-001 -4.9845270551267688e-002
      1.1592503980662008e-001 1.2258629073543661e-001
      -6.3799481414877485e-002 -1.4346850130064667e-001
      -5.4472066321397672e-003 3.9947881481389169e-004
      -3.0017549995249143e-001 3.1573386748279947e-003
      -1.4487612673838302e-001 -3.6857657127359666e-001
      3.4977072394273651e-001 2.8723840109806170e-001
      -5.7613855493593435e-004 8.0943240820793294e-003
      -3.5826068012781775e-001 2.7671482504479389e-001
      -1.2224927067720956e-001 -1.4053506107421548e-001
      -6.2057357636104010e-003 7.4583826972605544e-003
      -1.4105871893307767e-001 3.5422681726306648e-001
      1.2824683002616047e-001 3.6730606085468065e-001
      -1.3291630410828126e-001 -1.3446798147852726e-001
      1.3771796880566345e-002 -2.8207742990762952e-001
      3.6510012012547088e-001 -9.6853083310604049e-003
      -5.8752228502682025e-003 -1.3038624093122952e-002
      9.2628162381337420e-003 -1.3571432216430979e-002
      3.5502913260309710e-001 -3.5189086985138157e-001
      1.2592765526536778e-002 2.7832884039121902e-003
      -3.7687398926019966e-001 -3.7635184853236697e-001
      5.9076517244728004e-002 -3.7255825656685126e-001
      3.7543066478374676e-001 -8.0215963656081746e-003
      -4.8113586956081145e-003 1.1738580846393767e-001
      6.7556939423346618e-004 -3.7010956619497615e-001
      1.3641391149064311e-001 3.0674996275664251e-001
      -2.7533051897217475e-001 3.5982677200850888e-001
      1.2983862568731458e-001 6.5326326260763651e-002
      1.1605541821864793e-001 1.1942213606188162e-002
      5.7942096458562103e-003 4.5682837710387857e-002
      5.9663148228284883e-002 -1.1747438087503434e-001
      3.7741982922764183e-001 -8.5562619571637882e-003
      -2.9274669705628004e-001 -1.5309155106702541e-002
      1.2169751063049750e-001 -1.1947499185502664e-001
      -1.2551908911544821e-001 1.4325478613293277e-001
      -4.2627574592349747e-002 1.1910959405115298e-001
      -2.8755534441258701e-001 -2.9225049473994691e-001
      1.2227435070392964e-001 -2.8179723428009995e-001
      1.1597467015691559e-001 2.9894674754350498e-001
      2.8829731235392514e-001 1.8953175300730485e-003
      1.3454568650372217e-001 -1.2315702207185461e-001
      5.0006349250488878e-002 -4.1868656189191798e-002
      1.1984932161028652e-001 2.8053158977236120e-001
      5.5789733860935158e-002 -1.3683356905423713e-001
      1.3868283930618838e-001 2.8028736333548804e-001
      -3.9811222852743404e-002 3.0793963178361400e-001
      2.9713948347162572e-001 1.2577284343701864e-001
      -4.0069131230550635e-002 6.2280174252594071e-002
      -1.3862455930282216e-001 -1.2248127761358271e-001
      8.9216372356493157e-004 1.3722508595531138e-001
      -3.7208479726712138e-002 -4.3229882425975252e-003
      -2.7937784073601862e-001 -2.8317904966293095e-001
      6.0827508292883185e-002 3.4886608366232996e-001
      -6.1346524225072190e-002 1.3552255148200029e-001
      3.5289579131228266e-001 -1.3261223328323990e-001
      1.0282628661294591e-002 -3.5858378090011389e-001
      3.5747940706324433e-001 8.2208822022110106e-003
      6.1314360191764637e-002 3.5195347162431873e-001
      6.6374439006943869e-003 4.8851035081715760e-003
      3.7515426978174504e-001 3.5749317663415436e-001
      1.3756315393374666e-001 1.3900132029503123e-001
      -2.3352661329778157e-001 1.0475321306716676e-002
      -3.5748751007045371e-001 -3.7127781946791005e-002
      1.1481585830077404e-001 4.3434779329283905e-002
      -2.7875748800223366e-001 6.1824707026924851e-002
      -1.3742992378351154e-001 -1.1846022338337153e-001
      5.6112398262337014e-002 1.3308661685421821e-001
      -4.0597539403310068e-003 -1.1378898596715842e-002
      3.0756500939338866e-001 -1.5857606718832351e-003
      1.3474710302564480e-001 3.6244358257074027e-001
      -3.7117430858773881e-001 -3.0584754435909922e-001
      9.5635424252643042e-003 1.4556716637506559e-002
      3.6636169173520949e-001 -2.9475098138776928e-001
      1.4324656363476582e-001 1.2851797329053566e-001
      1.5085715451838982e-003 -6.0274964533155451e-003
      1.2691243302837643e-001 -3.6260827216371316e-001
      -1.2196311795139822e-001 -3.4961685569059592e-001
      1.1635671650868287e-001 1.1633936865455027e-001
      -8.4044785251615461e-003 2.7626430151576536e-001
      -3.5567860181740296e-001 -8.7110374872015894e-003
      1.3499783940401230e-002 1.0644040313326664e-002
      -1.3028160296701174e-002 6.3208608339542921e-003
      -3.7381292860532178e-001 3.7900238290385635e-001
      1.5627972653067979e-002 9.2162146889395308e-003
      3.6973063141873941e-001 3.7300632469698614e-001
      -3.9289946728107948e-002 3.7309084342192272e-001
      -3.7450199287871266e-001 2.1603292293252280e-003
      1.3124412019292056e-002 -1.2126686327877853e-001
      1.0016623464696450e-002 3.7848281595501027e-001
      -1.3164548673177626e-001 -2.8422203238196692e-001
      2.8303192865164828e-001 -3.6534173343909671e-001
      -1.1612396917194831e-001 -3.7558511490668710e-002
      -1.2578073283369803e-001 1.0249467734655460e-002
      -7.5859472380115922e-004 -5.0620295703404254e-002
      -4.9264824107660581e-002 1.3423866471903975e-001
      -3.5999307057848451e-001 1.6416999291821027e-003
      3.0289096886849054e-001 -1.2845110079577948e-002
      -1.2655803478680258e-001 1.1863273733902316e-001
      1.3791849330890291e-001 -1.4332435976733574e-001
      3.7784104323423516e-002 -1.2117562374349750e-001
      2.8367918983521700e-001 2.8320642783550637e-001
      -1.3554145056631051e-001 3.0284027974326361e-001
      -1.1795229300301299e-001 -2.7974291666069734e-001
      -2.8760407839424645e-001 1.5123376468784797e-002
      -1.2473107988436960e-001 1.1699496067005530e-001
      -5.7088063612608118e-002 4.2457182427738681e-002
      -1.3363982421153989e-001 -2.8768869642506167e-001
      -3.9416991958040680e-002 1.3753856933938305e-001
      -1.4594036591371326e-001 -2.8867836040429434e-001
      4.8790434716740876e-002 -2.8650242763782824e-001
      -2.8059133937835756e-001 -1.1998941247174152e-001
      5.2266903483563547e-002 -4.0301263474338593e-002
      1.2881613696057195e-001 1.4089976018081343e-001
      5.7862013778360588e-004 -1.1507623649750365e-001
      5.8658520667263923e-002 2.5395733003557158e-003
      2.9723970435844782e-001 2.9317632029646662e-001
      -4.3134703227372388e-002 -3.6326834378038186e-001
      3.9365376971115328e-002 -1.3894434813995168e-001
      -3.5943524974206731e-001 1.3321456505062759e-001
      1.4105396583696764e-002 3.5474026914152368e-001
      -3.5171382932783879e-001 -9.9335986840024676e-003
      -6.2948224705125788e-002 -3.7014598020542266e-001
      -4.6696719910158530e-003 8.1251015468676857e-003
      -3.6025877993800981e-001 -3.4830008570065035e-001
      -1.1854856408636469e-001 -1.2656583320420564e-001
      2.2466658108767823e-001 -1.2574004626856816e-002
      3.4946839699281473e-001 4.1179897978255768e-002
      -1.1599290598746109e-001 -5.9492535068345113e-002
      2.8681015171303986e-001 -3.5563715619882003e-002
      1.3205353931966687e-001 1.3802275992787857e-001
      -4.7320257115978141e-002 -1.2675771616694823e-001
      4.1657626352148425e-003 5.0865785860712553e-004
      -3.0460908340235215e-001 1.5874617313455228e-002
      -1.4518275448781506e-001 -3.5610917247854357e-001
      3.7021209596554194e-001 2.9456367517264070e-001
      1.6397826693459600e-003 -4.0516535794076214e-003
      -3.5560617108407711e-001 2.8827441183468772e-001
      -1.3520793703436959e-001 -1.4171339846590150e-001
      -4.4532389131879402e-004 9.4259646633780558e-003
      -1.2499188744975187e-001 3.7681879434142396e-001
      1.3727959224754635e-001 3.7024100033983476e-001
      -1.1571830148617127e-001 -1.3217633009131777e-001
      1.4566267403914590e-002 -3.0673947098115839e-001
      3.7474110759989732e-001 2.2925200261155049e-003
      -7.4839639327714536e-003 -1.4268932627931885e-003
      -1.2119088809736223e-002 -1.0372737950562511e-002
      3.7570786721133753e-001 -3.5561598729223942e-001
      8.1780229132585314e-003 -3.0534763867294534e-004
      -3.5629671903100357e-001 -3.6631322355511908e-001
      5.1134601038358506e-002 -3.6422969475572153e-001
      3.4904162833746888e-001 -5.9768455730599135e-003
      3.2067120802535126e-003 1.4156029529564360e-001
      -1.0949361768635146e-003 -3.6585465239420401e-001
      1.2962890347221109e-001 3.0018261123676721e-001
      -2.9514614828608232e-001 3.7157690760418272e-001
      1.4468260916899653e-001 5.2542897886288457e-002
      1.4499971827593613e-001 -1.3198544886554794e-002
      -3.7845626332596027e-003 6.0298567625745696e-002
      5.9480778964174551e-002 -1.1632992072672599e-001
      3.5075009986225336e-001 -7.5602521927247701e-003
      -2.9701745989339584e-001 1.5709249877160908e-003
      1.4670664853811566e-001 -1.2654999902582534e-001
      -1.3008054315968706e-001 1.3217406772290147e-001
      -4.9075735727085866e-002 1.3315811048718637e-001
      -2.8615030274466996e-001 -2.8097399658314959e-001
      1.4059004242944023e-001 -2.7822953480581264e-001
      1.3458954537059939e-001 3.0421540532991342e-001
      2.9040066945368037e-001 1.0674768964603565e-002
      1.1662284427214331e-001 -1.2593583215008700e-001
      3.8005589992763787e-002 -5.0716302416383967e-002
      1.2695000173146062e-001 2.8757533039386124e-001
      3.6669727920019698e-002 -1.3757289360861275e-001
      1.3876758961215854e-001 2.9618059890737436e-001
      -4.2787881433826412e-002 2.9536304417862436e-001
      2.8655629599295790e-001 1.3121197720039332e-001
      -6.0549507537656831e-002 4.1025277377780632e-002
      -1.2176904816381565e-001 -1.3853367826110052e-001
      1.3389256948013545e-002 1.2425991154341429e-001
      -5.1132576818063262e-002 -1.2875535413749639e-002
      -2.8306287430718696e-001 -2.8291291104534294e-001
      4.4427472637484332e-002 3.6211095666550563e-001
      -3.7015374273181120e-002 1.3236263887776620e-001
      3.5098633022644138e-001 -1.4594387066053688e-001
      -1.3699329876062150e-002 -3.6524191168731385e-001
      3.7030638008957695e-001 -3.4655214847272159e-003
      5.0610131554895181e-002 3.6206249591182660e-001
      7.6809440061742229e-003 -1.0170500386577352e-002
      3.6919891433659502e-001 3.7862584209510375e-001
      1.4078058543348951e-001 1.2423196714417969e-001
      -2.1050343156566109e-001 -1.4898834567364766e-002
      -3.5843366382099551e-001 -5.2726610279529955e-002
      1.2572731028326881e-001 4.8209350543702199e-002
      -3.0391720105127257e-001 3.4211315993367311e-002
      -1.4303189705507122e-001 -1.2876565684098790e-001
      4.4795944121625457e-002 1.1981532558990871e-001
      -1.4838101166716397e-002 1.1873703192411211e-002
      2.9721339605971786e-001 -6.0697651676872577e-003
      1.2174118875851181e-001 3.6484353153605775e-001
      -3.5632822990092944e-001 -2.7964534464038865e-001
      7.1846414437224670e-003 -6.4667648872639982e-003
      3.6380980059294499e-001 -2.9026286674308682e-001
      1.2172922507744138e-001 1.3556253252300851e-001
      1.4583599784586149e-002 -1.6296439530289197e-003
      1.3643197836766593e-001 -3.6573717820660423e-001
      -1.2285954257104503e-001 -3.7683809097422294e-001
      1.1837219079783504e-001 1.2371327811395608e-001
      1.6496655380465200e-002 2.8323687559194388e-001
      -3.5006971363146910e-001 -8.4651948308234054e-003
      -5.8585132183689298e-003 2.8273188776622854e-003
      -1.3912442333649994e-002 -1.5237661616923776e-003
      -3.5336023188647681e-001 3.5624945533331076e-001
      8.7059493926762016e-003 4.9795568177637417e-003
      3.6352738458907030e-001 3.7447939630910299e-001
      -3.5549842462496484e-002 3.4878268073216312e-001
      -3.6124237487430844e-001 9.1265218718214608e-003
      2.2555772782385936e-003 -1.2903480882059845e-001
      -4.1394400735394465e-003 3.5553007149670135e-001
      -1.2201053716408650e-001 -3.0409833754913324e-001
      2.7778517822506710e-001 -3.5451396729910944e-001
      -1.3432306764265520e-001 -4.2287611597677459e-002
      -1.4378036028302252e-001 -7.1503609434541426e-003
      7.3215651010395955e-003 -3.6653367380533569e-002
      -5.3466296972178910e-002 1.2734995584419176e-001
      -3.7768621391485258e-001 -2.8085916354751439e-003
      3.0689515709221765e-001 1.2629415029416627e-002
      -1.2530895545119433e-001 1.2557705641086309e-001
      1.4325441394776087e-001 -1.3756667764731847e-001
      6.4461033980551891e-002 -1.3361984182923306e-001
      3.0081347380340429e-001 3.0172931793831009e-001
      -1.2849963069466788e-001 2.8229669986388461e-001
      -1.2521982300158943e-001 -2.9395249388379130e-001
      -2.9708678563862806e-001 -4.2564270198865994e-003
      -1.1668071123036203e-001 1.2267434266312785e-001
      -5.4898446431353574e-002 4.0113644400235758e-002
      -1.3625423744445042e-001 -2.8611754326953670e-001
      -5.1940810569841227e-002 1.3150818553094054e-001
      -1.2226634028239733e-001 -2.9120576930739345e-001
      5.7982341747885822e-002 -2.7722536202039005e-001
      -2.9887015227147729e-001 -1.1941675256183051e-001
      4.7179513932547455e-002 -4.9571601532974706e-002
      1.2687363700841814e-001 1.3821486051423215e-001
      1.2936128398575678e-002 -1.3089142350347541e-001
      6.1193608675225074e-002 -5.8313015393206269e-004
      3.0413812108295102e-001 3.0263776535295894e-001
      -4.3113063315870968e-002 -3.5203901397245130e-001
      6.3860957808767133e-002 -1.1651422361956079e-001
      -3.5081955036002999e-001 1.2799197795635117e-001
      -5.8234953362559516e-003 3.4856588807100952e-001
      -3.5309398769081946e-001 1.3502019389608766e-003
      -5.2698859928495233e-002 -3.6493405231224829e-001
      9.1805703807771588e-003 -9.1894721672005908e-003
      -3.6609160244091832e-001 -3.5054872729798736e-001
      -1.2590012987572871e-001 -1.3313856476573879e-001
      2.2253048774069084e-001 7.7267924395743592e-004
      3.6812243652582782e-001 4.6582471021383735e-002
      -1.3544470601429617e-001 -5.6119436383409847e-002
      2.9014629605640441e-001 -4.4825553297692965e-002
      1.2271046122337589e-001 1.2804971447461280e-001
      -4.6087965581203309e-002 -1.3958141587429515e-001
      1.5593470943822851e-002 1.1263514584533743e-002
      -2.9104047534224065e-001 -1.6252152745501347e-002
      -1.3361982491820787e-001 -3.5552794806087362e-001
      3.7588616494537785e-001 2.8162832936145266e-001
      1.4590440753584191e-002 -4.2810066947060188e-003
      -3.4942676395543859e-001 2.9601239546699182e-001
      -1.1891105465593108e-001 -1.2132104734934276e-001
      1.1859373626934705e-002 4.3806499911683838e-003
      -1.2986894449742681e-001 3.5233291541129597e-001
      1.4411516948926942e-001 3.6712350566082541e-001
      -1.2588656189852490e-001 -1.1558602856013053e-001
      2.1524787517537003e-003 -2.8640196409727098e-001
      3.5193634995368772e-001 3.2374293280651167e-003
      -6.0804198835888446e-003 9.5425214532433855e-003
      -1.0532599263979939e-002 4.8751282602685353e-003
      3.7339996714760049e-001 -3.6485173872406906e-001
      -6.4345158305610800e-003 1.2387228778235726e-002
      -3.4941466842272662e-001 -3.5075505465660706e-001
      5.3127107628177649e-002 -3.5251012266016030e-001
      3.5359582018678126e-001 8.2650720313932197e-003
      -1.1993519939769728e-002 1.3801417142528813e-001
      5.1710986986815144e-004 -3.5128561030195993e-001
      1.2270757819954156e-001 2.8816778198741827e-001
      -2.9541646993461118e-001 3.4993987773661928e-001
      1.3914800417430745e-001 4.2178778143642758e-002
      1.3557535070610716e-001 -9.5482612842539422e-003
      -1.0630267932114829e-002 4.8458831249143901e-002
      5.1455708467433102e-002 -1.3179682906571219e-001
      3.7062813053553656e-001 -1.4455252264308854e-002
      -3.0216359251864366e-001 4.8883201481926541e-003
      1.4163878927467533e-001 -1.4069002328250493e-001
      -1.2189988913156496e-001 1.2081754355489283e-001
      -4.6114505863893256e-002 1.2976048047264341e-001
      -3.0355083359533608e-001 -2.9191608999269347e-001
      1.2384357794591566e-001 -3.0355490238257310e-001
      1.1744709943053852e-001 2.9300094286522577e-001
      3.0213027202670689e-001 8.5460741577614990e-003
      1.2942115481094488e-001 -1.3380405466375192e-001
      4.6721090506305400e-002 -3.6100986600393306e-002
      1.2370540821133968e-001 2.9237038890141775e-001
      5.4440174027529979e-002 -1.2201093339853464e-001
      1.2108514743566937e-001 3.0377336241226516e-001
      -5.0934817509901274e-002 3.0179543494926087e-001
      2.8531625383302678e-001 1.3518942683991292e-001
      -4.2652850020852277e-002 4.6225311901657344e-002
      -1.4025135551395199e-001 -1.1818202875619069e-001
      9.7292124492163595e-003 1.2302490297141355e-001
      -5.0564325360766375e-002 -5.9016477634579179e-003
      -3.0299475851023128e-001 -3.0207850413256193e-001
      4.6866061871468821e-002 3.6323267733668452e-001
      -6.3083281862245932e-002 1.2301720610395336e-001
      3.6472838856790268e-001 -1.2695920387560874e-001
      9.4466390570435016e-003 -3.7481785442874638e-001
      3.5943841806719645e-001 1.0078635310865725e-002
      3.8188880680700303e-002 3.5189105459513370e-001
      -2.5024226002719752e-003 -3.8349305580474835e-004
      3.5547153645731799e-001 3.5107796788455459e-001
      1.3382112269711119e-001 1.3330630311940994e-001
      -2.0840836757747783e-001 -1.0288385358452723e-002
      -3.7089925939913382e-001 -6.1315781258161638e-002
      1.2438095991911408e-001 4.7726806901949463e-002
      -2.9843571086614523e-001 3.7127262670019257e-002
      -1.2098751412303765e-001 -1.4009252717330281e-001
      6.0217607343411743e-002 1.3711723170154791e-001
      1.4414842639493552e-002 5.2149656836149583e-003
      2.7512143264843503e-001 -1.8806369598118322e-003
      1.1949561779158208e-001 3.5672844012232274e-001
      -3.5861031445602720e-001 -2.8722270184940007e-001
      2.1817242668872583e-003 -7.8311015339027623e-003
      3.7038812352555095e-001 -2.8380951058750920e-001
      1.1567898976386359e-001 1.4046872174692401e-001
      -4.1049088723998234e-003 1.4281124072442891e-003
      1.1940554021207322e-001 -3.7163781715745703e-001
      -1.2568728155167425e-001 -3.5746672594379991e-001
      1.2034473829618747e-001 1.1983553190831267e-001
      3.4137770419651325e-003 2.9269113992862050e-001
      -3.6059837781991533e-001 -3.8553316588344905e-003
      -4.2403400073619535e-003 4.3047655134879348e-003
      9.2827017945871920e-003 -5.1066907678837953e-003
      -3.4912701903713972e-001 3.5081032250171429e-001
      1.2465032291701886e-002 5.6421165837129694e-003
      3.5298053616909209e-001 3.5519495361936793e-001
      -4.2089569365899158e-002 3.6279399700739845e-001
      -3.5442136185145479e-001 1.1377060772400097e-002
      -1.3758378883568234e-002 -1.1905786886083822e-001
      -2.3452854571365117e-003 3.5825580486279163e-001
      -1.4562384479908586e-001 -2.8296646206540504e-001
      2.8737234126287287e-001 -3.7668051810927372e-001
      -1.2519518319985037e-001 -3.3998295571278134e-002
      -1.2993179254794787e-001 -1.0407315803589223e-002
      -1.2189076631043683e-003 -4.6259017731954948e-002
      -6.5972595012539131e-002 1.2866639859903584e-001
      -3.6883255384583014e-001 8.5918462610190260e-003
      2.9960039651657733e-001 3.0827141381902096e-003
      -1.2526615827460622e-001 1.2905643735437505e-001
      1.1392807134349986e-001 -1.3253578530157684e-001
      4.9527666886652076e-002 -1.2571432453559397e-001
      2.9798797081153727e-001 2.8131929904482883e-001
      -1.3142717844993837e-001 3.0625117483966863e-001
      -1.1793278419680128e-001 -2.8036946620431591e-001
      -2.8939561483435583e-001 -1.0114621041029115e-003
      -1.1778953856000718e-001 1.4136849170579885e-001
      -4.8294714756608646e-002 3.7665109232377418e-002
      -1.2599831341227971e-001 -2.9011807971041426e-001
      -3.9204439028839654e-002 1.4364976560374940e-001
      -1.2534976694684624e-001 -2.8596016480227732e-001
      5.3023744585975856e-002 -2.7633141213311935e-001
      -2.8892092153497861e-001 -1.4231611346476522e-001
      4.5658213368993748e-002 -5.6342871182965680e-002
      1.3306107167562653e-001 1.3385243556586271e-001
      -1.3224198234879622e-002 -1.3771934801281135e-001
      5.7313045863291577e-002 -1.3859056177882995e-002
      3.0102331643449337e-001 2.9793239541325894e-001
      -5.5965837025884112e-002 -3.6167132643158217e-001
      5.6970561976121929e-002 -1.4613865078833307e-001
      -3.5415234536817708e-001 1.3311177105669844e-001
      1.0036026486804600e-002 3.5030796419064492e-001
      -3.5673405974800831e-001 -6.5673728493954586e-003
      -5.9119403372875794e-002 -3.5053204167927432e-001
      -5.2864245398736159e-003 6.7006376112005162e-003
      -3.6559343380159759e-001 -3.5487254661422796e-001
      -1.4350131714468864e-001 -1.1512049108018471e-001
      2.1607251235263025e-001 -1.0709603932798351e-002
      3.7196282719619922e-001 6.4246075484706844e-002
      -1.4533386078694030e-001 -5.2686730273306746e-002
      2.9512129558654537e-001 -4.3016616656851962e-002
      1.1562899502052987e-001 1.2736698973111774e-001
      -4.1197073789818260e-002 -1.1762271486462841e-001
      9.3029223875580602e-004 -9.2308764059130799e-003
      -2.8769412831320007e-001 -1.5907303341561013e-002
      -1.3414917786802830e-001 -3.5640366574678639e-001
      3.6136762072571615e-001 3.0347977112647384e-001
      -4.0884056200021779e-003 8.6108807985332964e-003
      -3.7570601915448221e-001 2.8471148795756013e-001
      -1.1937617590438857e-001 -1.1535142147027491e-001
      1.1635653945255786e-002 1.1782888297673266e-002
      -1.2319556039489793e-001 3.7129720009132605e-001
      1.1920459580837525e-001 3.5303111867709197e-001
      -1.4327219901798161e-001 -1.1942419502574061e-001
      -8.8166746484605596e-003 -2.7658454059170767e-001
      3.4903208977119726e-001 6.3313378588714803e-003
      -1.0045533130226852e-002 1.4670537328965727e-002
      -3.0791469625808809e-003 -1.0676438926937676e-002
      3.6148564271673111e-001 -3.6914280949091671e-001
      1.4185867911110289e-002 -1.4127882776549888e-002
      -3.7480579255522850e-001 -3.7047163621003665e-001
      5.0027290309443799e-002 -3.6386051876804282e-001
      3.7722032265288286e-001 -2.4885517173321853e-003
      -8.2098182748048670e-003 1.2196082515458082e-001
      -4.4409758750149075e-003 -3.6088506500049594e-001
      1.3024834642097369e-001 3.0471875706742935e-001
      -2.7701549456249613e-001 3.7747959519174923e-001
      1.4448308289648096e-001 4.5798012158886008e-002
      1.3545028077907048e-001 -1.3113989705693760e-002
      3.0638275276947957e-004 3.9289566974849137e-002
      4.9951546183341126e-002 -1.2227025790451371e-001
      3.6000915346438889e-001 7.7541491529054263e-003
      -3.0460392886496768e-001 -1.8700938822585750e-003
      1.2009630070708760e-001 -1.3993791256683746e-001
      -1.1440745539110195e-001 1.4234490036989739e-001
      -4.0790966592652987e-002 1.1731768932564760e-001
      -2.9845310633372613e-001 -2.8803861577309703e-001
      1.3187066244965231e-001 -2.8193903821356048e-001
      1.3220702928296049e-001 2.9476901699387714e-001
      3.0148097739390373e-001 7.2608358788489175e-003
      1.3147888446469660e-001 -1.4075009739234820e-001
      4.6814659080993602e-002 -3.9385880637661151e-002
      1.2656462442051511e-001 2.8407645107098733e-001
      6.4077796363948392e-002 -1.2625433816332096e-001
      1.3338823105196987e-001 2.8172687684870568e-001
      -4.1553016530601249e-002 2.8322849041764708e-001
      3.0558556670723946e-001 1.3995029565483724e-001
      -4.7771303960336707e-002 4.4864771624118747e-002
      -1.2540906714706529e-001 -1.4239180293395004e-001
      -5.5728222532187427e-003 1.3468770831379537e-001
      -3.4867138839416251e-002 -1.3499094055620942e-003
      -3.0497704034242618e-001 -2.8542492141086323e-001
      5.1734446683284051e-002 3.7296620915241896e-001
      -3.8673719678519895e-002 1.2492043546617218e-001
      3.6859980006436210e-001 -1.3513081004479741e-001
      -1.4513128775561185e-002 -3.5902128470442657e-001
      3.5338561450657446e-001 -8.4808950703704894e-003
      4.7752506904468882e-002 3.6133023097820016e-001
      -4.1675745942668235e-003 -9.5377610241793032e-003
      3.6130974962445050e-001 3.5730167962950399e-001
      1.3249307359566301e-001 1.2006403283306374e-001
      -2.3207445161900758e-001 -1.5259822178624191e-002
      -3.7635691496674362e-001 -6.4144400281562042e-002
      1.2187569240487559e-001 4.5159158686086991e-002
      -2.7982229775227835e-001 3.6816510402675029e-002
      -1.2874872035302201e-001 -1.2888835895851228e-001
      5.9620144502407650e-002 1.3517778523723670e-001
      1.4699365601859277e-002 4.0329337637747126e-003
      2.7672129415856678e-001 -9.7395378575004105e-003
      1.2524924978490679e-001 3.4857302202221951e-001
      -3.5465133652780151e-001 -2.7919611084965140e-001
      -4.9895147686740138e-003 1.3766283380131278e-002
      3.7108627577908160e-001 -2.9974175052351865e-001
      1.4035674221331343e-001 1.2483575583824880e-001
      -1.4573998499747914e-002 -6.2335328272194873e-003
      1.2584870516849950e-001 -3.5459422585239697e-001
      -1.4132429670474964e-001 -3.5833812181817781e-001
      1.2373951381500040e-001 1.4478933457042439e-001
      -3.4862439689451880e-003 2.9713347176063265e-001
      -3.5959568405493059e-001 -1.2861941710286109e-002
      1.4930964732172314e-002 8.6999636553602849e-003
      2.3730456479290479e-003 -1.1523526255228650e-002
      -3.5577782033372535e-001 3.6698315402848747e-001
