<?xml version="1.0"?>
<opencv_storage>
<my_nn type_id="opencv-ml-ann-mlp">
  <layer_sizes type_id="opencv-matrix">
    <rows>1</rows>
    <cols>4</cols>
    <dt>i</dt>
    <data>
      128 128 128 4</data></layer_sizes>
  <activation_function>SIGMOID_SYM</activation_function>
  <f_param1>6.6666666666666663e-001</f_param1>
  <f_param2>1.7159000000000000e+000</f_param2>
  <min_val>-9.4999999999999996e-001</min_val>
  <max_val>9.4999999999999996e-001</max_val>
  <min_val1>-9.7999999999999998e-001</min_val1>
  <max_val1>9.7999999999999998e-001</max_val1>
  <training_params>
    <train_method>RPROP</train_method>
    <dw0>1.0000000000000001e-001</dw0>
    <dw_plus>1.2000000000000000e+000</dw_plus>
    <dw_minus>5.0000000000000000e-001</dw_minus>
    <dw_min>1.1920928955078125e-007</dw_min>
    <dw_max>50.</dw_max>
    <term_criteria><epsilon>1.0000000000000000e-002</epsilon>
      <iterations>1000</iterations></term_criteria></training_params>
  <input_scale>
    4.8318661450768195e+003 3.6212520499998533e+000
    2.4059267618402919e+003 -5.1068867031000789e+000
    3.1063696932085954e+003 3.5912461272980316e+000
    1.2117144835638589e+003 -3.3231547295832624e+000
    3.0342940611956265e+003 1.3853360393341709e+000
    1.4790805630867214e+003 -1.9759761168267813e+000
    2.8348824081834155e+003 1.2981094984008827e+000
    7.3678063027359804e+002 -1.7358552851132170e+000
    2.1992847786022031e+002 -1.9679342365158599e+000
    4.0587867440107880e+002 -7.5443954508889437e+000
    5.3737639193116854e+002 -5.1939124230633258e+000
    1.8674857944057098e+002 -5.2585985631939867e+000
    2.5857700973929224e+002 1.4697296818052006e+000
    1.2736884582766710e+002 -2.1818559624809080e+000
    3.3192807070166350e+002 1.6218189964045173e+000
    1.5355712857640421e+002 -1.7519101235491108e+000
    2.3845783740797648e+002 -2.4615849987746885e+000
    2.7775383277828843e+002 -6.6971790852535191e+000
    5.1271869423902058e+002 -5.0367864442896941e+000
    1.0289386895331104e+003 -2.0239035743314158e+001
    1.6106066103399530e+003 -4.0357792756206363e+000
    2.5408357619984429e+002 -3.7227183104539376e+000
    1.5650713682580431e+003 1.3322391037655854e+000
    2.0305264459116825e+002 -2.1692335644725160e+000
    2.9532005169302879e+003 2.0844674452511351e+000
    1.1012997903148787e+003 -2.1824959263015398e+000
    3.7185342889084227e+003 -1.2685196475322902e+000
    1.6245297120803373e+003 -2.8689589429000812e+000
    2.1500244440025144e+003 -4.3241647159364605e-001
    3.0313584382093859e+003 -4.2904101126264367e+000
    1.9759027784995446e+003 -1.0241803006482786e+000
    1.4829027047634868e+003 -2.6851727945383903e+000
    3.1589785071030747e+002 2.8152458894494350e+000
    5.2668291465275104e+002 -1.0404995468393201e+001
    5.2748458442413107e+002 7.0811087678996909e+000
    6.8931353729437137e+002 -1.3982378374362249e+001
    7.8707698660566825e+002 -1.1967655624519800e+000
    2.5540821637966906e+002 -2.0137200163216362e+000
    9.8699643819938171e+002 1.3468187498431203e+000
    8.3874710390628550e+001 -1.6296685517414868e+000
    5.7986416430102530e+001 -8.3373563681820198e+000
    1.4596141269102313e+002 -3.5851609041641723e+001
    6.5897527042434646e+001 -2.3587800467919422e+000
    2.0069915358917228e+001 -3.4249619369771551e+000
    2.9417897456785477e+002 -5.4012485254282678e+000
    1.7720983350022479e+001 -2.0529213803188235e+000
    8.5819909192203312e+001 1.3702652694095654e+000
    2.0459991808690194e+001 -1.5465042931772111e+000
    7.7564571711191306e+001 -5.3050073226851300e+000
    5.3626391953449165e+001 -8.4906491880450474e+000
    1.8056517303639413e+002 -1.8460594346144330e+001
    5.9425999912819925e+001 -9.9148827708940033e+000
    1.2024120493635241e+003 -1.0548295705653709e+001
    3.7382011243176784e+001 -3.2891309582094892e+000
    7.9915688930082752e+001 -1.3187868753820073e+000
    6.4329251786169678e+001 -4.0153177382914196e+000
    7.9032176423231374e+002 4.2030323335617839e+000
    4.0638139736592575e+002 -6.3596253803719147e+000
    4.6298126897636405e+002 -5.4693016279086548e-001
    3.7073673470931624e+002 -4.2653641873274113e+000
    6.8158166574477445e+002 -9.4817342059595611e-001
    1.0908861540748001e+003 -9.1313644157679263e+000
    3.7608086365587889e+002 -1.1821885234626588e+000
    5.8379816477485031e+002 -6.9698107698121898e+000
    3.2091970185965567e+002 3.2586287007527792e+000
    3.1064809235594851e+002 -6.6475605848306838e+000
    1.5417828392192860e+003 1.4690071139574504e+001
    7.8884826928896109e+002 -1.3036278027392745e+001
    8.2235064688547129e+002 -1.7057112076299659e+000
    2.8407390142022757e+002 -2.0492155170965685e+000
    1.3396299722948854e+003 -5.2126252875169510e-001
    1.0222853718855555e+002 -1.6666430232993814e+000
    4.0573389937910669e+001 -1.2093803315738758e+000
    4.6697292934845393e+001 -8.5785370112304680e+000
    3.5266064336101408e+001 -4.9968037565244972e+000
    2.9168949485825113e+001 -7.2869461883173310e+000
    5.9691839325582649e+001 1.5599985130673382e+000
    1.9495548482319062e+001 -2.0650606220958125e+000
    1.1371021409019636e+002 -2.0338656467387444e+000
    2.0806400513815376e+001 -1.6346360446699424e+000
    6.1352125148295364e+001 -7.4289430269507619e+000
    5.8868280852018977e+001 -1.1105618558475800e+001
    8.1943029524659778e+001 -4.8727893858058957e+000
    7.8853305054845492e+001 -1.1645926258065735e+001
    8.4832720301955902e+001 1.2349876731333201e-001
    2.5637947452194084e+001 -2.3966349814321575e+000
    6.5861778441753074e+002 1.3460308287438178e+001
    1.3579856190144528e+002 -7.7494074139053142e+000
    4.3743983869415769e+002 8.1839495878947610e-001
    5.0716610850841749e+002 -7.2091705778873285e+000
    3.8819549100940247e+002 8.6956380707185721e-001
    7.0040317438808847e+002 -7.9987178627750550e+000
    1.0360363310336031e+003 -1.9178434556134101e+000
    4.3144746704623680e+002 -3.4794994551956933e+000
    9.2323735044439093e+002 2.1715203950632480e+000
    4.7238341123282572e+002 -5.5894336288664439e+000
    9.9014986181441927e+003 8.8661114353669355e+000
    3.3304415066783272e+003 -8.4954088524131866e+000
    2.2784893121100122e+003 1.9353486778221827e+000
    1.3721784132916473e+003 -3.2622847067490746e+000
    2.7519780852157478e+003 1.7797900232345254e-001
    1.5036931448377097e+003 -1.9619673926010082e+000
    6.5001117705070410e+003 -3.8072662839706251e-001
    7.9770527437537817e+002 -1.8838925235330652e+000
    4.8134449389213506e+002 -3.9608387433235284e+000
    2.0279525239492483e+002 -6.8126209781637073e+000
    1.6256162019622153e+002 -1.1129525456461868e+000
    4.3983486560552473e+002 -9.2876087497472692e+000
    2.7771501194087568e+002 -1.7046358056413791e+000
    1.4760562416196575e+002 -2.6997351073087361e+000
    5.2875511198359345e+002 -1.9917033544957812e+000
    1.1249439498817290e+002 -1.6344132372694935e+000
    4.4697993219367345e+002 -5.2665830784204424e+000
    5.0680276940563147e+002 -1.0096494461533018e+001
    3.9497706990625733e+002 -4.8994601572382246e+000
    3.0367383094779422e+002 -7.7979975714895318e+000
    2.8704625438183240e+002 3.5029508604626625e-001
    2.2304917087697848e+002 -3.7798295657171077e+000
    3.6747941818537055e+002 2.0604494119820251e+000
    2.1074202016310102e+002 -2.3703754805479105e+000
    2.6354442206973235e+003 -7.1871848234923952e-001
    3.6552810292844433e+003 -6.2563670745793081e+000
    2.5265076436121785e+003 5.3734129968763023e-001
    1.5469689232768335e+003 -2.7859960868723963e+000
    2.3030546299012817e+003 -1.7083238878114756e-001
    2.1243744176315076e+003 -3.5620941610750427e+000
    1.5501081745274687e+003 1.2162102307151563e+000
    1.4049914012216429e+003 -2.3531437226886456e+000</input_scale>
  <output_scale>
    1. 1. 1. 0. 1. 0. 1. 0.</output_scale>
  <inv_output_scale>
    1. -1. 1. 0. 1. 0. 1. 0.</inv_output_scale>
  <weights>
    <_>
      2.0849552113894432e-001 2.0593364691489865e-001
      -2.3849092339415540e-001 -1.6532290323040516e-001
      3.8615506264605318e-002 6.4983214132693021e-002
      1.7611517929969844e-002 -2.3976491706008535e-001
      -1.6231275222514585e-001 2.9367595442172023e-001
      -2.6814421601751709e-001 2.1835459976359820e-001
      -3.7271053799738002e-001 -1.2470569774461732e-001
      -2.8664980996573570e-002 2.1757664213168171e-001
      2.2777824704161606e-001 4.8142573697835721e-002
      1.2544912273405359e-001 -8.7213970122525450e-002
      -2.3101357538378256e-001 -2.0106759937426355e-001
      2.3736436906349614e-001 1.0738962643066685e-001
      2.1714323115678925e-002 2.4570171233843605e-001
      2.5866400974169085e-001 -1.5488192744019741e-001
      -2.0856433002097222e-001 8.6556825184606168e-002
      -5.9104772472281998e-002 7.7302228641505419e-002
      -7.5629345698654288e-002 -5.3397738618538602e-002
      -4.8657505104864840e-001 -3.5703036914646318e-002
      2.0782400624004396e-001 5.1758963240580227e-002
      -6.3856373950355649e-001 -1.3682843119812435e-001
      -1.3782291842497688e-001 1.0526490406112689e-001
      1.5728459641856368e-001 -1.9267814950826140e-001
      2.3185512523251289e-001 7.2963612918611531e-002
      2.5322782715487008e-001 1.9232691794209944e-001
      -3.3999365792182473e-001 6.0692070176046919e-001
      1.9606494666461655e-001 -5.4256889612541978e-002
      1.0858568478511990e-001 -1.5824458280481660e-001
      1.4253236239344669e-001 1.5579987582878904e-001
      2.8680194112425124e-002 -2.4519256309734529e-002
      2.0782033016126622e-001 4.8912383815546794e-002
      -8.2585388042732133e-003 5.6790169916651756e-001
      -7.0876758095059389e-002 3.8461190374475276e-002
      5.4354344411768118e-002 -1.3881958228251567e-001
      1.8123593757795739e-001 1.4397904385368027e-001
      4.7992099341074561e-002 3.6263034607891098e-002
      1.4505538746577767e-001 1.3065074952862896e-001
      -1.9771630643258396e-002 -6.8325670266784960e-002
      -7.9178982684941071e-002 2.4374403079198156e-001
      3.1668313591045705e-001 7.5335426501580191e-002
      1.6162076919717105e-001 4.7744224308637409e-002
      3.7345119028407520e-001 -5.3315794354697199e-001
      -3.7135782757328334e-001 1.0904639901049909e-001
      -3.4716764110883586e-001 -6.6606055882049020e-001
      -3.0376060356373691e-001 2.9330596061530718e-002
      -3.0319091047178576e-001 3.8109484385290260e-001
      -7.4807869494108573e-002 -5.3175119507992502e-002
      -8.8034221226012010e-002 1.5886273167079945e-001
      2.5030160687335229e-001 -2.8929354940237390e-001
      1.5611968820874038e-002 8.9945102033789609e-002
      4.5818742622745191e-002 6.7951327249247087e-002
      1.8793962864459016e-001 -3.6654144712419137e-002
      4.2566416128501705e-001 1.0580292946424828e-001
      2.6032010823034363e-001 -1.3397402727471600e-001
      1.3193660361452475e-001 1.0762497778988707e-001
      -1.7254064801820712e-001 7.0215607881380732e-002
      -2.8775675263473538e-001 5.6039271693596480e-002
      -1.4980030143044568e-001 -8.1093562188529603e-002
      -8.3091751995559876e-002 7.1480787625598771e-002
      9.6784154420788332e-002 1.9937637684970647e-001
      7.7325703330559381e-002 2.5417252723019462e-001
      -3.2418386152845308e-001 -2.4016168959837225e-001
      1.8996430190490893e-001 -1.0108974675943201e-001
      -2.0518442910925572e-002 8.8247303342324890e-002
      6.3043160401044851e-002 2.0150863311885595e-001
      -3.8261806231714816e-002 6.6813251960060258e-002
      3.6854041653554576e-001 1.8098746945783623e-001
      1.1018996372720952e-001 -4.5976343627771525e-002
      -2.9285312383561985e-002 3.7102359079056141e-001
      2.0378472395733577e-001 1.8387500460693390e-001
      4.2315497537854624e-001 -3.1727264279595158e-001
      3.6719572411522944e-001 1.4604830896189946e-001
      3.1040859961397094e-002 1.1455209922474663e-001
      -7.2412509145198656e-001 -6.5533001279755865e-002
      2.8483043222976661e-002 1.5598019585491016e-001
      1.4960587542402834e-001 1.9968514503913820e-001
      -3.9245463165988320e-001 3.3210070827919207e-002
      -4.9221836047702017e-001 -5.3284223494955330e-001
      -2.6459068041126332e-001 5.6720731145594550e-001
      1.8907123871058595e-001 -6.3569364355346525e-001
      9.0865056759137378e-002 2.9977814047335799e-001
      4.7431946048029847e-002 4.9939596706883915e-002
      3.4259026901597317e-001 3.3930901409386559e-002
      -2.2200842651594807e-001 -5.8140738366546013e-002
      1.3986200137515519e+000 7.1377763531025451e-001
      3.6791932852628750e-001 1.3297336052243694e-001
      -1.3189173117505391e+000 1.9729673600967743e-001
      -2.8311469479298063e-001 -3.0397362794578629e-002
      -1.7294568698328944e-001 3.9467355475497991e-002
      -4.4665860186750552e-003 2.6689577422086824e-001
      -2.3046549232374453e-002 5.6801775061171422e-001
      -6.4197539000959467e-002 5.6370299132651742e-002
      1.2131475239597821e-001 7.7143326029980086e-002
      -1.6167354179080669e-002 1.4304877955577100e-001
      6.2074950531502533e-002 -5.8891197772644274e-002
      -6.1524399468437607e-001 -2.0086973052747328e-002
      8.4845481206276205e-002 8.6036783590683868e-002
      -5.7336209001785643e-001 1.3749411077784213e-001
      -1.0244133366607371e-001 -1.3120257961759330e-001
      -1.2629445114028987e-001 -9.4252541044367061e-002
      -1.6853535659903468e-001 -6.3979961540819641e-001
      1.2169219050310989e-001 -5.7243193120549363e-001
      7.2239771283561474e-002 5.9110779414070808e-002
      -1.4325004589244048e-001 -5.3796849305905434e-002
      -1.5760535746174709e-001 -5.0533125858745878e-002
      -1.5677090087511086e-001 3.3368001701227468e-001
      3.2838292065862168e-001 -7.0225870788825695e-001
      5.3375197642648375e-001 1.9678411674749343e-002
      5.0154387334782324e-001 -2.6167764361060865e-002
      1.7271501723135202e-001 -3.5562048942884772e-001
      8.1137658135195315e-002 7.4131929543844044e-001
      -3.6603159406280694e-001 3.3345662779144088e-002
      -2.4558647079177326e-001 7.2395297879166653e-001
      -1.4450075944444665e-002 2.0484992994837475e-001
      -2.5180155861030239e-002 3.3755505596232038e-001
      5.8153186766128677e-002 2.8251305919592573e-002
      -6.5032840377457810e-002 1.8739148060022520e-001
      -6.4699038922548857e-001 -1.3604961319452835e-001
      -1.1755920074053378e-001 -1.2218222644508218e-002
      2.3663370361587266e-001 -5.5872465622319817e-002
      7.4759436260904821e-001 7.5399684644914824e-002
      1.6013781127864499e-001 -1.8297254607470076e-001
      -2.2192688326874338e-001 -4.9864944128620650e-002
      -3.0246146869557328e-001 1.9726101319899866e-001
      -9.3814805214369648e-002 -2.5736228468245254e-001
      4.8252301198719433e-001 1.2037868804550141e-001
      2.7679261342019584e-001 -1.6444618434256982e-002
      3.5040841254995229e-002 -3.0140651581295960e-003
      -6.8714202077758635e-002 -7.4228074443922887e-001
      -2.3560542714530390e-002 -1.9002608151761355e-001
      5.0130909174260718e-001 1.6173134844714132e-001
      -3.1290024204318458e-002 -4.9151883373672461e-002
      -3.7558674144933295e-002 5.1516973723465120e-001
      3.5078558164373702e-001 -3.0738086287366650e-001
      6.8314239475614480e-001 -4.6446826088649118e-001
      5.2180922770708826e-001 1.3199799691170977e-001
      3.8445459149285870e-002 -6.6030141978002901e-002
      -4.3683849046188988e-001 -6.8678208768217341e-002
      -1.5312275441957365e-001 1.3555218224841875e-001
      6.6329144119116876e-002 2.0103598000985667e-001
      -3.4520129941633143e-001 -9.6080821575824454e-002
      -6.4104674896055869e-001 -3.4786091944037745e-001
      -2.4656910548339223e-001 5.2024136914803398e-001
      2.3133841435675051e-001 -2.5382213475805654e-001
      7.0739527354137952e-002 8.4010705024528225e-003
      8.5602445508757299e-002 8.1927072436291853e-002
      2.3348459200470628e-001 1.3780825887662896e-002
      -2.0017550240282020e-001 -5.6260180159594768e-002
      9.8326853505956890e-001 3.9955794458352845e-001
      1.8584754825420718e-001 -1.2001410088858479e-001
      -2.3139072186017243e-001 1.8472291735897861e-001
      -2.1108440611703799e-001 -6.1451202406305513e-002
      -2.3988043972029788e-001 6.7772642448963596e-002
      -1.5626940849165747e-002 9.0271005076209865e-001
      -1.9736866597565583e-001 2.1259307707010183e-001
      -8.6817146004836976e-002 8.5191979222388359e-002
      -1.5424108259806535e-001 -3.7556888580281125e-002
      -1.7614855788915772e-002 2.1729288642017558e-001
      5.7195876541429796e-002 -8.1860194457264682e-002
      -2.5258468153902575e-001 -2.3901593887590650e-001
      8.8209966571850831e-002 -4.2764164892737780e-002
      -6.4552599993863549e-002 1.3806773316130005e-001
      -3.4617441225583939e-001 -1.1641688939389398e-001
      -4.0315614731707017e-001 -6.9514437927942582e-002
      -1.5745905792397033e-001 -2.8027819689148575e-001
      2.9058235935894133e-001 -2.5790520137528561e-001
      7.9089152064359000e-002 -2.0940670044296270e-001
      -3.3078907894533410e-001 -7.2253919054279678e-002
      -1.6188362681948359e-001 -5.2948861717005198e-002
      -5.1062725206352977e-001 2.8162197814459927e-001
      5.9468529383866398e-001 -2.3085407278763004e-001
      4.7876822276184905e-001 2.6718656432681182e-001
      6.6445313521232519e-001 -4.0883012892290307e-002
      2.8349128219203623e-001 -5.6702137155864496e-001
      9.3767092939946520e-002 4.7019667938503645e-001
      -2.8628438592999073e-001 -1.5380371903785039e-001
      -2.4969643532830954e-001 3.1576073910247282e-001
      -6.8858438042303488e-002 -8.2951458402727579e-002
      -4.5935880291734378e-002 4.5999034954532711e-002
      5.7302096893428904e-002 1.6911260251234440e-002
      -3.6296301669591402e-001 1.3218192820098998e-001
      -4.3785844643745309e-001 -1.4125168716657541e-001
      -1.2552945028245996e-001 -7.6274587375019090e-002
      2.2813753633782682e-001 -7.1295623346950082e-002
      2.8373782909847822e-001 -5.7931907884717519e-002
      1.4248589390498531e-001 8.6907731532944135e-002
      -2.0716505908325911e-001 -5.7944443883079795e-002
      -1.0179670943192226e-001 -1.8261495281416867e-001
      -8.1360143611350896e-002 -2.4797157122480806e-001
      3.2383318895913721e-001 8.5422100515844823e-001
      5.2499545246283907e-001 3.1674810554117300e-001
      1.6330126851839316e-001 -7.1889685408030563e-002
      2.0927551033308800e-001 -1.9534802644627650e-001
      -2.9848413675549529e-001 -2.6289210633184762e-001
      -1.1068393046022011e-001 -4.5355426894080259e-001
      -3.9911125639831385e-001 5.4096415530695677e-002
      1.5939345488936113e-001 -1.1791124723013229e-001
      -1.5416455709270405e-001 -1.8785198190236568e-001
      -3.6829102978271383e-001 1.2786020821967325e-001
      -1.2547099477144286e-001 -8.6224394810261562e-001
      -1.5566945287461809e-001 -1.1949066379462644e-001
      6.5657027019544290e-002 8.0053065421850877e-001
      -9.8539728778994449e-003 1.4438656220736350e-002
      1.9046372419856666e-002 -4.5070813791689684e-001
      1.2382703408893317e-001 -3.3464649191666467e-002
      2.8391148686822443e-001 1.0737383519730004e-001
      9.6227386729747164e-002 -1.5814795852706803e-001
      8.3083761300889458e-003 1.3457715431446907e-001
      -5.8906357390475887e-002 -3.3380440440800224e-001
      -8.6814274258722651e-002 -1.5115884929934501e-001
      -8.0356131759047447e-002 -1.3545539124678876e-001
      3.8898427158464510e-001 3.9861808855678568e-002
      -1.2529341335948729e-001 -2.6584539159476012e-001
      -1.0869789432694515e-001 -1.5449419071842016e-001
      -4.1266917604377354e-002 1.6078046637115765e-002
      2.1284873850879342e+000 6.5174941389155958e-002
      4.7409416856154457e-001 -4.7314363949765556e-002
      1.4031783312161280e-002 -5.4220897532161028e-001
      1.2733406116167206e-001 -8.4048436975510538e-002
      -3.0413237300513557e-001 -1.1784378989858366e-001
      -3.7540947433790212e-001 -1.4530860280878449e-001
      1.7205285494889068e-002 -2.3249488104386370e-001
      -2.4593822708391672e-001 5.1375142800608335e-002
      7.0701921966373371e-002 2.5572481947624542e-002
      -7.5249586878341823e-001 -1.9050410946926272e-001
      2.5794628036729300e-001 -2.6512825632227471e-001
      2.1383964972284178e-001 5.4398629962509527e-002
      1.9921701508156886e-001 5.9380755290303955e-002
      5.2456011412684800e-001 1.4632713434895786e-001
      -4.3738027095948323e-001 5.2779389311715580e-002
      -3.4682385581794282e-002 -5.3049734222577000e-002
      3.1010357272890926e-001 -1.8325459367616614e-001
      4.5717591639084487e-001 4.3280166375068169e-001
      2.1740866108571877e-001 -3.7171301152365797e-002
      -8.2321478965805633e-002 1.6471298920109578e-001
      -1.5407426910192473e-001 -1.7200244616732158e-002
      -9.3212698792668816e-002 6.7282837673029783e-002
      -1.8163730961271035e-001 8.5276590908069216e-002
      -6.8933074665101041e-002 -1.0517638932076359e-001
      7.7708220053172605e-001 -3.1999150656812643e-002
      5.0661058155338545e-001 -2.1213920905463041e-001
      3.3867016335648377e-002 -5.1918109946977986e-001
      -2.3139697143172960e-001 -6.4296139783652992e-002
      -2.5652429750419076e-001 3.1560899665789119e-003
      7.9709787573938595e-002 -1.5760852651808738e-001
      3.8955839695588251e-001 4.2219343417059502e-001
      4.2541310243416315e-003 -9.1296892114172107e-002
      -3.1789586359797695e-001 5.1861587980994689e-002
      -2.1780271364228670e-001 1.5378710444656092e-002
      -4.4630336918985480e-001 1.3977960834770792e-001
      5.3321925062404096e-001 -2.3421523279941819e-002
      2.7703010616143809e-003 -4.5957386775361715e-002
      6.7822488923786894e-002 -4.3740440162963873e-001
      -2.8736201452502269e-001 -3.0429907943562212e-001
      -2.8881517422910147e-001 5.2599933155706938e-003
      -1.4269480083379427e-001 -1.0588393635751002e-002
      2.3441620227612364e-001 1.4703920092104292e-001
      2.7863795005112418e-001 2.4988506903133062e-001
      1.2466328524767857e-001 4.5734891781488651e-001
      4.0128204744671142e-001 -2.9447534756517353e-002
      -1.6024125714877291e-001 1.5039528585259971e-002
      -3.0574736500829005e-002 1.8055423418595923e-001
      3.5439323059474365e-001 -1.3680439952071644e-001
      1.2918548304934596e-001 3.1463874413604009e-001
      1.5237567779507016e-001 1.1696117509835458e-001
      1.0633774669076215e-002 -7.9793691442781978e-001
      -3.6418083020770410e-002 -5.0467901781989042e-003
      -2.9650982299004178e-002 4.5305112832836464e-001
      -1.4430813221846861e-001 -1.3975646472137664e-002
      -3.0101971222201873e-001 -1.4169912242206784e-001
      -8.0038521255603151e-002 7.0412332290613472e-002
      -1.0071047966265845e-002 -8.1777964117017488e-002
      3.0500089906899236e-001 3.3991639603567009e-001
      4.6877497831661015e-002 -2.0556569396900842e-001
      4.9538728456027838e-002 1.6219884413635580e-001
      -3.8168978805735132e-001 -5.8268741446887706e-002
      1.2224436012137517e-001 2.3666907958535571e-001
      1.0337338053208495e-001 2.8470928539318574e-001
      -1.0700866559698623e-001 -2.5418484054994762e-003
      -2.1354212408974687e+000 -4.3445008798053145e-002
      -2.7125597973659171e-001 5.3718416011248882e-002
      -7.7426209188658293e-002 7.5977442305718634e-001
      -1.4094508329266558e-001 1.0934526829386154e-001
      1.5822589874286319e-001 1.9371975181799411e-001
      3.8187586973271354e-001 2.6326870661239049e-001
      -4.0814992483749551e-001 2.4470939075741541e-001
      2.5246071132501074e-001 -2.5222013123932761e-002
      -7.1314462932965728e-002 -2.3336503867416841e-002
      7.2555120841094367e-001 -3.9297732710390741e-003
      -1.3623812401366664e-001 2.7084688001048424e-001
      -6.1791354898994219e-002 3.2277091399670596e-002
      -1.8964235257168005e-001 4.8613067965576993e-003
      -4.4725920927637336e-001 -4.5255249246410958e-002
      3.7975618158075608e-001 -5.9039167948853902e-002
      -2.2266237545453083e-002 5.0809304804479871e-002
      -2.8898337644332878e-001 1.8239166342074625e-001
      -2.5089190701008957e-001 -3.7365329365996314e-001
      -2.3540097930223008e-001 4.4029078968202191e-002
      6.9702535197566969e-003 -1.6164368572065507e-001
      1.2905754307317277e-001 3.2394578365739495e-002
      8.1253495045891938e-002 -6.5602812515319520e-002
      2.8688653524793534e-001 -1.3630873979668828e-003
      3.7716155971685671e-002 1.1679938220960859e-001
      -5.1792068526379897e-001 2.6254410995961833e-002
      -2.0480370781514573e-001 2.2185943518600648e-001
      -5.1373041098082113e-002 5.2643159678483453e-001
      2.3704024094564774e-001 8.8335090323182555e-002
      2.4632372164646993e-001 5.1493433576903759e-002
      -6.3806075864874176e-002 6.3938673626268405e-001
      -3.7641972171396959e-001 -4.2567869861254121e-001
      -4.8726198873415262e-002 1.8620111039738506e-002
      1.2892812998184880e-001 -4.5290667204845654e-002
      2.1356636901444509e-001 -2.5683977843157027e-002
      4.6089013564006071e-001 -4.1410147741399927e-001
      -5.3337493889096788e-001 8.0840271478199634e-003
      2.7034242745340020e-001 7.0387557080513141e-002
      -6.1691981694045321e-002 4.5944023246723470e-001
      2.7695941355696335e-001 3.1932492421555120e-001
      3.2240166543560306e-001 2.4197920146565546e-002
      7.7622578793826752e-002 3.4850007854871162e-002
      -2.3659142553105200e-001 -1.3852215716239780e-001
      -2.8468495475630989e-001 -2.4308727427494231e-001
      -8.4791876354583431e-003 -4.6149332356054212e-001
      -1.9219590051025685e-002 3.0010920834633768e-002
      1.5089795460463507e-001 -1.5957018076815477e-002
      2.7797568028646882e-002 -1.9997269301322840e-001
      -3.6643384899912740e-001 1.2937025491755486e-001
      -1.2533158463924510e-001 -3.3033883408043296e-001
      -1.5500948203582104e-001 -2.9480990613650147e-002
      -1.5528203680078368e-002 7.9473642585547155e-001
      2.3965645833848328e-002 1.2779265860623539e-002
      1.2692099399235806e-002 -4.3883616457991714e-001
      1.2539293165230037e-001 2.8540612938139691e-002
      2.9830019548010356e-001 1.2881279440690885e-001
      1.6509550081466490e-001 -7.5405396833468058e-002
      2.4569761204188936e-003 7.2560897428166016e-002
      -2.8812513142132962e-001 1.0407632145990973e-002
      -6.0381919070012460e-002 1.0610302572425066e-001
      1.0462087478148104e-003 -1.3652119277461924e-001
      3.8874924179379466e-001 4.5429797314787121e-002
      -1.0648672421523095e-001 -2.0424526551549313e-001
      -1.1784727044275239e-001 -2.8059900925111703e-001
      1.0077001988400541e-001 -1.3281847557915855e-002
      2.1267956880818630e+000 5.0311080370099362e-002
      2.7081281598385348e-001 -3.8747799141891276e-002
      7.2851539464109452e-002 -7.7070025655002850e-001
      1.3307082782118346e-001 -1.0848800575347023e-001
      -2.2966892892946403e-001 -1.7618540184026793e-001
      -3.7738134118476313e-001 -2.4290878548977884e-001
      4.1093436173831993e-001 -2.3322008228836080e-001
      -2.4848887039157669e-001 5.5904776941879251e-002
      6.4319213539811057e-002 1.1259905111202272e-002
      -7.4299550405586567e-001 8.3103385094393765e-003
      1.2383356274195634e-001 -2.6897153452843076e-001
      5.3946717982331319e-002 -1.7395527130989817e-002
      2.0347740452335800e-001 4.9776849560630332e-002
      4.4551268231489866e-001 5.0498253366710169e-002
      -3.8419552729860806e-001 6.7997596806452815e-002
      2.3504211338142528e-002 -5.2399648000558907e-002
      3.0015532524703609e-001 -1.9822301308130430e-001
      2.5788380902596864e-001 3.6158947397146701e-001
      2.8332496130165868e-001 -5.7436153917764493e-002
      -6.6951660139772339e-004 1.4383889984563708e-001
      -1.3046234483708688e-001 -3.2231411836532560e-002
      -8.3943188041433831e-002 2.8914773946937078e-001
      -2.8790006248974204e-001 2.7914271345237879e-004
      -2.9363351977361418e-001 -1.3186023652445766e-001
      5.2643136342539365e-001 -1.0179144935248206e-002
      1.9386379720950786e-001 -2.1894309935403833e-001
      3.0047662775441020e-002 -5.1622500436367780e-001
      -2.1670423872485273e-001 -6.1381209443849054e-002
      -2.4668091054284674e-001 -4.1375558501702651e-002
      6.7275605686481457e-002 -6.4161435387661692e-001
      3.9031028566991061e-001 4.1678431759754980e-001
      6.5051574272595891e-002 -4.0400241151145766e-002
      -1.3661394466351609e-001 5.2010203733433250e-002
      -2.1192716777655946e-001 3.3232755073115378e-002
      -4.6230917026957780e-001 4.2718059777892925e-001
      5.2620666792802306e-001 -2.3523934254049847e-002
      1.1563712971288759e-001 3.5686899847006889e-003
      3.0823161491597661e-001 -4.4153129483953163e-001
      -2.9369766989130336e-001 -2.9527355450841070e-001
      -3.1826432332336402e-001 -6.5434260037614406e-002
      -5.7110667256281930e-002 7.5843796347093845e-003
      2.5048912081349611e-001 1.3477058903690955e-001
      -3.8696324546464343e-002 5.8682916943797667e-002
      3.7563698218921115e-001 1.8498099285514663e-001
      1.1903449949185382e-001 -5.3688926267656034e-002
      -2.6567072995016920e-002 3.7587355281624057e-001
      2.5202604109414495e-001 -2.9937136667400732e-001
      4.0958037209473847e-001 -3.3038763616987077e-001
      3.5857624518401970e-001 1.3427720972106127e-001
      2.6395390080974378e-002 7.2165161918449572e-002
      -3.1645894074345987e-001 -7.2165617750119315e-002
      1.8391031296489353e-002 1.1111771431291612e-001
      1.2632149618675659e-001 1.8488171659476313e-001
      -3.9042293696951785e-001 3.7021680827243088e-002
      -2.8499480902467755e-001 -5.2987608254151908e-001
      -2.5706481281549436e-002 5.7193233274558963e-001
      1.9715942018878746e-001 -6.4094470529314718e-001
      7.8122588809524093e-002 2.7663919258990438e-001
      5.9004252885465555e-002 4.8718033500419589e-002
      2.2464406878032098e-001 2.3545351835163781e-002
      -2.0737863400981574e-001 -5.7664757988723531e-002
      1.3855234017779494e+000 7.1414087771761414e-001
      3.6846888896992264e-001 1.5904062113689141e-001
      -1.3088845620467879e+000 1.4343682748395753e-001
      -2.6334306786270639e-001 -4.6474322954257158e-002
      -1.7666779482175446e-001 4.5315451962309586e-002
      -1.4527009507986409e-004 2.6457179091933430e-001
      -2.4859899036754229e-002 5.7655107668889760e-001
      -9.1189757066503369e-002 7.9654635830598355e-002
      1.0906163586324306e-001 7.6777951834660352e-002
      -1.3478801423017913e-002 1.4239341855366333e-001
      4.6686803025933671e-002 -6.8879545325349262e-002
      -7.5771541148627131e-001 -1.0557404946411804e-002
      8.0212718547309714e-002 1.4560601659871372e-002
      -6.3075406562574443e-001 1.4195102178651026e-001
      -1.1161398633235250e-001 -1.4907800184685618e-001
      -4.4254668308935929e-001 -6.4378540327462153e-002
      -1.8546397191026931e-001 -4.3046701214059907e-001
      1.4244155684850571e-001 -1.5531365277903981e+000
      7.8150932717129820e-002 3.5360875760238372e-002
      -1.2862394571085703e-001 -5.9232231300621406e-002
      -1.6050620358472162e-001 -4.8210266485377115e-002
      -1.5146332368261414e-001 3.1935196361301704e-001
      3.9171786495673105e-001 -2.0096927254684935e-001
      5.3894849417254509e-001 3.6760271118612096e-002
      4.0228762180698119e-001 -2.3351669950627388e-002
      1.6225598379171896e-001 -3.4213747555964186e-001
      8.8780193895499362e-002 6.9003353592699224e-001
      -3.8716771847970488e-001 1.5548191781524889e-002
      -2.3960942112295197e-001 7.4850572674834281e-001
      -5.3490991217534652e-002 2.2112771740529102e-001
      -3.5571331000751251e-002 1.0924269293638689e+000
      4.7751390592359236e-002 1.5500019604145718e-002
      -5.6341214446779954e-002 1.7093419251156783e-001
      -4.5131358790131659e-001 -1.1693226876800311e-001
      -1.3439040655227610e-001 6.4690514515489031e-002
      2.1842332619921886e-001 -7.0171120203739223e-002
      7.8250574275604301e-001 7.7620471601167876e-002
      1.6070279222092895e-001 -1.8817509462560833e-001
      -2.3292846826772651e-001 -5.8455638451905663e-002
      -3.0149392047653045e-001 2.2239139971037258e-001
      -9.0004732810816959e-002 -2.5104972498706735e-001
      4.8820771412680913e-001 6.8248513415572076e-001
      2.8843560291632703e-001 -2.8328579060559043e-002
      3.0091801115686195e-001 5.8608064800987139e-003
      1.9075928528261654e-001 -7.3018246532580922e-001
      -2.7847552940049530e-001 -2.5054678956483006e-001
      -1.1685259590833044e-002 -1.4329169824988824e-001
      -1.4981121358595650e-002 4.9514977610602806e-002
      1.6883330063097846e-001 -3.2761616429504002e-002
      2.5657870330056530e-002 -1.9016500062877945e-001
      -3.3895387070650401e-001 1.4267678996904137e-001
      -5.1877956616238480e-003 -3.3142734999415036e-001
      -5.4253270802652065e-001 1.6152803703354690e-001
      -1.2228341714431231e-002 2.3893719838449365e-001
      2.5682199831631403e-001 2.9861717840036692e-002
      8.1505996571268422e-003 -4.3653097867778889e-001
      1.0949158390210904e-002 2.4508507862909368e-001
      2.9621449374521117e-002 3.3531788715501096e-002
      1.6478041701734264e-001 -7.1815097741179890e-002
      4.1887147399495197e-003 6.0239275996508225e-002
      -3.1283772686806577e-001 -2.8108518451021246e-003
      -2.5683660969746169e-001 1.4652087027483024e-001
      -1.3734178809237914e-002 -2.8294521668266565e-001
      9.9944522035556441e-002 6.2676980536208585e-002
      -1.0342340491852905e-001 4.3580622332972357e-002
      1.0608591065354497e-003 -3.1603423913551160e-001
      7.8167125301498774e-002 1.3477840657194609e-001
      2.1315878368566530e+000 2.9313874811155927e-001
      7.2466610026790973e-002 -3.8169726937000520e-002
      8.2179730890640790e-002 -5.1332899276100641e-001
      -3.6282082817504824e-001 -1.1352316647673549e-001
      -1.8649503505135848e-001 -2.2957584277827234e-001
      -3.8456796739589522e-001 -2.5489737042221255e-001
      4.2427791581673374e-001 -2.4612665186477087e-001
      -2.4214549371493105e-001 5.2298224514278277e-002
      6.6684787419673999e-002 3.3245996297524394e-002
      -2.4580888199855908e-001 4.5924248672453063e-003
      -8.3012900350332736e-002 -2.5750553669771198e-001
      -4.1858712105205045e-003 2.5385431350337726e-004
      1.8415113820551032e-001 3.2350385933573464e-002
      4.3897089590968835e-001 2.7442193144917758e-002
      -3.9084878727399014e-001 7.5293277797738006e-002
      1.9240413988920829e-001 -4.4692315762018479e-002
      9.0235560376948909e-002 -1.8339359004897066e-001
      2.5426363056741896e-001 3.8836974499212606e-001
      2.7705216030354768e-001 7.4636508054064686e-003
      -1.3971919977233632e-002 1.5316938596554913e-001
      -1.3612277494381655e-001 2.7809355622971593e-001
      -1.2288122573880784e-001 2.9217697605750031e-001
      -3.0383167944695605e-001 8.0146740607369062e-003
      -2.9079263703735875e-001 -1.0926347989637028e-001
      4.4918491858860621e-001 -4.2381061337823051e-001
      1.8458785183032028e-001 -4.9919168890791614e-002
      1.3074825513990940e-001 -5.4007125050348659e-001
      -2.1931018788635054e-001 1.2889211311094937e-002
      -2.6666225989002035e-001 -3.1001170929453958e-001
      -1.0575075173745342e-001 -5.1089278572903862e-001
      9.4212111122594339e-002 4.2978900195753306e-001
      4.7341817224895007e-002 -3.8707517808951028e-002
      -1.2468432340730078e-001 5.2027125169075018e-002
      -5.6147922205473710e-002 2.2260133143424821e-001
      -2.6392216252060524e-001 6.4198579185087390e-001
      5.2120702850509071e-001 -2.1943318688387495e-001
      -8.0704081916342318e-002 6.1311386004205487e-003
      3.1141273327443597e-001 -4.5651033509527777e-001
      -2.9718097146869610e-001 -3.0391474211231090e-001
      -6.5628946580959371e-002 -3.5847837342684694e-002
      -5.5831803869070148e-002 2.1213746409281236e-002
      2.5393054345986316e-001 1.1916909438784345e-001
      2.7979480619143976e-001 2.5099307160277590e-001
      2.5362192168016297e-002 1.3582114560435601e-001
      2.3633815927205586e-002 -3.2274522039298391e-002
      -1.5117498489230269e-001 1.1442544573254323e-002
      -3.1226392399795237e-002 1.9980096131969083e-001
      3.5799626530496848e-001 -1.5740472101935030e-001
      2.2120291455864461e-002 9.8059476541941096e-002
      3.9640565059696026e-001 -1.6460067165313719e-001
      9.4419846021308804e-002 -2.5905281162339072e-001
      -2.6242863790071064e-001 -2.3044523412809974e-002
      1.3629357318345445e-001 1.2868121797044991e+000
      -3.4408911943232132e-002 -4.9052568341084257e-001
      -4.1289730048119630e-002 -1.7531134022021493e-002
      -1.4361839923909586e-001 4.8833311560417259e-002
      -2.4393616766874012e-002 -6.6886609048846621e-002
      3.2214977289845442e-001 -3.6794454081722542e-003
      2.7674932090975463e-001 1.9169240714233385e-001
      1.1350436388671727e-002 9.2497121154115769e-001
      -9.9304766180218149e-002 -3.1663457616703006e-001
      1.1144087865885152e-001 -1.2050505942152689e-001
      -2.5832755946038854e-001 3.1955962174961333e-001
      -9.0399110285203782e-002 -1.6636253325546560e-001
      -4.9320428128461442e+000 -2.6456883586476154e-001
      -5.0800037296038179e-002 5.7441908356970064e-002
      -8.4752310189483815e-002 5.1366226370952195e-001
      3.7015389909833107e-001 1.0201602875891685e-001
      -4.1671915673317551e-002 2.4069889088538585e-001
      3.7297342334791683e-001 2.3617984350743498e-001
      -4.3377234724180996e-001 -2.8146748485627229e-002
      2.3562737822413321e-001 -3.8812537945763469e-002
      -5.8517776572912218e-002 3.1960445951522032e-001
      2.4102914505765174e-001 6.6558315269469115e-003
      4.9747723462908323e-002 7.4246112557295060e-002
      8.6618787278274125e-003 -1.9765117289435299e-001
      -2.1412380408356479e-001 2.1614952301191558e-002
      -2.6030939283195903e-001 -3.3136094670591705e-002
      3.7404979023040957e-001 -7.9208382302140640e-002
      -1.8262754723075492e-001 -1.2354568583936540e-001
      -9.0232445436985859e-002 1.8617851622157161e-001
      -2.5786080005825107e-001 -2.5727702433785560e-001
      -2.9706033091576461e-001 -6.6710266504148522e-003
      1.1720910371695850e-002 -9.4584682092965874e-002
      1.2339152304589755e-002 -2.9297605239909047e-001
      1.2739270924385768e-001 -3.0416344890764668e-001
      2.5859066427320349e-001 1.0543764017687763e-002
      3.1738912699321997e-001 1.0919187193945409e-001
      -4.2801524692099591e-001 4.1835646065925686e-001
      -1.1364725381020523e-001 3.5162698052898504e-002
      -2.0920503966973092e-001 5.2234228272728145e-001
      6.3428874062520046e-001 9.2447095808738250e-003
      2.5822811517082450e-001 3.1632748954351375e-001
      2.3754883110498404e-001 7.2636449559091626e-002
      -1.0238847759261052e-001 -4.0872556862596826e-001
      -5.0631822875048867e-002 2.4175184613989188e-002
      1.2207343605891610e-001 -2.2744257761135728e-001
      6.1356303072367536e-002 -2.2901828760436294e-001
      2.7476023314911074e-001 -1.1499340817068507e-001
      -5.1813877257874141e-001 1.9656282178008203e-001
      7.5387553124071943e-002 1.4401534724477829e-002
      -5.2468862495823965e-001 4.5799801419732739e-001
      7.3810511749915458e-002 2.9947641763047766e-001
      5.9310171151964922e-002 1.1215036498548721e-002
      6.1701352764307951e-002 -3.1144061859168953e-001
      -2.5473812911512278e-001 7.4099328626808347e-002
      2.8371532321762988e-001 2.5665981164401136e-001
      1.0328154297724148e-002 -1.7990553310317559e-001
      2.4506763699502755e-002 -8.2531431179470774e-002
      -7.7973527028016443e-001 -2.4993418659911931e-001
      1.0815585494399606e-001 1.7683677844762508e-001
      3.4223558924902059e-001 -1.5579197388234825e-001
      1.0065094513803429e-002 7.3995079010728965e-002
      -1.1110996196140915e-003 -1.2974785704613367e-001
      2.5805387172559269e-001 9.1405813467801706e-003
      -3.2479712138906536e-001 1.6452888782708103e-001
      1.4678153876105857e-001 1.2597996468622281e+000
      -3.0018631219042517e-002 -4.8138759687986932e-001
      -2.0353427488731146e-002 -3.1051140659095006e-002
      -6.1636579663436213e-002 -5.5044307657257957e-002
      -1.1306005257494819e-001 -5.6451645689159315e-002
      4.1022267956041795e-002 -7.5530926587611723e-003
      1.6161877136473696e-001 -7.7953516242371845e-002
      -2.8048695202242879e-001 1.1499382631617987e-001
      1.9948221377903072e-001 -1.9644240706473520e-001
      -6.5720292986291950e-002 -1.3047126136426551e-001
      -2.7263047594088674e-001 7.8437619387089652e-001
      1.6517062021138712e-001 -3.5928396065449866e-003
      -3.4221322774893242e-001 -2.8494450213957490e-001
      -7.4399474044954256e-002 -2.3698878518994384e-003
      -3.0557636044474694e-002 2.4261401095869570e-001
      3.6228147260176125e-001 1.2805251104276652e-001
      -2.8961894855318970e-001 4.9734258395794151e-002
      3.8256380665260487e-001 1.7241711093288553e-001
      -4.3193931153190940e-001 -6.0013324357470537e-003
      2.3453700775682723e-001 -4.5562752151048422e-003
      1.5564376691514736e-001 2.6902983611059189e-001
      -3.3775320886647225e-002 1.4307802268451814e-002
      1.0398051042410128e-001 7.1710161781030610e-002
      4.9946602021363681e-003 -1.7554786049867538e-001
      1.5609845026314390e-001 3.2496586994665032e-002
      -5.2851199061955137e-002 -3.2483486559391851e-002
      4.6176604089793089e-001 -6.1223642736646801e-002
      -1.0192963592106868e-001 -7.1054680757002405e-003
      -8.4763638091890012e-002 2.0405751488935686e-001
      -5.9480802551131244e-002 -6.5510439631525544e-002
      -2.7801741819285603e-001 -3.9783544755705681e-003
      -2.6452252175494539e-001 2.6793305849374927e-001
      -2.5195927339666990e-001 -2.8081036501678897e-001
      -6.0905999312750259e-002 -3.0523990790802885e-001
      5.5308726047307848e-002 1.7179817238119288e-001
      1.7610945505781089e-001 9.6872648899245600e-002
      -3.1157129562510077e-001 4.4293804511740281e-001
      -3.5893833196624420e-001 -3.0076254001038838e-001
      6.7780414307399714e-002 3.9144509985506887e-001
      6.3501250315516100e-001 -1.5542319708309871e-001
      2.5708236154824365e-001 3.1702980881223003e-001
      2.3637122367613361e-001 4.8954569116034886e-002
      -5.8864944884390993e-002 -3.9053669612908565e-001
      -2.9440809913911359e-001 -5.2450972268775140e-002
      1.6814161548325247e-002 -1.4442689458459673e-001
      -3.1451170579243071e-001 -1.4309629457987311e-001
      6.1594975699023113e-002 -5.0013255945765202e-002
      -7.8723840876873541e-001 2.0400521960124504e-001
      7.5160297643606960e-002 1.6153663875779638e-002
      -1.4279450598706908e-001 -1.2793551619218679e-001
      -1.9779453001781216e-001 3.2390164886400891e-001
      5.0459184529264275e-002 1.7140219275765124e-002
      -1.1390168766639119e-002 -1.5319540493106995e-001
      -2.4316204766196969e-001 1.2247521412567478e-001
      2.9866769531216869e-001 2.4986487749062097e-001
      1.7543347213527506e-002 1.4542838538651964e-001
      1.3302375081529521e-002 -2.7670348498972756e-002
      -1.5393822131807056e-001 3.7600204769692403e-003
      2.6372628869723649e-002 1.8817248579497775e-001
      3.4624808125213863e-001 -1.4907600588235873e-001
      1.5971616245786340e-002 3.2872675931476070e-001
      5.3616518308720973e-001 -1.3641738804842707e-001
      1.2037960206809714e-002 -2.5443262052738053e-001
      -2.5442055209285624e-001 -1.3794051566879444e-002
      -1.2985821922051981e-002 4.3479870797937881e-001
      -2.4724397357623825e-002 -2.5440807979706026e-001
      -3.9092424760788017e-002 -2.2866204022657953e-002
      -7.6368026777178355e-002 4.2455876046295665e-002
      -1.9736770680528256e-002 -8.1681671710493106e-002
      3.1161476488861889e-001 -2.5509850608510999e-002
      3.2631978548549467e-001 -1.3395395215157824e-001
      -9.2511138956455040e-003 3.1178064005166062e-001
      -9.0832053235487306e-002 -3.9523749439484557e-002
      1.2675111102173775e-001 -6.2904790212508110e-002
      -2.0553328154985652e-002 3.2097692963552926e-001
      -9.4071259576138294e-002 -1.6579184846769193e-001
      -2.1166449519612485e+000 -2.7103513642906646e-001
      -5.4787853574668463e-002 4.6158096988121955e-002
      -7.9669524533507285e-002 5.1990268648102356e-001
      3.5322154482006785e-001 1.0001484402852187e-001
      2.1270999156663742e-001 2.4129976410431028e-001
      3.5861184738974689e-001 2.4516608055633443e-001
      -4.0867862885406164e-001 2.5737226479010933e-001
      2.4314701529318761e-001 -3.5218306200282344e-002
      -1.3077403093526246e-001 -5.0424882458941882e-003
      2.4128114903376893e-001 1.4492066495351855e-002
      -1.4214453577624572e-001 2.5000319841347468e-001
      1.5999612285353178e-002 -1.8374762413680430e-002
      -1.8780182471030682e-001 -3.3487942430256851e-002
      -4.4443243738026333e-001 -2.8276174430907620e-002
      3.9497736144608903e-001 -6.8577443644265601e-002
      -1.9216220345833990e-001 5.3284841816815011e-002
      -6.9316214038598736e-002 1.8931714481990497e-001
      -2.4924214051442717e-001 -3.8570125649903286e-001
      -2.7520067432502698e-001 -2.8897660561559468e-002
      -4.5499088330447027e-003 -1.4795216808149686e-001
      1.1823312325973714e-001 -2.7548782126853427e-001
      9.7772946213825429e-002 -3.0413620986977319e-001
      2.7458487338621190e-001 -1.6308444057880848e-002
      2.9069500365613626e-001 1.1724199711566746e-001
      -4.4438308305802987e-001 3.8298355148589681e-002
      -2.0222399916206274e-001 3.4752590710780497e-002
      -3.5148488859136567e-001 5.4334534641666754e-001
      2.2563797636189681e-001 1.4276082092543642e-002
      2.5588463604077899e-001 3.0648563340972468e-001
      -8.5822655015328014e-002 5.1019244165030719e-001
      -1.1867730579530607e-001 -4.2437625438797205e-001
      -3.5444055276958590e-002 3.5764740689795863e-002
      1.3232204168402764e-001 -5.5989065395814698e-002
      5.3159304779314326e-002 -2.1926136519709216e-001
      2.5430586658865734e-001 -6.6391209912170568e-001
      -5.3428615003321522e-001 1.9585012668307281e-001
      -1.1635925965086377e-001 -2.3799546109003054e-002
      -3.0011358400654214e-001 4.3312231597753575e-001
      2.8333378091324962e-001 3.1050999419634945e-001
      6.4812143304186456e-002 2.9372007732923630e-002
      6.9616246642050517e-002 -4.4404413778265477e-002
      -2.5203595629403813e-001 -1.4422869809552652e-001
      -2.7518319412020448e-001 -2.5814227549382068e-001
      -1.6372386679062146e-002 -1.3306741640373021e-001
      -8.8862246226856911e-003 5.6051163368189792e-002
      1.5521902225274720e-001 -1.3459475500079651e-004
      4.7357388256929499e-002 -1.8200735548368802e-001
      -3.4551541716768913e-001 1.3505437039995977e-001
      -1.2483420669169841e-002 -3.0952956746982874e-001
      -5.2362389649277963e-001 1.6072433998972518e-001
      -1.7435280493614759e-003 2.5834255605655920e-001
      2.6587737526510580e-001 4.6068419092924282e-003
      1.5210203593803796e-002 -4.4780058489572633e-001
      1.7617240007388950e-002 2.6081521201033336e-001
      2.0192118340994047e-002 1.2737563189166743e-002
      6.7652493112976178e-002 -5.3517348660170744e-002
      1.9653897284463321e-002 5.3578524494594736e-002
      -3.3063599809413863e-001 -3.5858525401786467e-003
      -5.1710587775913613e-002 1.3765862564129905e-001
      1.5849336186828416e-002 -2.9002862921383771e-001
      9.3031858652724994e-002 5.8207788116823200e-002
      -1.3059435817894760e-001 1.2790511224976378e-001
      2.2129979429292620e-003 -3.0343918311306856e-001
      9.8283646835633398e-002 1.5758362482120772e-001
      2.1148158842020215e+000 2.6177069724698931e-001
      6.4216002618032925e-002 -3.1815283166685894e-002
      9.3825698032896768e-002 -5.2485804328934671e-001
      -3.7038907932807774e-001 -9.3945818776367568e-002
      -2.0666263378000674e-001 -2.3563128603141495e-001
      -3.7180630267794740e-001 -2.5286938352028515e-001
      4.1641061038210553e-001 -2.6144998877337039e-001
      -2.3469913183281205e-001 4.2926761581205966e-002
      8.6737706295126685e-002 -3.1989732296460116e-001
      -2.1412170538720268e-001 6.7033880207108300e-003
      -8.9533936658936220e-002 -2.7334870234450453e-001
      1.6096398374325586e-003 -1.0976306414096091e-002
      2.0959783006042032e-001 4.7118133201592513e-002
      4.6266516071458014e-001 2.6346997354197873e-002
      -3.8557998180076641e-001 6.3310069414811113e-002
      1.8691276955105196e-001 -4.6825177502804176e-002
      2.8923268809679936e-001 -1.9413153910079817e-001
      2.5309561730105423e-001 3.7309082683093830e-001
      2.7422674309331702e-001 9.4904133890607104e-003
      -1.5803677085020677e-002 1.5660464608527164e-001
      -1.5318306389758624e-001 -2.5550328317851742e-002
      -1.2364268020737242e-001 3.0206718762730145e-001
      -2.9426519293092740e-001 -1.3405134911910399e-002
      -2.9479585093200733e-001 -1.1166287037005065e-001
      4.4752932560688263e-001 -4.4561282801801333e-001
      2.0403334879736640e-001 -3.2787527826656143e-002
      1.1254327376323335e-001 -5.3288221080165599e-001
      -2.3252401163801673e-001 -1.0228787252332670e-002
      -2.5320094201762294e-001 -2.9044495607324600e-001
      -1.1686595323234396e-001 -5.2205155250017565e-001
      1.1168284514035426e-001 4.2785468164511026e-001
      3.9082195983220595e-002 -2.1447513256550151e-002
      -1.1314420303262275e-001 3.5488375719492621e-002
      -3.8313938694613227e-002 2.3397475109368168e-001
      -2.5823184323452569e-001 6.6667329140494591e-001
      5.2305993131760031e-001 -2.2504881780401800e-001
      -9.9800762883070354e-002 1.0962330051424374e-002
      2.8867646595885404e-001 -4.4342862916088638e-001
      -2.9976145250375535e-001 -3.1853094175203905e-001
      -5.5176323658475648e-002 -3.9895260320065448e-002
      -7.4558736633973152e-002 3.6300186165324135e-002
      2.4224154343144216e-001 1.3736710786235376e-001
      3.0151924715767303e-001 2.5710678219511079e-001
      1.8668163071693406e-002 1.3230102008414901e-001
      4.5658031459177842e-003 -4.0927239412405246e-002
      -1.6358313729208684e-001 1.6574514447170997e-002
      -4.1908303247654620e-002 1.9618941606200546e-001
      3.5449630369141066e-001 -1.5049307179864574e-001
      1.3244772191970055e-002 3.3001537766741718e-001
      5.1737607912984718e-001 -1.3836835304114098e-001
      6.2998708204017265e-003 -2.4910405646138853e-001
      -2.6311936175620187e-001 -1.0329014233780610e-002
      -2.4509579130282823e-002 4.5192855809107751e-001
      -2.0112615843469898e-002 -2.5170200580352048e-001
      -2.4059808394789717e-002 -2.7042043499410136e-002
      -1.5396434926372954e-001 7.2384066361857735e-002
      -5.6941448014509698e-003 -7.8885158685595050e-002
      3.0903398979120095e-001 -1.2860418266701205e-002
      5.1947396130945379e-002 -1.2462627991563714e-001
      1.4232793310987981e-002 2.8572504029961560e-001
      -9.2270320346265047e-002 -4.3542204162725945e-002
      1.1319718101861495e-001 -4.0602235114875651e-002
      -8.8510844355506376e-003 3.1819095331579356e-001
      -7.6206840016337651e-002 -1.5085209483991072e-001
      -2.1423728494547052e+000 -2.8130842993881788e-001
      -7.7544853429476979e-002 4.8746977810893377e-002
      -7.1423171715550807e-002 5.0962085645513655e-001
      3.7144831787770471e-001 8.8116039786601014e-002
      1.8779748353884865e-001 2.4117082188524494e-001
      3.7849744554823539e-001 2.3469612969302145e-001
      -4.1794730697633059e-001 2.3485644953597520e-001
      2.4909500057502990e-001 -3.5509330462155292e-002
      -7.8616084292217711e-002 -4.3557857325118819e-003
      2.2330431739964482e-001 1.2042250853147982e-002
      -1.2027773775757422e-001 2.6719249319135779e-001
      1.6677443427952045e-002 -9.0798916381553221e-004
      -2.1306367128599862e-001 -3.0536111578161596e-002
      -4.5077238677812498e-001 -2.4799806207291452e-002
      3.8304810536702455e-001 -4.9804857298030060e-002
      -1.9087144051178756e-001 3.4559466040348513e-002
      -2.8874916207884022e-001 1.7586313025485506e-001
      -2.5429953649179415e-001 -3.9219644161739275e-001
      -2.8127342891819024e-001 -1.9605771273347890e-002
      2.0018933384704837e-003 -1.5608854123290361e-001
      1.3907783352796937e-001 2.4732035731495211e-002
      1.1834687134866483e-001 -3.0447214486927637e-001
      2.9652299966904422e-001 1.2185274006997577e-002
      3.0394052478908212e-001 1.1157010728027533e-001
      -4.4090853721621115e-001 4.3287608237976677e-001
      -1.9308096595460472e-001 4.1740167103201303e-002
      -3.2214413044230333e-001 5.3427957564632300e-001
      2.3044554467681561e-001 -1.3867230181759905e-002
      2.5957054506402949e-001 5.4225718827168277e-002
      1.2676521053122741e-001 5.2322619454711972e-001
      -9.3884201192535627e-002 -4.0935151494318894e-001
      -3.2733950717528056e-002 1.8581052597421314e-002
      1.3393092013342614e-001 -4.5476871673930885e-002
      5.7963457982130207e-002 -2.1911360518269629e-001
      2.7496973724532009e-001 -6.5443171041343418e-001
      -5.2391834217703548e-001 1.9956750666186954e-001
      -1.0975548140217720e-001 -1.1709360351765768e-002
      -3.0836314579927371e-001 4.5062632699132971e-001
      3.0060171737150404e-001 3.1401912425852269e-001
      5.1207780280120449e-002 6.6719009997168746e-002
      5.7924283919182126e-002 -4.0089052686950531e-002
      -2.3694651279725193e-001 -1.3758459958128591e-001
      -2.7506996120659516e-001 -2.5980799486261036e-001
      -7.9839641130641167e-003 -1.4105923980884322e-001
      -5.0425743933367176e-003 4.3115473923594029e-002
      1.5763958963180397e-001 -2.4394369145201707e-002
      2.3005888501720938e-002 -1.8892202425479349e-001
      -3.6769749175488192e-001 1.2521741495651079e-001
      -2.4518627362871016e-002 -3.0722294369292624e-001
      -5.4490607975173166e-001 -4.6151768936285149e-002
      3.5855008090284511e-003 7.8360049292317713e-001
      2.4517196666813745e-002 1.4335112037509517e-002
      2.9788941881746387e-002 -4.6105506333958929e-001
      3.2566226388867789e-002 2.7098764949126325e-001
      2.3817178167061193e-002 1.0193027896651883e-002
      1.6495074826283485e-001 -5.1333268008798089e-002
      5.1509522382735505e-003 7.2524847655237937e-002
      -3.0114276894016379e-001 6.2862038071238623e-003
      -5.8839119527796691e-002 1.4283169294906028e-001
      -2.0520412529182038e-004 -3.1012882150676663e-001
      3.7766578051107302e-001 4.8567731341883837e-002
      -1.0542898053756874e-001 6.7445887357473422e-002
      2.2936826229129660e-002 -3.1491364358786078e-001
      7.3058555051546348e-002 1.4135028398560237e-001
      2.1373055656280862e+000 4.3673152549718305e-002
      2.7067788956812927e-001 -4.2408879800874849e-002
      8.1611123164370428e-002 -5.0056016026686534e-001
      -3.7146327742610397e-001 -9.1494378340814225e-002
      -1.7781588046758920e-001 -2.3642087084829580e-001
      -3.5790190891851287e-001 -2.5830316285957095e-001
      4.2930367781211970e-001 -2.4589688254324141e-001
      -2.3502033218442892e-001 4.5911640241684287e-002
      6.7788211558459932e-002 1.4534862320758639e-002
      -7.5609217584125632e-001 -5.1202802821383279e-003
      1.4142697843280191e-001 -2.6037257430913974e-001
      -3.4594985227327998e-003 9.8425612819458379e-003
      1.8899212059609888e-001 4.8188156646645164e-002
      4.3634755402607706e-001 2.3609148669977108e-002
      -4.0962530457555218e-001 5.8325029334016343e-002
      1.6084508621596852e-003 -5.2179095185711594e-002
      3.0883986807779290e-001 -1.8182806347696528e-001
      2.6740656193887469e-001 3.7237460844520365e-001
      2.9479830734442897e-001 3.6059097226929758e-003
      5.0484205271752504e-004 1.5281987356541971e-001
      -1.4041392701043159e-001 -2.1736009206580476e-002
      -1.1359212093963210e-001 3.1320208856848747e-001
      -2.8869271905433552e-001 1.6150047083583080e-003
      -3.1193577569305642e-001 -1.0072852830704390e-001
      4.4141022540591901e-001 -9.4067454470198805e-003
      1.8983318509404440e-001 -1.9873017832782014e-001
      2.7909403366612739e-001 -5.1894079758691558e-001
      -2.1391341258693586e-001 1.2212502256258929e-002
      -2.6208668195720680e-001 -4.7713355802002637e-002
      7.1770147513170110e-002 -5.1612518452928047e-001
      3.8378860434751566e-001 4.3336196702684876e-001
      3.7551078436455727e-002 -3.2318292883224353e-002
      -1.3862165380343230e-001 3.9268842850595551e-002
      -2.0887771412893613e-001 2.2991066127855464e-001
      -2.6540992246228839e-001 6.5081262181451305e-001
      5.3174223951456168e-001 -2.0674888878454548e-001
      1.2360159107975638e-001 2.2674090129121409e-002
      3.0804796436028276e-001 -4.4972849969785117e-001
      -2.9860564998236888e-001 -3.1761086226997898e-001
      -6.7635598404491501e-002 -5.3472673820308250e-002
      -7.6488276798702112e-002 4.2645270901083568e-004
      2.4203157718401386e-001 1.2170222667985114e-001
      2.7929204415882630e-001 2.6547168815363237e-001
      1.3742537221245577e-001 4.4924883615135563e-001
      3.8677946470702235e-001 -3.2765676866410187e-002
      -1.5732675150217384e-001 1.2169232915483678e-001
      2.5710617510715172e-001 1.9692047153276560e-001
      3.5893857119123534e-001 -1.3115541532389594e-001
      1.0152256676187732e-001 3.0661601686821383e-001
      1.5498229670812180e-001 1.1292450096658296e-001
      -2.5735658457731788e-003 -7.9725750775713433e-001
      1.5634841852259211e-002 -1.1329631353986604e-002
      -1.0888441933887945e-002 4.4503922051435774e-001
      -1.2541445279650099e-001 3.6107119498492317e-002
      -2.9015377942183407e-001 -1.1595526212010279e-001
      -1.5141210943192396e-001 5.7246530646348576e-002
      -2.6620314534242073e-002 -8.3145527660473215e-002
      5.4300458718440824e-002 3.5292876301710191e-001
      6.1082638862490254e-002 1.6909591839291058e-001
      8.0719163001205199e-002 1.4454038933401178e-001
      -3.7179761192180383e-001 -5.8107566513882339e-002
      1.2690886296042769e-001 2.4025274319646567e-001
      1.0116502711416248e-001 1.3806950090473472e-001
      -1.0633697001042118e-001 3.0855170949305147e-003
      -2.1237294928578505e+000 -5.3068080504155998e-002
      -2.7696236963003845e-001 3.2287893678259350e-002
      -1.3400287694403107e-002 7.8246505288247659e-001
      -1.3625048799581524e-001 1.0333941027411092e-001
      3.1226824490933580e-001 1.7058268653313224e-001
      3.7436969588595598e-001 1.3088223427837126e-001
      -1.3684439115512996e-002 2.3679295562748306e-001
      2.5741142430735237e-001 -3.3633758589618895e-002
      -7.3490845490562867e-002 -2.9433056927685754e-002
      7.4112343454980523e-001 3.5260339532138488e-002
      -1.1444545156660244e-001 2.5783046784554098e-001
      -5.6826780979097227e-002 -6.9405558959231714e-002
      -2.1445967534631699e-001 -2.3853304161666734e-002
      -4.5099009040106525e-001 -1.0051050010196830e-001
      4.8409933914293546e-001 -5.7398756363089262e-002
      -1.6210249954225882e-002 3.2077967262134001e-002
      -2.8879727540088002e-001 1.8520995503230880e-001
      -2.5600495828680453e-001 -4.3687473909670865e-001
      -2.2771174452834669e-001 3.0976462713577520e-002
      8.9174642293475798e-002 -1.4356582470472340e-001
      1.3818983403917279e-001 3.6542038294700228e-002
      1.0794835269843880e-001 -5.7821732418542819e-002
      1.4505679028360538e-001 -8.4915197690723278e-003
      4.4451380543881265e-002 1.2272277671612440e-001
      -5.1052554632876479e-001 3.3125240716958194e-002
      -3.0107436147947469e-001 2.2409459090151457e-001
      -2.8648628603208617e-002 5.3636547294897174e-001
      2.2775199109984229e-001 6.9500504336462099e-002
      2.4318989668958030e-001 5.6581938053315899e-002
      -7.0666781225394493e-002 4.2454128130106061e-001
      -3.7098823671126308e-001 -4.2573572280693178e-001
      -1.2228689832400060e-001 3.5758302950914922e-002
      3.2619246794363932e-001 -4.7433358489792375e-002
      2.2061550523534162e-001 -4.0612851409593781e-002
      4.4214437234383069e-001 -3.7659576094968422e-001
      -5.4444431226340417e-001 7.1840891099616980e-003
      -1.2203610544391316e-001 5.0618842456268388e-002
      -4.1418072973548957e-002 4.5622582399743933e-001
      2.7655115194677277e-001 3.0129158483157042e-001
      2.7639131775233744e-001 -4.1766489357925448e-003
      8.2052836597745052e-002 9.2742132553874576e-003
      -2.5830460600653854e-001 -1.2198825354518045e-001
      -2.9618240898261622e-001 -2.6403232997542431e-001
      -2.2020716112281470e-003 -1.2289519175163381e-001
      -2.0494315675207313e-002 4.5126446800812230e-002
      1.5137404484680089e-001 -2.9054740529366848e-002
      4.5804091794232192e-002 -2.0303454814432109e-001
      -3.6830977443540419e-001 1.4526368293534153e-001
      -3.0452208042707641e-003 -3.0827067951568143e-001
      -5.3329476343283433e-001 1.4083178732096813e-001
      7.2862085352934421e-003 2.4373555587475246e-001
      2.5676199997109861e-001 2.7814042434489070e-002
      1.9996542540805278e-002 -4.5317754450096709e-001
      1.0368726645833102e-002 2.4534669194482661e-001
      4.5678332379879658e-002 1.2643949275891296e-002
      1.5076972453972320e-001 -7.2166517870822317e-002
      1.2333833379133791e-002 8.0429342267461193e-002
      -2.8859992217946351e-001 2.4776244858971163e-003
      -5.7263926787030739e-002 1.3503016023768061e-001
      7.8345136489796335e-003 -2.8364960609312184e-001
      9.5895035283739979e-002 6.6095987649080298e-002
      -1.1878980692141959e-001 4.6959158808974721e-002
      2.0030620323354877e-002 -3.1937891913137012e-001
      8.7745662578387534e-002 1.3601227942692898e-001
      2.1184205125567606e+000 2.6302318282689746e-001
      2.7489654083202958e-001 -3.9499084428878881e-002
      9.3351281872821532e-002 -5.0236933415770602e-001
      -3.5728524258474637e-001 -1.1255100540428589e-001
      -1.8498954850222696e-001 -2.2728523164207468e-001
      -3.7514612644536155e-001 -2.3834180335159832e-001
      4.1339153135563761e-001 -2.4344512105481489e-001
      -2.3783388928001087e-001 4.4575437780411661e-002
      7.5708506357763244e-002 1.8714918045775519e-002
      -2.2218293741233971e-001 -1.1786642761053770e-002
      1.3989578976984859e-001 -2.5278860665092134e-001
      -1.7155920156685305e-002 -2.3950391710766098e-003
      2.1170707622860158e-001 3.9221903127722724e-002
      4.6464951994330422e-001 2.7286234631932704e-002
      -3.7643679550238002e-001 6.1965657575472552e-002
      1.8274847029625807e-001 -5.3732872203964832e-002
      3.0981743376019338e-001 -1.9315114057976718e-001
      2.6082073646631432e-001 3.8820331892176829e-001
      2.8207870408957453e-001 1.1126222123086177e-003
      -1.0957853920931382e-002 1.4354224738761978e-001
      -1.4358956441377030e-001 -1.4429781389838196e-002
      -1.1510883850642668e-001 3.1104825474416864e-001
      -2.8314448271917353e-001 -8.5017399199222958e-003
      -2.9554347087021093e-001 -1.1775077645097096e-001
      4.3929622489016373e-001 -1.4503330067874765e-002
      2.0556269836622770e-001 -3.6201693545727880e-002
      3.1162258410115157e-001 -5.2064134813950358e-001
      -2.1522675853323919e-001 -5.9894774383187485e-003
      -2.5121351423999888e-001 -4.0939207893358372e-002
      9.6577943721911141e-002 -5.1455529720481641e-001
      1.1557071066695528e-001 4.3238538643486862e-001
      3.2526391092846232e-002 -2.3127629473809246e-002
      -1.2532794962743157e-001 5.3891900695043161e-002
      -5.7721539340826494e-002 2.1374922775996441e-001
      -2.5672539722037130e-001 6.6392659744023697e-001
      5.3218952050331469e-001 -2.2587960967530865e-001
      1.0907782753195841e-001 2.3368216763595413e-002
      3.1586812374010731e-001 -4.5577847033020508e-001
      -2.7574125180842141e-001 -2.9293562627211228e-001
      -6.0692115224649498e-002 -6.0300461629240104e-002
      -6.7070909799765779e-002 2.5873352717579613e-002
      2.4301424662115612e-001 1.2966621580234608e-001
      2.8011378892082289e-001 2.6699671917665851e-001
      1.2245558671532866e-002 -1.7456408418732100e-001
      2.2567618054996984e-002 -2.5546483101985229e-001
      -1.4994326420984905e-001 9.3777104558234372e-003
      5.2796770032586156e-002 1.8928936820251357e-001
      3.4740792988578145e-001 -1.3782435289215378e-001
      1.0077675980037417e-003 7.2206042352548003e-002
      3.7979916973188105e-001 -1.2954716869513538e-001
      9.8788290149861333e-002 -2.3275528582373242e-001
      -2.7929306656837166e-001 1.0010821950005563e-001
      8.7057773933822719e-002 1.2690002619378065e+000
      -1.5445011260828477e-002 -4.7299952545460744e-001
      -3.6058836978451594e-002 -2.3877283692558423e-002
      -8.3520544193873975e-002 -2.6384478093612135e-001
      2.0264486318671122e-002 -5.9170565204407700e-002
      3.1242158416077753e-001 1.7526996639679742e-004
      2.6804956710247768e-001 1.7906769643508472e-001
      -1.2762605314089634e-002 1.8212651116482204e-001
      -1.0407298667640826e-001 3.3498314065675834e-002
      -5.5645073442303072e-002 -1.1720013901205906e-001
      -2.6949602930663386e-001 3.1676826458691848e-001
      -9.0715933673103599e-002 -4.8655835708225539e-003
      -3.3321258924275404e-001 -2.9180570080087520e-001
      -7.0151422068775587e-002 -2.0477531738224936e-002
      -6.4350663509103623e-002 5.0327316645183595e-001
      3.6861053611875294e-001 9.5959687970394308e-002
      -4.1650332189520224e-002 4.3039058428323990e-001
      3.7975306832439176e-001 1.5679291280233093e-001
      -4.3338844386482495e-001 -2.7421233341042458e-002
      2.6020419724434646e-001 1.0013428227653424e-001
      1.6370095238294052e-001 3.2849983026116403e-001
      -3.4047455427970386e-002 -6.2223160311616127e-003
      5.9961452165342440e-002 7.8417468252939687e-002
      1.2373703458261031e-002 -1.9653308639285857e-001
      -2.0524945940464590e-001 2.7554124959411695e-002
      -2.5247322545799183e-001 -5.0732327814408215e-002
      4.6587882688791910e-001 -4.3468505176446605e-002
      -1.9954059817103625e-001 -5.5734871965591182e-002
      -8.9907126913521096e-002 1.9688441043572313e-001
      -7.3890596496524602e-002 -2.5445465902197140e-001
      -2.8695974283708209e-001 -1.6162400660762653e-002
      1.8728386159915563e-003 2.1567293884521976e-001
      -2.5583223281515904e-001 -2.9183609126016391e-001
      1.5606388473441010e-001 -3.1005131199142338e-001
      2.5983821383519906e-001 1.1529695473797881e-002
      1.4986289842534239e-001 1.1803694790513955e-001
      -4.3566222464273330e-001 4.2607157723831107e-001
      -1.2298757837620659e-001 -2.9464396840139034e-001
      -2.5675771236575690e-001 3.8259196795407030e-001
      6.3572829787316021e-001 -5.9269330535821193e-003
      2.5379287942686563e-001 3.0416744755482705e-001
      2.2076791312968766e-001 8.4117918870435682e-002
      -1.1815344710748389e-001 -3.9227431746250147e-001
      -4.5090804959635016e-002 -5.1562065184182163e-003
      2.6973713358796454e-002 -1.2990655159163556e-001
      -3.1087838450965444e-001 -2.0897264940163185e-001
      7.4581126059158648e-002 -1.0080970421978767e-001
      -5.2989005298912373e-001 2.2571369702423430e-001
      9.4544210322985628e-002 3.5033810310973551e-002
      -4.3806483812329315e-002 -1.2663680078494424e-001
      -1.7449385122594221e-001 2.9449323191601212e-001
      5.0170355658951074e-002 1.2089839321314598e-002
      7.0598140904224310e-002 -1.5535948637347333e-001
      -2.3310086374776412e-001 1.3626699030285053e-001
      2.9882761732923718e-001 2.6285443150017179e-001
      1.2806814269390945e-002 1.4310699858424308e-001
      2.2675248754579470e-002 -3.5040344793231377e-002
      -1.7221481711423320e-001 1.6099204992374650e-002
      -3.9281352419068626e-002 1.8486750767824994e-001
      3.5450540550610993e-001 -1.5226072384194572e-001
      1.0267530780693134e-002 3.2708399475632943e-001
      1.5308122736715790e-001 5.5589470184013383e-002
      -1.4385098118188422e-002 -7.7560969615704789e-001
      -3.9211342445974649e-002 -1.1712930319409492e-002
      -1.4982497784975936e-002 4.3742739526256325e-001
      -1.1352054809464510e-001 -2.6572843553494108e-001
      -4.0785921201100486e-002 -1.3126154489325981e-001
      -6.1910987347749032e-002 7.2170451998404161e-002
      -2.3684568644473628e-003 -6.6205468122828293e-002
      2.8801441783380000e-001 -6.5937888963591286e-004
      4.7609234781031136e-002 -1.2611106531463384e-001
      4.5247710294602983e-003 3.0167901889015408e-001
      -3.8459476818653615e-001 -5.2292137485822100e-002
      1.1179217081469869e-001 -5.0549157518788135e-002
      1.0813827240550100e-001 3.0654415132611862e-001
      -1.0170171111653248e-001 -1.4609296929556417e-001
      -2.1278363219198293e+000 -4.1223192309652226e-002
      -2.5018062415311376e-001 3.1551250039990021e-002
      -8.9376020492707167e-002 5.0719764887517860e-001
      -1.2872135968715753e-001 1.0185089042322390e-001
      2.2729655435822979e-001 2.3082894783106819e-001
      3.8679114251524788e-001 2.4786333402290744e-001
      -4.2929615297291485e-001 2.4420376417492826e-001
      2.4610430106479714e-001 -3.4645896168862690e-002
      -8.3456602617570777e-002 -3.4223154487972543e-002
      7.2980879298072532e-001 -1.2687742419936554e-003
      -1.2292999262604366e-001 2.6971611447794458e-001
      5.8792752959691760e-003 3.0767323058778131e-003
      -1.9274616984361809e-001 -3.3409588353404476e-002
      -4.5139877580634308e-001 -4.5044578823340439e-002
      3.8971942328651926e-001 -7.1693725120092422e-002
      -3.7471828946389870e-003 4.7633788472330706e-002
      -2.8672954450812410e-001 1.8201507951659940e-001
      -2.6274929191874868e-001 -3.6699921677613179e-001
      -2.6897353648062122e-001 5.8280660628597498e-002
      -9.8475555961621466e-003 -1.4602918540126958e-001
      1.4434356482361560e-001 1.8431659842592939e-002
      9.8803024246051877e-002 -3.1361598483393238e-001
      2.9356214172308265e-001 -6.1996425171835425e-003
      3.1905833286907476e-001 1.1630418660218028e-001
      -4.4436093565282941e-001 1.4579254136530004e-002
      -1.9906534479499621e-001 2.1478719599038182e-001
      -4.7574301845229788e-002 5.3339226257877881e-001
      2.3555920870864960e-001 1.4007799401839273e-002
      2.5201193014346651e-001 6.0331549468883187e-002
      -8.0057855528324798e-002 5.2674767861898841e-001
      -3.8419746368027580e-001 -4.1355568553912730e-001
      -6.5068795522498502e-002 2.2879437597334025e-002
      1.2626471693540584e-001 -2.8864785036185652e-002
      2.0697659644784344e-001 -2.2799671349975081e-001
      2.6843618842524569e-001 -6.5437307851834114e-001
      -5.2574095857888636e-001 1.9424899922737435e-001
      -1.2365319087735910e-001 -3.2095214420147178e-002
      -2.9237797203706722e-001 4.5358463221473039e-001
      2.8405376406806643e-001 3.0854527177299379e-001
      5.9960813972121427e-002 4.5888095319766287e-002
      7.0884304240661347e-002 -1.5219744981522518e-004
      -2.4027073313431108e-001 -1.3438686804727326e-001
      1.8729650895948596e-001 1.8257294018409206e-001
      -2.5623858329828852e-001 -1.6051747820012763e-001
      3.5487871348195241e-002 -5.0046869820507234e-001
      -2.8361683824498923e-001 -2.3562430754171457e-001
      -1.4896713578332282e-001 2.8833231366373835e-001
      -2.7164094624392282e-001 1.8962529541192510e-001
      -2.5785550153828307e-001 1.1759031520661453e-001
      -1.8303000515577823e-002 -3.8600301536597902e-002
      2.6476908841942742e-001 5.1108856029519666e-002
      -1.1088049035671894e-001 -7.6885273072289755e-003
      2.9255764196241055e-002 -1.8747091921436490e-001
      2.4915132142165414e-001 1.2209127746408706e-001
      3.6251778465880943e-002 2.4404253014964483e-001
      6.0052474484469720e-001 -5.3009088678171862e-002
      -3.9578209703802036e-001 1.7854558112510041e-001
      -7.1144405208519917e-002 -1.8780688318764900e-002
      1.2307645607172320e-002 -1.3691066084655923e-001
      -4.8375817163316770e-001 -1.0024204439320615e-002
      1.9831251516519829e-001 -2.0897943554421896e-002
      -5.2785284929563192e-002 -1.4064281824936456e-001
      -4.4855100991273977e-001 3.1394011099314767e-001
      1.8314629123231341e-001 -2.0649623774657423e-003
      2.2463965895576565e-001 6.5373744674219886e-002
      2.6081998593542061e-001 5.0295186295499172e-001
      -3.6315460313954107e-001 5.9359942188961923e-001
      2.1486657538511167e-001 -6.2308434421659475e-001
      1.1888659930220173e-001 1.0555821701545322e-001
      1.5583379497205097e-001 4.1177401416497977e-001
      -2.0654398193100551e-001 -1.2339665158094778e-002
      2.0781925240560789e-001 -5.0739213726087951e-001
      1.9575668595503810e-002 5.8854233356150643e-001
      -9.3568133200504514e-002 -4.3901388143389453e-001
      1.2341037205147259e-001 -1.4354224362183643e-001
      4.7893511373332232e-001 5.8010502051017265e-002
      2.3953830949329313e-001 7.9000830230063013e-001
      -1.1835906155177144e-001 4.2005383095650611e-001
      -3.9253535538384690e-002 -2.7578428166048195e-002
      -8.6791945769957746e-002 5.6280722538947781e-001
      3.1713601729269197e-001 2.8503983950681522e-001
      -1.0181916159718354e-001 -2.0696762219740594e-001
      3.7039476385272280e-001 -5.0381088104459071e-001
      -3.9272759284230602e-001 1.6698206762236653e-001
      -3.5180241040830246e-001 -6.6501680474060110e-001
      -1.7570247880972911e-001 9.4522206027341696e-002
      1.4773489776349918e-001 4.0061813904685539e-001
      -5.5428992667343920e-002 -2.6870146687940334e-002
      -9.2718990764395826e-002 1.5356542613275609e-001
      -1.9703949601504039e-002 -2.9662066741678550e-001
      -8.7727264198706103e-003 2.8006402031959338e-001
      3.2458650842680382e-002 -5.1689033882693636e-001
      1.8422506371765554e-001 6.7456096807148131e-004
      4.2826648317189597e-001 1.2903529700042859e-001
      2.7389483031274492e-001 -1.7376903415828593e-002
      -2.8750992114549939e-001 -4.5554672805344509e-001
      9.6489690386232327e-002 -1.6105232193379927e-002
      -3.0675701806456346e-001 4.2834581085122524e-002
      1.0019274869935332e-001 -1.1545301914285973e-001
      -2.9415165052918596e-001 5.3478612047508547e-002
      9.0090829874827971e-002 2.9102279934161696e-001
      5.4392356726403294e-002 -1.0315276057263494e-002
      -2.0565723026193827e-001 2.1443411670266380e-001
      1.8579915505807915e-001 -3.3542371327817802e-002
      -7.8147733236448591e-001 6.1703979322790439e-002
      -6.8391752587293564e-001 2.1570024787470024e-001
      -2.8199048795873954e-001 -2.6552060613435763e-001
      -2.7903422736933546e-002 -1.3166820903633952e-001
      -9.5292516453193820e-003 2.6828462389171870e-001
      1.5375811852147270e-001 -3.1483031194336685e-003
      2.9574037581650489e-002 -1.8851262736380919e-001
      -3.6283470737106033e-001 1.4238525714973180e-001
      -2.6950384093122965e-002 -7.6166223761866270e-002
      -5.4526260021643069e-001 1.5499537260309706e-001
      -4.9787109851381572e-002 2.5946807802653676e-001
      2.7299338840391224e-001 -4.9102082891073193e-002
      -1.7473987387636691e-001 -1.2659276240709583e+000
      9.6173434331487690e-003 4.9400055278374677e-001
      2.7196246834391799e-002 1.3364241304391901e-002
      2.5399391823937668e-002 2.5528452939423329e-001
      1.0987598605023846e-002 1.1543429440151665e-001
      -3.0667528524335741e-001 2.5735945027825259e-002
      -2.8595928264749110e-001 -1.9882086231268539e-001
      2.0929475060763626e-002 -9.4521846978135193e-001
      1.1710725266868817e-001 3.1743033764585615e-001
      -1.9045402289612167e-002 6.5935388228284875e-002
      2.9594471912496562e-001 -2.9240627077235820e-001
      1.0291549804283624e-001 1.4924065628321434e-001
      1.6673295823668333e+000 2.7036339863049752e-001
      7.5709695644973374e-002 -6.1389089115448173e-002
      8.2100783188932810e-002 -5.0477048489250964e-001
      -3.6670573394884698e-001 -3.5538515996586993e-002
      -1.9943712483889078e-001 -2.3875806529607033e-001
      -3.6234219428009995e-001 -2.6239669368308455e-001
      4.2486372059950489e-001 9.6417123539251672e-003
      -2.4268021552592695e-001 5.0496286503722163e-002
      8.6133738406865362e-002 -3.1256474194951100e-001
      -2.2247084368919182e-001 -1.3031049589713460e-002
      -1.2910724542763879e-001 -5.8545227076564857e-002
      -7.6493982685110720e-002 1.6738270746618844e-001
      1.9801211430636795e-001 -7.1591605695623381e-002
      2.7722431928361407e-001 4.8348264271625710e-002
      -3.8455378440298144e-001 4.6569594913449384e-002
      2.0969550225259403e-001 3.8209392697177817e-002
      8.3437822386417296e-002 -1.8872058376571516e-001
      6.9863785955311342e-002 2.5920324376256776e-001
      2.7716279479740241e-001 3.3855068063981378e-002
      -9.3838096629309774e-003 -2.6371784850711688e-001
      -4.2135276337670016e-002 2.7389034643092786e-001
      -1.0616119251799967e-001 2.9186589131228269e-001
      -2.6419568928323994e-001 3.6115255861294611e-002
      -3.1483388090011394e-001 -1.1938697373675564e-001
      4.4545651740221093e-001 -4.2152251046423533e-001
      1.1082878412431875e-001 -4.5207791299305612e-002
      3.5433052538337162e-001 -5.1829847770753501e-001
      -6.4655157085512571e-001 6.1740698974666096e-004
      -2.4546056690624879e-001 -3.1228471329778151e-001
      -2.0801893174928338e-001 -7.2815975273653688e-002
      6.9836905553208983e-002 4.0273283135677390e-001
      4.0349818391783886e-002 1.9417551997766354e-002
      -1.1121998047307514e-001 2.8770708741648832e-001
      -4.0305458583371534e-002 2.3065732626233704e-001
      -2.5841778314578184e-001 1.1246490373759539e-001
      5.1807384889256425e-001 -1.9398087860661131e-001
      -8.9618000671883205e-002 6.5839350256447866e-003
      4.8439789681074036e-001 -1.3526030858773888e-001
      -7.2951912999099214e-002 -2.9948168509473566e-001
      -4.4586323362493421e-002 -1.9987370764790485e-002
      -5.7131541387769283e-002 3.6138997483476576e-001
      -4.2948855509464347e-002 -1.3897255257090171e-001
      -3.1913305253315538e-002 5.9374320229656427e-002
      5.4178859215987074e-001 1.8312184298610179e-001
      1.3284310524690410e-001 -6.1829383491317141e-002
      -3.8044693845449735e-002 5.3199238579842234e-001
      3.9090869277268131e-001 -2.9006585432812304e-001
      4.0730948347279833e-001 -1.0486635307475989e+000
      5.2239380412260639e-001 1.2217008970329885e-001
      3.0704923333954304e-002 -8.2614496605321774e-002
      -4.1185718215214356e-001 -4.4296714846932039e-002
      1.0061146889395324e-003 1.3273036392945942e-001
      1.3354014204098619e-001 1.9703093567317198e-001
      -3.7855195977807721e-001 -1.1431105537871264e-001
      -2.3453222757067477e-001 -3.4768185998070794e-001
      2.8991408721221478e-002 5.5719425062117656e-001
      2.0413404795501031e-001 -2.5042837683865626e-001
      9.8187855618033046e-002 2.7421039265164820e-001
      7.0483514560903307e-002 7.5910093328051653e-002
      2.2324768370933135e-001 2.5528329666301985e-002
      -2.0083549320284458e-001 -5.4692657223801171e-002
      9.9380901248731579e-001 1.0533244305483398e+000
      4.2212748522975974e-001 1.4819302942151544e-001
      -5.5782083188009790e-001 1.7924298033729055e-001
      -2.3422219551957796e-001 -4.4744134786802586e-002
      -2.5963536266097681e-001 7.4027733308902902e-002
      -1.6486599767335745e-002 2.1470378432342352e-001
      -1.9496029574349744e-001 2.4833217825121695e-001
      -8.6935620164493632e-002 8.2306294969689511e-002
      1.2130727974326365e-001 -1.7798145163012910e-002
      -6.4640878606973566e-003 4.9307171605753548e-002
      6.7698909524784773e-002 -6.0840319884369602e-002
      -3.6390858223682465e-001 -2.4327563612608114e-002
      7.5602882427738688e-002 -4.1524733011539888e-002
      -3.6230364042506169e-001 1.5699804710445936e-001
      2.4933329339383054e-002 -1.4826146591371331e-001
      -2.6138837742829435e-001 -1.4168165869253907e-001
      -1.4084117763782825e-001 -3.2633744238763746e-001
      2.9131417152825845e-001 -2.4948286032571643e-001
      8.3483408525661398e-002 4.9594236960571955e-002
      -1.2947555231918659e-001 -5.9972509206216391e-002
      -1.3318753649750359e-001 -5.2790349988736086e-002
      -1.5859632669964427e-001 2.2624494435844777e-001
      6.0803588535246633e-001 -6.9787745146929248e-001
      4.5239470287561806e-001 1.6713685771115334e-002
      3.6436325275604836e-001 -2.7205349742067293e-002
      1.7716301177062754e-001 -3.4031833461630318e-001
      8.1150157141523641e-002 8.0752489220816104e-001
      -2.8541476348400241e-001 1.0953466494874227e-002
      -2.4277878020542254e-001 2.4700160736898408e-001
      -5.2660998453132310e-002 2.2119009071799017e-001
      -1.8451215044650367e-002 7.5170075913635281e-002
      6.5896053997074364e-002 3.2224681087678272e-002
      -8.0431981970856797e-002 1.6452114448209471e-001
      -4.4961541452174414e-001 -1.1221407718746113e-001
      -1.4019693506834510e-001 3.7112874082166236e-002
      2.3611159688011801e-001 -6.4587708680333131e-002
      3.9145403928787853e-001 7.4136428840218512e-003
      1.4958103383305180e-001 -8.1286984854065159e-002
      -2.1694021279739290e-001 -7.4263195402352142e-002
      -2.3105887388654481e-001 2.0523186951218497e-001
      -7.5054100478543592e-002 -2.4778022403445799e-001
      4.3417042717264070e-001 4.0165907866934580e-001
      2.2827234642059241e-001 3.5213752171592300e-001
      5.9758140725341391e-001 -5.3981665034369603e-002
      1.9571106847809844e-001 -2.8518709335168485e-001
      -2.8002290599262197e-001 -2.4945377465103186e-001
      -3.4685336585760186e-003 -4.4287572025245364e-001
      -3.9472469966016516e-001 5.9651798513828742e-002
      1.5604976990868219e-001 -1.7210605960854238e-003
      1.9391441018841625e-002 -1.7887163988938276e-001
      -3.5085687901388446e-001 1.3213651606722851e-001
      -1.1749276206279324e-001 -3.3415472400973623e-001
      -1.6859883795056246e-001 -3.3143927886624437e-003
      7.9277727077605754e-003 7.9517892291325853e-001
      2.9628714861327062e-002 2.5723709768996496e-002
      1.5707205244880874e-002 -4.4518628136292149e-001
      1.2943406524427847e-001 1.0100690837468887e-002
      2.8924099762694000e-001 1.3287047208025349e-001
      1.6356732937282753e-001 -6.2473496176863527e-002
      1.2582000661795991e-002 7.5022112816211087e-002
      -2.9478748876323280e-001 -3.4103473196608231e-001
      -4.9241192395817264e-002 1.1493768116899654e-001
      -7.7075542592431559e-002 -1.3437038172406388e-001
      3.6567676761344514e-001 5.3033537366740414e-002
      -1.0495436703025438e-001 -2.4353316637982542e-001
      -9.9002160726725949e-002 -3.0503600013774673e-001
      8.0511507807275257e-002 -4.2372896533958114e-003
      2.1307056624612515e+000 5.6892748538115656e-002
      2.6718190097417466e-001 -3.9886591159687068e-002
      8.5352787978901515e-002 -7.7121864602724588e-001
      1.3965796584718632e-001 -9.2964824088669962e-002
      -1.5596293297994959e-001 -1.6967425197055969e-001
      -3.5877449480581264e-001 -2.4378181846940067e-001
      4.3013237838591328e-001 -2.4825493054631967e-001
      -2.3390076409139648e-001 2.6428892272143310e-002
      7.9457377193912979e-002 5.2450899927637788e-003
      -7.4085060241638367e-001 -3.5478030685393630e-003
      1.2238169839386127e-001 -2.7461495957998033e-001
      4.2730866391387262e-002 -1.6853110387841451e-002
      2.0339058188337433e-001 4.7061667366173565e-002
      4.5184773167862441e-001 3.1971521336957860e-002
      -3.8878475982360661e-001 5.3561161262343143e-002
      8.1833773777806301e-003 -3.4547148163815655e-002
      2.8611332973889941e-001 -1.7622349054126657e-001
      2.5065936754341434e-001 3.7280017067121662e-001
      2.1125147258625032e-001 -4.0888420547187027e-002
      5.5433289546570567e-003 1.5164431129348427e-001
      -1.4144215466121440e-001 -1.4363683073181120e-002
      -9.1136669922233765e-002 4.0795392726441400e-002
      -3.0645622394053690e-001 -1.5634612052062132e-002
      -3.0421201168731382e-001 -1.1056420525442301e-001
      5.1426104491527269e-001 -2.3291559645104834e-002
      1.9642339591182661e-001 -2.0149054399382571e-001
      3.1959599613422658e-002 -5.2425383315268514e-001
      -2.1122302856089625e-001 -6.4612623910510494e-002
      -2.6022992005710027e-001 -4.2849994065661152e-002
      5.2959142776635222e-002 -6.4721515058007950e-001
      3.7557168972047000e-001 4.1364428333926867e-001
      5.7340600543702207e-002 -3.6214749851272543e-002
      -1.3883337150663269e-001 2.9498342944928795e-002
      -2.1142234804098781e-001 2.1374044121625461e-002
      -4.5888907441009136e-001 4.0445464632256356e-001
      5.4132645068169127e-001 -1.6156703940282152e-002
      1.0756178017631282e-001 1.1675688758511795e-002
      3.0381363153605773e-001 -4.3721590990092957e-001
      -2.7590171328038865e-001 -3.0186058607627747e-001
      -3.2560980488726404e-001 -4.5465508207055014e-002
      -6.5537932087086775e-002 1.2088730774413956e-003
      2.5013806557900847e-001 1.4031612029575427e-001
      2.8781922670297116e-001 2.6089386556894595e-001
      1.5182921793395775e-002 1.3705549649145496e-001
      -2.7784742229764219e-006 -5.4405909202164981e-002
      -1.6451282188604388e-001 3.3416755380465221e-002
      -2.8414591897336153e-002 2.0354303385781092e-001
      3.4468420420917650e-001 -1.5411899321836894e-001
      1.6739078877662277e-002 3.0812319286635004e-001
      5.3016740183830735e-001 -1.6889647188647680e-001
      -4.1854304666689240e-002 -2.3816936310732387e-001
      -2.6523054318223632e-001 3.5755478219943869e-002
      -5.6934548908969748e-003 4.6077103993878349e-001
      -3.3392919267836885e-002 -2.5341247487430851e-001
      -2.6091321328178499e-002 -1.5920022721761431e-002
      -3.7048392180598431e-002 3.3578268726460560e-002
      -2.5567093303298646e-002 -2.0778153322100240e-001
      2.9087176245086677e-001 -2.3281285774932943e-002
      2.8815192070089057e-001 -1.4505767500265515e-001
      6.3082796023225599e-003 9.1749352771697734e-001
      -1.1231540000595415e-001 -4.9496534898960422e-002
      1.2859956727546651e-001 -5.9738536972178902e-002
      -2.6069144155808209e-002 2.9213988608514746e-001
      -9.0880351635475171e-002 -1.3535173319898233e-001
      -2.1165053224441190e+000 -2.5904492345119440e-001
      -6.9607631089136923e-002 5.9731513947760863e-002
      -8.7023368847318511e-002 5.2660394428071189e-001
      3.5219548617076690e-001 4.8796645387404240e-002
      2.0891594803725391e-001 2.3253278530533214e-001
      3.6284165986388456e-001 2.5315154083841068e-001
      -4.1986946693979127e-001 -1.8431185638628052e-002
      2.4031910603611345e-001 -3.2631311230362017e-002
      -2.2309665339378804e-001 -2.2137946431353570e-002
      2.2071583190023572e-001 -4.0052774444504242e-003
      7.1321291930463271e-002 6.2394150367658760e-002
      8.2042175309405430e-003 -1.5096620844239733e-001
      -1.9841575228339337e-001 -3.1153370252114169e-002
      -4.3371004952039011e-001 -4.1120981071477269e-002
      3.9986782727816955e-001 -6.6931154867452519e-002
      -1.9698692953297470e-001 4.2000737008418144e-002
      -6.7704239485767856e-002 2.0254887588785575e-001
      -2.5729087950347540e-001 -3.6721811481405486e-001
      -2.8206891319393207e-001 -1.5478448261048949e-002
      2.5129874152958975e-002 -1.0456770651587094e-001
      2.9096934827548698e-002 -2.7137591284723289e-001
      1.2516952038043919e-001 -2.8978965036003002e-001
      2.8850433123635127e-001 -1.6198795336255963e-002
      2.8753598807100955e-001 1.2377239310918053e-001
      -4.3588543326103912e-001 4.3013801072750474e-001
      -1.9929495231224831e-001 6.1025805580777165e-002
      -3.7437455760720056e-001 5.2736114504836173e-001
      2.3930014335801264e-001 2.1368402634991290e-002
      2.5132332243554117e-001 3.0128858774069084e-001
      2.0894414673323744e-001 5.7625619540911922e-002
      -6.0382216478616288e-002 -4.2336167907029604e-001
      -5.3034475445909848e-002 5.5872186804044183e-003
      1.2821913420230704e-001 -5.0067638776624124e-002
      4.9894949674612811e-002 -2.2063289358120330e-001
      2.5192298412570485e-001 -8.4677878625303543e-002
      -5.1818923290474639e-001 2.1050541265775932e-001
      7.1780087254498623e-002 -2.5674256918207860e-002
      -2.9567319606087356e-001 4.5677384494537793e-001
      6.3328457361452650e-002 3.2363566827358409e-001
      5.4862033305293947e-002 5.7578536044561437e-002
      4.3861944266991790e-002 -3.0436407891193112e-001
      5.0145781450657241e-002 -1.4207574685994021e-001
      -2.8506822066483167e-001 -2.5433083169870679e-001
      -2.7954412588704011e-002 1.8920013042676942e-001
      -9.7118068391746065e-003 1.6569249599075508e-001
      1.2178513943986945e-001 -1.4134849248246309e-002
      -3.6162064097270963e-002 -2.0167639753559230e-001
      -3.4991196971193478e-001 1.4218006011641113e-001
      -4.3692385467566245e-003 -9.5961639263979936e-002
      -2.4960397397314742e-003 1.4244193834760058e-001
      -2.5730797872406908e-001 -1.9559203330561069e-002
      5.3539231677823551e-001 -7.7627839622726652e-002
      -3.4551713856607040e-002 -1.2718770336875087e+000
      3.0123127339839705e-002 4.7216570818678127e-001
      4.3482915231393207e-002 6.6397300602302704e-003
      1.6002120550247206e-001 2.4913854986986805e-001
      1.1947691232204014e-001 6.1840021110261524e-002
      3.5410681987418272e-002 5.6499940653888291e-003
      -7.9081274263380713e-002 8.5816516174307481e-002
      -9.0776248003572608e-003 -1.9139474929389283e-001
      9.5616777778246051e-002 1.5380082326788519e-001
      6.4829340049143869e-002 1.3462919966743317e-001
      2.6733911973428781e-001 -2.9919796946446353e-001
      7.3616507735691172e-002 5.9290086205563254e-003
      3.3738540558819269e-001 2.9030467727467535e-001
      5.4494664217495090e-002 1.8995982868435030e-002
      4.7325215844172853e-002 -5.0825741616405307e-001
      -3.5605484752735650e-001 -1.3660454597933605e-001
      1.8753525930506696e-002 -8.3231122054084353e-002
      -3.8409986238257304e-001 -1.7088911642866139e-001
      4.1891791592122568e-001 2.3474672026706885e-002
      -2.3602945889823851e-001 1.5777363450944860e-002
      -1.5298684531975193e-001 -3.1585000069369451e-001
      4.3296825899606706e-002 -1.0448671788660310e-002
      -1.1378324309858229e-001 -5.9894786909970008e-002
      -6.7071733985346396e-003 1.7623695205646933e-001
      2.2149811338314507e-001 -3.4168116965901295e-002
      7.4130395886760861e-002 3.0731479177026778e-002
      -4.7252292644008714e-001 5.3099338169867706e-002
      3.6598099101657337e-002 6.0143876486047992e-002
      8.7737071243809320e-002 -1.7988353504006377e-001
      5.5663602971413560e-002 2.5885756929523357e-001
      2.7558413527654207e-001 -1.1925697102313057e-003
      2.4637773586743805e-001 -2.7767929492853127e-001
      2.4209672853668454e-001 2.7215358879375412e-001
      5.5710371159953406e-002 3.0369848856790266e-001
      -2.5854265987560882e-001 -1.4927897360983641e-001
      -1.7549856866874630e-001 -1.1742796273280354e-001
      3.3211427051086573e-001 -4.4464798997529970e-001
      4.1777195459513367e-001 3.0032608939972805e-001
      -4.8597893055804732e-002 -3.8731077631180849e-001
      -6.5296677960472538e-001 1.5300391335311120e-001
      -2.5115558408187005e-001 -2.9137846757747787e-001
      -2.3144315015845274e-001 -6.0507387399133854e-002
      4.5648906241838351e-002 3.7291413111911398e-001
      4.4641845964449457e-002 -1.6347086614522814e-004
      -2.9207698267480750e-002 1.5101025253296230e-001
      2.8925078162669726e-001 2.3476253534341171e-001
      -5.7294018298452098e-002 1.2864707201549352e-001
      9.5975571317289510e-001 -2.2642445535156494e-001
      -8.8814128159811795e-002 -3.4803308288417933e-002
      1.4749288812232272e-001 1.3730368554397274e-001
      2.0567292951059984e-001 -3.0686350325311268e-001
      -6.6974141533902729e-002 -1.9330185274448995e-002
      3.2310326821770777e-002 1.3155498976386357e-001
      2.5504425480292398e-001 -1.2764044102133418e-001
      2.9087698306324433e-001 2.4386742741335321e-001
      8.6495108425429981e-003 1.3422775751082575e-001
      1.9368586556200031e-002 -5.2433361703812548e-002
      -1.6839056809168729e-001 1.9701105041965140e-002
      -3.7548760071379500e-002 1.9301436966936469e-001
      3.4929406738116547e-001 -1.4386082000736194e-001
      1.8216525513487940e-002 3.3131833699458724e-001
      5.2658447723211588e-001 -1.5785475903713975e-001
      8.3266562501714256e-002 -2.3441028020829816e-001
      -2.6456798341628707e-001 -2.9039892630907924e-002
      -2.6825475180632143e-002 1.2829145719497872e+000
      -1.9839252992601579e-002 -4.7299124985145480e-001
      -2.3840782427599849e-002 -3.2391628883568238e-002
      -6.3515984137638176e-002 3.7716714542863489e-002
      -2.0180848193208426e-002 -7.5642825663085861e-002
      3.3045878593459493e-001 -1.3694122737127144e-002
      2.6223889309072618e-001 1.2912574480014963e-001
      8.7469332287218784e-003 9.3134209545205193e-001
      -1.1557235486608923e-001 -3.1285503566310435e-001
      1.1899391692404514e-001 -1.4914608621253919e-001
      -2.7046955020096419e-001 3.0099354615416996e-001
      -7.9479913738981001e-002 -1.2898597529270273e-001
      -2.1260520233353453e+000 -2.7393204627460621e-001
      -6.6128250145624956e-002 3.2160171343499862e-002
      -8.5714505557576884e-002 5.1167057718681197e-001
      3.6010100346440599e-001 1.0480249215553730e-001
      -4.1927281486371294e-002 2.2960523755006165e-001
      3.8679613483966863e-001 2.6043857964319878e-001
      -4.0628643926031577e-001 -1.0740014834355832e-002
      2.4356407095189708e-001 -3.5495138560007168e-002
      -5.7763951204921150e-002 3.1605552524339131e-001
      2.1826729673237741e-001 7.7086465877202713e-003
      8.4240820289585766e-002 7.5130521908660361e-002
      2.8346005603749402e-002 -1.4733117110684618e-001
      -2.0368491577315723e-001 -3.6825804214024122e-002
      -2.4561609963311934e-001 -3.4336146878978575e-002
      3.7696846637523479e-001 -7.1616851975006238e-002
      -2.0375819918296562e-001 1.2773999675626535e-002
      -7.2066664434137298e-002 1.7638854925440045e-001
      -2.6411880401281140e-001 -7.7835271778583448e-001
      -2.9534483921788296e-001 -5.1038765506627917e-005
      9.4761554132589462e-003 -1.6318267568188405e-001
      1.2768020611241784e-001 -2.7826630867987817e-001
      1.2349096972238688e-001 -2.9312244536817705e-001
      2.6469522705669851e-001 1.1971308662804587e-002
      3.0655806419064491e-001 1.2013232105199168e-001
      -4.4380300804939543e-001 4.2371746728312426e-001
      -1.0940735417927429e-001 4.0953675460126376e-002
      -1.9941755226399943e-001 5.2785931368768257e-001
      6.4917220087505201e-001 -1.3912008344688627e-002
      2.6934139612109526e-001 2.9904261235263030e-001
      1.1962513040320175e-001 9.8040834799399235e-002
      -9.0718612015293160e-002 -4.3325083384294022e-001
      -4.9601769335806740e-002 2.7418844386545366e-002
      1.3002807084314807e-001 -4.7086896179470150e-002
      4.4817229731117743e-002 -2.1574200178981828e-001
      2.7388168513537164e-001 -1.1559436543917059e-001
      -5.3868362389519331e-001 2.1385175968679990e-001
      7.1026187858438949e-002 -3.8660778680282863e-003
      -2.9654891374678632e-001 4.4225530072571623e-001
      2.9973613976647390e-001 3.0495682189999779e-001
      6.7753920798533276e-002 1.4012289645517739e-002
      5.9986553301560108e-002 -3.1209206710438853e-001
      -2.2992695452627493e-001 -1.4218551314287933e-001
      -2.7766598235832679e-001 -2.4765744759617792e-001
      -1.1561030454867398e-001 -4.6095071669162474e-001
      -4.1193458132290800e-001 3.2097900982018410e-002
      1.6880190497425934e-001 -2.5104002648460574e-002
      4.9546371408292343e-002 -2.0458065771808276e-001
      -3.4681806118112840e-001 1.2957494686977311e-001
      -1.0139533147103430e-001 -3.2511478216258083e-001
      -1.6890253892693763e-001 -1.1177846608326883e-001
      -5.5990494909167136e-003 8.0118676791111032e-001
      1.5806179723450116e-002 7.2146362447714860e-003
      1.1548792589963365e-002 -4.4629359209183617e-001
      1.2980324123195719e-001 3.8279385152882879e-002
      2.9272929148266780e-001 1.2145394172519522e-001
      1.4396785923176475e-001 -6.5819535875014920e-002
      1.7551588055504056e-002 7.2477159220973669e-002
      -2.9025134293257060e-001 -3.2290407824249606e-001
      -4.3338504808250744e-002 1.1473815489648097e-001
      -5.9308246785114073e-002 -1.4391981922092953e-001
      3.6576132279430618e-001 5.7124482752769490e-002
      -1.2596336768115091e-001 -2.5306239916065892e-001
      -1.0494249790451371e-001 -2.9577694653561115e-001
      9.5825909152905453e-002 -1.1823758624967685e-002
      2.1272646435912770e+000 3.0282400707087605e-002
      2.5379398743316250e-001 -2.4213503391101947e-002
      9.5523620625897435e-002 -7.6293387689281311e-001
      1.2381754468564747e-001 -1.0526762767772613e-001
      -1.6302755216989701e-001 -1.7839363195034769e-001
      -3.6248399821356042e-001 -2.4616433455703962e-001
      4.2068599004987700e-001 -2.3717462260609631e-001
      -2.3731469717715109e-001 4.1284932464696583e-002
      6.4643111951651788e-002 1.4054159080993615e-002
      -7.2952018063766089e-001 -5.5871355794849011e-003
      1.1888281907098730e-001 -2.4720689113605163e-001
      5.4049421836679032e-002 -2.2232468948030125e-002
      1.8893685982470559e-001 4.8296532269398743e-002
      4.3971317791764714e-001 5.1000792051239446e-002
      -3.8004644136916271e-001 6.6339364839663267e-002
      1.2022871624118756e-002 -3.8187167147065298e-002
      2.8225520506604990e-001 -1.9518556974249879e-001
      2.6108716431379542e-001 3.8906560864986361e-001
      2.2277709859443789e-001 -6.2802586582426240e-002
      3.0313185891367661e-003 1.5895128533928399e-001
      -1.3058690217430105e-001 -1.6022028478519888e-002
      -9.8578873333827782e-002 5.8408862564362153e-002
      -2.9564316332479751e-001 -1.6448410951561167e-002
      -2.9799138470442654e-001 -1.2748497083742547e-001
      5.0924567132962939e-001 -2.6149184295531119e-002
      1.9569113097820012e-001 -2.1333906259426683e-001
      3.2592338975820714e-002 -5.3214299786482955e-001
      -2.3254719102649596e-001 -7.2900135748336994e-002
      -2.6439785436821622e-001 -6.4421014119007608e-002
      5.2598155165375797e-002 -6.6513840172582761e-001
      3.6415389971843787e-001 4.0979266546087550e-001
      5.4290408686086998e-002 -1.2119846552278345e-002
      -1.3622817709732496e-001 4.3781519646977997e-002
      -2.1154505015851216e-001 3.6198244502407662e-002
      -4.4352661476276339e-001 4.3399211309113916e-001
      5.3348568125305484e-001 -3.6648805841433235e-002
      1.0389200748649965e-001 -5.9217937715093164e-002
      3.8382084522219577e-002 -4.3553901652780164e-001
      -2.7545247948965140e-001 -3.1403474228867395e-001
      -3.0537675661986879e-001 -3.5954293564918409e-002
      -7.5016815867518641e-002 -1.0138223546686552e-002
      2.3941128889424884e-001 1.2289676535241333e-001
      -3.2119341627219480e-002 5.8310592369779500e-002
      3.8698207878760299e-001 1.6376066423275037e-001
      1.2412183911932222e-001 -5.9630586184999605e-002
      -9.5947279295756117e-003 3.7409006067105482e-001
      2.0189350376063273e-001 1.9401706343434943e-001
      4.0315857924971382e-001 -3.0937940247197537e-001
      3.7943463245536030e-001 1.3757129564792903e-001
      1.2860536244771350e-002 1.1491804501027461e-001
      -7.3633635291551247e-001 -7.5078060506334254e-002
      8.6385451938288341e-003 1.3606152126509108e-001
      1.1599266271575026e-001 1.7322179406832319e-001
