<?xml version="1.0"?>
<opencv_storage>
<my_nn type_id="opencv-ml-ann-mlp">
  <layer_sizes type_id="opencv-matrix">
    <rows>1</rows>
    <cols>4</cols>
    <dt>i</dt>
    <data>
      128 128 128 4</data></layer_sizes>
  <activation_function>SIGMOID_SYM</activation_function>
  <f_param1>6.6666666666666663e-001</f_param1>
  <f_param2>1.7159000000000000e+000</f_param2>
  <min_val>-9.4999999999999996e-001</min_val>
  <max_val>9.4999999999999996e-001</max_val>
  <min_val1>-9.7999999999999998e-001</min_val1>
  <max_val1>9.7999999999999998e-001</max_val1>
  <training_params>
    <train_method>RPROP</train_method>
    <dw0>1.0000000000000001e-001</dw0>
    <dw_plus>1.2000000000000000e+000</dw_plus>
    <dw_minus>5.0000000000000000e-001</dw_minus>
    <dw_min>1.1920928955078125e-007</dw_min>
    <dw_max>50.</dw_max>
    <term_criteria><epsilon>1.0000000000000000e-002</epsilon>
      <iterations>1000</iterations></term_criteria></training_params>
  <input_scale>
    3.8321533461890640e+003 3.4231661902462256e+000
    2.2029486633398215e+003 -4.5765431112514223e+000
    2.4202301199931899e+003 2.4265044968654750e+000
    2.4575798439153123e+003 -7.9432961346180369e+000
    4.9806250424718928e+004 3.5687018386126041e+001
    2.3370601224857368e+004 -4.4420965139721346e+001
    2.3977068556175473e+003 1.0761756605447887e+000
    2.4598558187058138e+003 -8.7823317434353712e+000
    3.7972256312294701e+002 -1.7872424801650917e+000
    4.6782242697884402e+002 -7.6356987283411275e+000
    2.5026992624119098e+003 -2.0304031037203391e+001
    5.9051767084308142e+002 -1.9464529072664337e+001
    9.4758132074647472e+002 8.6513818466305334e+000
    7.6425516601278900e+002 -1.8288005568873526e+001
    9.8274526339489705e+002 6.7923099082756480e+000
    6.1677575270191483e+002 -1.0587749979177378e+001
    3.2013142974803901e+002 -2.0570099534054287e+000
    1.9285611055431623e+003 -4.0566709414144022e+001
    4.7476374338199724e+002 -3.8805191290898526e+000
    2.2728542906735534e+003 -4.6448681258202448e+001
    1.3458983735579563e+003 -3.5519673102454901e+000
    1.4919504564465256e+004 -2.6619673748419461e+002
    6.4054227961710340e+003 8.6560574956321243e+000
    2.4872084679930026e+002 -3.7908435748806593e+000
    5.9862351029854572e+003 6.0881319546304038e+000
    2.4401628848115037e+004 -6.6077043261377810e+001
    3.4095805349251541e+003 -1.0437752919416257e+000
    1.1359740313565604e+004 -1.4717464312092398e+001
    4.3303084316542536e+003 -2.0538061618325836e+000
    3.4296755805638527e+003 -5.8899393154411239e+000
    5.7750740072293183e+003 -5.6366432244386324e+000
    1.7219232349150156e+004 -4.0308587430866957e+001
    6.0990003754570375e+002 6.5564778835356119e+000
    4.8443123122039251e+004 -1.0299090006767426e+003
    2.7153228167247457e+003 4.0712098988969196e+001
    9.8459465476799608e+002 -2.1141256366100524e+001
    5.9840155153676817e+004 -1.5320437762978236e+002
    6.9952658156102291e+002 -8.0034352798616233e+000
    7.4464818763474091e+002 1.4970984939527430e+000
    3.6765760313152504e+002 -1.1005666164696795e+001
    1.4524895000611437e+002 -1.8644892663083180e+001
    3.9336850712629797e+002 -9.9000949586900390e+001
    1.7961174528409984e+002 -4.6361084332935718e+000
    9.9577281276082729e+001 -2.1330627098210147e+001
    3.0379774088762525e+002 -4.6533219103569863e+000
    9.1907666223395154e+001 -1.5172195234854016e+001
    2.3401612963687830e+002 5.5482328623697894e+000
    1.1910153928611518e+002 -1.4051212665334715e+001
    5.8469021011761633e+001 -3.7853042584939049e+000
    2.0167953117956424e+003 -2.8918211870773854e+002
    1.4122540311528184e+002 -1.4942358815609975e+001
    2.6152594064807777e+003 -4.0069774556224547e+002
    9.1458173718617581e+002 -7.8015451119013655e+000
    1.8685469580955032e+002 -2.0809051928163719e+001
    6.3875264563842244e+001 -1.6526437258679421e+000
    8.5020977200347772e+001 -6.5396063389906205e+000
    9.1420076342198490e+002 5.9072176008081643e+000
    2.8439574522185026e+003 -5.0480670212315125e+001
    1.2328831960221346e+003 3.0029363008966925e-001
    4.5757338686041646e+002 -4.1187009802798746e+000
    1.7444449144169621e+003 -4.0794459568271986e+000
    1.2959851300038381e+003 -9.7935581052341902e+000
    2.8951053362101487e+002 -1.4397698828728867e+000
    4.4667216779609544e+003 -5.9148111170737181e+001
    2.3636852064649347e+003 2.9589326517943231e+001
    2.8406920467953842e+003 -6.8428460313344942e+001
    4.2320869481247619e+003 3.8974254526248991e+001
    6.5179608688697692e+002 -1.1003101935613893e+001
    5.0846127389756584e+003 -1.5225734847561084e+001
    8.6256759428367388e+002 -8.9620403102294670e+000
    1.0230409381464025e+003 -2.4256044681623426e-001
    3.6728748524425191e+002 -9.1934907439428315e+000
    3.5948784809263081e+001 -9.9942720920420536e-001
    9.2179086764639223e+001 -1.8764282093933328e+001
    1.1948280925557887e+002 -1.3908831613361256e+001
    1.3285253534677653e+002 -3.6516856779731484e+001
    4.9493167620726275e+001 1.2794426955445000e+000
    1.1313082163261109e+002 -1.7016728000984497e+001
    9.5795393221336999e+003 -2.3979315174819561e+002
    1.2947162201595029e+002 -1.5550841526733755e+001
    5.0738724788982005e+001 -6.1046501078149999e+000
    5.4637922176891131e+001 -9.5274126458277522e+000
    3.0081587882890051e+002 -2.0486058286024218e+001
    2.1889832683955501e+002 -2.9810495293981415e+001
    7.1640152925118912e+001 1.1425395361579196e-001
    7.7611235836157832e+001 -9.3196171761857496e+000
    1.0867942226135892e+004 2.0961850828449681e+002
    1.1265015228213373e+002 -6.4471278320122956e+000
    7.0957715834735495e+002 2.8409183633936683e+000
    6.0723056585836764e+002 -9.0689327166444098e+000
    2.1670029268637250e+003 9.7031990655832416e+000
    1.1911578242053988e+003 -1.4522014539169561e+001
    7.7797509511188014e+002 -9.6592452476636192e-001
    3.2280021783731678e+002 -2.4027214031777615e+000
    3.9689443183829130e+003 1.2434190567147517e+001
    1.4868218105784974e+003 -2.0425793698873882e+001
    1.0646140889548236e+004 8.8025404686568542e+000
    3.0810647552202745e+003 -7.7957780124362621e+000
    1.8689195532791357e+003 1.5422729868248870e+000
    3.3929646173109664e+004 -1.0045637894054960e+002
    2.5505805931703901e+004 8.6289285252988943e+000
    1.8947949744537120e+003 -3.6333917694905908e+000
    5.0524983155576110e+003 2.3069988111613271e-001
    6.1146462853063003e+003 -2.0335557116854698e+001
    1.3442579392415823e+003 -8.5297784351842090e+000
    1.1119322490250131e+003 -4.1456411923939633e+001
    3.0359124560167271e+002 -1.0120187650793411e+000
    1.1630400381274236e+004 -2.6667955633543465e+002
    3.5198184464640553e+002 -2.6283223712758992e+000
    1.0927179641657015e+003 -2.5609170861175166e+001
    8.1840810998116785e+002 -4.5303380194144269e+000
    8.7746228538273590e+003 -1.9150270901944123e+002
    3.7896801467954151e+002 -3.7905101804201489e+000
    3.9603961938596888e+002 -7.3590043958427236e+000
    4.5475115298029976e+002 -4.5849054925675414e+000
    4.9218743006759809e+002 -1.1140042198947455e+001
    1.2681818418303885e+003 4.9969324234047026e+000
    3.0068383487592200e+002 -5.5906808443966458e+000
    9.8529124375671586e+002 7.2975285633403715e+000
    2.4827175507212364e+003 -3.7192188657911863e+001
    1.3959411915886996e+004 -8.3919841651285871e+000
    3.0863840532974796e+003 -5.2689579619793392e+000
    2.5036845735641105e+003 1.4099562587818171e+000
    1.6194010229262931e+004 -3.8021161716992907e+001
    1.2781065714279071e+004 3.3961089244489493e+000
    2.4179953686169115e+003 -4.3782126824682033e+000
    7.6165778357670661e+003 1.0275970932647748e+001
    5.7623921502070516e+003 -1.3279541876273321e+001</input_scale>
  <output_scale>
    1. 1. 1. 0. 1. 0. 1. 0.</output_scale>
  <inv_output_scale>
    1. -1. 1. 0. 1. 0. 1. 0.</inv_output_scale>
  <weights>
    <_>
      5.2296007108884013e-001 -4.2305516681207925e-002
      3.6396384570763815e-002 2.7151522077354723e-001
      4.1288785837216999e-002 5.4884879649823592e-001
      -2.8401251747638440e-002 -1.5549464162325707e-002
      9.8472099931260682e-001 -3.8716928824903393e-002
      -2.1775826389750948e-002 -6.5080422671237659e-001
      -6.4535429498346830e-001 5.4466460709481357e-001
      -4.0902152275286735e-002 5.3204283963930055e-001
      -5.0868831821298061e-002 5.3075296225195057e-001
      -2.3415668758208680e-002 -5.3690867529670561e-001
      5.1166354311083490e-002 -9.6780851377479687e-003
      5.4192278049231568e-001 -3.1427208969914716e-002
      -2.5970185307987109e-001 2.4205427188949344e-001
      -5.1418875691429097e-002 -3.5785834326388377e-002
      -2.5931264455546671e-001 -5.3286553995677266e-001
      -3.7043485265265200e-002 -4.7946701095599689e-002
      4.4614520809957980e-002 2.6622801174783445e-001
      4.9665929774765805e-002 5.4066557078488875e-001
      5.4742776712312191e-001 -5.3213753228484584e-001
      -4.3339786375224371e-002 -2.4508095888842304e-001
      -5.3386010770502290e-001 2.5242764717917238e-001
      1.8635021725922230e-002 -4.2567568279486351e-002
      -2.4613442028976997e-002 5.0231522597077097e-002
      -5.2469495344087380e-001 9.9638337656059550e-001
      4.4802767032582458e-002 5.2509614476772037e-001
      2.5541069523561849e-001 -3.7144141551933726e-002
      -1.0018938268071196e+000 -2.4142687227208651e-001
      4.9192432668184904e-002 2.5440861859936731e-001
      2.4907564978704319e-001 4.9897068840506945e-002
      2.5359206196538842e-001 3.3861032013114190e-002
      3.9378844809277100e-002 2.6123919040823235e-001
      -2.5938454810139194e-001 -2.6645152530503075e-001
      -4.5711812416156072e-002 -2.4544821948761228e-001
      3.3566905562109797e-002 2.7373026762235710e-002
      5.4183407478983259e-001 2.4953945257988638e-001
      2.2991785112751750e-001 5.3296618499264703e-001
      2.9974538185120216e-002 -2.7199075405905809e-001
      2.5259010316414682e-001 5.4387046269805683e-001
      -2.4276235304262037e-001 -6.4428106590243550e-001
      4.4317102158540830e-002 6.3811998783802226e-001
      4.9634403349958514e-002 -5.1378735457430519e-002
      -5.3254122220702171e-001 4.3522502750852884e-002
      5.1536902082247024e-002 -8.1870233941671477e-002
      3.2433281811682549e-002 2.5902342166311040e-002
      -4.4153659063787473e-002 2.4479893208079159e-001
      9.3458101565095236e-002 -3.5635769101027698e-002
      3.7588146387624088e-002 -5.5082051257818043e-001
      -9.9918014021519641e-001 5.2655113047211777e-001
      3.3486954678087572e-002 2.6577208901011556e-001
      2.5493841317369142e-001 2.6782489414428851e-001
      -2.6685973430451898e-001 5.1971675616890423e-002
      -2.6360043140655931e-001 1.5018602754346261e-002
      -3.7685484926711824e-002 3.0499908814892878e-002
      4.3532043650484950e-002 -5.4352564925243174e-001
      -9.8471617593925120e-001 -3.1761858612915680e-002
      -2.2427289780331505e-001 -3.4485689851990783e-002
      -5.3737065843166187e-001 1.0016660826309653e+000
      5.4788540065815394e-001 2.6831308057332764e-001
      -5.5057522666791792e-001 -5.1363751716661077e-002
      4.8095060925266817e-002 -5.3843918806055679e-001
      9.8398814496319720e-001 -9.8156503201549850e-001
      -4.6521463657655304e-002 -3.4141905948057813e-002
      3.9636718363624243e-002 -1.9693802755886378e-002
      -2.5248856420594595e-001 -2.1095960515386028e-001
      -5.2498302991614509e-001 2.9275450032132746e-002
      -3.0433620226325366e-002 -2.4089503798508219e-001
      -3.9004153031745953e-002 -5.4130117877023098e-001
      2.7624837288431875e-002 1.9396620522084893e-002
      -1.0070820675075551e+000 3.3092961853488326e-002
      3.7693972818483412e-002 6.3527462688862379e-001
      6.3187710475536407e-001 -5.3286013848684521e-001
      5.2946530933134575e-002 -5.5163794252396947e-001
      3.1047077876180561e-002 -5.4154822005113734e-001
      2.3925848404599940e-002 5.3548460770219120e-001
      -4.6727787301699963e-002 -1.4698993439969055e-002
      -5.2566527952448183e-001 4.3029756535819946e-002
      2.5556189494677156e-001 -2.5103196693564694e-001
      4.7103805692854439e-002 3.8194048021245930e-002
      2.6963599814877087e-001 5.4032483492901251e-001
      4.9161593831297215e-002 5.1681306825510448e-002
      -2.4998632225021866e-002 -2.6023771856877381e-001
      -3.8698852406553769e-002 -5.3314125545490754e-001
      -5.4099825205849972e-001 5.4721624294423343e-001
      3.6426486952387177e-002 2.6430536294535295e-001
      5.4481240799526442e-001 -2.5092101237699344e-001
      -1.7399931340168182e-002 3.7679287644274376e-002
      5.1662925317994199e-002 -3.3476246712367458e-002
      5.4232611150344379e-001 -1.0027988308757538e+000
      -2.4526730245946132e-002 -5.2707938525743114e-001
      -2.4511095075685504e-001 3.2918817013728258e-002
      9.8439391782920971e-001 2.5270433959936406e-001
      -4.1134237269322652e-002 -2.5896596157393675e-001
      -2.4655795963881685e-001 -2.8952271157459710e-002
      -2.7103265634836765e-001 -2.8037033488489346e-002
      -4.4018056976329351e-002 -2.6288843614621554e-001
      2.5878902332844361e-001 2.4883131112747511e-001
      4.9671238259268446e-002 2.4884794103293381e-001
      -3.7925956006298112e-002 -3.8206565093468176e-002
      -5.4858795444902397e-001 -2.4515767723864554e-001
      -2.0695985995696903e-001 -5.4472613218776977e-001
      -2.9053133922044932e-002 2.6595250141866417e-001
      -2.4481714862274492e-001 -5.2887322250436708e-001
      2.6991004959796244e-001 6.3065648735686308e-001
      -3.5048715604276623e-002 -6.3863740490861687e-001
      -4.6918651851806825e-002 3.2466710828864487e-002
      5.3332047498056279e-001 -2.2941082968825965e-002
      -4.7894840038064684e-002 1.0947823750331007e-001
      -5.2700528629810256e-002 -5.2216037780092484e-002
      3.0403626570282529e-002 -2.7005723598039377e-001
      -1.0272201868246886e-001 3.4301416172219462e-002
      -5.1783624688150204e-002 5.4081414505926451e-001
      9.8248557126106695e-001 -5.4099675856194862e-001
      -2.1150515883747112e-002 -2.5294503601250290e-001
      -2.6265896454043319e-001 -2.7120802112827730e-001
      2.6760521044411029e-001 -3.1527105484282933e-002
      2.4942843792681904e-001 -1.1001393178780190e-003
      4.7784502518669392e-002 -4.9695941689762213e-002
      -1.7559429059608445e-002 5.4014509132106236e-001
      9.9399274701038665e-001 2.7476354337332528e-002
      2.2199154398963761e-001 2.7437651856867640e-002
      5.3273168035915963e-001 -1.0022881340139658e+000
      -5.4190907817420531e-001 -2.5404936135966355e-001
      5.2788337326631185e-001 5.0740036632297633e-002
      -2.5101921067536320e-002 5.3196755178933619e-001
      -9.8047705542156194e-001 1.0002884787356345e+000
      2.5883197176883848e-002 4.0718919366787024e-002
      -3.0630181633197511e-002 2.8352862053329278e-002
      2.4624158577048930e-001 1.8260059539152126e-001
      -5.2392014533350539e-001 4.5100243823199535e-002
      -4.4409269084535949e-002 -2.5409433985948343e-001
      -3.6122387666516639e-002 -5.4474053390094157e-001
      3.9235006501618069e-002 1.6027627840116618e-002
      -9.8538805727817569e-001 2.5499427145933614e-002
      2.6542056528476170e-002 6.5154188796827328e-001
      6.3928776351591654e-001 -5.4949309502870980e-001
      4.4547214642132224e-002 -5.3364055738993377e-001
      4.6441476229986220e-002 -5.4458326232676413e-001
      2.2250392931331759e-002 5.3931329276025142e-001
      -4.0033990756492027e-002 6.0254045012437668e-003
      -5.4907401300294989e-001 5.1430061842467539e-002
      2.5828818182678653e-001 -2.6205930733734634e-001
      2.6712994670785122e-002 3.1294216002263980e-002
      2.5043611677985173e-001 5.3512195507976446e-001
      3.2652784519567116e-002 4.1895689680429379e-002
      -4.8408413634486766e-002 -2.4765973861636767e-001
      -3.2877986619977928e-002 -5.3814223446552822e-001
      -5.3005633908082217e-001 5.3851961476770360e-001
      2.0556053721246664e-002 2.4497358331805755e-001
      5.2560579207394797e-001 -2.7019420814985512e-001
      -1.9814795923086551e-002 2.9958297026772090e-002
      3.4293409080873666e-002 -3.7622071844718524e-002
      5.2351251542793431e-001 -9.8781190139767616e-001
      -3.8908371085104060e-002 -5.2377127386764832e-001
      -2.5389448548521137e-001 3.2307076473762700e-002
      9.9954837523993068e-001 2.6763351031230381e-001
      -3.5373232009683189e-002 -2.4124921508423178e-001
      -2.5598139372184325e-001 -2.3924438912032078e-002
      -2.5967825260163274e-001 -2.6878538739375454e-002
      -3.0816146645470884e-002 -2.4147652437970110e-001
      2.4254351471991428e-001 2.7085835805259634e-001
      3.4578525127944307e-002 2.5734466585924648e-001
      -4.3568900869617677e-002 -4.7311047869516121e-002
      -5.2707455009015547e-001 -2.6736608347623175e-001
      -2.1001782311515524e-001 -5.2953200830690383e-001
      -4.9198210158430608e-002 2.4577948756907683e-001
      -2.4327833462844015e-001 -5.3453298836924290e-001
      2.6704929220936768e-001 6.3315139180147417e-001
      -3.7067600504980786e-002 -6.4503796420873283e-001
      -4.2388202971020819e-002 4.9236119881937934e-002
      5.2948641751737013e-001 -1.9243165691217562e-002
      -3.7507920761765609e-002 1.0257652603914283e-001
      -4.8223900545362366e-002 -3.0994555533566930e-002
      5.0970341195544333e-002 -2.4190647267183232e-001
      -8.1246845622482605e-002 2.5579641610971853e-002
      -3.0519603567668318e-002 5.2294002027476394e-001
      9.7663292204959495e-001 -5.2009644019245826e-001
      -2.6202958649489128e-002 -2.4325037347878173e-001
      -2.4060463904066806e-001 -2.6514656480759519e-001
      2.5166995899620831e-001 -5.0877508351100165e-002
      2.4531594291019318e-001 -2.6809411647595750e-002
      2.4782959848768989e-002 -4.0174824451623362e-002
      -3.3960051166156816e-002 5.3049788019682975e-001
      9.8929528690845026e-001 4.8880872388228122e-002
      2.2161430594864492e-001 3.1939793387237139e-002
      5.4443411710900036e-001 -9.8006592266672699e-001
      -5.3081974432003709e-001 -2.4179740847487788e-001
      5.3204824451218746e-001 2.4332410920185118e-002
      -3.1200138757908249e-002 5.2827611463771351e-001
      -9.9090187591864543e-001 9.7977893550107442e-001
      4.4937513141056998e-002 3.6287426490069802e-002
      -2.8747770502395225e-002 4.2538327927255024e-002
      2.6257066141472779e-001 2.0636336521668594e-001
      5.3011467989123873e-001 -4.3102717039075464e-002
      4.7543692520404912e-002 2.5298537636358553e-001
      4.8363456267358482e-002 5.2662898950221282e-001
      -3.9561981390578288e-002 -3.7184660036923639e-002
      9.7855176959140044e-001 -5.2102681853834348e-002
      -3.9451936368166726e-002 -6.5256613881507586e-001
      -6.5121367602897018e-001 5.3681081103693218e-001
      -5.0225152129063005e-002 5.2490113300306451e-001
      -4.5137455823140216e-002 5.3162180053808017e-001
      -2.1443545564427850e-002 -5.2507525465811367e-001
      2.5256381542501424e-002 8.7780120776210224e-003
      5.4980682122944347e-001 -4.8247226326950360e-002
      -2.5070219510741948e-001 2.6786829588256317e-001
      -2.7323456371576470e-002 -3.7532776776343035e-002
      -2.4132025106611774e-001 -5.4418913542148128e-001
      -4.6964979162247386e-002 -3.9819081809603224e-002
      2.6814837783494552e-002 2.6889504079031495e-001
      2.8405044032196482e-002 5.2848605576562857e-001
      5.2890810665311550e-001 -5.2681998591484636e-001
      -4.1053519114710918e-002 -2.5351733472041543e-001
      -5.4073949428397594e-001 2.5293309267889058e-001
      2.3892955867392738e-002 -4.7931728623699932e-002
      -2.5636983908592464e-002 2.8601863150207917e-002
      -5.3215418133598313e-001 9.8369224817285794e-001
      2.4472083535964303e-002 5.4130580690054231e-001
      2.4956128410100795e-001 -4.9757410610605873e-002
      -9.9884661381056095e-001 -2.6153945203404683e-001
      4.3805723491549028e-002 2.4379327939356452e-001
      2.5360337167879377e-001 3.4367079867008959e-002
      2.5797855233755967e-001 4.9438246125870403e-002
      5.3294949366187283e-002 2.5437506701176099e-001
      -2.6323613477011337e-001 -2.4549968507732331e-001
      -3.8610385528069238e-002 -2.5296454743512375e-001
      3.8873221841949926e-002 3.3501233115860549e-002
      5.2496115189499726e-001 2.4790856212109721e-001
      2.2171230421587679e-001 5.3839515676674432e-001
      3.3543100381627319e-002 -2.5964993591499613e-001
      2.6009747944471834e-001 5.4539127779303143e-001
      -2.5548028346492963e-001 -6.3154453478557915e-001
      3.1963388087895672e-002 6.4261628874822296e-001
      2.7932580933675174e-002 -2.8986479616711257e-002
      -5.2421630888060322e-001 4.0926980290794751e-002
      2.8947926713017057e-002 -9.6357713432962566e-002
      4.6056692642742952e-002 4.9638406102773203e-002
      -4.3184075299983235e-002 2.6048902875888541e-001
      1.0893046128362036e-001 -2.3792195574205321e-002
      4.3973398465048261e-002 -5.4872014585848350e-001
      -9.8663943243573138e-001 5.3769284084471580e-001
      1.5441246227367186e-002 2.6281714544129858e-001
      2.7019282367840775e-001 2.5073822099081366e-001
      -2.4893001544905660e-001 3.0968072878105959e-002
      -2.5859938726896597e-001 1.8850043044230106e-002
      -4.1481861870133946e-002 4.4494747243477337e-002
      4.4427619265355697e-002 -5.4488846971565208e-001
      -9.8709289024332370e-001 -4.8444896858443776e-002
      -2.3176838535075509e-001 -4.0831176140976796e-002
      -5.3332857536787137e-001 9.8047586773126927e-001
      5.1979714326683502e-001 2.5943425005435922e-001
      -5.3440325206761130e-001 -4.4871197462718310e-002
      4.1503281631962263e-002 -5.2146663914313618e-001
      1.0039704157954943e+000 -9.9489710108350882e-001
      -3.7117233921850762e-002 -4.9555807189892137e-002
      4.7048964307865870e-002 -1.6584192057951572e-002
      -2.4052478186713286e-001 -1.8170464342320378e-001
      -5.2773102473126599e-001 4.9538444528898593e-002
      -2.9881277401685776e-002 -2.7155997222649525e-001
      -2.8467264800365235e-002 -5.3192555953390730e-001
      1.7105397868073094e-002 1.7059239833008749e-002
      -9.8365166453848896e-001 3.9568400161577061e-002
      3.8283210397524581e-002 6.3631178581675818e-001
      6.3273395907296903e-001 -5.3986949733213585e-001
      3.4042575191759780e-002 -5.4366116319254865e-001
      2.6452592633963486e-002 -5.4567118675107296e-001
      9.3325795656028533e-003 5.3484178809951732e-001
      -4.2733391155852063e-002 1.2501172318157852e-002
      -5.2480163706791194e-001 2.6165368635446908e-002
      2.5156901118952019e-001 -2.6213890206506846e-001
      2.4591747925296083e-002 3.3980511792892909e-002
      2.5669587740814420e-001 5.2708846348859695e-001
      4.1509568709343483e-002 3.3220024446012686e-002
      -5.2151663341341428e-002 -2.6745656771792631e-001
      -3.0564217419833322e-002 -5.4229163130669089e-001
      -5.2413551806594760e-001 5.3583901810211321e-001
      2.0724301668739689e-002 2.5133047732283548e-001
      5.3848998447086571e-001 -2.5716568068073481e-001
      -1.8219460883223005e-002 5.3017917087205269e-002
      5.0098080246271229e-002 -4.3486745674413463e-002
      5.4681648989882270e-001 -9.7886740540078621e-001
      -4.2970959611412632e-002 -5.4714685959362175e-001
      -2.4167135853689267e-001 3.0756710387446869e-002
      9.8886873567984002e-001 2.5548724569305276e-001
      -5.1656838297323163e-002 -2.4683613365528242e-001
      -2.6889526619469334e-001 -5.1017998964621031e-002
      -2.4455116039960148e-001 -4.0512099337470672e-002
      -3.7878075968061864e-002 -2.6909169117633475e-001
      2.4290428154540841e-001 2.6628993061990275e-001
      4.2981984891697605e-002 2.6370848221888193e-001
      -3.6205569168487745e-002 -4.8211177938489114e-002
      -5.3432206859800402e-001 -2.5851586484070993e-001
      -2.1892939509808740e-001 -5.3034964283115704e-001
      -3.8988421575669840e-002 2.4900198173483232e-001
      -2.6099558767305858e-001 -5.2842569883766322e-001
      2.4166764621219658e-001 6.3109776582695254e-001
      -4.6942788717112049e-002 -6.3233386421832483e-001
      -5.1317914440533338e-002 2.6164997539800335e-002
      5.5233818534199042e-001 -4.1075736549051264e-002
      -2.4647064286459835e-002 1.0266493179530131e-001
      -4.3658252801780650e-002 -3.7864527756120134e-002
      5.3397045596611209e-002 -2.4340637535146778e-001
      -8.9931692976957828e-002 2.7526772273305893e-002
      -3.4441486502389304e-002 5.4224380551051354e-001
      9.9214478201516232e-001 -5.2682385330409176e-001
      -1.6094805154124911e-002 -2.4441121402533147e-001
      -2.6050982101027559e-001 -2.6131966018803127e-001
      2.6573295847305373e-001 -5.3249725510728291e-002
      2.4291437272631031e-001 -1.3767527324093951e-002
      4.5763824399060765e-002 -3.1182483400688975e-002
      -1.7036062413461256e-002 5.3714545824815485e-001
      9.9418149391171762e-001 4.7733255795241208e-002
      2.3471829716767550e-001 2.1045857184913544e-002
      5.3292709579202524e-001 -9.8230321999709458e-001
      -5.2623216338933831e-001 -2.5959291321835026e-001
      5.4065439084779410e-001 3.1277412661248394e-002
      -4.9071381320161658e-002 5.2298287409613708e-001
      -9.7940014292073518e-001 9.9337471129671362e-001
      3.1293246753962986e-002 2.5924207820546646e-002
      -4.6483198193085704e-002 3.7731020784446484e-002
      2.4938235171738163e-001 2.0783415592241625e-001
      -5.2270284701955472e-001 2.3918983165169976e-002
      -2.7778395369891195e-002 -2.4936099107549184e-001
      -4.9209155920532349e-002 -5.4114517704981768e-001
      4.3580406068867317e-002 4.3300484559379543e-002
      -1.0067279070011821e+000 4.3928613195649932e-002
      4.0525500965105862e-002 6.4576790247883287e-001
      6.4456012611664626e-001 -5.3053720132792892e-001
      2.6894548846904200e-002 -5.4530101097001271e-001
      3.3202735194288555e-002 -5.4623153180678552e-001
      2.7895848779245270e-002 5.2709003316293324e-001
      -2.7184261393146818e-002 7.4530756949411636e-003
      -5.2120602301294416e-001 2.5214495194960645e-002
      2.6502661051052417e-001 -2.6358291952737350e-001
      4.2803034765215589e-002 2.6847553403423218e-002
      2.5315271283549268e-001 5.2764798856058992e-001
      3.6268619366671695e-002 2.6198371152656646e-002
      -2.9983513823546786e-002 -2.4392104127932232e-001
      -3.7989308441254199e-002 -5.3702344435010241e-001
      -5.2498185708092682e-001 5.5045918451736986e-001
      1.4408484518628473e-002 2.4609629789426699e-001
      5.4366399152079403e-001 -2.4253507232069590e-001
      -1.3502010778291985e-002 2.8858716624859584e-002
      4.5400204798511784e-002 -2.5689433980014314e-002
      5.3063690461173074e-001 -9.8427407086516805e-001
      -4.8382370859754095e-002 -5.5235877863783711e-001
      -2.4616232132350455e-001 4.7000835484680467e-002
      9.7968676310293923e-001 2.6751336568061090e-001
      -3.1412560247372309e-002 -2.4586782535592691e-001
      -2.5077578495244052e-001 -2.6062152505189517e-002
      -2.5160756724507477e-001 -2.7300947693388127e-002
      -5.3959601956795888e-002 -2.5658398783737651e-001
      2.4057404163644777e-001 2.6990060336864580e-001
      4.0412158931492873e-002 2.6501493273090149e-001
      -3.6833635263341186e-002 -4.9575702581764539e-002
      -5.3872472825020612e-001 -2.4941927806833716e-001
      -2.3029271808162438e-001 -5.4953046404033934e-001
      -5.0540806228560914e-002 2.4012686055378327e-001
      -2.5838749827040913e-001 -5.4690989789626576e-001
      2.4124951951337162e-001 6.5329229122690913e-001
      -2.8072756888342289e-002 -6.5560281531772013e-001
      -3.6943120984817640e-002 4.9868621607697602e-002
      5.4722828000293833e-001 -2.2734752242237727e-002
      -3.6370620955126373e-002 9.4011049682434095e-002
      -5.3239106481795931e-002 -4.9062702190318525e-002
      2.4189151166246727e-002 -2.6149543838223005e-001
      -1.0526458518286944e-001 3.4199339631621570e-002
      -2.6678500670704926e-002 5.4364558903832871e-001
      9.9096127275776280e-001 -5.2167074811730596e-001
      -4.1910866593001736e-002 -2.7084459028767466e-001
      -2.6797935338271689e-001 -2.4199594358884177e-001
      2.4490392227400384e-001 -3.9945170700875651e-002
      2.4710864478475711e-001 -2.1169070764667747e-002
      2.7607939930090402e-002 -4.5138330573531643e-002
      -2.3564258150137282e-002 5.3688938451903201e-001
      9.8320475913368510e-001 5.0001624300926278e-002
      2.2678567111481734e-001 2.2672133214961754e-002
      5.2756172191026818e-001 -9.8519779068512559e-001
      -5.2093970845595616e-001 -2.5668798759266159e-001
      5.2687709772245206e-001 5.1912999015122197e-002
      -2.7284914139191093e-002 5.4956709048484986e-001
      -1.0060169859491417e+000 9.8529554753293891e-001
      4.6134185786136081e-002 4.0109310712082874e-002
      -4.3434999682781639e-002 4.2666264485582167e-002
      2.7118202414926812e-001 1.8651034514493472e-001
      -5.3427068543879164e-001 4.2802901543539412e-002
      -3.2207998406108510e-002 -2.5407333631586387e-001
      -4.0008894426876607e-002 -5.5172015305431654e-001
      3.1373552845827796e-002 1.8609265900352251e-002
      -9.8665881644142051e-001 3.8319962981138683e-002
      2.9053338802078481e-002 6.3051598938312159e-001
      6.2544301482308218e-001 -5.5023298512140906e-001
      2.2138052808563579e-002 -5.4812313471070073e-001
      4.4006528307949974e-002 -5.4562148364842100e-001
      1.2708793999252208e-002 5.2389535593691661e-001
      -4.5450676613810137e-002 9.3567864302591536e-003
      -5.2918303856521609e-001 2.7256233801383225e-002
      2.5171283879865453e-001 -2.6088078569397094e-001
      4.0914582977775629e-002 5.2053281657680417e-002
      2.5390609961569144e-001 5.4289607058313361e-001
      4.5325973904665376e-002 4.9302929942281790e-002
      -2.9079905318142443e-002 -2.5134262868767093e-001
      -3.4685676702218046e-002 -5.3635954934166408e-001
      -5.4709060514522945e-001 5.4342652314376527e-001
      2.1980506514359982e-002 2.6448907445502251e-001
      5.4298616806209643e-001 -2.5636684081397959e-001
      3.2258989602949283e-003 4.1333811568298101e-002
      5.0783880336790682e-002 -4.7016704411784890e-002
      5.3093380513915212e-001 -9.8338560992205692e-001
      -4.4420556633225097e-002 -5.4996372590249676e-001
      -2.4872248520268533e-001 4.9392045628350298e-002
      9.8713329070317346e-001 2.7072914702650586e-001
      -2.4053780045677538e-002 -2.4477225500917407e-001
      -2.6913277672918556e-001 -4.5776827161655195e-002
      -2.6736459134986029e-001 -4.1387834595360495e-002
      -4.3164477429164988e-002 -2.4213556919573218e-001
      2.5372256349498551e-001 2.5758099768276810e-001
      2.4484896220548388e-002 2.4208255647893820e-001
      -5.2137166246157926e-002 -4.0156492497666826e-002
      -5.3705543752512941e-001 -2.5917858912322861e-001
      -2.0575392996417341e-001 -5.4323615842342055e-001
      -2.8016891786086431e-002 2.4897050876567681e-001
      -2.5805275789885440e-001 -5.4140824796150178e-001
      2.5368364553496375e-001 6.5573084538168458e-001
      -4.1894674885649116e-002 -6.5161000434691396e-001
      -4.5261639731358522e-002 4.1107523802129328e-002
      5.3049127821259567e-001 -1.6333177288518408e-002
      -4.7872985880484192e-002 8.5146610702060727e-002
      -3.7548641409043945e-002 -3.7476808793151281e-002
      3.4017505985463423e-002 -2.6903568361185576e-001
      -1.0693848473478754e-001 4.3126491793093011e-002
      -4.5902998157548142e-002 5.5155329470242176e-001
      9.9002237463008658e-001 -5.4671128249288659e-001
      -3.8179386490690678e-002 -2.5109553122237843e-001
      -2.6060996986063650e-001 -2.4178836499159920e-001
      2.6707488132763307e-001 -3.7733565776004396e-002
      2.5667676260327060e-001 -6.3086845904050982e-003
      3.1444341028922879e-002 -2.4924799142247583e-002
      -3.2815855218955553e-002 5.3964917006040469e-001
      1.0012893704369787e+000 2.6397038362126046e-002
      2.3095427306362032e-001 1.9865190394706064e-002
      5.4586837388781162e-001 -9.8500743447631556e-001
      -5.3546392175550039e-001 -2.4121697466404399e-001
      5.3450040551007061e-001 3.9908098978233927e-002
      -2.7143495298101141e-002 5.4846318686859041e-001
      -1.0068712244154452e+000 1.0017485463290026e+000
      2.6957379042004261e-002 5.0584935035454470e-002
      -3.1535478182690480e-002 2.0961548864185331e-002
      2.5071165910280052e-001 2.0160682545877609e-001
      -5.3198483013316256e-001 2.8491638604622085e-002
      -3.3099570157764754e-002 -2.5083271550789837e-001
      -4.2975926215803886e-002 -5.2816840096936224e-001
      2.6863264478781707e-002 4.2951615387961828e-002
      -9.8568501335393677e-001 2.1860994399283070e-002
      2.8978086255094734e-002 6.3223907629075171e-001
      6.5053586783740369e-001 -5.4243507240280742e-001
      4.9874495006823311e-002 -5.3409452130609014e-001
      2.3019738437875133e-002 -5.2855153492895623e-001
      1.2298482726498531e-002 5.3015787521435398e-001
      -2.4506549531252305e-002 1.3994584992311238e-002
      -5.3644841214006467e-001 5.1282893171244764e-002
      2.5405973981178259e-001 -2.6235532277817403e-001
      3.0820607911399175e-002 5.3397308870749033e-002
      2.4486150475949528e-001 5.4479149131747262e-001
      2.4112114168940182e-002 4.9175134786197450e-002
      -3.3682791385560851e-002 -2.6195677412066570e-001
      -4.9901915524832974e-002 -5.4364068472650229e-001
      -5.2993308880609435e-001 5.2914176927455836e-001
      2.4164456864930239e-002 2.6199643447123427e-001
      5.2118307666083574e-001 -2.5327403652327968e-001
      -3.8160400460337980e-003 2.1717632124863658e-002
      3.4126150656175053e-002 -2.6437882764656192e-002
      5.3808643720314320e-001 -1.0034331272676498e+000
      -3.5728734037586238e-002 -5.3362870541104235e-001
      -2.4551674610102317e-001 3.1821289152321644e-002
      1.0015226224995386e+000 2.6569486955561011e-001
      -4.6642817316091351e-002 -2.4368923505536641e-001
      -2.6026350432783474e-001 -3.2853957375724066e-002
      -2.4823084959938721e-001 -3.8115395692248949e-002
      -4.7573399419308965e-002 -2.6847776203879464e-001
      2.7164654245248859e-001 2.6442270363494308e-001
      3.3660015434272925e-002 2.6884263600780134e-001
      -3.9317801743605996e-002 -2.7998606873733924e-002
      -5.3236433643181647e-001 -2.6026187102664006e-001
      -2.1978808693450214e-001 -5.4775261954965715e-001
      -5.1257977252330861e-002 2.6901790638651163e-001
      -2.6291246716823152e-001 -5.3324331477203768e-001
      2.4540542787413719e-001 6.3880767668758565e-001
      -2.9429854695449200e-002 -6.5169075544994992e-001
      -5.0569217806703842e-002 4.5338038162390862e-002
      5.3056312893709667e-001 -2.4071459833860179e-002
      -5.1753353708994740e-002 1.0187927264112850e-001
      -3.4720785483896108e-002 -2.8035608568861222e-002
      4.4384495394160631e-002 -2.6581549812981414e-001
      -8.3881276224745255e-002 2.3066346087024649e-002
      -3.6990214117824161e-002 5.2703093626827369e-001
      9.9249174578729893e-001 -5.3252870461098067e-001
      -4.3191692883053662e-002 -2.4128433543773439e-001
      -2.4109964244631701e-001 -2.4116863713002543e-001
      2.6403587747036511e-001 -3.2998209904260889e-002
      2.5789680133475917e-001 -9.0138337718829765e-003
      4.9634828881990958e-002 -2.6286652471909863e-002
      -3.4077605850140455e-002 5.2747173670820080e-001
      1.0026296729365831e+000 3.9096954784832466e-002
      2.2993078819854273e-001 3.9135399441774341e-002
      5.2481994592360171e-001 -1.0027274763959269e+000
      -5.3255959979185774e-001 -2.5907960227926280e-001
      5.4417989788103804e-001 3.5825052252088430e-002
      -4.6648443154552854e-002 5.2292625299226669e-001
      -9.8004802869321561e-001 9.9296910740787536e-001
      4.9550713337805488e-002 4.3060392412879789e-002
      -4.2630497366610828e-002 1.5064478431778411e-002
      2.5968080788475384e-001 2.0939942535954789e-001
      5.3402015070568221e-001 -4.6715451700907074e-002
      5.2396912188797259e-002 2.5535475414048753e-001
      4.8279252148232990e-002 5.4481260041251411e-001
      -3.4462417827988992e-002 -2.7792536677996221e-002
      9.9520730192676765e-001 -5.2894494943990053e-002
      -3.7430969829335442e-002 -6.4713416222089415e-001
      -6.3879731888543423e-001 5.3141898964063849e-001
      -2.7381997854966252e-002 5.4143056812024204e-001
      -4.3200388710419785e-002 5.2165603013619544e-001
      -9.7696271602844449e-003 -5.3820160279358942e-001
      5.2336442611736880e-002 -4.0643675095806409e-003
      5.3465333953460081e-001 -3.9991279156580808e-002
      -2.5410092913793586e-001 2.5476399945220957e-001
      -4.6338991971469845e-002 -2.2559803133285230e-002
      -2.4109209686418229e-001 -5.4527445425683962e-001
      -4.7235001906871119e-002 -4.5471584053885364e-002
      4.3357294299002549e-002 2.5294814152588668e-001
      4.5904665104857703e-002 5.4629693997563966e-001
      5.2136821018422241e-001 -5.4704141992611643e-001
      -2.1171903440771467e-002 -2.5130223157594495e-001
      -5.2843598225607391e-001 2.4561757293576261e-001
      7.9694848043144646e-003 -3.8382866382909137e-002
      -4.4899518486728143e-002 5.1098996460409232e-002
      -5.4612815750382149e-001 1.0005186924529548e+000
      3.9093720325992620e-002 5.3318599747669082e-001
      2.5761594299024099e-001 -4.7945828697920079e-002
      -9.8007798277293645e-001 -2.5812589476353459e-001
      2.9341968848479557e-002 2.5597935685478684e-001
      2.5869750185454216e-001 4.8279253212629117e-002
      2.4682662169332578e-001 5.1065961305494026e-002
      3.2590435080832911e-002 2.6893143557676585e-001
      -2.6872414639463077e-001 -2.4242765592502633e-001
      -3.4266446549333821e-002 -2.6321074649185588e-001
      2.1957759537295212e-002 4.5996538677093302e-002
      5.3167518853170670e-001 2.5903562645200479e-001
      2.1092181054828910e-001 5.2360208363734717e-001
      4.6496945810918788e-002 -2.5860000263034760e-001
      2.7005603033300968e-001 5.3556102621778257e-001
      -2.4340970677847715e-001 -6.3088436583134944e-001
      5.1371862775155513e-002 6.4138138358602215e-001
      2.3253985897142056e-002 -3.2634892956645359e-002
      -5.3104644314317873e-001 1.7835245981152090e-002
      3.8507721963421809e-002 -1.0396818952645195e-001
      3.6943079864233050e-002 2.9841681434336669e-002
      -4.4626951937999315e-002 2.5390106142938756e-001
      8.8091569578343659e-002 -5.2566040971127742e-002
      3.3574261163138719e-002 -5.3712384280363146e-001
      -9.9719694054551311e-001 5.4327626571668097e-001
      2.7215757474326294e-002 2.5327169752265483e-001
      2.6161340207492939e-001 2.4135645193733787e-001
      -2.4617770524037372e-001 4.9830748254683796e-002
      -2.6823532544756884e-001 -1.5230789461285858e-003
      -4.5655650615949867e-002 4.0853479381221650e-002
      4.3589139644976876e-002 -5.3151958504646468e-001
      -9.8903395326648491e-001 -3.8398004371061806e-002
      -2.1848461534966054e-001 -1.8134107016860745e-002
      -5.2810634928443512e-001 9.8381585498479041e-001
      5.3603011057115191e-001 2.4542470955979165e-001
      -5.4388192536476465e-001 -2.2083298231591938e-002
      4.4349772619372285e-002 -5.3258775310165984e-001
      1.0045650004192268e+000 -9.8996525352343256e-001
      -5.3858932354537550e-002 -2.6703211698517661e-002
      2.8936241016456598e-002 -4.0425747822047317e-002
      -2.4431379356921121e-001 -2.1078608373993199e-001
      5.4121118668080725e-001 -2.8150738998801546e-002
      4.6911323531089677e-002 2.6415306075524381e-001
      3.1018648689557612e-002 5.3689349457917135e-001
      -2.6866350150597865e-002 -2.5181690137572710e-002
      1.0075661517908991e+000 -5.2501960569117601e-002
      -4.3964451760594381e-002 -6.2906780172839893e-001
      -6.5029057035952476e-001 5.4395899809684034e-001
      -4.0866474209136111e-002 5.3545215986004335e-001
      -4.5672719877248344e-002 5.4915611329370184e-001
      -1.5421827966639535e-002 -5.2109299531739195e-001
      2.4302473938353660e-002 -7.5386607893788010e-003
      5.2330343283540459e-001 -3.5543924335566107e-002
      -2.6182533489977972e-001 2.5873772479904550e-001
      -3.8611295702841122e-002 -4.9028065314423622e-002
      -2.6847618799955808e-001 -5.5097239744366400e-001
      -4.3257211354519237e-002 -3.6243334861006615e-002
      3.6026133068780580e-002 2.5677201695171897e-001
      2.3558292052389459e-002 5.3716426457152733e-001
      5.3779637813077996e-001 -5.4258746996456619e-001
      -3.0575120660604749e-002 -2.5124517671512375e-001
      -5.3630135040545024e-001 2.6339425262273702e-001
      2.7561188218063543e-002 -3.1995933898891771e-002
      -4.8733996752560377e-002 2.8370212689011753e-002
      -5.2381609954569719e-001 1.0025069632912262e+000
      3.3499190052157721e-002 5.3046102895165059e-001
      2.6100527822040992e-001 -4.4636008620092454e-002
      -9.7779882314398592e-001 -2.5438857134237097e-001
      2.7147488258882604e-002 2.6323519326024702e-001
      2.4910519220497604e-001 3.0806011128396451e-002
      2.4806998865146138e-001 5.0342093454792666e-002
      3.1541569151600266e-002 2.5336785766576858e-001
      -2.4191828284008152e-001 -2.5915649824559384e-001
      -4.9212202275613681e-002 -2.6183352150297617e-001
      2.3908974900253132e-002 5.0305326908834755e-002
      5.3157922330848140e-001 2.7121763237936330e-001
      2.1776917292408898e-001 5.3176055237160902e-001
      3.7989006575274972e-002 -2.4955586068815980e-001
      2.6144804607393468e-001 5.2296364566036457e-001
      -2.4276389824344699e-001 -6.4272981638395166e-001
      3.3055108849538287e-002 6.5178990635425138e-001
      5.1245076382910398e-002 -2.3716516204912840e-002
      -5.2317533487738099e-001 2.5012448699082659e-002
      2.8999375104243132e-002 -1.0305565259135455e-001
      3.4855768193313791e-002 5.2415668702584961e-002
      -5.1679392467090121e-002 2.5402356064145820e-001
      9.8701128306221991e-002 -2.3076122226918138e-002
      4.3577742168056446e-002 -5.4218982902661816e-001
      -1.0076416584980903e+000 5.2737126633719533e-001
      3.1425614933859994e-002 2.6435389555127548e-001
      2.4841225026556971e-001 2.5964937647220304e-001
      -2.5893746294258341e-001 2.2262957023441093e-002
      -2.6288518625326557e-001 7.2398311636054681e-003
      -4.5802255978897310e-002 4.9503240678483745e-002
      4.0646786551500141e-002 -5.4880060492154392e-001
      -9.7733131031705811e-001 -4.4952494585816932e-002
      -2.3458415219816015e-001 -3.0156849419644791e-002
      -5.4671926297212914e-001 9.9772684103703202e-001
      5.3705941912714805e-001 2.6142859440128491e-001
      -5.2756900983079902e-001 -3.1759121333989920e-002
      4.1167088868121607e-002 -5.3572341339691276e-001
      9.9124678079108397e-001 -9.8666238682102470e-001
      -3.9870804800167969e-002 -3.8496374637007252e-002
      2.5006214622517228e-002 -1.8246475816401014e-002
      -2.5283876848952319e-001 -1.9195925116448828e-001
      5.4046187548592006e-001 -2.2268799787382328e-002
      4.8522134482201607e-002 2.5509053728503389e-001
      3.1548169758257666e-002 5.4857670376612211e-001
      -1.7494268899588883e-002 -3.9657891010180080e-002
      9.8697165502353390e-001 -3.6829871765222413e-002
      -4.0351493168519229e-002 -6.2638562700072187e-001
      -6.3767819497787537e-001 5.2532666447628706e-001
      -2.0177966497133295e-002 5.2822715821251831e-001
      -2.5928481810430750e-002 5.2697602623685902e-001
      -2.2777818820126684e-002 -5.3879586559123238e-001
      4.5196308761693949e-002 -7.8524022048065967e-003
      5.5215661662447402e-001 -4.5737398614920571e-002
      -2.5259210527840276e-001 2.4512374602143547e-001
      -3.0157011122512508e-002 -4.4169322448583376e-002
      -2.4585946503048847e-001 -5.4557704200834811e-001
      -5.1061117485914576e-002 -2.8046141370034496e-002
      3.7467990384504393e-002 2.6728401443614264e-001
      3.1761827076474292e-002 5.4339382054557062e-001
      5.4769117524004984e-001 -5.2541395235036215e-001
      -3.1892137728675163e-002 -2.6845989173265977e-001
      -5.5188865192234116e-001 2.7009331893799843e-001
      2.1777311454716803e-002 -3.3369205856245948e-002
      -4.1233227844985051e-002 2.9806740728043939e-002
      -5.5237788875417493e-001 9.9827752072520937e-001
      4.7312376180100701e-002 5.3219108226168754e-001
      2.4444402440076837e-001 -3.8938459653473964e-002
      -9.8779414264786136e-001 -2.5254053981696140e-001
      4.7573900384564397e-002 2.5184122942083936e-001
      2.5233210862884231e-001 2.4571388204534635e-002
      2.5042551743632496e-001 2.4417151935923930e-002
      2.5569369639348551e-002 2.6947184896585558e-001
      -2.6065674895533386e-001 -2.5955149459466859e-001
      -3.3728194991396995e-002 -2.5664187756749052e-001
      2.8086591462339310e-002 4.8272079109084404e-002
      5.5285055527591809e-001 2.6072250327437746e-001
      2.2858731400444643e-001 5.2597585045322626e-001
      2.7222566635941244e-002 -2.7139359422994341e-001
      2.6574971496573935e-001 5.4433175872654316e-001
      -2.5849809883071173e-001 -6.4854237351821364e-001
      5.2259687248187248e-002 6.4093014384225910e-001
      3.9332378258556330e-002 -3.6800683074805482e-002
      -5.4954355481615724e-001 3.5029631089116567e-002
      4.4843562569671355e-002 -9.6311957311521174e-002
      2.7061007807995138e-002 4.2122593910829106e-002
      -4.5682179983876886e-002 2.5324823328237278e-001
      8.7677587550403335e-002 -4.5093815568461579e-002
      3.3369048196155743e-002 -5.4974240063135749e-001
      -9.8443416862293642e-001 5.3731143622413169e-001
      3.4734112230736192e-002 2.5608574396484829e-001
      2.6001287269134904e-001 2.6069039652107090e-001
      -2.4927517891350012e-001 2.7995984017607497e-002
      -2.5296542211489298e-001 1.7494133498696111e-002
      -4.3651490793590625e-002 4.6195065474449390e-002
      1.9976625299763046e-002 -5.3179992139299603e-001
      -1.0003952588998060e+000 -3.9759237250676177e-002
      -2.1386902058100404e-001 -3.2667463961737420e-002
      -5.3207693904193532e-001 9.8389347352797019e-001
      5.3796348385548676e-001 2.5858258920764582e-001
      -5.2915632619732211e-001 -4.0087604549535347e-002
      4.9041784797310028e-002 -5.4741557749172232e-001
      9.9876803310726869e-001 -9.8009225210745587e-001
      -3.1870611890609066e-002 -4.5656005947048772e-002
      4.7183670063183067e-002 -3.8232817129880151e-002
      -2.6724946064897254e-001 -2.0684571255399589e-001
      -5.5001437658984587e-001 2.6942674449560899e-002
      -4.7951011022093898e-002 -2.5618247113915277e-001
      -2.2785293692593991e-002 -5.3298823692570751e-001
      3.4952945078075379e-002 2.8629852631615271e-002
      -9.8506481705897830e-001 5.3122500467778277e-002
      2.2014125493817285e-002 6.4872531084501539e-001
      6.3511695900429854e-001 -5.2410599964097571e-001
      2.4268238888351928e-002 -5.3973916469338779e-001
      5.1272992800528508e-002 -5.4108205481860905e-001
      2.7289716720047656e-002 5.3008528172987557e-001
      -3.0467731287108484e-002 8.4134115119850472e-003
      -5.2286271492343495e-001 2.4015578423814282e-002
      2.5015652391395737e-001 -2.6096443236067285e-001
      2.6151606656865774e-002 4.8008319059842167e-002
      2.5050488007706923e-001 5.4097735324814789e-001
      3.7576165110503670e-002 4.2865462145054822e-002
      -2.4742526438260564e-002 -2.4845515009523575e-001
      -2.5171995453963671e-002 -5.2939913956738638e-001
      -5.3375556214862019e-001 5.3607071520108629e-001
      3.1354006913426463e-002 2.6168244168327592e-001
      5.4779136298569242e-001 -2.6942638010680869e-001
      -2.5926213450714972e-002 2.8570318023074453e-002
      3.3324681751077542e-002 -5.1581292506141213e-002
      5.2825461551767272e-001 -9.8856137616805595e-001
      -4.4888105478819648e-002 -5.2848821026110604e-001
      -2.4155540319683685e-001 4.1315122351832059e-002
      9.8971377171551034e-001 2.4984153822636476e-001
      -2.4566193204503716e-002 -2.6402393716960165e-001
      -2.4188845779188436e-001 -4.0976661808898293e-002
      -2.4642804004451166e-001 -5.0045089055342537e-002
      -3.0065597408644933e-002 -2.6159422717406461e-001
      2.7171255242711934e-001 2.5196911392673688e-001
      2.4146308754529135e-002 2.6067723169381868e-001
      -3.1455424204893459e-002 -4.2816203810006948e-002
      -5.5315955088111879e-001 -2.6693288003283056e-001
      -2.1443833338037638e-001 -5.2612428172270620e-001
      -4.7936404874419553e-002 2.5471040705376324e-001
      -2.5733927624345093e-001 -5.3919645698739349e-001
      2.4165419486154069e-001 6.4904228297540190e-001
      -4.6264911530089159e-002 -6.5391622656403048e-001
      -3.2597094522620995e-002 4.0567566459834573e-002
      5.3901434093056078e-001 -2.1005049849265919e-002
      -3.2182852723583705e-002 1.0928897481118149e-001
      -2.9095236656238057e-002 -2.7881800751349339e-002
      2.7718033306971170e-002 -2.6615099534805498e-001
      -8.0168198254665340e-002 3.9688303139034167e-002
      -4.2936835159966907e-002 5.3858817038690021e-001
      9.9306663539276174e-001 -5.4904174705699005e-001
      -3.7147761141370722e-002 -2.4943302303923273e-001
      -2.5479257216911871e-001 -2.7049932669302307e-001
      2.6936760131787757e-001 -3.9835246669453539e-002
      2.6368281286994039e-001 -1.3078926239758721e-002
      3.5865040232257395e-002 -2.6147269260692284e-002
      -3.1468446308198034e-002 5.4261443475830751e-001
      9.9480482709217266e-001 3.3421805199534999e-002
      2.2535041330048919e-001 1.6282022318703571e-002
      5.3991022194537330e-001 -9.8235023385925624e-001
      -5.2074092449028808e-001 -2.7191829806740281e-001
      5.2453330236622819e-001 3.4105288930344396e-002
      -3.1498518050889907e-002 5.5236157755477755e-001
      -9.8239695891391998e-001 9.7825840896873184e-001
      4.3771323021740915e-002 3.1183595476006642e-002
      -2.5271093307560718e-002 3.1849962642367655e-002
      2.4784523526962340e-001 1.9046875707797820e-001
      5.4148460612837879e-001 -2.4090819902506815e-002
      2.8234277211572550e-002 2.4454261549972520e-001
      3.2279638329989105e-002 5.3347867856267206e-001
      -3.7178534266847196e-002 -2.1297193897911210e-002
      9.8275377582379297e-001 -2.9534785181587486e-002
      -4.3475122086802306e-002 -6.5066700573326575e-001
      -6.2901947324848306e-001 5.4089432886615729e-001
      -2.6468510031974531e-002 5.3082154231905199e-001
      -4.7552816741862222e-002 5.4988962251865703e-001
      1.1792913498649936e-003 -5.3920447600497112e-001
      2.7964824694066883e-002 1.5518773059891022e-002
      5.3298827228158419e-001 -2.3029897631435519e-002
      -2.5417421023171521e-001 2.4408162455978652e-001
      -2.8335815731862373e-002 -4.1009044383565299e-002
      -2.6128439918853125e-001 -5.4064650579942719e-001
      -3.6392489140415124e-002 -4.8312746079822111e-002
      2.3195008716523840e-002 2.4093581993229349e-001
      4.3469066741850887e-002 5.2482180338029438e-001
      5.4191391954989399e-001 -5.3264781135201700e-001
      -3.4015357850691652e-002 -2.6946958140263344e-001
      -5.5015220010966936e-001 2.7216389913622169e-001
      7.9361245969171330e-003 -3.5999177745913352e-002
      -3.0956348661920579e-002 4.8905349904512507e-002
      -5.4054676385006395e-001 9.9163861424766475e-001
      4.2860978707328606e-002 5.3262435745679748e-001
      2.4242360941459071e-001 -4.9795145574044145e-002
      -1.0061281241532447e+000 -2.5728641673395020e-001
      2.9955955899853486e-002 2.4032501235354650e-001
      2.4779713140050616e-001 4.8370336933419800e-002
      2.5925437232772391e-001 2.8533879353546131e-002
      4.8125452825490272e-002 2.5738859161736044e-001
      -2.5767265189017424e-001 -2.5129330780976661e-001
      -4.7803971673367682e-002 -2.5266177381435767e-001
      5.3670115253924844e-002 2.8610085844565102e-002
      5.5267592903269025e-001 2.6338417926082630e-001
      2.0964803953979722e-001 5.4762076154459571e-001
      4.6001442828862482e-002 -2.6781045099692852e-001
      2.5592345690437573e-001 5.4094700494021464e-001
      -2.4831916573430310e-001 -6.2888227521044826e-001
      2.6120024301330282e-002 6.3267575680784316e-001
      4.4076396651065219e-002 -4.9771853816062958e-002
      -5.4594565579972631e-001 3.5018292759818256e-002
      3.9944259558549383e-002 -9.1553807189557551e-002
      3.0529199798424927e-002 5.1353331378249295e-002
      -4.4493040966653880e-002 2.5599982908207936e-001
      9.0656564484167729e-002 -5.0341302566631815e-002
      2.6019267026254091e-002 -5.3244039010210742e-001
      -9.8156855178899827e-001 5.4548497094327242e-001
      2.2508267477167457e-002 2.5538236887737137e-001
      2.4588988974936768e-001 2.4297764623221837e-001
      -2.4537802817317986e-001 4.2197330964944171e-002
      -2.6087597696337855e-001 2.0401492869106589e-002
      -5.1662692919887940e-002 4.8775981388821679e-002
      4.5082838646671244e-002 -5.3860588903027562e-001
      -9.9006778199035106e-001 -3.7781480273336832e-002
      -2.0659947583056409e-001 -1.6840281791474135e-002
      -5.2713045671334391e-001 9.8384636362060773e-001
      5.2239249436047253e-001 2.4796383559328880e-001
      -5.2181347908267661e-001 -2.5195660940976011e-002
      2.5640654220074426e-002 -5.2450959190806290e-001
      9.9314544231537216e-001 -9.9420621547660415e-001
      -4.5362554753541062e-002 -3.0227142230573389e-002
      4.5279319373728255e-002 -1.8185178905838345e-002
      -2.4589632907351908e-001 -1.8680983552893102e-001
      -5.3567477467927782e-001 2.5605814392138476e-002
      -3.7449312020563730e-002 -2.6699229384114836e-001
      -4.1423341431530175e-002 -5.2440351569874288e-001
      4.4812890178284770e-002 3.5774876563908514e-002
      -9.9741572941968770e-001 2.9413783454494729e-002
      5.1930991375223265e-002 6.3925207792365557e-001
      6.4322816570897878e-001 -5.2216517216800529e-001
      2.8774609735058212e-002 -5.3164746398442153e-001
      4.6861824749271475e-002 -5.3651343462308743e-001
      2.6449483931731608e-002 5.4126727214611792e-001
      -4.1741238703704220e-002 -1.3011014546574440e-002
      -5.4522915134792815e-001 2.4698101641153072e-002
      2.4012421086395327e-001 -2.4653975779415335e-001
      3.6991174190901588e-002 4.8883862601775865e-002
      2.5574539798279233e-001 5.3357985288340659e-001
      3.9085968277699404e-002 4.4126308345099979e-002
      -3.3167376017830555e-002 -2.5397952046813438e-001
      -4.3352002080935606e-002 -5.2566950663603840e-001
      -5.3998570503050480e-001 5.3041457876269404e-001
      2.0952427766448456e-002 2.5448475241391905e-001
      5.2039828502946739e-001 -2.4568654583458358e-001
      -6.9108374066122920e-003 3.7167344224271662e-002
      2.5172384099472530e-002 -4.2318416810837423e-002
      5.2405355864609082e-001 -9.9237527691828309e-001
      -4.4146516836422262e-002 -5.3178787004143080e-001
      -2.6199929671991834e-001 4.8211734612056120e-002
      1.0074435854619637e+000 2.6552377582790582e-001
      -3.9629962038711844e-002 -2.4875921026248024e-001
      -2.4426522818780347e-001 -3.3111352780593462e-002
      -2.4908394047273050e-001 -4.6724131517552961e-002
      -4.5847302661589873e-002 -2.6985095812468857e-001
      2.4928627280289714e-001 2.6212374591777449e-001
      4.4853990887911407e-002 2.4251733120532368e-001
      -3.9452050932908891e-002 -3.2639840852804150e-002
      -5.3873541638193367e-001 -2.5368411920688522e-001
      -2.3166656523350548e-001 -5.4461262824251566e-001
      -2.6912014279447057e-002 2.5929086054700817e-001
      -2.4086121717119610e-001 -5.3063565067282392e-001
      2.5796296295492149e-001 6.4359994407921450e-001
      -4.8126025184468305e-002 -6.3406156413948178e-001
      -4.5971166924437812e-002 5.2550703396387871e-002
      5.2519034379915230e-001 -1.8208075136949636e-002
      -4.8377939570650522e-002 8.6115248948294920e-002
      -3.1138486672199383e-002 -3.1944085848391354e-002
      3.0967813099866775e-002 -2.4707593489841809e-001
      -1.0963763960346071e-001 2.4458819290574942e-002
      -2.4706020188833538e-002 5.4335042710139791e-001
      1.0094219205813375e+000 -5.2136355687114555e-001
      -4.5326295961069157e-002 -2.4513972867079678e-001
      -2.5145359754126279e-001 -2.4374228752277785e-001
      2.4987124214193837e-001 -5.0702817757877300e-002
      2.6993192336506239e-001 -2.1546829147303038e-002
      3.4856309943008409e-002 -4.4526259724185765e-002
      -3.3232432025546349e-002 5.4434269829340209e-001
      1.0039426991233196e+000 4.5655402781071455e-002
      2.0787203122029374e-001 4.2617486807489516e-002
      5.3893408181429636e-001 -1.0045670610935606e+000
      -5.3471323679701066e-001 -2.7270770142615813e-001
      5.2650076318888195e-001 2.5526238436340411e-002
      -4.6887217565766359e-002 5.2916839912906355e-001
      -1.0015785499374295e+000 9.8103947622447962e-001
      5.2915470250015209e-002 2.5124486415431298e-002
      -2.7743385401268066e-002 2.8898787073251733e-002
      2.5331209640158120e-001 1.9438151911714821e-001
      -5.4133375511131065e-001 4.6212872737654370e-002
      -3.9291754031975115e-002 -2.6614350469510611e-001
      -4.8212266502228818e-002 -5.4112872627414965e-001
      3.7749571599663564e-002 2.5467933379216323e-002
      -9.9261736069447082e-001 2.8512121016683403e-002
      2.9259429078419216e-002 6.5016146248801499e-001
      6.4472698890860791e-001 -5.5047510621602669e-001
      3.6150711644717684e-002 -5.4901805240005297e-001
      5.2094033350172320e-002 -5.4147807873681508e-001
      -7.5350195261856753e-004 5.4959062773621470e-001
      -3.8281930080793322e-002 1.2468286399598516e-002
      -5.3504034146038260e-001 3.1455853672857026e-002
      2.5660899097035156e-001 -2.5924419051936887e-001
      5.2813338035447327e-002 4.6874046746498796e-002
      2.5670220785192638e-001 5.3415365992489250e-001
      4.3048760308857376e-002 2.9377849075485209e-002
      -5.0893157738476830e-002 -2.4883921360523195e-001
      -2.8947155287665626e-002 -5.3416968474017212e-001
      -5.4260047704404957e-001 5.3613249608790403e-001
      2.3773954309768058e-002 2.5901987034785062e-001
      5.3640945434893528e-001 -2.4081362419753774e-001
      -2.8549987035348254e-002 3.0364561779575857e-002
      3.9643540683252113e-002 -2.6225935013639328e-002
      5.3839001123893537e-001 -1.0066616955067054e+000
      -4.8332628060968247e-002 -5.2325487655878111e-001
      -2.4115857182741771e-001 4.2207110316284199e-002
      9.9742360558069143e-001 2.6491960725596175e-001
      -2.8190799332193508e-002 -2.6017707905271176e-001
      -2.4154504776985505e-001 -4.5584548736218311e-002
      -2.5677140970101292e-001 -4.0436579798230191e-002
      -2.8983815891665373e-002 -2.6426183481131199e-001
      2.6939054328321993e-001 2.5300993833363106e-001
      5.1876268926730085e-002 2.5482596649023115e-001
      -3.9939440450668190e-002 -3.4915692980970012e-002
      -5.5013471711173034e-001 -2.4692141380588392e-001
      -2.0570236714997098e-001 -5.3245346956979966e-001
      -3.0013395349494192e-002 2.4232879040739527e-001
      -2.5293504903864378e-001 -5.5070979876050807e-001
      2.5779186055800934e-001 6.2872121974720652e-001
      -5.2154275281647122e-002 -6.4355994848908848e-001
      -3.1245467083649999e-002 4.0841954541753864e-002
      5.4781389869806307e-001 -3.2431205877256120e-002
      -3.7299889369927522e-002 1.0921472432061632e-001
      -4.9505924022209158e-002 -3.3001157365460720e-002
      3.4602158742254391e-002 -2.4326592609343031e-001
      -8.3005260264155861e-002 4.6815340270524600e-002
      -2.5298070398928948e-002 5.3885351672088633e-001
      1.0047147247102557e+000 -5.3646425530271336e-001
      -1.4684998246656297e-002 -2.7018302012142198e-001
      -2.5085277898888342e-001 -2.5693737471549671e-001
      2.4570201542135070e-001 -5.3481096929103425e-002
      2.4581324053668416e-001 -2.5827475994811225e-002
      3.6105939392446759e-002 -4.4782550172516228e-002
      -3.8170198629520216e-002 5.2785904426590202e-001
      9.8377693821197543e-001 5.1200066266682207e-002
      2.0705020497305104e-001 3.9468616095133441e-002
      5.4616924162636893e-001 -9.9248044487327847e-001
      -5.2583898855709610e-001 -2.6322921096416757e-001
      5.4787551970260340e-001 3.2512684017468874e-002
      -4.6190726560988715e-002 5.3564857671423083e-001
      -1.0028195805668374e+000 1.0022983965949535e+000
      4.7108319330454465e-002 3.3340072108217586e-002
      -5.0510216605848493e-002 2.4483566146758923e-002
      2.4198007056692170e-001 1.8249167784727868e-001
      -5.2900041191970570e-001 5.2475050977960708e-002
      -2.6908563637828242e-002 -2.4950874455911895e-001
      -5.2021330317555736e-002 -5.2426359778658949e-001
      4.1494054002085556e-002 4.2082501305573491e-002
      -9.9817020168822668e-001 2.6110279522175022e-002
      3.9014627867600959e-002 6.4114874707227509e-001
      6.4516095368789739e-001 -5.3328890092418002e-001
      3.8553355974090667e-002 -5.3663886446911080e-001
      3.7851971841203438e-002 -5.4077238205004319e-001
      1.4557469542010652e-002 5.4274282100772941e-001
      -4.5265882953208950e-002 8.2039041481884317e-003
      -5.5118192755978335e-001 2.8450435775411464e-002
      2.6330854720378344e-001 -2.4900968609599003e-001
      3.8953303802572295e-002 3.7648458741650306e-002
      2.6671683827280451e-001 5.3294581956221698e-001
      4.3505843598842187e-002 2.7084551145927001e-002
      -4.7307357501681274e-002 -2.6100284824531333e-001
      -2.4820503265038370e-002 -5.5280053312347965e-001
      -5.2818613430679517e-001 5.3507235667335051e-001
      2.2713036460396477e-002 2.6775363870025121e-001
      5.4701193333292220e-001 -2.6785229101679592e-001
      -9.9511285344945979e-004 4.6314552702436992e-002
      4.0072195694864199e-002 -4.7228366432445823e-002
      5.4854018045578845e-001 -9.8853684123328334e-001
      -3.5589357655673420e-002 -5.2762272651331588e-001
      -2.6125760564937145e-001 3.0178453593961093e-002
      1.0056860672107495e+000 2.6852102368231195e-001
      -5.0866579737410447e-002 -2.4684821642417640e-001
      -2.5118715873965886e-001 -4.0895283572226548e-002
      -2.6128571660298056e-001 -3.9419582149360519e-002
      -3.1946257455004665e-002 -2.6831570607583044e-001
      2.6613482856736748e-001 2.4708292234564863e-001
      2.4321357499965054e-002 2.6566193188543757e-001
      -2.6233212844671210e-002 -4.9877127848853689e-002
      -5.3082690065345728e-001 -2.4090282912752356e-001
      -2.2832316337130582e-001 -5.3415123295868561e-001
      -3.5351373653562473e-002 2.4414964547737003e-001
      -2.4488645507527293e-001 -5.3132332119496184e-001
      2.4602202294796968e-001 6.3791079103009662e-001
      -4.0352699421001892e-002 -6.3032998466319323e-001
      -3.6275080165339937e-002 4.1170743526779796e-002
      5.4985472181099626e-001 -2.0413353697259759e-002
      -4.8560748350476107e-002 8.7703913213887874e-002
      -4.4151510783233677e-002 -4.3669699328709635e-002
      5.2821475071824803e-002 -2.6364092246286958e-001
      -9.3553101616129702e-002 3.2071833121243190e-002
      -4.6024983522941487e-002 5.2660014504979080e-001
      9.9358130847398174e-001 -5.4233857799100982e-001
      -1.5163231468893923e-002 -2.6502609929516258e-001
      -2.4877112037471968e-001 -2.6336358693775103e-001
      2.4399914041041890e-001 -3.8066164146866990e-002
      2.4143479166394330e-001 -4.8701962993122107e-003
      3.1659929553380886e-002 -4.6568104348119657e-002
      -3.9359192453583394e-002 5.3776157726165064e-001
      9.9727219985622273e-001 4.4709230131540281e-002
      2.1486160579730562e-001 3.0877615611368300e-002
      5.3212486297584127e-001 -9.9732726848767284e-001
      -5.3886319301514907e-001 -2.5293761598271730e-001
      5.4740784280091526e-001 5.0672387912498271e-002
      -3.7074843349043429e-002 5.3541427494645455e-001
      -9.8967565081323716e-001 1.0024346277172786e+000
      4.0161521610523027e-002 2.7850213510968846e-002
      -4.4935903031358540e-002 3.1163189188169113e-002
      2.4481026301416423e-001 2.0483089559207937e-001
      5.3540534439343390e-001 -2.8235785347523659e-002
      4.6372007253158487e-002 2.4361203418895880e-001
      4.0313939803255219e-002 5.4800820762903280e-001
      -4.0007508928837324e-002 -2.1356419639925781e-002
      9.9330039789224711e-001 -4.6759472718162484e-002
      -4.4552165058417623e-002 -6.4665420947141938e-001
      -6.3732802188484039e-001 5.3510232972811411e-001
      -2.5224299842900946e-002 5.2650838141804324e-001
      -2.8506889456945277e-002 5.3689100560265512e-001
      -1.2970184903054158e-002 -5.5330211405759377e-001
      2.8506664322702154e-002 1.4311738688229977e-002
      5.2865242104712951e-001 -4.4103902770171455e-002
      -2.4018262543682087e-001 2.4286708840876767e-001
      -4.2350677355494498e-002 -4.3218571693464616e-002
      -2.5498286981636675e-001 -5.3954341387213656e-001
      -4.0716660792778664e-002 -5.0350421736580608e-002
      2.9121026413867390e-002 2.6491216981199645e-001
      4.4434737942776928e-002 5.2902168590397880e-001
      5.4208293760319026e-001 -5.3770377330125751e-001
      -3.8443073139228012e-002 -2.6627870565524364e-001
      -5.4815890095796393e-001 2.4884202601151637e-001
      2.2104307826325501e-002 -4.6553491685631943e-002
      -5.1910719621502621e-002 3.1172780774458907e-002
      -5.3547655320036558e-001 1.0051622516003622e+000
      4.2851873540538779e-002 5.2296388767206758e-001
      2.4267071309470137e-001 -4.7846569056014115e-002
      -9.8508532280825012e-001 -2.6641094191250753e-001
      4.4722364656264807e-002 2.5254638460206941e-001
      2.4294281418306604e-001 4.7927015649838062e-002
      2.5848007950944346e-001 2.8176692086704338e-002
      4.3302293517011162e-002 2.4788472830490868e-001
      -2.5260264846403496e-001 -2.5225404146725405e-001
      -2.9608182359260295e-002 -2.6994779139522135e-001
      3.4240117818360422e-002 4.7411336932675602e-002
      5.4619185288013250e-001 2.4667878321985190e-001
      2.0875832862937732e-001 5.4486847256778492e-001
      2.4687830961850756e-002 -2.6304299541822357e-001
      2.7283779102438849e-001 5.4378943504119026e-001
      -2.5278861106179612e-001 -6.3267944406993848e-001
      4.9444585896775542e-002 6.4000588926457891e-001
      4.7531806532263979e-002 -3.4956060675191081e-002
      -5.3890208728383604e-001 1.8906261255319995e-002
      4.1432222387576961e-002 -1.0887820060227613e-001
      4.6728720620745068e-002 4.4240214910765754e-002
      -4.3860508526508288e-002 2.6869601104067325e-001
      9.4825313251779314e-002 -4.0290497017332033e-002
      4.1560660367281593e-002 -5.4014585272819071e-001
      -9.8538308592680635e-001 5.3919974778602775e-001
      4.3089863844846282e-002 2.4964995570592227e-001
      2.6022565639264456e-001 2.6922451854577650e-001
      -2.4266909804981027e-001 3.1125668948700610e-002
      -2.5652944886108359e-001 2.0434685020498503e-002
      -3.4441170112028616e-002 2.3381162901327603e-002
      1.8941889604676340e-002 -5.4737836915041960e-001
      -9.7828410551160461e-001 -2.4446674417258767e-002
      -2.2768814480400273e-001 -1.7944903300168805e-002
      -5.5101620823402953e-001 9.9524210718347239e-001
      5.2576305577473526e-001 2.6328515454537943e-001
      -5.2686720420886046e-001 -2.8070597789154408e-002
      2.4592160398155951e-002 -5.4176029231089051e-001
      1.0003842432286625e+000 -1.0042299488692641e+000
      -4.5595536468604189e-002 -5.1423144168048829e-002
      2.6946976924802631e-002 -2.9275039868392388e-002
      -2.6150785394177811e-001 -1.9333379289749811e-001
      5.3120814166606845e-001 -2.2564401811112463e-002
      3.5476357383836296e-002 2.4507722348873281e-001
      4.4879363578952516e-002 5.3839341292466525e-001
      -2.3191055610769146e-002 -2.6543176242329963e-002
      9.9974095536013807e-001 -5.1711435563057365e-002
      -4.9912010750090594e-002 -6.3976796454826301e-001
      -6.3869684184957953e-001 5.4170131006867206e-001
      -5.3096959257428925e-002 5.3655873939772458e-001
      -3.5881616236759298e-002 5.3784481361748748e-001
      -6.8366572040358745e-004 -5.3927813149236303e-001
      4.2831583733747652e-002 -1.1797106952879111e-002
      5.2882233670401457e-001 -2.8486475314054179e-002
      -2.5680539430411536e-001 2.5860008436687526e-001
      -2.3632424275098384e-002 -3.3095172017373289e-002
      -2.5152239567142048e-001 -5.2399999357060889e-001
      -3.9516361651373746e-002 -2.4883164593388431e-002
      4.8892000847705772e-002 2.7060635353591228e-001
      2.6574642999474898e-002 5.3989867748425824e-001
      5.3128259431551594e-001 -5.4063157944449691e-001
      -1.3379945041170405e-002 -2.6313245730916140e-001
      -5.2305361345379187e-001 2.4806596277743562e-001
      1.6167546960868702e-003 -4.2683815931346902e-002
      -4.2460460765995120e-002 4.4704887554124328e-002
      -5.5092723908942343e-001 9.8914123577755597e-001
      2.3768980064569869e-002 5.2747544794629642e-001
      2.5401671873237314e-001 -2.7698037506239611e-002
      -9.9201134756653842e-001 -2.6903928578633413e-001
      2.6361476457878587e-002 2.4266507319123440e-001
      2.7082384483285643e-001 5.0955459083040291e-002
      2.4626269311955837e-001 2.4616558891416934e-002
      4.5244127238942430e-002 2.5530785898757263e-001
      -2.4659437402539738e-001 -2.5886739199804404e-001
      -4.1878343644399227e-002 -2.6459755206965024e-001
      5.1903150048950242e-002 4.6263223068423856e-002
      5.4855174170144605e-001 2.6010508880106131e-001
      2.2553540182111143e-001 5.3376611855802847e-001
      4.6360768272863659e-002 -2.4789606347795198e-001
      2.4925858549900867e-001 5.3523875319089875e-001
      -2.4856710129866608e-001 -6.3830273890297917e-001
      4.7603909826009899e-002 6.3344759268286011e-001
      2.9255165693953641e-002 -4.7446154668968482e-002
      -5.5198235791087746e-001 2.7983823535784977e-002
      5.0515950276901950e-002 -8.3672213876066215e-002
      3.2732281517676612e-002 4.8952645355160751e-002
      -2.5022434778584537e-002 2.6215923239566835e-001
      8.8984269681318451e-002 -4.6334247478347051e-002
      2.3456178253985504e-002 -5.2828731572596266e-001
      -9.8792479516215781e-001 5.4568566882859715e-001
      3.7034277211813266e-002 2.5526837596690805e-001
      2.5302553729226723e-001 2.6085901674734141e-001
      -2.4639013550856090e-001 2.7318973620689382e-002
      -2.5255254399109806e-001 6.1658964854903811e-004
      -3.8819803990207152e-002 4.8301221094445401e-002
      1.9579519521972580e-002 -5.4344315586849701e-001
      -9.7811050519384024e-001 -3.8737444614614466e-002
      -2.3087094659807567e-001 -1.9326522475576924e-002
      -5.3828233584485130e-001 9.9650613899916618e-001
      5.2419699146117693e-001 2.4032926575884925e-001
      -5.4752930467505201e-001 -3.4452781290163312e-002
      4.7703991540602966e-002 -5.2102271370945896e-001
      1.0061465308290312e+000 -9.9781451739263693e-001
      -3.1453354463379227e-002 -3.7516788595123862e-002
      3.9483430340023745e-002 -1.8565876894410333e-002
      -2.4869910271703530e-001 -1.9170677575707654e-001
      5.3958309398605120e-001 -2.7797277893956345e-002
      5.1722017522051356e-002 2.5868081679729454e-001
      2.4243009762417399e-002 5.4144638146653024e-001
      -3.6832283170199265e-002 -2.0333446997209390e-002
      9.8054186630469653e-001 -3.6380621539957025e-002
      -3.5824804581853428e-002 -6.3633119524778436e-001
      -6.3031340221893883e-001 5.2704092685532455e-001
      -3.9726465569112177e-002 5.2711000739597669e-001
      -4.0800319732405069e-002 5.3908438445547802e-001
      -2.1826105748264553e-003 -5.3305411160628446e-001
      2.6165338592942105e-002 -2.9032583184040728e-003
      5.3361965925759658e-001 -2.9081092933364274e-002
      -2.4854136449155981e-001 2.6897487398383629e-001
      -5.1703194058165092e-002 -2.7053805531465119e-002
      -2.5781124341673961e-001 -5.3663805705779954e-001
      -4.8817354637219909e-002 -4.1574046561819039e-002
      2.2966795644860937e-002 2.5471612362406409e-001
      4.3280805069148179e-002 5.4117069155126329e-001
      5.4689500029074700e-001 -5.2428088605738032e-001
      -2.4916451084497845e-002 -2.5015839774216259e-001
      -5.2759254848991788e-001 2.5537800976406905e-001
      2.5206713974836027e-002 -5.0725514459564719e-002
      -5.1445840205579380e-002 4.7706636338909827e-002
      -5.4431046940687622e-001 9.8515520549460256e-001
      4.7120149161700708e-002 5.3770321386453412e-001
      2.6480134680084538e-001 -2.6556372327969740e-002
      -9.9065008175458080e-001 -2.6870142051139639e-001
      5.1501043142248834e-002 2.5697816882945418e-001
      2.6758427763809350e-001 2.7506122682102712e-002
      2.6741206955154667e-001 3.2249050237723315e-002
      2.7905144502640557e-002 2.4410708236389220e-001
      -2.6210801231664932e-001 -2.4284136504315343e-001
      -3.5840378398687200e-002 -2.5771160988281355e-001
      2.2194800505057812e-002 2.4166915869120949e-002
      5.2137626113944147e-001 2.4054981488812474e-001
      2.0914232293064694e-001 5.4137079932168530e-001
      4.4551786463869425e-002 -2.6499974177947666e-001
      2.5524513291651002e-001 5.4134786445836602e-001
      -2.7051131726302424e-001 -6.2877799261498335e-001
      4.0031927201265194e-002 6.3329633018697684e-001
      3.5720693733924225e-002 -2.6117688471351080e-002
      -5.3988152659957289e-001 2.0795027606462901e-002
      2.5735385759349690e-002 -8.9081755231184973e-002
      4.1131899848720205e-002 2.6900692115594271e-002
      -3.2267554079337180e-002 2.4116921284523726e-001
      1.0040333757935180e-001 -2.2594541015769905e-002
      3.7261889178274776e-002 -5.4648237325728477e-001
      -1.0048065491032614e+000 5.5318023973699915e-001
      4.0661796486035989e-002 2.6569901817975816e-001
      2.5235912877718863e-001 2.6217045494791030e-001
      -2.6329853655319430e-001 5.1212266310180832e-002
      -2.4150151554332086e-001 6.1394578841685379e-004
      -3.4372517168132180e-002 3.5093421719256182e-002
      1.9975371574682238e-002 -5.3138577209158266e-001
      -9.8149609367881918e-001 -5.2084387705727056e-002
      -2.1657284873665444e-001 -2.8182776229730547e-002
      -5.3481394579764052e-001 9.9136978890537930e-001
      5.3165199668903351e-001 2.6109746221710545e-001
      -5.3606665391626318e-001 -4.0693026128654358e-002
      4.2463999867035723e-002 -5.2475452154585001e-001
      9.8595770996399457e-001 -9.8223403830896450e-001
      -2.8073382749244768e-002 -4.1210138996520401e-002
      3.9754309892726394e-002 -1.6089809711198166e-002
      -2.6803715833087577e-001 -1.9780231163223153e-001
      -5.5080979497958227e-001 3.5684386228670886e-002
      -2.3069458822220845e-002 -2.4100181400913759e-001
      -4.6687789083688910e-002 -5.3439558564637768e-001
      3.8417161428234606e-002 3.8509772805762912e-002
      -9.9121396177875098e-001 4.1512317511989652e-002
      4.4404099703764147e-002 6.5359180012042983e-001
      6.2998914371539494e-001 -5.3801908549817601e-001
      3.6838186129460743e-002 -5.2513846185707402e-001
      3.4110929548895275e-002 -5.4263019026092318e-001
      7.8316019394213850e-003 5.2324106021692740e-001
      -4.1899524636337088e-002 6.2814417053785182e-003
      -5.2538089148248401e-001 3.0391907291671485e-002
      2.6310600058651495e-001 -2.6985593948471914e-001
      5.1153379918301572e-002 2.4573072637449952e-002
      2.6140097703296533e-001 5.2879243331366610e-001
      4.7677929301242206e-002 3.8756035724885243e-002
      -4.1907683220031966e-002 -2.6118292732682852e-001
      -5.2285737562050433e-002 -5.3967416943450519e-001
      -5.2921343375318308e-001 5.5092911786372578e-001
      1.2836867569038207e-002 2.4188272506672134e-001
      5.2381678976527890e-001 -2.5869055790075374e-001
      -2.0679071089918736e-002 2.1592225655570532e-002
      3.7023642008136293e-002 -4.6604420776691038e-002
      5.3246304846767523e-001 -9.9885757055942759e-001
      -4.7701228564616893e-002 -5.2510942418846740e-001
      -2.7025128837873125e-001 4.6682544047442320e-002
      9.8240454762579743e-001 2.6486179467617094e-001
      -4.1123947446585388e-002 -2.5882247319212376e-001
      -2.4497278332360314e-001 -4.9781562997835607e-002
      -2.4689388289344497e-001 -3.5782297882001227e-002
      -5.0573434883007834e-002 -2.6435062658374819e-001
      2.4572276711588695e-001 2.5918344353735351e-001
      2.6086006954555176e-002 2.6891764432664372e-001
      -2.1824678432696958e-002 -4.9886919650223099e-002
      -5.2566101607894444e-001 -2.3980093425886115e-001
      -2.0688974743780036e-001 -5.2221916489469389e-001
      -4.2266917315578328e-002 2.5768573083839952e-001
      -2.5546485861592588e-001 -5.2500483308556112e-001
      2.6207021009931758e-001 6.3312898999310119e-001
      -4.0807902249941672e-002 -6.2559112762308500e-001
      -4.5413906201333509e-002 4.7423034129961433e-002
      5.5026561252564377e-001 -3.4036836392288078e-002
      -4.7597171687626949e-002 1.0678939185262246e-001
      -4.6985646285824106e-002 -4.8738456094739438e-002
      3.4110978571993744e-002 -2.5386426800937339e-001
      -1.0069244305103128e-001 2.4798719325917980e-002
      -4.6772759506762837e-002 5.2787476775954145e-001
      9.8083942363146948e-001 -5.5098123951550215e-001
      -1.7980223839865445e-002 -2.4204986507293277e-001
      -2.4072490062684634e-001 -2.4390295276294446e-001
      2.4844113701796985e-001 -3.5301200157418042e-002
      2.5395685491499437e-001 -2.3779855624484928e-002
      5.0109880188804731e-002 -3.9590764772893458e-002
      -3.0878676393385998e-002 5.3412185159136671e-001
      9.7951596597953450e-001 4.4585332253551088e-002
      2.2818322061007634e-001 2.4225467189818786e-002
      5.2584216431898645e-001 -9.8982303571810704e-001
      -5.4498032836067800e-001 -2.4919716186136884e-001
      5.3230888962764744e-001 3.3546533260069483e-002
      -4.1108961255247059e-002 5.4339270232454584e-001
      -9.7812869602181118e-001 9.8348216961233104e-001
      4.9141098248272452e-002 2.9772305424300895e-002
      -4.9846506997839407e-002 3.0917641608447621e-002
      2.5983272839824095e-001 2.0492922600773514e-001
      -5.2466082752224552e-001 3.9578624396499257e-002
      -4.6541130076002898e-002 -2.6317402710954513e-001
      -3.8799349562904026e-002 -5.3055327428157828e-001
      4.0297299124356367e-002 4.2659909104325544e-002
      -9.7913556632363308e-001 5.1799144011826004e-002
      2.2843003210191431e-002 6.3846625212770214e-001
      6.2917236633359375e-001 -5.2193630750395692e-001
      4.4392562517518538e-002 -5.3546210144017037e-001
      4.8847799926307958e-002 -5.3516116086049503e-001
      3.0281876007500659e-003 5.2504258388018321e-001
      -5.2361480035272190e-002 1.1033325174004960e-004
      -5.4437535481090471e-001 4.1035326825726734e-002
      2.5260751740145582e-001 -2.6293008928434730e-001
      4.1098160497227823e-002 2.1910475146684077e-002
      2.5436429977807806e-001 5.4971088312414507e-001
      4.7016463703970557e-002 2.6430098884738209e-002
      -4.6708584426614533e-002 -2.4857282942528378e-001
      -5.1057469188208623e-002 -5.3502457572602036e-001
      -5.2486028013449615e-001 5.4797015248798508e-001
      2.7713439904489615e-002 2.6156680850209307e-001
      5.3780111999014069e-001 -2.5308493681238814e-001
      -1.0820633820912810e-002 4.3956253251171973e-002
      3.3745405487417016e-002 -5.1676882199532648e-002
      5.3574227312966671e-001 -9.8873659014366222e-001
      -4.7083086822966386e-002 -5.3541922672795295e-001
      -2.6767514246536500e-001 5.2079917649230839e-002
      9.8582271518183673e-001 2.4631931833852946e-001
      -5.1450607984579316e-002 -2.4882655678256435e-001
      -2.5602170229370796e-001 -4.7764731946982053e-002
      -2.6169323154217489e-001 -2.6035957916858057e-002
      -4.8272020109092192e-002 -2.6139935922558882e-001
      2.5526824788693775e-001 2.4471925385079060e-001
      3.4181547058158096e-002 2.5937531661784657e-001
      -4.1865316084004567e-002 -4.9235125439035021e-002
      -5.4057726253754135e-001 -2.6658580424252715e-001
      -2.0589675708682598e-001 -5.4650712235209953e-001
      -5.2674859424979237e-002 2.5213484635964484e-001
      -2.5418395098071883e-001 -5.2213533374775767e-001
      2.4130111464206036e-001 6.5548317440766235e-001
      -3.4837248539532586e-002 -6.3873487446731703e-001
      -3.0117402020521596e-002 5.1236850879665660e-002
      5.4846336484763969e-001 -2.5042320053883529e-002
      -2.7650609252604121e-002 9.9494501272105157e-002
      -3.9221282050186199e-002 -3.2069191722129395e-002
      4.6442293617958569e-002 -2.4567921149391000e-001
      -8.2539227115793923e-002 2.8816590408782771e-002
      -3.7057650933177019e-002 5.4126628691394973e-001
      9.7705065992116413e-001 -5.2902600935235999e-001
      -3.6775724477052754e-002 -2.6043171724949726e-001
      -2.5730611684186738e-001 -2.5360458955791504e-001
      2.6342113955211782e-001 -3.7291316511204431e-002
      2.5959674515671488e-001 -1.9099147055925612e-002
      4.1159268042373812e-002 -3.0577153108557017e-002
      -2.0893437665808340e-002 5.2257548609410631e-001
      9.7959457362460778e-001 2.8939466331010768e-002
      2.2944040326477994e-001 2.4962958412015651e-002
      5.4232356792991132e-001 -9.8131835215745200e-001
      -5.2934997231550818e-001 -2.5301427030427731e-001
      5.3898400494944831e-001 2.7306916697587485e-002
      -3.4194202592627149e-002 5.2174779027933582e-001
      -1.0076288807643827e+000 9.7735846251506642e-001
      2.5467640134847449e-002 3.3009663378037166e-002
      -4.1315811171142247e-002 1.9238331138564518e-002
      2.5598310738547131e-001 1.8963082681729196e-001
      5.3517639161547459e-001 -5.2626789834557403e-002
      4.4320492480271437e-002 2.5584194647053876e-001
      4.2762828493924238e-002 5.2233449586510083e-001
      -1.9330222737169001e-002 -2.4148720711776345e-002
      1.0023475998176159e+000 -4.6077702152979974e-002
      -4.2905461687552104e-002 -6.2937235875786701e-001
      -6.3058994144430702e-001 5.3833653823246586e-001
      -4.4215091684444138e-002 5.2486013604979553e-001
      -4.4339536949921432e-002 5.4527558168386903e-001
      -1.7543449754848717e-002 -5.2726194616730748e-001
      2.7690941871879923e-002 1.8213439036588591e-003
      5.4918764570914402e-001 -4.4364554609710144e-002
      -2.5212252926225248e-001 2.6954975377082463e-001
      -4.3669272124757449e-002 -4.5342894169539627e-002
      -2.7184999651059377e-001 -5.3042211967077735e-001
      -4.8729473433044443e-002 -5.0525145358292889e-002
      4.4238280922437173e-002 2.5525480402660528e-001
      4.4184888838324554e-002 5.4803749455066320e-001
      5.2420529582398900e-001 -5.3271685158313975e-001
      -4.3184868165616938e-002 -2.4881422011634288e-001
      -5.4687372657228062e-001 2.5511382464718135e-001
      -3.1834790511326531e-003 -5.0814727599171730e-002
      -3.5250324906826419e-002 4.2989967350797298e-002
      -5.3663010446153792e-001 1.0072005203144208e+000
      4.4583513938629818e-002 5.3939369144461258e-001
      2.5896499686491264e-001 -5.3193602372829246e-002
      -9.9690582517790627e-001 -2.4128075998527390e-001
      2.2376360671855413e-002 2.4744560728044354e-001
      2.6398932325676788e-001 4.8715364325674484e-002
      2.6681816020890703e-001 4.8671694575636942e-002
      4.1629865332415444e-002 2.6965077685856093e-001
      -2.4947125935130507e-001 -2.6757722837181402e-001
      -5.2984570241765783e-002 -2.5622296975853137e-001
      3.1789931420317843e-002 3.9354653240947501e-002
      5.2213185937262518e-001 2.4640569151146760e-001
      2.2259579924453060e-001 5.3169938908397851e-001
      4.1253532665623829e-002 -2.6739852652929824e-001
      2.4823509930099105e-001 5.3497862460936885e-001
      -2.5250183000377363e-001 -6.5445852326493359e-001
      2.3770248609066038e-002 6.4859101345680359e-001
      4.7507758506522349e-002 -4.0316870030291482e-002
      -5.5069988350814603e-001 4.0862232602990767e-002
      4.7857851322077899e-002 -9.7417950683496235e-002
      5.0821786947233161e-002 4.4763938987350468e-002
      -4.9702754615330219e-002 2.4943644405139984e-001
      8.1479708620389640e-002 -3.3092407565735796e-002
      4.7071557378730616e-002 -5.3523120508601740e-001
      -9.9812538648687421e-001 5.2179464152309807e-001
      4.2853624841304755e-002 2.6390628779776465e-001
      2.5184877313733706e-001 2.4899013153216817e-001
      -2.6977704077598241e-001 4.2225374284995579e-002
      -2.4225394545990261e-001 1.2138375119306728e-002
      -4.2501950720708545e-002 5.0884949326047660e-002
      4.0452886751447897e-002 -5.3384350273027226e-001
      -1.0012776164987021e+000 -3.4021110279312899e-002
      -2.1011272881812126e-001 -2.3998427380461415e-002
      -5.2237836557630835e-001 9.9931678324468010e-001
      5.3419425816396171e-001 2.3938640890198856e-001
      -5.2360652270717634e-001 -4.6343184652351987e-002
      2.9322843573226714e-002 -5.3535704900472758e-001
      1.0001511927110545e+000 -9.8289267148306336e-001
      -2.5274617428773152e-002 -2.8877665584877931e-002
      5.1234015228870319e-002 -2.3771716681131302e-002
      -2.5754912329227703e-001 -1.8229915238254743e-001
      5.5029149363291696e-001 -4.2907359134612355e-002
      3.3557500360634165e-002 2.6182446335848569e-001
      2.3896751661621026e-002 5.4120375409985799e-001
      -3.8177690122766950e-002 -2.5764935468581662e-002
      9.9866552637927875e-001 -4.9286398745138862e-002
      -3.1146870620991442e-002 -6.4575202244456709e-001
      -6.3473632548343761e-001 5.3031348233704612e-001
      -3.6101906062486727e-002 5.4963919415451301e-001
      -4.3357712976351465e-002 5.4773117577348895e-001
      -1.6619799586731269e-002 -5.2042264581471187e-001
      4.3420419972725111e-002 4.4699492858164824e-004
      5.5142409059827568e-001 -3.1039567078732341e-002
      -2.5232248711787741e-001 2.5069850723882453e-001
      -3.4928973012478173e-002 -4.2392532541258895e-002
      -2.7178168278499787e-001 -5.4790941725391262e-001
      -2.9840520811644077e-002 -4.3986380233244457e-002
      3.5716716940857249e-002 2.5356048163817102e-001
      4.6885225539828421e-002 5.2482417381214808e-001
      5.4800546222635538e-001 -5.4815707928503221e-001
      -3.2377396063009115e-002 -2.5923849925500125e-001
      -5.4732472339723315e-001 2.4239110077036277e-001
      1.6819016286679440e-002 -3.2616008212722425e-002
      -5.0591778944412150e-002 3.3497633507792224e-002
      -5.2239769932032321e-001 9.8410832820702476e-001
      3.5214868121943882e-002 5.5070753807309258e-001
      2.4148551439047952e-001 -2.8478539896554269e-002
      -9.8219039393439611e-001 -2.6451674645723972e-001
      2.3732647163266393e-002 2.5076756486752932e-001
      2.4982388796966168e-001 5.1653005300270186e-002
      2.4647743794556773e-001 4.7578472881668388e-002
      4.7998298210356311e-002 2.4969762665872094e-001
      -2.4746701545546387e-001 -2.4311799342661453e-001
      -3.6574378753720424e-002 -2.6638141012826860e-001
      5.0165499829208524e-002 4.4012280030854070e-002
      5.4508522081922506e-001 2.4039722846133996e-001
      2.2054662932175967e-001 5.3095045181709832e-001
      2.5949462743545839e-002 -2.5634772897580288e-001
      2.6250353540627885e-001 5.2787433714696841e-001
      -2.4831103485228098e-001 -6.5347536505416082e-001
      5.1864137537524307e-002 6.3608561138927311e-001
      3.1951372581217274e-002 -3.7162166314387540e-002
      -5.4412595751679049e-001 3.5723818451202358e-002
      4.9276330728578593e-002 -1.0067062317613248e-001
      2.4659696672487057e-002 2.7373700372820341e-002
      -4.6267297612807845e-002 2.4618033811488069e-001
      1.1228135658674390e-001 -4.2173150278987617e-002
      3.2741853709433749e-002 -5.2528045705286797e-001
      -9.7887750352985259e-001 5.2506362704350495e-001
      3.5237312859801834e-002 2.5469347898532541e-001
      2.7251864379815527e-001 2.4459786506274209e-001
      -2.4185948182352110e-001 3.9659561400630677e-002
      -2.4361929124442658e-001 1.9611019582480606e-003
      -5.2039131948069403e-002 4.1111863625774153e-002
      2.8109345908980871e-002 -5.3622413794595236e-001
      -1.0058164526704818e+000 -2.7976044046137748e-002
      -2.1674235013553006e-001 -2.6745767194438191e-002
      -5.3257968995928329e-001 9.8547615980843906e-001
      5.3002748426475910e-001 2.4807534709067577e-001
      -5.2541873631102620e-001 -4.7227084117495488e-002
      3.7693807262248136e-002 -5.4492419891089161e-001
      9.7816997517355442e-001 -1.0039130797216047e+000
      -4.6103216129921104e-002 -4.8099814656220097e-002
      2.9373241969690666e-002 -2.5207032999641887e-002
      -2.4490902862619698e-001 -1.9146381885795097e-001
      -5.2854112892541349e-001 4.3854945958690383e-002
      -5.2108176110090651e-002 -2.5625942447294520e-001
      -3.4959287855714893e-002 -5.3105621748611209e-001
      2.1542073013455690e-002 3.9855839748731345e-002
      -9.9240220314176841e-001 3.9977784980354050e-002
      3.2869477751879567e-002 6.5531417997200236e-001
      6.4782045087058671e-001 -5.3111473024319811e-001
      2.1820386172644906e-002 -5.4916068673740714e-001
      4.4343374668760260e-002 -5.4533367878426031e-001
      -8.9077845341268766e-004 5.5108924728987030e-001
      -3.8689963113932274e-002 -1.3068888550296642e-004
      -5.2549713878954307e-001 2.6984097241200957e-002
      2.4842419110208444e-001 -2.5188917199725958e-001
      3.2584848521181847e-002 4.9749660040624172e-002
      2.4144723695694079e-001 5.2582516757637499e-001
      5.1819565767921905e-002 4.8275680680222588e-002
      -4.5030281035032510e-002 -2.6732087687022654e-001
      -3.3779440626500845e-002 -5.2318763856162553e-001
      -5.2705694502595424e-001 5.3319667091598388e-001
      4.6011225816905713e-002 2.4688640327809017e-001
      5.4188713620807849e-001 -2.4214243746943306e-001
      5.4139356317500428e-004 2.8455383407790674e-002
      4.0675275777272007e-002 -4.7902886913813919e-002
      5.2336303568980824e-001 -9.9430206727301162e-001
      -3.6919679292814520e-002 -5.4421859620020574e-001
      -2.5914288230843158e-001 4.8947766440913504e-002
      1.0042045897940914e+000 2.4977823985625466e-001
      -4.8095344152521480e-002 -2.4109218284103731e-001
      -2.5634433969332043e-001 -4.2505240275046666e-002
      -2.5871369660448668e-001 -4.7607679948689835e-002
      -5.1215718419872103e-002 -2.6498746429309311e-001
      2.4053375710925826e-001 2.5547104565716977e-001
      3.7167520011478244e-002 2.4276217507240536e-001
      -5.2737372763431128e-002 -2.9768036368598493e-002
      -5.2734648229370540e-001 -2.6058731854070788e-001
      -2.2509159383771904e-001 -5.5076354087983537e-001
      -4.5526431299629591e-002 2.5434131478023009e-001
      -2.5161323530261986e-001 -5.2244295233827509e-001
      2.4983096989335327e-001 6.3390106704013749e-001
      -4.3666869904289030e-002 -6.4623011235585104e-001
      -4.5498726409291340e-002 4.1335973356803155e-002
      5.4946346958242609e-001 -3.6084852125337782e-002
      -3.9736078159669633e-002 8.8817343902314938e-002
      -2.9563197223900922e-002 -4.4088074491537871e-002
      5.0850199157776041e-002 -2.5069706613896586e-001
      -8.9074760833926764e-002 5.1867013745596047e-002
      -4.3273046162844858e-002 5.3090472865194194e-001
      9.9821867224066341e-001 -5.4716270937830003e-001
      -4.1911200973841545e-002 -2.6747378963662732e-001
      -2.6800565266868176e-001 -2.5662879501471209e-001
      2.5230149706695276e-001 -3.9978487064721999e-002
      2.5697741854159956e-001 -1.1135411982975952e-002
      3.0116042470866602e-002 -3.9010244947795383e-002
      -3.0665314906170221e-002 5.3983476194831548e-001
      9.7715802128446716e-001 2.7637661527332279e-002
      2.1468997855240082e-001 2.5832464755089074e-002
      5.4697360069170353e-001 -9.9934511262094383e-001
      -5.2507195305648513e-001 -2.6258945627149882e-001
      5.3814538573986592e-001 4.6892947382346048e-002
      -5.0570412549853547e-002 5.2487521665423909e-001
      -9.9254439126580363e-001 9.9236617393888871e-001
      4.9513394082070589e-002 3.4449280180688727e-002
      -3.5532338467884200e-002 4.3157762011775416e-002
      2.4543598469872621e-001 1.8847065745906452e-001
      5.5011499889062521e-001 -4.5639866412313268e-002
      3.0165014142714230e-002 2.5099862177327020e-001
      5.0652631999120692e-002 5.2671620634723992e-001
      -1.7124561603572286e-002 -3.4839093263303797e-002
      9.8888269529682915e-001 -3.4132883810296125e-002
      -2.8780948035057079e-002 -6.3291289590552391e-001
      -6.2748433540979254e-001 5.5141311385342684e-001
      -2.7018213009250874e-002 5.3088737520092100e-001
      -2.4914222185063683e-002 5.2673052752607341e-001
      -1.2434836845509088e-002 -5.3620900891435297e-001
      3.0898138077437739e-002 7.8050189418026050e-003
      5.3277063097256350e-001 -3.0189248042330846e-002
      -2.4582160347433060e-001 2.4808679900598749e-001
      -3.3064262528614052e-002 -2.8947860551623721e-002
      -2.7115786043370477e-001 -5.2281621332982209e-001
      -2.7225050030494993e-002 -4.9472261663206507e-002
      3.9709204262210293e-002 2.6730653676607080e-001
      3.4285993431636130e-002 5.4876420907782131e-001
      5.2211056805633527e-001 -5.4455885977441632e-001
      -3.3433752462316599e-002 -2.7075648031595728e-001
      -5.3746014066916037e-001 2.5527439861864459e-001
      1.3053095225552484e-002 -2.8807950535638848e-002
      -2.4306492616539398e-002 4.9093100629634054e-002
      -5.5235682471863012e-001 9.9087274152857274e-001
      3.7351115069266222e-002 5.3786089353296929e-001
      2.6420042090789514e-001 -3.2371275406729169e-002
      -9.8634980479795997e-001 -2.5068846700724523e-001
      3.5152200861862798e-002 2.5656442849276601e-001
      2.4742905871230833e-001 3.1924413840502722e-002
      2.4877823923861922e-001 4.1573346449190973e-002
      4.4477363063567810e-002 2.4992817249826990e-001
      -2.7088316908865695e-001 -2.6601524282493844e-001
      -2.3366704606819912e-002 -2.6301082188431701e-001
      4.3455909568057241e-002 4.9437323856712109e-002
      5.4217521501113608e-001 2.4227983593356126e-001
      2.3182440659110076e-001 5.5113426042189595e-001
      5.2475405392032354e-002 -2.4671951793041433e-001
      2.7280771617650418e-001 5.5157439164719047e-001
      -2.5764279904177673e-001 -6.3979831451728697e-001
      5.1524127302682049e-002 6.2898891384209543e-001
      3.7202811276046827e-002 -3.6960522386373609e-002
      -5.2798694635684074e-001 3.4396377027131247e-002
      4.2545425503848447e-002 -1.0208350980538311e-001
      4.3141264033544818e-002 4.4717956594981262e-002
      -3.0071308577087546e-002 2.6530307751562693e-001
      9.0438316173396677e-002 -4.7470141064605287e-002
      4.9553875020602212e-002 -5.2248623428287522e-001
      -9.8866625794122098e-001 5.2657036312328875e-001
      2.7357337941092963e-002 2.6902698515987072e-001
      2.5730686069132663e-001 2.4852148493420220e-001
      -2.5231757790329196e-001 4.3345621242895802e-002
      -2.6587317154632600e-001 -1.4153464352398525e-003
      -4.5115331666304825e-002 2.4768275226983934e-002
      3.4730187223248207e-002 -5.3169792927625048e-001
      -9.8141578610918490e-001 -5.0339941186702569e-002
      -2.1167255617778818e-001 -3.8764726698536978e-002
      -5.4532744574871339e-001 9.8695736676595214e-001
      5.3038389050750245e-001 2.4653772500792334e-001
      -5.4911491443601157e-001 -5.2870925120483678e-002
      4.7043001671518578e-002 -5.4471125990261837e-001
      9.9586037019360851e-001 -9.9594504111450610e-001
      -2.5723391438792927e-002 -2.3593935400295665e-002
      5.0191277634028128e-002 -2.6416504017966025e-002
      -2.4379339203815817e-001 -1.8933165369058816e-001
      5.4149706695196320e-001 -4.1100761268898708e-002
      5.2304755780315321e-002 2.6968488455116529e-001
      4.8951942060234593e-002 5.4314462018787557e-001
      -2.1982022243329402e-002 -3.5893096234689711e-002
      9.9799153691718356e-001 -4.0475308663572934e-002
      -4.3762266455162846e-002 -6.4093778318452033e-001
      -6.4114122247107019e-001 5.4414308064278205e-001
      -3.3602609353918941e-002 5.2945146971106927e-001
      -4.8634772876663207e-002 5.3662224290823346e-001
      -2.1573368655767120e-002 -5.4309560825657943e-001
      4.4684468954990952e-002 1.2355308093359441e-002
      5.3834421598905924e-001 -3.3756532426701583e-002
      -2.4110833801714779e-001 2.6598945994256262e-001
      -2.4228362098683991e-002 -4.3580108366671255e-002
      -2.6428102342399779e-001 -5.2519839990267636e-001
      -3.0188926170930160e-002 -5.1639778502136330e-002
      5.1493386417515469e-002 2.6746555278667455e-001
      4.4066689696814265e-002 5.4139206499624126e-001
      5.3849925088831208e-001 -5.2006320581654597e-001
      -4.0433470934467475e-002 -2.6139825753576679e-001
      -5.5092365439544677e-001 2.5929578411014270e-001
      1.4667044130452101e-002 -5.1268625587777963e-002
      -3.5304988993411446e-002 4.8982605332314744e-002
      -5.2191217139896917e-001 9.9044773413326659e-001
      2.8740435712755068e-002 5.2330169739025800e-001
      2.4329765268722522e-001 -4.6315793696259974e-002
      -1.0081217107201184e+000 -2.4351007514952558e-001
      3.0418814458013210e-002 2.5256921264650695e-001
      2.4479525278109973e-001 2.6412063901055421e-002
      2.4722852636440620e-001 5.2196648971444395e-002
      3.6406748507232412e-002 2.5085991491014753e-001
      -2.6570670139620350e-001 -2.6135429153338235e-001
      -2.3360329008853539e-002 -2.6016809543343561e-001
      2.0746039534780169e-002 3.5807648874975589e-002
      5.3699568667880559e-001 2.6883079707985719e-001
      2.1664304034165471e-001 5.5233294242096409e-001
      3.8337496455645950e-002 -2.4346619281577406e-001
      2.5873773263608818e-001 5.2975596678319559e-001
      -2.4168932657191020e-001 -6.4914542198887459e-001
      5.0860428342197422e-002 6.5033008674157322e-001
      4.5632574003610316e-002 -3.2347961369916550e-002
      -5.2373856044007761e-001 4.1128876141688489e-002
      2.3778190281019889e-002 -9.5840709845137789e-002
      2.9225347904097001e-002 4.9337126729950595e-002
      -4.7671988414176691e-002 2.5445465785146365e-001
      8.1497721322471767e-002 -2.6180015012329052e-002
      4.9187641903362889e-002 -5.3431991142192192e-001
      -1.0027538358579982e+000 5.2820046088855466e-001
      2.7749215392108700e-002 2.6792458275212222e-001
      2.4401805778660521e-001 2.6528682365359829e-001
      -2.6819771422559208e-001 4.8572423115925814e-002
      -2.6558295152859152e-001 2.5696409992458469e-002
      -2.3312719812612428e-002 5.1982687134216859e-002
      3.5902023304134098e-002 -5.2908469570307171e-001
      -9.9565212429784544e-001 -4.2264237119032363e-002
      -2.0531605526180990e-001 -2.9436543654615635e-002
      -5.4415331083691609e-001 9.8529548360765318e-001
      5.3683547519329089e-001 2.7026587243460487e-001
      -5.2284107809891145e-001 -2.3669270690283486e-002
      2.7075185986274560e-002 -5.4205210853505537e-001
      1.0011434410036473e+000 -1.0019886876377415e+000
      -4.6260264211049659e-002 -4.8484802015476947e-002
      4.3175597370345431e-002 -2.7226314266500948e-002
      -2.5143309658090518e-001 -1.9772400553922223e-001
      -5.2426417397941572e-001 3.6549433298769474e-002
      -3.9552203208193415e-002 -2.4414447143782778e-001
      -4.7696220540974804e-002 -5.2467165291089080e-001
      2.5504093762578728e-002 4.0435617063100684e-002
      -9.8369686786888133e-001 4.8837160808763228e-002
      2.2218709409179273e-002 6.4241350437319122e-001
      6.2485703820055771e-001 -5.2585982908829054e-001
      5.3554425276355150e-002 -5.2823176361114366e-001
      4.1672677995094484e-002 -5.2343860404514109e-001
      2.2792560109685823e-002 5.3377673829571470e-001
